{"learner":{"attributes":{},"feature_names":[],"feature_types":[],"gradient_booster":{"model":{"cats":{"enc":[],"feature_segments":[],"sorted_idx":[]},"gbtree_model_param":{"num_parallel_tree":"1","num_trees":"65"},"iteration_indptr":[0,1,2,3,4,5,6,7,8,9,10,11,12,13,14,15,16,17,18,19,20,21,22,23,24,25,26,27,28,29,30,31,32,33,34,35,36,37,38,39,40,41,42,43,44,45,46,47,48,49,50,51,52,53,54,55,56,57,58,59,60,61,62,63,64,65],"tree_info":[0,0,0,0,0,0,0,0,0,0,0,0,0,0,0,0,0,0,0,0,0,0,0,0,0,0,0,0,0,0,0,0,0,0,0,0,0,0,0,0,0,0,0,0,0,0,0,0,0,0,0,0,0,0,0,0,0,0,0,0,0,0,0,0,0],"trees":[{"base_weights":[1.465E0,-1.95625E0,1.0133333E0,6.2857145E-1,-1.0075E0,-6.625E-1,1.7875001E-1,-1.3333333E-2,-1.0750001E-1],"categories":[],"categories_nodes":[],"categories_segments":[],"categories_sizes":[],"default_left":[0,0,0,0,0,0,0,0,0],"id":0,"left_children":[1,3,-1,5,-1,7,-1,-1,-1],"loss_changes":[3.172064E2,1.7516165E2,0E0,1.1770535E1,0E0,6.0895824E-1,0E0,0E0,0E0],"parents":[2147483647,0,0,1,1,3,3,5,5],"right_children":[2,4,-1,6,-1,8,-1,-1,-1],"split_conditions":[1E0,5E-1,1.0133333E0,7.811321E-1,-1.0075E0,2.1428572E-1,1.7875001E-1,-1.3333333E-2,-1.0750001E-1],"split_indices":[6,5,0,20,0,3,0,0,0],"split_type":[0,0,0,0,0,0,0,0,0],"sum_hessian":[9E0,7E0,2E0,6E0,1E0,3E0,3E0,2E0,1E0],"tree_param":{"num_deleted":"0","num_feature":"59","num_nodes":"9","size_leaf_vector":"1"}},{"base_weights":[-1.5574393E0,1.3567375E0,-9.57125E-1,-1.2444255E-2,2.1534382E-1],"categories":[],"categories_nodes":[],"categories_segments":[],"categories_sizes":[],"default_left":[0,0,0,0,0],"id":1,"left_children":[1,3,-1,-1,-1],"loss_changes":[1.7728275E2,7.551223E0,0E0,0E0,0E0],"parents":[2147483647,0,0,1,1],"right_children":[2,4,-1,-1,-1],"split_conditions":[5E-1,5.9393483E-1,-9.57125E-1,-1.2444255E-2,2.1534382E-1],"split_indices":[5,22,0,0,0],"split_type":[0,0,0,0,0],"sum_hessian":[6E0,5E0,1E0,2E0,3E0],"tree_param":{"num_deleted":"0","num_feature":"59","num_nodes":"5","size_leaf_vector":"1"}},{"base_weights":[2.316985E0,1.1154577E0,-2.4713082E0,6.515057E-1,-9.0926886E-1,-4.1809285E-1,1.5372692E-1,-5.1502913E-2,-6.211014E-3],"categories":[],"categories_nodes":[],"categories_segments":[],"categories_sizes":[],"default_left":[0,0,0,0,0,0,0,0,0],"id":2,"left_children":[1,-1,3,5,-1,7,-1,-1,-1],"loss_changes":[3.6697055E2,0E0,1.3083209E2,5.491695E0,0E0,1.382041E-2,0E0,0E0,0E0],"parents":[2147483647,0,0,2,2,3,3,5,5],"right_children":[2,-1,4,6,-1,8,-1,-1,-1],"split_conditions":[9.5634095E-2,1.1154577E0,7.2727275E-1,4.2411643E-1,-9.0926886E-1,1.4E-1,1.5372692E-1,-5.1502913E-2,-6.211014E-3],"split_indices":[21,0,13,21,0,2,0,0,0],"split_type":[0,0,0,0,0,0,0,0,0],"sum_hessian":[7E0,2E0,5E0,4E0,1E0,2E0,2E0,1E0,1E0],"tree_param":{"num_deleted":"0","num_feature":"59","num_nodes":"9","size_leaf_vector":"1"}},{"base_weights":[-1.1012962E0,-6.6905313E0,1.041094E0,-1.103184E0,1.294723E0,2.0510896E-1,-5.9004975E-3],"categories":[],"categories_nodes":[],"categories_segments":[],"categories_sizes":[],"default_left":[0,0,0,0,0,0,0],"id":3,"left_children":[1,3,-1,-1,5,-1,-1],"loss_changes":[5.8403937E2,2.2325555E2,0E0,0E0,3.3919754E0,0E0,0E0],"parents":[2147483647,0,0,1,1,4,4],"right_children":[2,4,-1,-1,6,-1,-1],"split_conditions":[4.2857143E-1,2.9166666E-1,1.041094E0,-1.103184E0,7.916667E-1,2.0510896E-1,-5.9004975E-3],"split_indices":[3,0,0,0,0,0,0],"split_type":[0,0,0,0,0,0,0],"sum_hessian":[7E0,5E0,2E0,3E0,2E0,1E0,1E0],"tree_param":{"num_deleted":"0","num_feature":"59","num_nodes":"7","size_leaf_vector":"1"}},{"base_weights":[7.030046E-2,-8.086459E-1,2.1132028E0,5.2034885E-1,1.9919306E-1,-4.524971E-1,1.03504896E-1,-5.326253E-2,-5.6056213E-3],"categories":[],"categories_nodes":[],"categories_segments":[],"categories_sizes":[],"default_left":[0,0,0,0,0,0,0,0,0],"id":4,"left_children":[1,-1,3,-1,5,7,-1,-1,-1],"loss_changes":[1.6646217E2,0E0,4.5741924E1,0E0,3.7949262E0,3.8339317E-2,0E0,0E0,0E0],"parents":[2147483647,0,0,2,2,4,4,5,5],"right_children":[2,-1,4,-1,6,8,-1,-1,-1],"split_conditions":[1.25E-1,-8.086459E-1,5E-1,5.2034885E-1,5.051975E-1,5.416667E-1,1.03504896E-1,-5.326253E-2,-5.6056213E-3],"split_indices":[0,0,6,0,21,0,0,0,0],"split_type":[0,0,0,0,0,0,0,0,0],"sum_hessian":[8E0,1E0,7E0,2E0,5E0,3E0,2E0,2E0,1E0],"tree_param":{"num_deleted":"0","num_feature":"59","num_nodes":"9","size_leaf_vector":"1"}},{"base_weights":[1.8000147E0,-2.6101465E0,7.990253E0,-7.6821357E-1,-3.9321594E-2,9.2823327E-1,2.0070069E-1,-3.8935548E-1,2.9048616E-1,-4.807808E-2,-5.325241E-3,-0E0,3.9678115E-2],"categories":[],"categories_nodes":[],"categories_segments":[],"categories_sizes":[],"default_left":[0,0,0,0,0,0,0,0,0,0,0,0,0],"id":5,"left_children":[1,3,5,-1,7,-1,-1,9,11,-1,-1,-1,-1],"loss_changes":[2.6709326E2,7.716095E1,1.1164688E1,0E0,7.002087E-1,0E0,0E0,1.3178915E-2,6.1723948E-2,0E0,0E0,0E0,0E0],"parents":[2147483647,0,0,1,1,2,2,4,4,7,7,8,8],"right_children":[2,4,6,-1,8,-1,-1,10,12,-1,-1,-1,-1],"split_conditions":[4.7916666E-1,1.25E-1,2.4E-1,-7.6821357E-1,2.1428572E-1,9.2823327E-1,2.0070069E-1,2.5E-1,2.9166666E-1,-4.807808E-2,-5.325241E-3,-0E0,3.9678115E-2],"split_indices":[41,0,2,0,3,0,0,0,0,0,0,0,0],"split_type":[0,0,0,0,0,0,0,0,0,0,0,0,0],"sum_hessian":[8E0,5E0,3E0,1E0,4E0,2E0,1E0,2E0,2E0,1E0,1E0,1E0,1E0],"tree_param":{"num_deleted":"0","num_feature":"59","num_nodes":"13","size_leaf_vector":"1"}},{"base_weights":[-3.3167708E-1,-5.2783084E0,5.650616E0,-7.7611282E-3,-7.886642E-1,8.6635125E-1,7.2084755E-1,-5.0589754E-3,-0E0,-4.5674056E-2,1.588012E-1],"categories":[],"categories_nodes":[],"categories_segments":[],"categories_sizes":[],"default_left":[0,0,0,0,0,0,0,0,0,0,0],"id":6,"left_children":[1,3,5,7,-1,-1,9,-1,-1,-1,-1],"loss_changes":[3.2571045E2,8.163342E1,6.708092E1,4.9379403E-3,0E0,0E0,3.9019241E0,0E0,0E0,0E0,0E0],"parents":[2147483647,0,0,1,1,2,2,3,3,6,6],"right_children":[2,4,6,8,-1,-1,10,-1,-1,-1,-1],"split_conditions":[5.084746E-1,7.2043014E-1,7.2043014E-1,4.1025642E-1,-7.886642E-1,8.6635125E-1,1.02564104E-1,-5.0589754E-3,-0E0,-4.5674056E-2,1.588012E-1],"split_indices":[49,18,18,4,0,0,4,0,0,0,0],"split_type":[0,0,0,0,0,0,0,0,0,0,0],"sum_hessian":[9E0,5E0,4E0,2E0,3E0,2E0,2E0,1E0,1E0,1E0,1E0],"tree_param":{"num_deleted":"0","num_feature":"59","num_nodes":"11","size_leaf_vector":"1"}},{"base_weights":[-1.767822E0,-8.227134E-1,3.4936175E0,4.7235307E-1,-4.806061E-3],"categories":[],"categories_nodes":[],"categories_segments":[],"categories_sizes":[],"default_left":[0,0,0,0,0],"id":7,"left_children":[1,-1,3,-1,-1],"loss_changes":[2.3312749E2,0E0,1.8118385E1,0E0,0E0],"parents":[2147483647,0,0,2,2],"right_children":[2,-1,4,-1,-1],"split_conditions":[1.5384616E-1,-8.227134E-1,6.8E-1,4.7235307E-1,-4.806061E-3],"split_indices":[12,0,2,0,0],"split_type":[0,0,0,0,0],"sum_hessian":[5E0,2E0,3E0,2E0,1E0],"tree_param":{"num_deleted":"0","num_feature":"59","num_nodes":"5","size_leaf_vector":"1"}},{"base_weights":[7.956286E-1,8.6370116E-1,-2.4800503E0,-6.4923394E-1,1.2110672E-1,-1.6192323E-2,5.3509828E-2],"categories":[],"categories_nodes":[],"categories_segments":[],"categories_sizes":[],"default_left":[0,0,0,0,0,0,0],"id":8,"left_children":[1,-1,3,-1,5,-1,-1],"loss_changes":[1.7615103E2,0E0,5.360636E1,0E0,5.9265035E-1,0E0,0E0],"parents":[2147483647,0,0,2,2,4,4],"right_children":[2,-1,4,-1,6,-1,-1],"split_conditions":[7.4074075E-2,8.6370116E-1,3.3333334E-1,-6.4923394E-1,6.462264E-1,-1.6192323E-2,5.3509828E-2],"split_indices":[1,0,1,0,20,0,0],"split_type":[0,0,0,0,0,0,0],"sum_hessian":[5E0,1E0,4E0,1E0,3E0,2E0,1E0],"tree_param":{"num_deleted":"0","num_feature":"59","num_nodes":"7","size_leaf_vector":"1"}},{"base_weights":[1.3867991E0,-1.3058597E0,9.035842E-1,-5.289329E-1,1.5507632E0,-9.186325E-2,3.257344E-1,-0E0,-1.51130175E-2],"categories":[],"categories_nodes":[],"categories_segments":[],"categories_sizes":[],"default_left":[0,0,0,0,0,0,0,0,0],"id":9,"left_children":[1,3,-1,-1,5,7,-1,-1,-1],"loss_changes":[2.3913144E2,1.10989784E2,0E0,0E0,1.7435429E1,3.476556E-2,0E0,0E0,0E0],"parents":[2147483647,0,0,1,1,4,4,5,5],"right_children":[2,4,-1,-1,6,8,-1,-1,-1],"split_conditions":[9.964331E-1,3.7057748E-1,9.035842E-1,-5.289329E-1,5.3846157E-1,1.4285715E-1,3.257344E-1,-0E0,-1.51130175E-2],"split_indices":[34,22,0,0,12,3,0,0,0],"split_type":[0,0,0,0,0,0,0,0,0],"sum_hessian":[1E1,8E0,2E0,3E0,5E0,3E0,2E0,1E0,2E0],"tree_param":{"num_deleted":"0","num_feature":"59","num_nodes":"9","size_leaf_vector":"1"}},{"base_weights":[-1.5063651E0,-7.8201156E0,2.3024018E0,-8.951354E-1,-2.1631996E-1,2.7128038E0,-3.0005646E-3,3.2381773E-1,-0E0],"categories":[],"categories_nodes":[],"categories_segments":[],"categories_sizes":[],"default_left":[0,0,0,0,0,0,0,0,0],"id":10,"left_children":[1,3,5,-1,-1,7,-1,-1,-1],"loss_changes":[2.5903287E2,5.122284E0,7.050247E0,0E0,0E0,8.2731285E0,0E0,0E0,0E0],"parents":[2147483647,0,0,1,1,2,2,5,5],"right_children":[2,4,6,-1,-1,8,-1,-1,-1],"split_conditions":[5.241692E-1,4.074074E-1,1E0,-8.951354E-1,-2.1631996E-1,5.5555556E-2,-3.0005646E-3,3.2381773E-1,-0E0],"split_indices":[29,1,0,0,0,19,0,0,0],"split_type":[0,0,0,0,0,0,0,0,0],"sum_hessian":[9E0,3E0,6E0,2E0,1E0,5E0,1E0,4E0,1E0],"tree_param":{"num_deleted":"0","num_feature":"59","num_nodes":"9","size_leaf_vector":"1"}},{"base_weights":[1.7009795E0,4.690919E0,-6.805852E-1,7.982868E-1,1.0991757E0,7.0039876E-2,1.7285864E-1,-2.8506469E-3,1.8356629E-2],"categories":[],"categories_nodes":[],"categories_segments":[],"categories_sizes":[],"default_left":[0,0,0,0,0,0,0,0,0],"id":11,"left_children":[1,3,-1,-1,5,7,-1,-1,-1],"loss_changes":[2.8606326E2,8.49079E1,0E0,0E0,2.9378128E0,5.430165E-2,0E0,0E0,0E0],"parents":[2147483647,0,0,1,1,4,4,5,5],"right_children":[2,4,-1,-1,6,8,-1,-1,-1],"split_conditions":[7.2727275E-1,3.846154E-1,-6.805852E-1,7.982868E-1,7.419355E-1,2.1428572E-1,1.7285864E-1,-2.8506469E-3,1.8356629E-2],"split_indices":[13,21,0,0,18,3,0,0,0],"split_type":[0,0,0,0,0,0,0,0,0],"sum_hessian":[9E0,7E0,2E0,3E0,4E0,2E0,2E0,1E0,1E0],"tree_param":{"num_deleted":"0","num_feature":"59","num_nodes":"9","size_leaf_vector":"1"}},{"base_weights":[-4.886702E0,-2.2524413E-1,-8.301485E-1,-1.2578844E-1,5.049306E-1,8.344757E-2,-2.7079773E-3],"categories":[],"categories_nodes":[],"categories_segments":[],"categories_sizes":[],"default_left":[0,0,0,0,0,0,0],"id":12,"left_children":[1,3,-1,-1,5,-1,-1],"loss_changes":[1.0870253E2,3.7264702E0,0E0,0E0,6.2930125E-1,0E0,0E0],"parents":[2147483647,0,0,1,1,4,4],"right_children":[2,4,-1,-1,6,-1,-1],"split_conditions":[5.5555556E-2,2.5E-1,-8.301485E-1,-1.2578844E-1,7.916667E-1,8.344757E-2,-2.7079773E-3],"split_indices":[19,0,0,0,0,0,0],"split_type":[0,0,0,0,0,0,0],"sum_hessian":[6E0,3E0,3E0,1E0,2E0,1E0,1E0],"tree_param":{"num_deleted":"0","num_feature":"59","num_nodes":"7","size_leaf_vector":"1"}},{"base_weights":[3.81094E-1,-5.7986957E-1,2.989419E0,5.1582867E-1,1.0702145E0,1.6392466E-1,1.5864329E-1,3.2161254E-2,-2.5725556E-3],"categories":[],"categories_nodes":[],"categories_segments":[],"categories_sizes":[],"default_left":[0,0,0,0,0,0,0,0,0],"id":13,"left_children":[1,-1,3,-1,5,7,-1,-1,-1],"loss_changes":[1.6212389E2,0E0,2.2994183E1,0E0,1.9041262E0,1.2757897E-1,0E0,0E0,0E0],"parents":[2147483647,0,0,2,2,4,4,5,5],"right_children":[2,-1,4,-1,6,8,-1,-1,-1],"split_conditions":[1.6666667E-1,-5.7986957E-1,3.9326808E-1,5.1582867E-1,7.811321E-1,5.416667E-1,1.5864329E-1,3.2161254E-2,-2.5725556E-3],"split_indices":[0,0,22,0,20,0,0,0,0],"split_type":[0,0,0,0,0,0,0,0,0],"sum_hessian":[8E0,2E0,6E0,2E0,4E0,2E0,2E0,1E0,1E0],"tree_param":{"num_deleted":"0","num_feature":"59","num_nodes":"9","size_leaf_vector":"1"}},{"base_weights":[-2.6130865E0,-4.0601763E-1,1.5406239E-1,3.055336E-2,-2.4440002E-3],"categories":[],"categories_nodes":[],"categories_segments":[],"categories_sizes":[],"default_left":[0,0,0,0,0],"id":14,"left_children":[1,-1,3,-1,-1],"loss_changes":[2.5042011E1,0E0,1.16690524E-1,0E0,0E0],"parents":[2147483647,0,0,2,2],"right_children":[2,-1,4,-1,-1],"split_conditions":[3.7057748E-1,-4.0601763E-1,5.416667E-1,3.055336E-2,-2.4440002E-3],"split_indices":[22,0,0,0,0],"split_type":[0,0,0,0,0],"sum_hessian":[5E0,3E0,2E0,1E0,1E0],"tree_param":{"num_deleted":"0","num_feature":"59","num_nodes":"5","size_leaf_vector":"1"}},{"base_weights":[1.687126E0,5.844201E0,-2.7344701E0,1.1630193E0,7.8690374E-1,-4.6541572E-1,7.032695E-2,1.8177484E-1,-2.32193E-3],"categories":[],"categories_nodes":[],"categories_segments":[],"categories_sizes":[],"default_left":[0,0,0,0,0,0,0,0,0],"id":15,"left_children":[1,3,5,7,-1,-1,-1,-1,-1],"loss_changes":[2.1848175E2,4.681671E1,4.3264523E1,2.5516539E0,0E0,0E0,0E0,0E0,0E0],"parents":[2147483647,0,0,1,1,2,2,3,3],"right_children":[2,4,6,8,-1,-1,-1,-1,-1],"split_conditions":[7.2043014E-1,4.3010753E-1,1.6666667E-1,1.25E-1,7.8690374E-1,-4.6541572E-1,7.032695E-2,1.8177484E-1,-2.32193E-3],"split_indices":[18,18,0,0,0,0,0,0,0],"split_type":[0,0,0,0,0,0,0,0,0],"sum_hessian":[1E1,5E0,5E0,2E0,3E0,3E0,2E0,1E0,1E0],"tree_param":{"num_deleted":"0","num_feature":"59","num_nodes":"9","size_leaf_vector":"1"}},{"base_weights":[1.952028E0,-1.4916875E0,8.222117E-1,-3.524121E-1,3.8055953E-1,-4.0834248E-1,1.423633E-1,-5.404541E-2,-2.205963E-3],"categories":[],"categories_nodes":[],"categories_segments":[],"categories_sizes":[],"default_left":[0,0,0,0,0,0,0,0,0],"id":16,"left_children":[1,3,-1,-1,5,7,-1,-1,-1],"loss_changes":[1.856771E2,2.4486805E1,0E0,0E0,3.974389E0,8.4923804E-2,0E0,0E0,0E0],"parents":[2147483647,0,0,1,1,4,4,5,5],"right_children":[2,4,-1,-1,6,8,-1,-1,-1],"split_conditions":[4.2857143E-1,2.5E-1,8.222117E-1,-3.524121E-1,7E-1,2.9166666E-1,1.423633E-1,-5.404541E-2,-2.205963E-3],"split_indices":[3,0,0,0,2,0,0,0,0],"split_type":[0,0,0,0,0,0,0,0,0],"sum_hessian":[7E0,5E0,2E0,2E0,3E0,2E0,1E0,1E0,1E0],"tree_param":{"num_deleted":"0","num_feature":"59","num_nodes":"9","size_leaf_vector":"1"}},{"base_weights":[-5.634554E-1,-4.604928E0,7.673975E-1,-7.0250106E-1,1.23491414E-1,2.561943E-2,-2.0957184E-3],"categories":[],"categories_nodes":[],"categories_segments":[],"categories_sizes":[],"default_left":[0,0,0,0,0,0,0],"id":17,"left_children":[1,3,-1,-1,5,-1,-1],"loss_changes":[3.01362E2,7.0216675E1,0E0,0E0,8.639906E-2,0E0,0E0],"parents":[2147483647,0,0,1,1,4,4],"right_children":[2,4,-1,-1,6,-1,-1],"split_conditions":[9.964331E-1,2.9166666E-1,7.673975E-1,-7.0250106E-1,5.416667E-1,2.561943E-2,-2.0957184E-3],"split_indices":[34,0,0,0,0,0,0],"split_type":[0,0,0,0,0,0,0],"sum_hessian":[7E0,5E0,2E0,3E0,2E0,1E0,1E0],"tree_param":{"num_deleted":"0","num_feature":"59","num_nodes":"7","size_leaf_vector":"1"}},{"base_weights":[-7.120902E-1,-3.807569E-1,1.4535774E0,3.264595E-1,2.4385421E-1,-0E0,6.81636E-2,-0E0,-1.9908142E-3],"categories":[],"categories_nodes":[],"categories_segments":[],"categories_sizes":[],"default_left":[0,0,0,0,0,0,0,0,0],"id":18,"left_children":[1,-1,3,5,-1,7,-1,-1,-1],"loss_changes":[6.6104004E1,0E0,5.5884447E0,5.029522E-1,0E0,7.926682E-4,0E0,0E0,0E0],"parents":[2147483647,0,0,2,2,3,3,5,5],"right_children":[2,-1,4,6,-1,8,-1,-1,-1],"split_conditions":[2.4948025E-1,-3.807569E-1,6.7948717E-1,5.1282054E-1,2.4385421E-1,6.8E-1,6.81636E-2,-0E0,-1.9908142E-3],"split_indices":[21,0,16,4,0,2,0,0,0],"split_type":[0,0,0,0,0,0,0,0,0],"sum_hessian":[8E0,3E0,5E0,3E0,2E0,2E0,1E0,1E0,1E0],"tree_param":{"num_deleted":"0","num_feature":"59","num_nodes":"9","size_leaf_vector":"1"}},{"base_weights":[3.2035837E0,-2.2171652E0,5.835316E0,-3.2568353E-1,-1.8912506E-3,2.275975E-1,7.416219E-1],"categories":[],"categories_nodes":[],"categories_segments":[],"categories_sizes":[],"default_left":[0,0,0,0,0,0,0],"id":19,"left_children":[1,3,5,-1,-1,-1,-1],"loss_changes":[1.1316141E2,6.467203E0,1.0286514E1,0E0,0E0,0E0,0E0],"parents":[2147483647,0,0,1,1,2,2],"right_children":[2,4,6,-1,-1,-1,-1],"split_conditions":[4.1698113E-1,1.25E-1,5.1282054E-1,-3.2568353E-1,-1.8912506E-3,2.275975E-1,7.416219E-1],"split_indices":[20,0,4,0,0,0,0],"split_type":[0,0,0,0,0,0,0],"sum_hessian":[6E0,2E0,4E0,1E0,1E0,2E0,2E0],"tree_param":{"num_deleted":"0","num_feature":"59","num_nodes":"7","size_leaf_vector":"1"}},{"base_weights":[1.025582E0,-2.463844E0,3.7791734E0,-4.0126896E-1,-6.0383608E-3,5.476558E-1,2.2293548E-1,7.6591485E-4,2.7674407E-2],"categories":[],"categories_nodes":[],"categories_segments":[],"categories_sizes":[],"default_left":[0,0,0,0,0,0,0,0,0],"id":20,"left_children":[1,3,5,-1,-1,-1,7,-1,-1],"loss_changes":[1.0552736E2,1.7963339E1,3.4426964E1,0E0,0E0,0E0,4.191205E-3,0E0,0E0],"parents":[2147483647,0,0,1,1,2,2,6,6],"right_children":[2,4,6,-1,-1,-1,8,-1,-1],"split_conditions":[4.1432306E-1,5.2E-1,2.7889273E-1,-4.0126896E-1,-6.0383608E-3,5.476558E-1,2.6E-1,7.6591485E-4,2.7674407E-2],"split_indices":[57,2,30,0,0,0,2,0,0],"split_type":[0,0,0,0,0,0,0,0,0],"sum_hessian":[9E0,4E0,5E0,2E0,2E0,3E0,2E0,1E0,1E0],"tree_param":{"num_deleted":"0","num_feature":"59","num_nodes":"9","size_leaf_vector":"1"}},{"base_weights":[-2.9318845E0,-4.6580988E-1,-5.8730257E-1,-1.135111E-1,1.276184E-1,-0E0,2.6290817E-2,7.277679E-4,-1.4949035E-3],"categories":[],"categories_nodes":[],"categories_segments":[],"categories_sizes":[],"default_left":[0,0,0,0,0,0,0,0,0],"id":21,"left_children":[1,3,-1,-1,5,7,-1,-1,-1],"loss_changes":[6.1908066E1,2.6287036E0,0E0,0E0,7.3095575E-2,5.528765E-4,0E0,0E0,0E0],"parents":[2147483647,0,0,1,1,4,4,5,5],"right_children":[2,4,-1,-1,6,8,-1,-1,-1],"split_conditions":[5.9790734E-2,2.3492724E-1,-5.8730257E-1,-1.135111E-1,2.1428572E-1,2.6E-1,2.6290817E-2,7.277679E-4,-1.4949035E-3],"split_indices":[35,21,0,0,3,2,0,0,0],"split_type":[0,0,0,0,0,0,0,0,0],"sum_hessian":[8E0,5E0,3E0,2E0,3E0,2E0,1E0,1E0,1E0],"tree_param":{"num_deleted":"0","num_feature":"59","num_nodes":"9","size_leaf_vector":"1"}},{"base_weights":[-1.8002164E0,-6.158096E-1,1.8932472E0,3.933433E-1,-6.462555E-3],"categories":[],"categories_nodes":[],"categories_segments":[],"categories_sizes":[],"default_left":[0,0,0,0,0],"id":22,"left_children":[1,-1,3,-1,-1],"loss_changes":[1.086593E2,0E0,1.6618774E1,0E0,0E0],"parents":[2147483647,0,0,2,2],"right_children":[2,-1,4,-1,-1],"split_conditions":[2.9166666E-1,-6.158096E-1,1E-1,3.933433E-1,-6.462555E-3],"split_indices":[0,0,2,0,0],"split_type":[0,0,0,0,0],"sum_hessian":[5E0,2E0,3E0,1E0,2E0],"tree_param":{"num_deleted":"0","num_feature":"59","num_nodes":"5","size_leaf_vector":"1"}},{"base_weights":[-5.368445E-1,7.2212857E-1,-2.212335E0,-5.3720945E-1,2.4622701E-1,-4.8582038E-1,1.1735479E0,-8.311646E-2,-6.0317484E-3,1.457328E-1,2.5299376E-2],"categories":[],"categories_nodes":[],"categories_segments":[],"categories_sizes":[],"default_left":[0,0,0,0,0,0,0,0,0,0,0],"id":23,"left_children":[1,-1,3,-1,5,7,9,-1,-1,-1,-1],"loss_changes":[1.4546176E2,0E0,7.175153E1,0E0,4.7119627E0,4.4849783E-1,2.4397802E-1,0E0,0E0,0E0,0E0],"parents":[2147483647,0,0,2,2,4,4,5,5,6,6],"right_children":[2,-1,4,-1,6,8,10,-1,-1,-1,-1],"split_conditions":[4.1666668E-2,7.2212857E-1,9.381059E-1,-5.3720945E-1,4.7916666E-1,1.6666667E-1,6.25E-1,-8.311646E-2,-6.0317484E-3,1.457328E-1,2.5299376E-2],"split_indices":[0,0,36,0,41,0,0,0,0,0,0],"split_type":[0,0,0,0,0,0,0,0,0,0,0],"sum_hessian":[9E0,1E0,8E0,3E0,5E0,3E0,2E0,1E0,2E0,1E0,1E0],"tree_param":{"num_deleted":"0","num_feature":"59","num_nodes":"11","size_leaf_vector":"1"}},{"base_weights":[-8.045845E-2,-1.9085383E-1,8.3032453E-1,-5.6294254E-3,1.3127075E0,1.3163757E-3,1.7081676E-1],"categories":[],"categories_nodes":[],"categories_segments":[],"categories_sizes":[],"default_left":[0,0,0,0,0,0,0],"id":24,"left_children":[1,-1,3,-1,5,-1,-1],"loss_changes":[1.50124E1,0E0,2.765678E0,0E0,1.8610506E0,0E0,0E0],"parents":[2147483647,0,0,2,2,4,4],"right_children":[2,-1,4,-1,6,-1,-1],"split_conditions":[1.6666667E-1,-1.9085383E-1,6.3452363E-1,-5.6294254E-3,5.416667E-1,1.3163757E-3,1.7081676E-1],"split_indices":[0,0,33,0,0,0,0],"split_type":[0,0,0,0,0,0,0],"sum_hessian":[7E0,2E0,5E0,2E0,3E0,1E0,2E0],"tree_param":{"num_deleted":"0","num_feature":"59","num_nodes":"7","size_leaf_vector":"1"}},{"base_weights":[1.4515978E-1,1.6947093E0,-1.0282923E0,2.0620835E-1,4.2998046E-2,-1.9277738E-1,-5.254059E-3],"categories":[],"categories_nodes":[],"categories_segments":[],"categories_sizes":[],"default_left":[0,0,0,0,0,0,0],"id":25,"left_children":[1,3,5,-1,-1,-1,-1],"loss_changes":[1.271923E1,2.5802422E-1,3.2113643E0,0E0,0E0,0E0,0E0],"parents":[2147483647,0,0,1,1,2,2],"right_children":[2,4,6,-1,-1,-1,-1],"split_conditions":[2.5E-1,1.25E-1,1.25E-1,2.0620835E-1,4.2998046E-2,-1.9277738E-1,-5.254059E-3],"split_indices":[24,0,0,0,0,0,0],"split_type":[0,0,0,0,0,0,0],"sum_hessian":[5E0,2E0,3E0,1E0,1E0,1E0,2E0],"tree_param":{"num_deleted":"0","num_feature":"59","num_nodes":"7","size_leaf_vector":"1"}},{"base_weights":[2.3111454E-1,2.6549926E0,-1.4066566E0,-2.5093072E-4,3.5749966E-1,7.0792335E-1,-2.6659274E-1,1.02088094E-1,-0E0],"categories":[],"categories_nodes":[],"categories_segments":[],"categories_sizes":[],"default_left":[0,0,0,0,0,0,0,0,0],"id":26,"left_children":[1,3,5,-1,-1,7,-1,-1,-1],"loss_changes":[3.9587315E1,1.0145868E1,1.8060047E1,0E0,0E0,5.8092904E-1,0E0,0E0,0E0],"parents":[2147483647,0,0,1,1,2,2,5,5],"right_children":[2,4,6,-1,-1,8,-1,-1,-1],"split_conditions":[7.2043014E-1,4.1025642E-1,3.0769232E-1,-2.5093072E-4,3.5749966E-1,2.5E-1,-2.6659274E-1,1.02088094E-1,-0E0],"split_indices":[18,4,4,0,0,7,0,0,0],"split_type":[0,0,0,0,0,0,0,0,0],"sum_hessian":[8E0,3E0,5E0,1E0,2E0,2E0,3E0,1E0,1E0],"tree_param":{"num_deleted":"0","num_feature":"59","num_nodes":"9","size_leaf_vector":"1"}},{"base_weights":[1.6937064E0,6.87329E-1,3.43387E-1,1.160971E0,-9.4383585E-1,1.8667114E-1,3.1642303E-1,-1.698089E-1,-9.305522E-3,1.2252044E-3,3.8039602E-2],"categories":[],"categories_nodes":[],"categories_segments":[],"categories_sizes":[],"default_left":[0,0,0,0,0,0,0,0,0,0,0],"id":27,"left_children":[1,-1,3,5,7,-1,9,-1,-1,-1,-1],"loss_changes":[6.6859055E1,0E0,1.0589195E1,2.7672062E0,2.2296846E0,0E0,3.390944E-2,0E0,0E0,0E0,0E0],"parents":[2147483647,0,0,2,2,3,3,4,4,6,6],"right_children":[2,-1,4,6,8,-1,10,-1,-1,-1,-1],"split_conditions":[7.4074075E-2,6.87329E-1,5E-1,1.534091E-1,3.3333334E-1,1.8667114E-1,2.857143E-1,-1.698089E-1,-9.305522E-3,1.2252044E-3,3.8039602E-2],"split_indices":[1,0,24,17,1,0,3,0,0,0,0],"split_type":[0,0,0,0,0,0,0,0,0,0,0],"sum_hessian":[9E0,1E0,8E0,5E0,3E0,2E0,3E0,1E0,2E0,1E0,2E0],"tree_param":{"num_deleted":"0","num_feature":"59","num_nodes":"11","size_leaf_vector":"1"}},{"base_weights":[-4.8889992E-1,2.8039312E-1,-2.1542838E-1,1.6868965E-1,-2.1850687E-1,-4.732127E-1,2.1492E-3,-5.7727356E-2,-8.254548E-3,3.4685263E-3,-0E0],"categories":[],"categories_nodes":[],"categories_segments":[],"categories_sizes":[],"default_left":[0,0,0,0,0,0,0,0,0,0,0],"id":28,"left_children":[1,3,-1,-1,5,7,9,-1,-1,-1,-1],"loss_changes":[1.2321948E1,5.427369E0,0E0,0E0,3.8533774E-1,8.326292E-3,3.5907258E-3,0E0,0E0,0E0,0E0],"parents":[2147483647,0,0,1,1,4,4,5,5,6,6],"right_children":[2,4,-1,-1,6,8,10,-1,-1,-1,-1],"split_conditions":[1.1111111E-1,1.25E-1,-2.1542838E-1,1.6868965E-1,2.5E-1,1.6666667E-1,5.416667E-1,-5.7727356E-2,-8.254548E-3,3.4685263E-3,-0E0],"split_indices":[19,0,0,0,0,0,0,0,0,0,0],"split_type":[0,0,0,0,0,0,0,0,0,0,0],"sum_hessian":[8E0,6E0,2E0,1E0,5E0,2E0,3E0,1E0,1E0,2E0,1E0],"tree_param":{"num_deleted":"0","num_feature":"59","num_nodes":"11","size_leaf_vector":"1"}},{"base_weights":[1.3293622E0,-8.4080946E-1,2.819627E0,-1.5054715E-1,-8.409831E-3,3.3636126E-1,2.7184218E-2],"categories":[],"categories_nodes":[],"categories_segments":[],"categories_sizes":[],"default_left":[0,0,0,0,0,0,0],"id":29,"left_children":[1,3,5,-1,-1,-1,-1],"loss_changes":[2.8441696E1,1.7262638E0,5.6518745E0,0E0,0E0,0E0,0E0],"parents":[2147483647,0,0,1,1,2,2],"right_children":[2,4,6,-1,-1,-1,-1],"split_conditions":[4.1666666E-1,1.25E-1,6.25E-1,-1.5054715E-1,-8.409831E-3,3.3636126E-1,2.7184218E-2],"split_indices":[41,0,0,0,0,0,0],"split_type":[0,0,0,0,0,0,0],"sum_hessian":[7E0,3E0,4E0,1E0,2E0,3E0,1E0],"tree_param":{"num_deleted":"0","num_feature":"59","num_nodes":"7","size_leaf_vector":"1"}},{"base_weights":[-2.3190928E0,-5.1468296E0,3.5648307E-1,-1.430198E-1,-6.2400466E-1,-7.8493245E-3,8.80706E-2],"categories":[],"categories_nodes":[],"categories_segments":[],"categories_sizes":[],"default_left":[0,0,0,0,0,0,0],"id":30,"left_children":[1,3,5,-1,-1,-1,-1],"loss_changes":[4.770874E1,2.497734E0,1.061449E0,0E0,0E0,0E0,0E0],"parents":[2147483647,0,0,1,1,2,2],"right_children":[2,4,6,-1,-1,-1,-1],"split_conditions":[4.074074E-1,3.3333334E-1,1E0,-1.430198E-1,-6.2400466E-1,-7.8493245E-3,8.80706E-2],"split_indices":[1,1,1,0,0,0,0],"split_type":[0,0,0,0,0,0,0],"sum_hessian":[5E0,2E0,3E0,1E0,1E0,2E0,1E0],"tree_param":{"num_deleted":"0","num_feature":"59","num_nodes":"7","size_leaf_vector":"1"}},{"base_weights":[1.6833495E-2,-1.9073889E-1,1.1880002E0,1.755363E-1,1.9130401E-1,3.2655638E-2,-0E0],"categories":[],"categories_nodes":[],"categories_segments":[],"categories_sizes":[],"default_left":[0,0,0,0,0,0,0],"id":31,"left_children":[1,-1,3,-1,5,-1,-1],"loss_changes":[1.7969133E1,0E0,2.296967E0,0E0,1.03486486E-1,0E0,0E0],"parents":[2147483647,0,0,2,2,4,4],"right_children":[2,-1,4,-1,6,-1,-1],"split_conditions":[1.1366701E-1,-1.9073889E-1,3.0769232E-1,1.755363E-1,5.555556E-1,3.2655638E-2,-0E0],"split_indices":[43,0,12,0,1,0,0],"split_type":[0,0,0,0,0,0,0],"sum_hessian":[6E0,2E0,4E0,2E0,2E0,1E0,1E0],"tree_param":{"num_deleted":"0","num_feature":"59","num_nodes":"7","size_leaf_vector":"1"}},{"base_weights":[-3.3730268E-1,6.452899E-1,-1.6716127E0,-5.252654E-1,-5.9443694E-1,-1.7802285E-1,7.332807E-2,8.6659186E-2,-3.9729583E-1,-1.152855E-2,-7.126686E-2],"categories":[],"categories_nodes":[],"categories_segments":[],"categories_sizes":[],"default_left":[0,0,0,0,0,0,0,0,0,0,0],"id":32,"left_children":[1,-1,3,5,-1,-1,7,-1,9,-1,-1],"loss_changes":[1.0997121E2,0E0,4.5211296E1,7.0621448E0,0E0,0E0,3.0045254E0,0E0,2.797361E-1,0E0,0E0],"parents":[2147483647,0,0,2,2,3,3,6,6,8,8],"right_children":[2,-1,4,6,-1,-1,8,-1,10,-1,-1],"split_conditions":[7.692308E-2,6.452899E-1,6.923077E-1,1.5384616E-1,-5.9443694E-1,-1.7802285E-1,3.934139E-1,8.6659186E-2,2.857143E-1,-1.152855E-2,-7.126686E-2],"split_indices":[12,0,12,12,0,0,44,0,3,0,0],"split_type":[0,0,0,0,0,0,0,0,0,0,0],"sum_hessian":[1E1,1E0,9E0,8E0,1E0,2E0,6E0,2E0,4E0,3E0,1E0],"tree_param":{"num_deleted":"0","num_feature":"59","num_nodes":"11","size_leaf_vector":"1"}},{"base_weights":[1.246798E-1,-3.7992463E0,2.3633976E0,-1.2675612E-1,-5.647151E-1,5.1970214E-1,1.7054413E-1,1.1894933E-1,-8.7191975E-1,-1.2740433E-1,-0E0],"categories":[],"categories_nodes":[],"categories_segments":[],"categories_sizes":[],"default_left":[0,0,0,0,0,0,0,0,0,0,0],"id":33,"left_children":[1,3,5,-1,-1,-1,7,-1,9,-1,-1],"loss_changes":[9.668119E1,1.0863674E1,4.207296E1,0E0,0E0,0E0,6.3799887E0,0E0,9.656403E-1,0E0,0E0],"parents":[2147483647,0,0,1,1,2,2,6,6,8,8],"right_children":[2,4,6,-1,-1,-1,8,-1,10,-1,-1],"split_conditions":[5.241692E-1,6.8E-1,4.074074E-1,-1.2675612E-1,-5.647151E-1,5.1970214E-1,5E-1,1.1894933E-1,9.62963E-1,-1.2740433E-1,-0E0],"split_indices":[29,2,1,0,0,0,10,0,1,0,0],"split_type":[0,0,0,0,0,0,0,0,0,0,0],"sum_hessian":[9E0,3E0,6E0,2E0,1E0,2E0,4E0,2E0,2E0,1E0,1E0],"tree_param":{"num_deleted":"0","num_feature":"59","num_nodes":"11","size_leaf_vector":"1"}},{"base_weights":[-2.4251755E-1,-1.1109288E-1,2.2731742E-1,-0E0,4.9991913E-2],"categories":[],"categories_nodes":[],"categories_segments":[],"categories_sizes":[],"default_left":[0,0,0,0,0],"id":34,"left_children":[1,-1,3,-1,-1],"loss_changes":[2.3809445E0,0E0,2.9314542E-1,0E0,0E0],"parents":[2147483647,0,0,2,2],"right_children":[2,-1,4,-1,-1],"split_conditions":[1.25E-1,-1.1109288E-1,2.1428572E-1,-0E0,4.9991913E-2],"split_indices":[0,0,3,0,0],"split_type":[0,0,0,0,0],"sum_hessian":[4E0,1E0,3E0,2E0,1E0],"tree_param":{"num_deleted":"0","num_feature":"59","num_nodes":"5","size_leaf_vector":"1"}},{"base_weights":[4.358896E-1,-5.4407245E-1,4.1877928E-1,1.1027867E0,-1.7727453E-1,1.4929397E-1,-0E0],"categories":[],"categories_nodes":[],"categories_segments":[],"categories_sizes":[],"default_left":[0,0,0,0,0,0,0],"id":35,"left_children":[1,3,-1,5,-1,-1,-1],"loss_changes":[3.5733337E1,1.8209562E1,0E0,1.8220539E0,0E0,0E0,0E0],"parents":[2147483647,0,0,1,1,3,3],"right_children":[2,4,-1,6,-1,-1,-1],"split_conditions":[8.333333E-1,5.5555556E-2,4.1877928E-1,1E0,-1.7727453E-1,1.4929397E-1,-0E0],"split_indices":[27,19,0,0,0,0,0],"split_type":[0,0,0,0,0,0,0],"sum_hessian":[8E0,7E0,1E0,3E0,4E0,2E0,1E0],"tree_param":{"num_deleted":"0","num_feature":"59","num_nodes":"7","size_leaf_vector":"1"}},{"base_weights":[1.9150355E0,-3.9295283E-1,6.6953295E-1,-1.2727829E0,5.6011546E-1,-1.5203954E-1,-2.149727E-2,7.693782E-2,-0E0],"categories":[],"categories_nodes":[],"categories_segments":[],"categories_sizes":[],"default_left":[0,0,0,0,0,0,0,0,0],"id":36,"left_children":[1,3,-1,5,7,-1,-1,-1,-1],"loss_changes":[1.0255695E2,6.653939E0,0E0,5.47328E-1,5.209111E-1,0E0,0E0,0E0,0E0],"parents":[2147483647,0,0,1,1,3,3,4,4],"right_children":[2,4,-1,6,8,-1,-1,-1,-1],"split_conditions":[4.2857143E-1,2.5E-1,6.6953295E-1,1.6666667E-1,1E0,-1.5203954E-1,-2.149727E-2,7.693782E-2,-0E0],"split_indices":[3,0,0,0,0,0,0,0,0],"split_type":[0,0,0,0,0,0,0,0,0],"sum_hessian":[8E0,6E0,2E0,3E0,3E0,2E0,1E0,2E0,1E0],"tree_param":{"num_deleted":"0","num_feature":"59","num_nodes":"9","size_leaf_vector":"1"}},{"base_weights":[1.7840108E0,5.745562E-1,5.679824E-1,1.3152875E-1,-4.6999702E-1,-8.907273E-2,-0E0],"categories":[],"categories_nodes":[],"categories_segments":[],"categories_sizes":[],"default_left":[0,0,0,0,0,0,0],"id":37,"left_children":[1,3,-1,-1,5,-1,-1],"loss_changes":[3.8517467E1,6.8925757E0,0E0,0E0,7.032012E-1,0E0,0E0],"parents":[2147483647,0,0,1,1,4,4],"right_children":[2,4,-1,-1,6,-1,-1],"split_conditions":[4.2857143E-1,3.9204547E-1,5.679824E-1,1.3152875E-1,1.4285715E-1,-8.907273E-2,-0E0],"split_indices":[3,17,0,0,3,0,0],"split_type":[0,0,0,0,0,0,0],"sum_hessian":[8E0,7E0,1E0,4E0,3E0,1E0,2E0],"tree_param":{"num_deleted":"0","num_feature":"59","num_nodes":"7","size_leaf_vector":"1"}},{"base_weights":[-1.606123E0,-4.0235978E-1,-5.5681145E-1,8.29393E-1,-1.32729E0,1.1284149E-1,-0E0,-1.6513973E-1,-0E0],"categories":[],"categories_nodes":[],"categories_segments":[],"categories_sizes":[],"default_left":[0,0,0,0,0,0,0,0,0],"id":38,"left_children":[1,3,-1,5,7,-1,-1,-1,-1],"loss_changes":[4.0086266E1,1.0264918E1,0E0,1.0683897E0,2.0999575E0,0E0,0E0,0E0,0E0],"parents":[2147483647,0,0,1,1,3,3,4,4],"right_children":[2,4,-1,6,8,-1,-1,-1,-1],"split_conditions":[7E-1,2.027972E-1,-5.5681145E-1,7.916667E-1,1.6666667E-1,1.1284149E-1,-0E0,-1.6513973E-1,-0E0],"split_indices":[2,13,0,0,0,0,0,0,0],"split_type":[0,0,0,0,0,0,0,0,0],"sum_hessian":[8E0,7E0,1E0,3E0,4E0,2E0,1E0,3E0,1E0],"tree_param":{"num_deleted":"0","num_feature":"59","num_nodes":"9","size_leaf_vector":"1"}},{"base_weights":[1.3220546E0,-1.1832756E0,5.925364E-1,-1.8667552E-1,-1.6099069E-1,-0E0,-2.4617692E-2],"categories":[],"categories_nodes":[],"categories_segments":[],"categories_sizes":[],"default_left":[0,0,0,0,0,0,0],"id":39,"left_children":[1,3,-1,5,-1,-1,-1],"loss_changes":[9.9748024E1,2.0708952E0,0E0,1.6662896E-2,0E0,0E0,0E0],"parents":[2147483647,0,0,1,1,3,3],"right_children":[2,4,-1,6,-1,-1,-1],"split_conditions":[4.2857143E-1,5.5555556E-2,5.925364E-1,2.1428572E-1,-1.6099069E-1,-0E0,-2.4617692E-2],"split_indices":[3,19,0,3,0,0,0],"split_type":[0,0,0,0,0,0,0],"sum_hessian":[7E0,5E0,2E0,2E0,3E0,1E0,1E0],"tree_param":{"num_deleted":"0","num_feature":"59","num_nodes":"7","size_leaf_vector":"1"}},{"base_weights":[3.8714206E-1,2.0309186E0,-5.579718E-1,2.943898E-1,4.0763295E-1,-1.4041417E0,3.7979248E-1,-0E0,6.452858E-2,-2.6998824E-2,-1.595183E-1,-2.3386689E-2,6.1667407E-1,3.4515373E-4,7.8659765E-2],"categories":[],"categories_nodes":[],"categories_segments":[],"categories_sizes":[],"default_left":[0,0,0,0,0,0,0,0,0,0,0,0,0,0,0],"id":40,"left_children":[1,3,5,-1,7,9,11,-1,-1,-1,-1,-1,13,-1,-1],"loss_changes":[2.1476715E1,5.8749485E0,7.7772884E0,0E0,3.3429363E-1,4.6615314E-1,9.093233E-1,0E0,0E0,0E0,0E0,0E0,3.350842E-1,0E0,0E0],"parents":[2147483647,0,0,1,1,2,2,4,4,5,5,6,6,12,12],"right_children":[2,4,6,-1,8,10,12,-1,-1,-1,-1,-1,14,-1,-1],"split_conditions":[7.2043014E-1,2.5E-1,6.5943396E-1,2.943898E-1,2.1428572E-1,7.1428575E-2,7.419355E-1,-0E0,6.452858E-2,-2.6998824E-2,-1.595183E-1,-2.3386689E-2,6.111111E-1,3.4515373E-4,7.8659765E-2],"split_indices":[18,7,20,0,3,3,18,0,0,0,0,0,11,0,0],"split_type":[0,0,0,0,0,0,0,0,0,0,0,0,0,0,0],"sum_hessian":[1.2E1,4E0,8E0,2E0,2E0,4E0,4E0,1E0,1E0,1E0,3E0,1E0,3E0,1E0,2E0],"tree_param":{"num_deleted":"0","num_feature":"59","num_nodes":"15","size_leaf_vector":"1"}},{"base_weights":[-1.0731313E0,-3.6076503E0,1.1491101E0,-5.2092165E-1,-1.3040563E-1,2.916183E-1,-0E0,-1.7067413E-1,2.1260377E-2,-2.2217484E-2,-0E0],"categories":[],"categories_nodes":[],"categories_segments":[],"categories_sizes":[],"default_left":[0,0,0,0,0,0,0,0,0,0,0],"id":41,"left_children":[1,3,5,-1,-1,-1,7,9,-1,-1,-1],"loss_changes":[4.944995E1,7.312992E0,1.0405973E1,0E0,0E0,0E0,1.777897E-1,1.133433E-2,0E0,0E0,0E0],"parents":[2147483647,0,0,1,1,2,2,6,6,7,7],"right_children":[2,4,6,-1,-1,-1,8,10,-1,-1,-1],"split_conditions":[5.241692E-1,2.5E-1,1.7948718E-1,-5.2092165E-1,-1.3040563E-1,2.916183E-1,6.923077E-1,2.5E-1,2.1260377E-2,-2.2217484E-2,-0E0],"split_indices":[29,5,16,0,0,0,12,5,0,0,0],"split_type":[0,0,0,0,0,0,0,0,0,0,0],"sum_hessian":[7E0,3E0,4E0,1E0,2E0,1E0,3E0,2E0,1E0,1E0,1E0],"tree_param":{"num_deleted":"0","num_feature":"59","num_nodes":"11","size_leaf_vector":"1"}},{"base_weights":[-4.6879253E-1,5.149867E-1,-1.5556452E0,-4.9487564E-1,-6.176599E-1,-0E0,-1.1022023E0,1.7757365E-2,-1.935496E-1,-1.3422419E-1,-2.1022034E-3,-2.5648803E-2,-0E0],"categories":[],"categories_nodes":[],"categories_segments":[],"categories_sizes":[],"default_left":[0,0,0,0,0,0,0,0,0,0,0,0,0],"id":42,"left_children":[1,-1,3,-1,5,7,9,-1,11,-1,-1,-1,-1],"loss_changes":[7.482516E1,0E0,2.8213593E1,0E0,2.6407158E0,2.0698154E-1,1.1330872E0,0E0,1.918789E-2,0E0,0E0,0E0,0E0],"parents":[2147483647,0,0,2,2,4,4,5,5,6,6,8,8],"right_children":[2,-1,4,-1,6,8,10,-1,12,-1,-1,-1,-1],"split_conditions":[4.1666668E-2,5.149867E-1,1.2539185E-2,-4.9487564E-1,5.9790734E-2,5E-1,6.1538464E-1,1.7757365E-2,2.5E-1,-1.3422419E-1,-2.1022034E-3,-2.5648803E-2,-0E0],"split_indices":[0,0,29,0,35,24,4,0,0,0,0,0,0],"split_type":[0,0,0,0,0,0,0,0,0,0,0,0,0],"sum_hessian":[1E1,1E0,9E0,1E0,8E0,4E0,4E0,2E0,2E0,3E0,1E0,1E0,1E0],"tree_param":{"num_deleted":"0","num_feature":"59","num_nodes":"13","size_leaf_vector":"1"}},{"base_weights":[-2.923646E-1,-1.1107243E0,5.644681E-1,-2.4366302E-2,-1.2415739E-1,1.14639975E-1,1.07385255E-1,1.6573792E-2,-0E0],"categories":[],"categories_nodes":[],"categories_segments":[],"categories_sizes":[],"default_left":[0,0,0,0,0,0,0,0,0],"id":43,"left_children":[1,3,5,-1,-1,-1,7,-1,-1],"loss_changes":[6.9923706E0,1.1622381E-1,1.0814698E0,0E0,0E0,0E0,3.62808E-2,0E0,0E0],"parents":[2147483647,0,0,1,1,2,2,6,6],"right_children":[2,4,6,-1,-1,-1,8,-1,-1],"split_conditions":[2.4948025E-1,5.5555556E-2,2.5E-1,-2.4366302E-2,-1.2415739E-1,1.14639975E-1,6.8E-1,1.6573792E-2,-0E0],"split_indices":[21,19,7,0,0,0,2,0,0],"split_type":[0,0,0,0,0,0,0,0,0],"sum_hessian":[8E0,4E0,4E0,1E0,3E0,1E0,3E0,2E0,1E0],"tree_param":{"num_deleted":"0","num_feature":"59","num_nodes":"9","size_leaf_vector":"1"}},{"base_weights":[1.3591875E0,4.9544555E-1,2.7797204E-1,1.0507275E0,-7.324654E-1,1.2897965E-1,-0E0,-9.540629E-2,-0E0],"categories":[],"categories_nodes":[],"categories_segments":[],"categories_sizes":[],"default_left":[0,0,0,0,0,0,0,0,0],"id":44,"left_children":[1,-1,3,5,7,-1,-1,-1,-1],"loss_changes":[3.3084892E1,0E0,7.0480165E0,1.1341577E0,5.8468604E-1,0E0,0E0,0E0,0E0],"parents":[2147483647,0,0,2,2,3,3,4,4],"right_children":[2,-1,4,6,8,-1,-1,-1,-1],"split_conditions":[7.692308E-2,4.9544555E-1,6.666667E-1,1E0,5.2E-1,1.2897965E-1,-0E0,-9.540629E-2,-0E0],"split_indices":[12,0,11,29,2,0,0,0,0],"split_type":[0,0,0,0,0,0,0,0,0],"sum_hessian":[8E0,1E0,7E0,4E0,3E0,3E0,1E0,2E0,1E0],"tree_param":{"num_deleted":"0","num_feature":"59","num_nodes":"9","size_leaf_vector":"1"}},{"base_weights":[3.3691484E-1,-4.2387152E-1,2.8812096E-1,3.66222E-1,-1.1329972E-1,-0E0,7.190544E-2],"categories":[],"categories_nodes":[],"categories_segments":[],"categories_sizes":[],"default_left":[0,0,0,0,0,0,0],"id":45,"left_children":[1,3,-1,5,-1,-1,-1],"loss_changes":[1.6952314E1,4.4135346E0,0E0,4.9760425E-1,0E0,0E0,0E0],"parents":[2147483647,0,0,1,1,3,3],"right_children":[2,4,-1,6,-1,-1,-1],"split_conditions":[6.1538464E-1,4.1025642E-1,2.8812096E-1,7E-1,-1.1329972E-1,-0E0,7.190544E-2],"split_indices":[4,4,0,2,0,0,0],"split_type":[0,0,0,0,0,0,0],"sum_hessian":[7E0,6E0,1E0,3E0,3E0,2E0,1E0],"tree_param":{"num_deleted":"0","num_feature":"59","num_nodes":"7","size_leaf_vector":"1"}},{"base_weights":[9.2801774E-1,-8.414774E-2,4.562671E-1,-5.864287E-1,9.151301E-2,-0E0,-6.901799E-2],"categories":[],"categories_nodes":[],"categories_segments":[],"categories_sizes":[],"default_left":[0,0,0,0,0,0,0],"id":46,"left_children":[1,3,-1,5,-1,-1,-1],"loss_changes":[3.3941628E1,4.519134E0,0E0,3.1834984E-1,0E0,0E0,0E0],"parents":[2147483647,0,0,1,1,3,3],"right_children":[2,4,-1,6,-1,-1,-1],"split_conditions":[6.1538464E-1,6.046992E-1,4.562671E-1,1.2004662E-1,9.151301E-2,-0E0,-6.901799E-2],"split_indices":[4,57,0,13,0,0,0],"split_type":[0,0,0,0,0,0,0],"sum_hessian":[8E0,7E0,1E0,5E0,2E0,1E0,4E0],"tree_param":{"num_deleted":"0","num_feature":"59","num_nodes":"7","size_leaf_vector":"1"}},{"base_weights":[-9.7972566E-1,2.0615038E-1,-4.6904287E-1,-2.754589E-1,6.612221E-1,-3.4472097E-2,-0E0,8.8065036E-2,-0E0],"categories":[],"categories_nodes":[],"categories_segments":[],"categories_sizes":[],"default_left":[0,0,0,0,0,0,0,0,0],"id":47,"left_children":[1,3,-1,5,7,-1,-1,-1,-1],"loss_changes":[3.6618835E1,1.7548833E0,0E0,5.2987218E-2,5.7777655E-1,0E0,0E0,0E0,0E0],"parents":[2147483647,0,0,1,1,3,3,4,4],"right_children":[2,4,-1,6,8,-1,-1,-1,-1],"split_conditions":[6.363636E-1,6.5943396E-1,-4.6904287E-1,5E-1,4.8053613E-1,-3.4472097E-2,-0E0,8.8065036E-2,-0E0],"split_indices":[39,20,0,8,13,0,0,0,0],"split_type":[0,0,0,0,0,0,0,0,0],"sum_hessian":[7E0,6E0,1E0,3E0,3E0,2E0,1E0,2E0,1E0],"tree_param":{"num_deleted":"0","num_feature":"59","num_nodes":"9","size_leaf_vector":"1"}},{"base_weights":[-5.7938725E-2,1.9443758E0,-3.0719256E0,4.8562822E-1,4.5690566E-1,-4.4559088E-1,-1.0919616E-1,-1.9113998E-1,1.0338537E-1,-2.528736E-2,-0E0],"categories":[],"categories_nodes":[],"categories_segments":[],"categories_sizes":[],"default_left":[0,0,0,0,0,0,0,0,0,0,0],"id":48,"left_children":[1,3,5,7,-1,-1,-1,9,-1,-1,-1],"loss_changes":[6.0400276E1,2.0248152E1,5.5404816E0,2.1369898E0,0E0,0E0,0E0,1.8286638E-2,0E0,0E0,0E0],"parents":[2147483647,0,0,1,1,2,2,3,3,7,7],"right_children":[2,4,6,8,-1,-1,-1,10,-1,-1,-1],"split_conditions":[2.7889273E-1,3.5714287E-1,7.1428575E-2,2.1428572E-1,4.5690566E-1,-4.4559088E-1,-1.0919616E-1,1.4285715E-1,1.0338537E-1,-2.528736E-2,-0E0],"split_indices":[30,3,3,3,0,0,0,3,0,0,0],"split_type":[0,0,0,0,0,0,0,0,0,0,0],"sum_hessian":[8E0,5E0,3E0,4E0,1E0,1E0,2E0,2E0,2E0,1E0,1E0],"tree_param":{"num_deleted":"0","num_feature":"59","num_nodes":"11","size_leaf_vector":"1"}},{"base_weights":[5.808081E-1,-9.129864E-1,1.3657181E0,-1.8271077E-1,-1.5019067E-1,2.1743885E-1,1.9061813E-1,-2.402298E-2,-0E0,-1.7603047E-2,4.5764085E-2,-8.2473E-3,6.06842E-4],"categories":[],"categories_nodes":[],"categories_segments":[],"categories_sizes":[],"default_left":[0,0,0,0,0,0,0,0,0,0,0,0,0],"id":49,"left_children":[1,3,5,7,-1,-1,9,-1,-1,11,-1,-1,-1],"loss_changes":[1.3017096E1,1.27742E0,6.000903E0,1.527103E-2,0E0,0E0,2.7445877E-1,0E0,0E0,1.2747639E-2,0E0,0E0,0E0],"parents":[2147483647,0,0,1,1,2,2,3,3,6,6,9,9],"right_children":[2,4,6,8,-1,-1,10,-1,-1,12,-1,-1,-1],"split_conditions":[5.387994E-1,2.1428572E-1,3.216783E-1,1.25E-1,-1.5019067E-1,2.1743885E-1,5.416667E-1,-2.402298E-2,-0E0,3.75E-1,4.5764085E-2,-8.2473E-3,6.06842E-4],"split_indices":[29,3,37,0,0,0,0,0,0,0,0,0,0],"split_type":[0,0,0,0,0,0,0,0,0,0,0,0,0],"sum_hessian":[9E0,3E0,6E0,2E0,1E0,3E0,3E0,1E0,1E0,2E0,1E0,1E0,1E0],"tree_param":{"num_deleted":"0","num_feature":"59","num_nodes":"13","size_leaf_vector":"1"}},{"base_weights":[1.465E0,-1.95625E0,1.0133333E0,6.2857145E-1,-1.0075E0,-6.625E-1,1.7875001E-1,-1.3333333E-2,-1.0750001E-1],"categories":[],"categories_nodes":[],"categories_segments":[],"categories_sizes":[],"default_left":[0,0,0,0,0,0,0,0,0],"id":50,"left_children":[1,3,-1,5,-1,7,-1,-1,-1],"loss_changes":[3.172064E2,1.7516165E2,0E0,1.1770535E1,0E0,6.0895824E-1,0E0,0E0,0E0],"parents":[2147483647,0,0,1,1,3,3,5,5],"right_children":[2,4,-1,6,-1,8,-1,-1,-1],"split_conditions":[1E0,5E-1,1.0133333E0,7.811321E-1,-1.0075E0,2.1428572E-1,1.7875001E-1,-1.3333333E-2,-1.0750001E-1],"split_indices":[6,5,0,20,0,3,0,0,0],"split_type":[0,0,0,0,0,0,0,0,0],"sum_hessian":[9E0,7E0,2E0,6E0,1E0,3E0,3E0,2E0,1E0],"tree_param":{"num_deleted":"0","num_feature":"59","num_nodes":"9","size_leaf_vector":"1"}},{"base_weights":[-5.015E0,7.58E0,-1.4691667E1,8.7875E-1,1.3250001E-1,-1.86625E0,-4.466667E-1],"categories":[],"categories_nodes":[],"categories_segments":[],"categories_sizes":[],"default_left":[0,0,0,0,0,0,0],"id":51,"left_children":[1,3,5,-1,-1,-1,-1],"loss_changes":[1.3308502E3,2.5109863E1,1.579386E2,0E0,0E0,0E0,0E0],"parents":[2147483647,0,0,1,1,2,2],"right_children":[2,4,6,-1,-1,-1,-1],"split_conditions":[2.8089887E-1,7.2727275E-1,5.5407655E-1,8.7875E-1,1.3250001E-1,-1.86625E0,-4.466667E-1],"split_indices":[19,0,20,0,0,0,0],"split_type":[0,0,0,0,0,0,0],"sum_hessian":[9E0,4E0,5E0,3E0,1E0,3E0,2E0],"tree_param":{"num_deleted":"0","num_feature":"59","num_nodes":"7","size_leaf_vector":"1"}},{"base_weights":[-5.015E0,7.58E0,-1.4691667E1,8.7875E-1,1.3250001E-1,-1.86625E0,-4.466667E-1],"categories":[],"categories_nodes":[],"categories_segments":[],"categories_sizes":[],"default_left":[0,0,0,0,0,0,0],"id":52,"left_children":[1,3,5,-1,-1,-1,-1],"loss_changes":[1.3308502E3,2.5109863E1,1.579386E2,0E0,0E0,0E0,0E0],"parents":[2147483647,0,0,1,1,2,2],"right_children":[2,4,6,-1,-1,-1,-1],"split_conditions":[2.8089887E-1,7.2727275E-1,5.5407655E-1,8.7875E-1,1.3250001E-1,-1.86625E0,-4.466667E-1],"split_indices":[19,0,20,0,0,0,0],"split_type":[0,0,0,0,0,0,0],"sum_hessian":[9E0,4E0,5E0,3E0,1E0,3E0,2E0],"tree_param":{"num_deleted":"0","num_feature":"59","num_nodes":"7","size_leaf_vector":"1"}},{"base_weights":[-9.78125E-1,-1.1662501E0,2.376923E0,6.0571427E0,-1.6285714E0,2.5375E-1,8.0375004E-1,-2.78E-1,8.0000006E-2],"categories":[],"categories_nodes":[],"categories_segments":[],"categories_sizes":[],"default_left":[0,0,0,0,0,0,0,0,0],"id":53,"left_children":[1,-1,3,5,7,-1,-1,-1,-1],"loss_changes":[6.021948E2,0E0,2.0194162E2,2.733841E1,2.1996288E1,0E0,0E0,0E0,0E0],"parents":[2147483647,0,0,2,2,3,3,4,4],"right_children":[2,-1,4,6,8,-1,-1,-1,-1],"split_conditions":[6.759903E-2,-1.1662501E0,5.231529E-1,1.1764706E-1,6.666667E-1,2.5375E-1,8.0375004E-1,-2.78E-1,8.0000006E-2],"split_indices":[58,0,58,19,0,0,0,0,0],"split_type":[0,0,0,0,0,0,0,0,0],"sum_hessian":[1.5E1,3E0,1.2E1,6E0,6E0,3E0,3E0,4E0,2E0],"tree_param":{"num_deleted":"0","num_feature":"59","num_nodes":"9","size_leaf_vector":"1"}},{"base_weights":[-9.78125E-1,-1.1662501E0,2.376923E0,6.0571427E0,-1.6285714E0,2.5375E-1,8.0375004E-1,-2.78E-1,8.0000006E-2],"categories":[],"categories_nodes":[],"categories_segments":[],"categories_sizes":[],"default_left":[0,0,0,0,0,0,0,0,0],"id":54,"left_children":[1,-1,3,5,7,-1,-1,-1,-1],"loss_changes":[6.021948E2,0E0,2.0194162E2,2.733841E1,2.1996288E1,0E0,0E0,0E0,0E0],"parents":[2147483647,0,0,2,2,3,3,4,4],"right_children":[2,-1,4,6,8,-1,-1,-1,-1],"split_conditions":[6.759903E-2,-1.1662501E0,5.231529E-1,1.1764706E-1,6.666667E-1,2.5375E-1,8.0375004E-1,-2.78E-1,8.0000006E-2],"split_indices":[58,0,58,19,0,0,0,0,0],"split_type":[0,0,0,0,0,0,0,0,0],"sum_hessian":[1.5E1,3E0,1.2E1,6E0,6E0,3E0,3E0,4E0,2E0],"tree_param":{"num_deleted":"0","num_feature":"59","num_nodes":"9","size_leaf_vector":"1"}},{"base_weights":[-4.725E0,-2.3133333E0,2.625E-1,-4.98E0,3.51875E0,-2.6624998E-1,-7.075E-1,4.9416666E0,-4.6666667E-1,6.0375E-1,1.7999999E-1,-5.75E-2,-7.5000003E-3],"categories":[],"categories_nodes":[],"categories_segments":[],"categories_sizes":[],"default_left":[0,0,0,0,0,0,0,0,0,0,0,0,0],"id":55,"left_children":[1,-1,3,5,7,-1,-1,9,11,-1,-1,-1,-1],"loss_changes":[1.2937214E3,0E0,2.2222794E2,4.4648743E0,4.812094E1,0E0,0E0,9.005203E0,1.9166648E-2,0E0,0E0,0E0,0E0],"parents":[2147483647,0,0,2,2,3,3,4,4,7,7,8,8],"right_children":[2,-1,4,6,8,-1,-1,10,12,-1,-1,-1,-1],"split_conditions":[2.962963E-1,-2.3133333E0,4.7272727E-1,7.8571427E-1,7.5644416E-1,-2.6624998E-1,-7.075E-1,4.2857143E-1,6.25E-2,6.0375E-1,1.7999999E-1,-5.75E-2,-7.5000003E-3],"split_indices":[41,0,18,3,35,0,0,46,0,0,0,0,0],"split_type":[0,0,0,0,0,0,0,0,0,0,0,0,0],"sum_hessian":[1.3E1,2E0,1.1E1,4E0,7E0,3E0,1E0,5E0,2E0,3E0,2E0,1E0,1E0],"tree_param":{"num_deleted":"0","num_feature":"59","num_nodes":"13","size_leaf_vector":"1"}},{"base_weights":[-4.725E0,-2.3133333E0,2.625E-1,-4.98E0,3.51875E0,-2.6624998E-1,-7.075E-1,4.9416666E0,-4.6666667E-1,6.0375E-1,1.7999999E-1,-5.75E-2,-7.5000003E-3],"categories":[],"categories_nodes":[],"categories_segments":[],"categories_sizes":[],"default_left":[0,0,0,0,0,0,0,0,0,0,0,0,0],"id":56,"left_children":[1,-1,3,5,7,-1,-1,9,11,-1,-1,-1,-1],"loss_changes":[1.2937214E3,0E0,2.2222794E2,4.4648743E0,4.812094E1,0E0,0E0,9.005203E0,1.9166648E-2,0E0,0E0,0E0,0E0],"parents":[2147483647,0,0,2,2,3,3,4,4,7,7,8,8],"right_children":[2,-1,4,6,8,-1,-1,10,12,-1,-1,-1,-1],"split_conditions":[2.962963E-1,-2.3133333E0,4.7272727E-1,7.8571427E-1,7.5644416E-1,-2.6624998E-1,-7.075E-1,4.2857143E-1,6.25E-2,6.0375E-1,1.7999999E-1,-5.75E-2,-7.5000003E-3],"split_indices":[41,0,18,3,35,0,0,46,0,0,0,0,0],"split_type":[0,0,0,0,0,0,0,0,0,0,0,0,0],"sum_hessian":[1.3E1,2E0,1.1E1,4E0,7E0,3E0,1E0,5E0,2E0,3E0,2E0,1E0,1E0],"tree_param":{"num_deleted":"0","num_feature":"59","num_nodes":"13","size_leaf_vector":"1"}},{"base_weights":[7.027778E-1,4.6892858E0,-1.058E1,1.118E0,9.65E-1,1.7999999E-1,-1.9466667E0,-3.3583333E0,5.98E-1,-4.98E-1,2.325E-1],"categories":[],"categories_nodes":[],"categories_segments":[],"categories_sizes":[],"default_left":[0,0,0,0,0,0,0,0,0,0,0],"id":57,"left_children":[1,3,5,-1,7,-1,-1,9,-1,-1,-1],"loss_changes":[8.5864343E2,3.264227E2,5.8689136E2,0E0,2.3716016E2,0E0,0E0,6.714283E1,0E0,0E0,0E0],"parents":[2147483647,0,0,1,1,2,2,4,4,7,7],"right_children":[2,4,6,-1,8,-1,-1,10,-1,-1,-1],"split_conditions":[3.75E-1,2.631579E-1,6.1889833E-1,1.118E0,5.300279E-1,1.7999999E-1,-1.9466667E0,7.894737E-1,5.98E-1,-4.98E-1,2.325E-1],"split_indices":[19,3,58,0,29,0,0,3,0,0,0],"split_type":[0,0,0,0,0,0,0,0,0,0,0],"sum_hessian":[1.7E1,1.3E1,4E0,4E0,9E0,2E0,2E0,5E0,4E0,4E0,1E0],"tree_param":{"num_deleted":"0","num_feature":"59","num_nodes":"11","size_leaf_vector":"1"}},{"base_weights":[7.027778E-1,4.6892858E0,-1.058E1,1.118E0,9.65E-1,1.7999999E-1,-1.9466667E0,-3.3583333E0,5.98E-1,-4.98E-1,2.325E-1],"categories":[],"categories_nodes":[],"categories_segments":[],"categories_sizes":[],"default_left":[0,0,0,0,0,0,0,0,0,0,0],"id":58,"left_children":[1,3,5,-1,7,-1,-1,9,-1,-1,-1],"loss_changes":[8.5864343E2,3.264227E2,5.8689136E2,0E0,2.3716016E2,0E0,0E0,6.714283E1,0E0,0E0,0E0],"parents":[2147483647,0,0,1,1,2,2,4,4,7,7],"right_children":[2,4,6,-1,8,-1,-1,10,-1,-1,-1],"split_conditions":[3.75E-1,2.631579E-1,6.1889833E-1,1.118E0,5.300279E-1,1.7999999E-1,-1.9466667E0,7.894737E-1,5.98E-1,-4.98E-1,2.325E-1],"split_indices":[19,3,58,0,29,0,0,3,0,0,0],"split_type":[0,0,0,0,0,0,0,0,0,0,0],"sum_hessian":[1.7E1,1.3E1,4E0,4E0,9E0,2E0,2E0,5E0,4E0,4E0,1E0],"tree_param":{"num_deleted":"0","num_feature":"59","num_nodes":"11","size_leaf_vector":"1"}},{"base_weights":[5.365E0,-5.75E-2,6.1E0,6.64375E-1,8.25E-2],"categories":[],"categories_nodes":[],"categories_segments":[],"categories_sizes":[],"default_left":[0,0,0,0,0],"id":59,"left_children":[1,-1,3,-1,-1],"loss_changes":[4.7719025E1,0E0,1.9586548E1,0E0,0E0],"parents":[2147483647,0,0,2,2],"right_children":[2,-1,4,-1,-1],"split_conditions":[4.1666666E-1,-5.75E-2,1E0,6.64375E-1,8.25E-2],"split_indices":[11,0,3,0,0],"split_type":[0,0,0,0,0],"sum_hessian":[9E0,1E0,8E0,7E0,1E0],"tree_param":{"num_deleted":"0","num_feature":"59","num_nodes":"5","size_leaf_vector":"1"}},{"base_weights":[5.365E0,-5.75E-2,6.1E0,6.64375E-1,8.25E-2],"categories":[],"categories_nodes":[],"categories_segments":[],"categories_sizes":[],"default_left":[0,0,0,0,0],"id":60,"left_children":[1,-1,3,-1,-1],"loss_changes":[4.7719025E1,0E0,1.9586548E1,0E0,0E0],"parents":[2147483647,0,0,2,2],"right_children":[2,-1,4,-1,-1],"split_conditions":[4.1666666E-1,-5.75E-2,1E0,6.64375E-1,8.25E-2],"split_indices":[11,0,3,0,0],"split_type":[0,0,0,0,0],"sum_hessian":[9E0,1E0,8E0,7E0,1E0],"tree_param":{"num_deleted":"0","num_feature":"59","num_nodes":"5","size_leaf_vector":"1"}},{"base_weights":[-4.1916666E0,4.825E-1,-6.98E0,-3.1625E-1,-1.1075E0],"categories":[],"categories_nodes":[],"categories_segments":[],"categories_sizes":[],"default_left":[0,0,0,0,0],"id":61,"left_children":[1,-1,3,-1,-1],"loss_changes":[1.8474286E2,0E0,4.171486E1,0E0,0E0],"parents":[2147483647,0,0,2,2],"right_children":[2,-1,4,-1,-1],"split_conditions":[9.677419E-2,4.825E-1,7.826087E-1,-3.1625E-1,-1.1075E0],"split_indices":[18,0,0,0,0],"split_type":[0,0,0,0,0],"sum_hessian":[5E0,1E0,4E0,3E0,1E0],"tree_param":{"num_deleted":"0","num_feature":"59","num_nodes":"5","size_leaf_vector":"1"}},{"base_weights":[-4.1916666E0,4.825E-1,-6.98E0,-3.1625E-1,-1.1075E0],"categories":[],"categories_nodes":[],"categories_segments":[],"categories_sizes":[],"default_left":[0,0,0,0,0],"id":62,"left_children":[1,-1,3,-1,-1],"loss_changes":[1.8474286E2,0E0,4.171486E1,0E0,0E0],"parents":[2147483647,0,0,2,2],"right_children":[2,-1,4,-1,-1],"split_conditions":[9.677419E-2,4.825E-1,7.826087E-1,-3.1625E-1,-1.1075E0],"split_indices":[18,0,0,0,0],"split_type":[0,0,0,0,0],"sum_hessian":[5E0,1E0,4E0,3E0,1E0],"tree_param":{"num_deleted":"0","num_feature":"59","num_nodes":"5","size_leaf_vector":"1"}},{"base_weights":[1.0958333E0,4.26875E0,-4.18E0,3.8E-1,8.0375E0,-5.9125E-1,1.3250001E-1,-4.125E-1,1.825E-1,2.325E-1,9.1333336E-1,-5.75E-2,-1.3333333E-2],"categories":[],"categories_nodes":[],"categories_segments":[],"categories_sizes":[],"default_left":[0,0,0,0,0,0,0,0,0,0,0,0,0],"id":63,"left_children":[1,3,5,7,9,-1,-1,11,-1,-1,-1,-1,-1],"loss_changes":[2.1872961E2,1.1334981E2,5.5979874E1,6.619875E0,2.658966E0,0E0,0E0,3.3958316E-2,0E0,0E0,0E0,0E0,0E0],"parents":[2147483647,0,0,1,1,2,2,3,3,4,4,7,7],"right_children":[2,4,6,8,10,-1,-1,12,-1,-1,-1,-1,-1],"split_conditions":[3.6641222E-1,2.4427481E-1,1E0,7.8571427E-1,5.714286E-1,-5.9125E-1,1.3250001E-1,4.2857143E-1,1.825E-1,2.325E-1,9.1333336E-1,-5.75E-2,-1.3333333E-2],"split_indices":[49,49,9,0,3,0,0,0,0,0,0,0,0],"split_type":[0,0,0,0,0,0,0,0,0,0,0,0,0],"sum_hessian":[1.1E1,7E0,4E0,4E0,3E0,3E0,1E0,3E0,1E0,1E0,2E0,1E0,2E0],"tree_param":{"num_deleted":"0","num_feature":"59","num_nodes":"13","size_leaf_vector":"1"}},{"base_weights":[1.0958333E0,4.26875E0,-4.18E0,3.8E-1,8.0375E0,-5.9125E-1,1.3250001E-1,-4.125E-1,1.825E-1,2.325E-1,9.1333336E-1,-5.75E-2,-1.3333333E-2],"categories":[],"categories_nodes":[],"categories_segments":[],"categories_sizes":[],"default_left":[0,0,0,0,0,0,0,0,0,0,0,0,0],"id":64,"left_children":[1,3,5,7,9,-1,-1,11,-1,-1,-1,-1,-1],"loss_changes":[2.1872961E2,1.1334981E2,5.5979874E1,6.619875E0,2.658966E0,0E0,0E0,3.3958316E-2,0E0,0E0,0E0,0E0,0E0],"parents":[2147483647,0,0,1,1,2,2,3,3,4,4,7,7],"right_children":[2,4,6,8,10,-1,-1,12,-1,-1,-1,-1,-1],"split_conditions":[3.6641222E-1,2.4427481E-1,1E0,7.8571427E-1,5.714286E-1,-5.9125E-1,1.3250001E-1,4.2857143E-1,1.825E-1,2.325E-1,9.1333336E-1,-5.75E-2,-1.3333333E-2],"split_indices":[49,49,9,0,3,0,0,0,0,0,0,0,0],"split_type":[0,0,0,0,0,0,0,0,0,0,0,0,0],"sum_hessian":[1.1E1,7E0,4E0,4E0,3E0,3E0,1E0,3E0,1E0,1E0,2E0,1E0,2E0],"tree_param":{"num_deleted":"0","num_feature":"59","num_nodes":"13","size_leaf_vector":"1"}}]},"name":"gbtree"},"learner_model_param":{"base_score":"[8.025E1]","boost_from_average":"1","num_class":"0","num_feature":"59","num_target":"1"},"objective":{"name":"reg:squarederror","reg_loss_param":{"scale_pos_weight":"1"}}},"version":[3,1,2]}