{"learner":{"attributes":{},"feature_names":[],"feature_types":[],"gradient_booster":{"model":{"cats":{"enc":[],"feature_segments":[],"sorted_idx":[]},"gbtree_model_param":{"num_parallel_tree":"1","num_trees":"40"},"iteration_indptr":[0,1,2,3,4,5,6,7,8,9,10,11,12,13,14,15,16,17,18,19,20,21,22,23,24,25,26,27,28,29,30,31,32,33,34,35,36,37,38,39,40],"tree_info":[0,0,0,0,0,0,0,0,0,0,0,0,0,0,0,0,0,0,0,0,0,0,0,0,0,0,0,0,0,0,0,0,0,0,0,0,0,0,0,0],"trees":[{"base_weights":[1.0302075E0,2.9670627E0,-8.318519E0,1.7358967E0,1.8872221E-1,-2.0927778E-1,-3.9277785E-2,5.1111037E-1,1.1229628E-1,1.3381937E0,-2.4916679E-2,-0E0,1.5333326E0,3.5155542E-2,1.2296285E-2],"categories":[],"categories_nodes":[],"categories_segments":[],"categories_sizes":[],"default_left":[0,0,0,0,0,0,0,0,0,0,0,0,0,0,0],"id":0,"left_children":[1,3,5,7,-1,-1,-1,9,-1,11,-1,-1,13,-1,-1],"loss_changes":[3.138605E2,9.4005295E1,1.91064E1,5.827861E1,0E0,0E0,0E0,1.7660936E1,0E0,2.1316624E0,0E0,0E0,1.251297E-1,0E0,0E0],"parents":[2147483647,0,0,1,1,2,2,3,3,7,7,9,9,12,12],"right_children":[2,4,6,8,-1,-1,-1,10,-1,12,-1,-1,14,-1,-1],"split_conditions":[5.903614E-1,6.344887E-1,4.3333334E-1,6.966292E-1,1.8872221E-1,-2.0927778E-1,-3.9277785E-2,4.438802E-1,1.1229628E-1,2.3114355E-1,-2.4916679E-2,-0E0,1.7829457E-1,3.5155542E-2,1.2296285E-2],"split_indices":[14,38,2,31,0,0,0,22,0,13,0,0,21,0,0],"split_type":[0,0,0,0,0,0,0,0,0,0,0,0,0,0,0],"sum_hessian":[1.5E1,1.3E1,2E0,1.2E1,1E0,1E0,1E0,1E1,2E0,7E0,3E0,1E0,6E0,4E0,2E0],"tree_param":{"num_deleted":"0","num_feature":"41","num_nodes":"15","size_leaf_vector":"1"}},{"base_weights":[-7.564564E-1,-2.0718503E-1,6.622613E-1,2.1083531E0,-1.06190525E-1,1.1343176E0,9.2380404E-2,-2.0992024E-2,4.627651E-2,1.1465647E-2,-4.864498E-1,-0E0,-1.2704813E-2],"categories":[],"categories_nodes":[],"categories_segments":[],"categories_sizes":[],"default_left":[0,0,0,0,0,0,0,0,0,0,0,0,0],"id":1,"left_children":[1,-1,3,5,-1,7,-1,9,-1,-1,11,-1,-1],"loss_changes":[2.1218507E2,0E0,1.317748E2,2.353098E1,0E0,1.3904824E1,0E0,1.9298478E0,0E0,0E0,2.6405847E-1,0E0,0E0],"parents":[2147483647,0,0,2,2,3,3,5,5,7,7,10,10],"right_children":[2,-1,4,6,-1,8,-1,10,-1,-1,12,-1,-1],"split_conditions":[1.1806651E-1,-2.0718503E-1,4.2592594E-1,5.416667E-1,-1.06190525E-1,2.2222222E-1,9.2380404E-2,3.0769232E-1,4.627651E-2,1.1465647E-2,2.5E-1,-0E0,-1.2704813E-2],"split_indices":[32,0,19,0,0,19,0,11,0,0,0,0,0],"split_type":[0,0,0,0,0,0,0,0,0,0,0,0,0],"sum_hessian":[1.4E1,1E0,1.3E1,1.1E1,2E0,9E0,2E0,5E0,4E0,2E0,3E0,1E0,2E0],"tree_param":{"num_deleted":"0","num_feature":"41","num_nodes":"13","size_leaf_vector":"1"}},{"base_weights":[3.170983E0,-8.9339226E-1,8.375627E0,1.6073684E0,-8.131209E0,4.4016257E-2,2.0100856E-1,-2.4512452E-1,3.1583874E0,-2.051132E-1,-3.782309E-2,-2.0201558E-2,5.6820375E-1,1.7907852E-2,6.950576E-2,1.7446883E-2,-0E0],"categories":[],"categories_nodes":[],"categories_segments":[],"categories_sizes":[],"default_left":[0,0,0,0,0,0,0,0,0,0,0,0,0,0,0,0,0],"id":2,"left_children":[1,3,5,7,9,-1,-1,11,13,-1,-1,-1,15,-1,-1,-1,-1],"loss_changes":[3.8899615E2,2.1282277E2,5.938849E1,2.6924791E1,1.916034E1,0E0,0E0,3.7289088E0,3.6907196E-2,0E0,0E0,0E0,5.534024E-1,0E0,0E0,0E0,0E0],"parents":[2147483647,0,0,1,1,2,2,3,3,4,4,7,7,8,8,12,12],"right_children":[2,4,6,8,10,-1,-1,12,14,-1,-1,-1,16,-1,-1,-1,-1],"split_conditions":[6.275197E-1,5.91141E-1,3.5714287E-1,5.1953125E-1,5E-1,4.4016257E-2,2.0100856E-1,2.6666668E-1,2.5E-1,-2.051132E-1,-3.782309E-2,-2.0201558E-2,6.666667E-1,1.7907852E-2,6.950576E-2,1.7446883E-2,-0E0],"split_indices":[20,38,18,17,8,0,0,12,8,0,0,0,10,0,0,0,0],"split_type":[0,0,0,0,0,0,0,0,0,0,0,0,0,0,0,0,0],"sum_hessian":[1.7E1,1E1,7E0,8E0,2E0,2E0,5E0,4E0,4E0,1E0,1E0,2E0,2E0,1E0,3E0,1E0,1E0],"tree_param":{"num_deleted":"0","num_feature":"41","num_nodes":"17","size_leaf_vector":"1"}},{"base_weights":[1.988925E-1,-5.325686E0,6.401682E0,-9.761316E0,2.6341815E0,8.901568E0,1.6514031E0,9.9760275E-3,-2.38662E-1,-0E0,6.972207E-2,3.5665344E-2,2.0420654E-1,-3.0333964E-2,6.796614E-2,-8.699554E-3,6.7895353E-3],"categories":[],"categories_nodes":[],"categories_segments":[],"categories_sizes":[],"default_left":[0,0,0,0,0,0,0,0,0,0,0,0,0,0,0,0,0],"id":3,"left_children":[1,3,5,7,9,11,13,-1,-1,-1,-1,-1,-1,15,-1,-1,-1],"loss_changes":[5.824857E2,3.4418912E2,7.924591E1,1.4079224E2,8.703108E0,2.7173553E1,1.2191213E1,0E0,0E0,0E0,0E0,0E0,0E0,6.061397E-1,0E0,0E0,0E0],"parents":[2147483647,0,0,1,1,2,2,3,3,4,4,5,5,6,6,13,13],"right_children":[2,4,6,8,10,12,14,-1,-1,-1,-1,-1,-1,16,-1,-1,-1],"split_conditions":[6.70083E-1,6.666667E-1,3.3333334E-1,3.846154E-1,2.1666667E-1,6.666667E-2,8.095238E-1,9.9760275E-3,-2.38662E-1,-0E0,6.972207E-2,3.5665344E-2,2.0420654E-1,3.1666666E-1,6.796614E-2,-8.699554E-3,6.7895353E-3],"split_indices":[29,6,10,11,2,2,5,0,0,0,0,0,0,2,0,0,0],"split_type":[0,0,0,0,0,0,0,0,0,0,0,0,0,0,0,0,0],"sum_hessian":[1.5E1,8E0,7E0,5E0,3E0,4E0,3E0,1E0,4E0,1E0,2E0,1E0,3E0,2E0,1E0,1E0,1E0],"tree_param":{"num_deleted":"0","num_feature":"41","num_nodes":"17","size_leaf_vector":"1"}},{"base_weights":[6.366439E-1,-6.9498224E0,3.6354542E0,1.1191612E0,-3.0850384E-1,8.747534E0,9.7219485E-1,-7.173355E-1,6.7286514E-2,1.971213E-1,4.213408E-2,2.650472E0,-4.353368E0,-2.6952423E-2,4.432358E-3,-1.4606437E-1,4.089751E0,-1.2953781E-2,-1.1664724E-1,-8.612579E-3,1.1800028E-3,9.081027E-2,1.7359374E-2],"categories":[],"categories_nodes":[],"categories_segments":[],"categories_sizes":[],"default_left":[0,0,0,0,0,0,0,0,0,0,0,0,0,0,0,0,0,0,0,0,0,0,0],"id":4,"left_children":[1,3,5,7,-1,9,11,13,-1,-1,-1,15,17,-1,-1,19,21,-1,-1,-1,-1,-1,-1],"loss_changes":[4.7994177E2,4.2901962E2,1.9474562E2,1.9170998E1,0E0,1.4847748E1,1.0968365E2,2.1866837E0,0E0,0E0,0E0,3.7216694E1,1.2016476E1,0E0,0E0,2.9598644E-1,4.2316895E0,0E0,0E0,0E0,0E0,0E0,0E0],"parents":[2147483647,0,0,1,1,2,2,3,3,5,5,6,6,7,7,11,11,12,12,15,15,16,16],"right_children":[2,4,6,8,-1,10,12,14,-1,-1,-1,16,18,-1,-1,20,22,-1,-1,-1,-1,-1,-1],"split_conditions":[2.0833333E-1,3.8333333E-1,2.3997675E-1,4.642857E-1,-3.0850384E-1,4.5833334E-1,6.8126523E-1,4.1666668E-2,6.7286514E-2,1.971213E-1,4.213408E-2,3.1224656E-1,3.3333334E-1,-2.6952423E-2,4.432358E-3,2.857143E-1,6.25E-1,-1.2953781E-2,-1.1664724E-1,-8.612579E-3,1.1800028E-3,9.081027E-2,1.7359374E-2],"split_indices":[0,2,32,1,0,0,13,0,0,0,0,13,0,0,0,4,0,0,0,0,0,0,0],"split_type":[0,0,0,0,0,0,0,0,0,0,0,0,0,0,0,0,0,0,0,0,0,0,0],"sum_hessian":[1.9E1,5E0,1.4E1,3E0,2E0,4E0,1E1,2E0,1E0,3E0,1E0,8E0,2E0,1E0,1E0,3E0,5E0,1E0,1E0,1E0,2E0,4E0,1E0],"tree_param":{"num_deleted":"0","num_feature":"41","num_nodes":"23","size_leaf_vector":"1"}},{"base_weights":[-1.4117054E0,-5.329752E0,2.120955E-1,-1.9855624E-1,-1.5532433E1,-2.062243E0,1.0850712E-1,9.740295E-4,-3.892978E-1,-4.7234324E-1,-1.01025224E-1,-2.8904526E-2,5.9362566E-1,1.5315134E-2,-0E0],"categories":[],"categories_nodes":[],"categories_segments":[],"categories_sizes":[],"default_left":[0,0,0,0,0,0,0,0,0,0,0,0,0,0,0],"id":5,"left_children":[1,3,-1,5,7,9,-1,-1,-1,11,-1,-1,13,-1,-1],"loss_changes":[9.505348E2,7.806221E2,0E0,1.2614542E2,3.092505E2,3.9831867E1,0E0,0E0,0E0,8.202525E0,0E0,0E0,3.4958458E-1,0E0,0E0],"parents":[2147483647,0,0,1,1,3,3,4,4,5,5,9,9,12,12],"right_children":[2,4,-1,6,8,10,-1,-1,-1,12,-1,-1,14,-1,-1],"split_conditions":[4.631783E-1,2.868217E-1,2.120955E-1,8.3146065E-1,3.3333334E-1,6.111111E-1,1.0850712E-1,9.740295E-4,-3.892978E-1,3.1725046E-1,-1.01025224E-1,-2.8904526E-2,2.0833333E-1,1.5315134E-2,-0E0],"split_indices":[21,21,0,31,2,19,0,0,0,39,0,0,0,0,0],"split_type":[0,0,0,0,0,0,0,0,0,0,0,0,0,0,0],"sum_hessian":[1.8E1,1.4E1,4E0,1E1,4E0,8E0,2E0,1E0,3E0,6E0,2E0,3E0,3E0,2E0,1E0],"tree_param":{"num_deleted":"0","num_feature":"41","num_nodes":"15","size_leaf_vector":"1"}},{"base_weights":[-1.9132218E0,3.3605897E-1,-2.5110435E-1,3.7207384E0,-7.1574473E0,-0E0,6.8100467E0,-3.1802967E-2,-2.0611194E-1,-2.0597224E0,1.561752E0,1.8008083E-1,1.581372E0,-5.2554306E-2,-8.237366E-3,9.6426386E-4,4.033721E-2,4.171271E-2,4.7284546E-3],"categories":[],"categories_nodes":[],"categories_segments":[],"categories_sizes":[],"default_left":[0,0,0,0,0,0,0,0,0,0,0,0,0,0,0,0,0,0,0],"id":6,"left_children":[1,3,-1,5,7,9,11,-1,-1,13,15,-1,17,-1,-1,-1,-1,-1,-1],"loss_changes":[4.1236746E2,4.0673407E2,0E0,1.259776E2,7.005646E1,2.2483644E1,5.3532837E1,0E0,0E0,1.4216776E0,2.4515514E0,0E0,1.3093286E0,0E0,0E0,0E0,0E0,0E0,0E0],"parents":[2147483647,0,0,1,1,3,3,4,4,5,5,6,6,9,9,10,10,12,12],"right_children":[2,4,-1,6,8,10,12,-1,-1,14,16,-1,18,-1,-1,-1,-1,-1,-1],"split_conditions":[5.6666666E-1,6.6909975E-1,-2.5110435E-1,6.8421054E-1,2.015504E-1,2.2868218E-1,5.3122467E-1,-3.1802967E-2,-2.0611194E-1,8.3333336E-2,3.3333334E-1,1.8008083E-1,1.5E-1,-5.2554306E-2,-8.237366E-3,9.6426386E-4,4.033721E-2,4.171271E-2,4.7284546E-3],"split_indices":[2,37,0,27,21,21,37,0,0,2,6,0,2,0,0,0,0,0,0],"split_type":[0,0,0,0,0,0,0,0,0,0,0,0,0,0,0,0,0,0,0],"sum_hessian":[1.6E1,1.4E1,2E0,1E1,4E0,5E0,5E0,2E0,2E0,2E0,3E0,3E0,2E0,1E0,1E0,1E0,2E0,1E0,1E0],"tree_param":{"num_deleted":"0","num_feature":"41","num_nodes":"19","size_leaf_vector":"1"}},{"base_weights":[3.3851573E-1,-6.479168E0,5.275148E0,-1.2779971E1,5.983256E-2,3.6531037E-1,8.014297E0,-8.154968E-3,-3.149218E-1,1.3339897E0,-3.409407E-2,1.8510652E-1,4.6811523E-3,3.5003245E-2,-0E0],"categories":[],"categories_nodes":[],"categories_segments":[],"categories_sizes":[],"default_left":[0,0,0,0,0,0,0,0,0,0,0,0,0,0,0],"id":7,"left_children":[1,3,5,7,-1,9,11,-1,-1,13,-1,-1,-1,-1,-1],"loss_changes":[6.398732E2,5.1660077E2,1.4417087E2,1.7545154E2,0E0,1.2262885E1,6.447333E1,0E0,0E0,2.0710897E0,0E0,0E0,0E0,0E0,0E0],"parents":[2147483647,0,0,1,1,2,2,3,3,5,5,6,6,9,9],"right_children":[2,4,6,8,-1,10,12,-1,-1,14,-1,-1,-1,-1,-1],"split_conditions":[5E-1,8E-1,6.7484367E-1,3.1666666E-1,5.983256E-2,2.1666667E-1,9.130435E-1,-8.154968E-3,-3.149218E-1,7.8571427E-1,-3.409407E-2,1.8510652E-1,4.6811523E-3,3.5003245E-2,-0E0],"split_indices":[1,24,29,2,0,2,28,0,0,1,0,0,0,0,0],"split_type":[0,0,0,0,0,0,0,0,0,0,0,0,0,0,0],"sum_hessian":[1.7E1,7E0,1E1,4E0,3E0,4E0,6E0,1E0,3E0,3E0,1E0,5E0,1E0,2E0,1E0],"tree_param":{"num_deleted":"0","num_feature":"41","num_nodes":"15","size_leaf_vector":"1"}},{"base_weights":[-2.034973E0,4.3798847E0,-9.196478E0,1.7142475E-1,9.6909606E-1,-3.3566806E-1,-1.1821648E0,-2.4062297E-1,3.7782326E-2,6.3776243E-3,-3.644281E-2,-8.07341E-3,-0E0],"categories":[],"categories_nodes":[],"categories_segments":[],"categories_sizes":[],"default_left":[0,0,0,0,0,0,0,0,0,0,0,0,0],"id":8,"left_children":[1,3,5,-1,7,-1,9,11,-1,-1,-1,-1,-1],"loss_changes":[5.920417E2,9.081036E1,3.4318665E2,0E0,6.184245E0,0E0,4.5739036E0,1.5220152E-1,0E0,0E0,0E0,0E0,0E0],"parents":[2147483647,0,0,1,1,2,2,4,4,6,6,7,7],"right_children":[2,4,6,-1,8,-1,10,12,-1,-1,-1,-1,-1],"split_conditions":[5.67721E-1,3.3333334E-1,7.1794873E-1,1.7142475E-1,3.888889E-1,-3.3566806E-1,5.5555556E-2,2.2222222E-1,3.7782326E-2,6.3776243E-3,-3.644281E-2,-8.07341E-3,-0E0],"split_indices":[13,10,16,0,3,0,3,3,0,0,0,0,0],"split_type":[0,0,0,0,0,0,0,0,0,0,0,0,0],"sum_hessian":[1.1E1,6E0,5E0,2E0,4E0,2E0,3E0,2E0,2E0,1E0,2E0,1E0,1E0],"tree_param":{"num_deleted":"0","num_feature":"41","num_nodes":"13","size_leaf_vector":"1"}},{"base_weights":[2.7029614E0,-3.1671047E0,4.276336E0,-1.8513036E-1,6.443783E-1,5.1843038E0,-1.6556137E0,6.9156475E-2,-2.8254231E-2,2.9399598E0,2.119252E-1,-5.0523132E-2,-0E0,-5.178335E-1,5.498074E0,1.2909286E0,-3.5398934E-2,4.9881924E-2,1.4205065E-1,3.7260284E-3,3.400183E-2],"categories":[],"categories_nodes":[],"categories_segments":[],"categories_sizes":[],"default_left":[0,0,0,0,0,0,0,0,0,0,0,0,0,0,0,0,0,0,0,0,0],"id":9,"left_children":[1,3,5,-1,7,9,11,-1,-1,13,-1,-1,-1,15,17,19,-1,-1,-1,-1,-1],"loss_changes":[2.0760661E2,1.228744E2,1.0049841E2,0E0,2.8239464E1,1.4968811E2,4.5397644E0,0E0,0E0,1.0949026E2,0E0,0E0,0E0,1.5921426E1,1.5064255E1,8.5054874E-1,0E0,0E0,0E0,0E0,0E0],"parents":[2147483647,0,0,1,1,2,2,4,4,5,5,6,6,9,9,13,13,14,14,15,15],"right_children":[2,4,6,-1,8,10,12,-1,-1,14,-1,-1,-1,16,18,20,-1,-1,-1,-1,-1],"split_conditions":[3.0236635E-1,8.3333336E-2,6.9089794E-1,-1.8513036E-1,1.25E-1,7.8571427E-1,7.5E-1,6.9156475E-2,-2.8254231E-2,1.5099715E-1,2.119252E-1,-5.0523132E-2,-0E0,5.7941335E-1,4.9311557E-1,2.5E-1,-3.5398934E-2,4.9881924E-2,1.4205065E-1,3.7260284E-3,3.400183E-2],"split_indices":[20,0,35,0,0,1,0,0,0,35,0,0,0,13,33,0,0,0,0,0,0],"split_type":[0,0,0,0,0,0,0,0,0,0,0,0,0,0,0,0,0,0,0,0,0],"sum_hessian":[2E1,4E0,1.6E1,1E0,3E0,1.4E1,2E0,1E0,2E0,1.1E1,3E0,1E0,1E0,5E0,6E0,2E0,3E0,3E0,3E0,1E0,1E0],"tree_param":{"num_deleted":"0","num_feature":"41","num_nodes":"21","size_leaf_vector":"1"}},{"base_weights":[-1.9908086E0,-1.1589779E1,6.949706E-1,-7.710174E-3,-3.0325398E-1,-2.0773375E0,5.2163224E0,1.9289875E0,-8.594072E0,1.2148232E-1,8.273529E-3,-3.3898875E-1,2.923976E0,-5.0017912E-2,-1.9516331E-1,-0E0,-1.1024383E-2,7.403523E-2,2.2763968E-2],"categories":[],"categories_nodes":[],"categories_segments":[],"categories_sizes":[],"default_left":[0,0,0,0,0,0,0,0,0,0,0,0,0,0,0,0,0,0,0],"id":10,"left_children":[1,3,5,-1,-1,7,9,11,13,-1,-1,15,17,-1,-1,-1,-1,-1,-1],"loss_changes":[4.7319687E2,1.5272772E2,1.9916866E2,0E0,0E0,2.7832593E2,2.155658E1,1.7045963E1,2.7420654E0,0E0,0E0,2.6294503E-1,2.247425E0,0E0,0E0,0E0,0E0,0E0,0E0],"parents":[2147483647,0,0,1,1,2,2,5,5,6,6,7,7,8,8,11,11,12,12],"right_children":[2,4,6,-1,-1,8,10,12,14,-1,-1,16,18,-1,-1,-1,-1,-1,-1],"split_conditions":[2.1428572E-1,3.1666666E-1,3.888889E-1,-7.710174E-3,-3.0325398E-1,6.328125E-1,4.1025642E-1,6.854385E-1,8.3333336E-2,1.2148232E-1,8.273529E-3,2.1666667E-1,3.3333334E-1,-5.0017912E-2,-1.9516331E-1,-0E0,-1.1024383E-2,7.403523E-2,2.2763968E-2],"split_indices":[18,2,3,0,0,17,16,33,2,0,0,2,10,0,0,0,0,0,0],"split_type":[0,0,0,0,0,0,0,0,0,0,0,0,0,0,0,0,0,0,0],"sum_hessian":[1.7E1,3E0,1.4E1,1E0,2E0,9E0,5E0,6E0,3E0,4E0,1E0,2E0,4E0,1E0,2E0,1E0,1E0,2E0,2E0],"tree_param":{"num_deleted":"0","num_feature":"41","num_nodes":"19","size_leaf_vector":"1"}},{"base_weights":[8.383272E-1,2.4708238E0,-2.5181615E-1,-2.9835103E0,8.310596E0,-8.246446E0,5.7122555E-2,2.1458973E-1,1.338566E-2,-7.633041E-3,-2.0184463E-1],"categories":[],"categories_nodes":[],"categories_segments":[],"categories_sizes":[],"default_left":[0,0,0,0,0,0,0,0,0,0,0],"id":11,"left_children":[1,3,-1,5,7,9,-1,-1,-1,-1,-1],"loss_changes":[4.027889E2,5.349606E2,0E0,3.0069467E2,1.3954712E2,6.768451E1,0E0,0E0,0E0,0E0,0E0],"parents":[2147483647,0,0,1,1,3,3,4,4,5,5],"right_children":[2,4,-1,6,8,10,-1,-1,-1,-1,-1],"split_conditions":[7.777778E-1,4.3820226E-1,-2.5181615E-1,6.666667E-1,7.948718E-1,1.2820514E-1,5.7122555E-2,2.1458973E-1,1.338566E-2,-7.633041E-3,-2.0184463E-1],"split_indices":[3,31,0,6,16,16,0,0,0,0,0],"split_type":[0,0,0,0,0,0,0,0,0,0,0],"sum_hessian":[1.6E1,1.5E1,1E0,8E0,7E0,4E0,4E0,5E0,2E0,1E0,3E0],"tree_param":{"num_deleted":"0","num_feature":"41","num_nodes":"11","size_leaf_vector":"1"}},{"base_weights":[-4.3326774E0,-7.9812226E0,5.270367E0,3.653969E-1,-1.4009579E1,2.9032882E-2,1.1674273E-1,1.3659569E0,-2.1142973E-2,1.0708984E-2,-3.3079317E-1,4.492401E-3,3.2763913E-2],"categories":[],"categories_nodes":[],"categories_segments":[],"categories_sizes":[],"default_left":[1,0,0,0,0,0,0,0,0,0,0,0,0],"id":12,"left_children":[1,3,5,7,9,-1,-1,11,-1,-1,-1,-1,-1],"loss_changes":[6.029293E2,6.102802E2,1.6193542E0,1.0014954E1,2.6805713E2,0E0,0E0,6.8861246E-1,0E0,0E0,0E0,0E0,0E0],"parents":[2147483647,0,0,1,1,2,2,3,3,4,4,7,7],"right_children":[2,4,6,8,10,-1,-1,12,-1,-1,-1,-1,-1],"split_conditions":[8E-1,3.3333334E-1,4.1666668E-2,3.9325842E-1,1.5384616E-1,2.9032882E-2,1.1674273E-1,2.5E-1,-2.1142973E-2,1.0708984E-2,-3.3079317E-1,4.492401E-3,3.2763913E-2],"split_indices":[24,2,0,31,11,0,0,0,0,0,0,0,0],"split_type":[0,0,0,0,0,0,0,0,0,0,0,0,0],"sum_hessian":[1.5E1,1.1E1,4E0,5E0,6E0,1E0,3E0,3E0,2E0,1E0,5E0,1E0,2E0],"tree_param":{"num_deleted":"0","num_feature":"41","num_nodes":"13","size_leaf_vector":"1"}},{"base_weights":[1.0696872E0,4.2567096E0,-5.9971423E0,8.347357E0,1.500049E0,9.992696E-1,-1.9540332E-1,1.8743518E-1,4.1497484E-2,3.0862327E0,1.7591833E-1,2.4530625E-2,4.447464E-3,7.456496E-2,1.0601867E-2,-4.535385E-1,1.979776E-2,-1.2064961E-2,-0E0],"categories":[],"categories_nodes":[],"categories_segments":[],"categories_sizes":[],"default_left":[0,0,0,0,0,0,0,0,0,0,0,0,0,0,0,0,0,0,0],"id":13,"left_children":[1,3,5,7,9,11,-1,-1,-1,13,15,-1,-1,-1,-1,17,-1,-1,-1],"loss_changes":[4.3075266E2,1.3308865E2,1.6902588E2,1.1537811E1,1.8033693E1,1.12038136E-1,0E0,0E0,0E0,4.1621666E0,3.5767398E0,0E0,0E0,0E0,0E0,2.6893604E-1,0E0,0E0,0E0],"parents":[2147483647,0,0,1,1,2,2,3,3,4,4,5,5,9,9,10,10,15,15],"right_children":[2,4,6,8,10,12,-1,-1,-1,14,16,-1,-1,-1,-1,18,-1,-1,-1],"split_conditions":[7.102885E-1,2.3997675E-1,3.3333334E-1,7.1484375E-1,5.3846157E-1,5.2380955E-1,-1.9540332E-1,1.8743518E-1,4.1497484E-2,9.52381E-2,5.561968E-1,2.4530625E-2,4.447464E-3,7.456496E-2,1.0601867E-2,9.52381E-2,1.979776E-2,-1.2064961E-2,-0E0],"split_indices":[39,32,18,17,11,5,0,0,0,5,39,0,0,0,0,5,0,0,0],"split_type":[0,0,0,0,0,0,0,0,0,0,0,0,0,0,0,0,0,0,0],"sum_hessian":[1.7E1,1.2E1,5E0,4E0,8E0,2E0,3E0,3E0,1E0,3E0,5E0,1E0,1E0,2E0,1E0,3E0,2E0,2E0,1E0],"tree_param":{"num_deleted":"0","num_feature":"41","num_nodes":"19","size_leaf_vector":"1"}},{"base_weights":[3.8813242E-1,-4.767139E0,4.2185698E0,-1.4445854E0,-1.5149662E-1,1.2673236E0,1.7363077E-1,-3.8927216E-2,-1.19041335E-2,-0E0,3.0433403E-2],"categories":[],"categories_nodes":[],"categories_segments":[],"categories_sizes":[],"default_left":[0,0,0,0,0,0,0,0,0,0,0],"id":14,"left_children":[1,3,5,7,-1,9,-1,-1,-1,-1,-1],"loss_changes":[2.7676593E2,4.4127808E1,9.337334E1,2.9214573E-1,0E0,1.9407482E0,0E0,0E0,0E0,0E0,0E0],"parents":[2147483647,0,0,1,1,2,2,3,3,5,5],"right_children":[2,4,6,8,-1,10,-1,-1,-1,-1,-1],"split_conditions":[5E-1,7.5E-1,1E0,2.1666667E-1,-1.5149662E-1,5E-1,1.7363077E-1,-3.8927216E-2,-1.19041335E-2,-0E0,3.0433403E-2],"split_indices":[8,7,9,2,0,7,0,0,0,0,0],"split_type":[0,0,0,0,0,0,0,0,0,0,0],"sum_hessian":[1.2E1,5E0,7E0,3E0,2E0,5E0,2E0,1E0,2E0,1E0,4E0],"tree_param":{"num_deleted":"0","num_feature":"41","num_nodes":"11","size_leaf_vector":"1"}},{"base_weights":[2.4621603E0,-2.1832035E0,5.9422355E0,1.7387311E0,-1.8665342E-1,-2.7599153E-1,2.030077E-1,-3.357292E-1,7.916869E-2,-1.9596196E0,2.9326009E-2,2.1796325E-2,-2.4150329E-2,-7.1056974E-3,-5.068289E-2],"categories":[],"categories_nodes":[],"categories_segments":[],"categories_sizes":[],"default_left":[1,1,0,0,0,0,0,0,0,0,0,0,0,0,0],"id":15,"left_children":[1,3,5,7,-1,9,-1,11,-1,13,-1,-1,-1,-1,-1],"loss_changes":[2.8817468E2,2.4130441E2,2.6546118E2,2.9319353E1,0E0,1.7589582E1,0E0,6.298831E0,0E0,1.5759048E0,0E0,0E0,0E0,0E0,0E0],"parents":[2147483647,0,0,1,1,2,2,3,3,5,5,7,7,9,9],"right_children":[2,4,6,8,-1,10,-1,12,-1,14,-1,-1,-1,-1,-1],"split_conditions":[2.173913E-1,1.7391305E-1,4.9503833E-1,3.3333334E-1,-1.8665342E-1,3.3333334E-1,2.030077E-1,1.25E-1,7.916869E-2,5.416667E-1,2.9326009E-2,2.1796325E-2,-2.4150329E-2,-7.1056974E-3,-5.068289E-2],"split_indices":[28,28,33,0,0,3,0,0,0,0,0,0,0,0,0],"split_type":[0,0,0,0,0,0,0,0,0,0,0,0,0,0,0],"sum_hessian":[1.6E1,7E0,9E0,5E0,2E0,4E0,5E0,3E0,2E0,2E0,2E0,1E0,2E0,1E0,1E0],"tree_param":{"num_deleted":"0","num_feature":"41","num_nodes":"15","size_leaf_vector":"1"}},{"base_weights":[-3.257273E0,6.010713E0,-7.5755386E0,1.5311635E-1,1.966281E-1,9.634473E-1,-1.34454365E1,-7.034668E-3,1.2628158E-2,-3.0708352E-2,3.1744964E0,2.368773E-2,-3.3256558E-1,1.4672454E-2,7.956244E-2],"categories":[],"categories_nodes":[],"categories_segments":[],"categories_sizes":[],"default_left":[0,0,0,0,0,0,0,0,0,0,0,0,0,0,0],"id":16,"left_children":[1,3,5,7,-1,9,11,-1,-1,-1,13,-1,-1,-1,-1],"loss_changes":[6.059935E2,1.09396576E2,5.154319E2,9.7445095E-1,0E0,3.266365E1,3.0062524E2,0E0,0E0,0E0,2.4950294E0,0E0,0E0,0E0,0E0],"parents":[2147483647,0,0,1,1,2,2,3,3,5,5,6,6,10,10],"right_children":[2,4,6,8,-1,10,12,-1,-1,-1,14,-1,-1,-1,-1],"split_conditions":[9.52381E-2,2.1511628E-1,2.015504E-1,4.642857E-1,1.966281E-1,4.2857143E-1,1.3492064E-1,-7.034668E-3,1.2628158E-2,-3.0708352E-2,6.0714287E-1,2.368773E-2,-3.3256558E-1,1.4672454E-2,7.956244E-2],"split_indices":[5,21,21,1,0,1,18,0,0,0,1,0,0,0,0],"split_type":[0,0,0,0,0,0,0,0,0,0,0,0,0,0,0],"sum_hessian":[1.3E1,4E0,9E0,2E0,2E0,4E0,5E0,1E0,1E0,2E0,2E0,1E0,4E0,1E0,1E0],"tree_param":{"num_deleted":"0","num_feature":"41","num_nodes":"15","size_leaf_vector":"1"}},{"base_weights":[8.837298E-1,-8.722822E0,3.779305E0,6.362387E-2,-2.7569115E-1,-1.4117287E0,8.444724E0,2.791351E0,-1.5959238E-1,1.2273173E0,2.2132446E-1,-1.2801045E-2,1.0651275E-1,3.9689317E-2,-1.8697968E-3],"categories":[],"categories_nodes":[],"categories_segments":[],"categories_sizes":[],"default_left":[0,0,0,0,0,0,0,0,0,0,0,0,0,0,0],"id":17,"left_children":[1,3,5,-1,-1,7,9,11,-1,13,-1,-1,-1,-1,-1],"loss_changes":[4.7753574E2,2.859316E2,3.2746344E2,0E0,0E0,2.160303E2,1.1763187E2,4.7358044E1,0E0,3.3747663E0,0E0,0E0,0E0,0E0,0E0],"parents":[2147483647,0,0,1,1,2,2,5,5,6,6,7,7,9,9],"right_children":[2,4,6,-1,-1,8,10,12,-1,14,-1,-1,-1,-1,-1],"split_conditions":[2.0833333E-1,3.8333333E-1,2.2222222E-1,6.362387E-2,-2.7569115E-1,4.1424936E-1,1.0695409E-1,5.416667E-1,-1.5959238E-1,7.916667E-1,2.2132446E-1,-1.2801045E-2,1.0651275E-1,3.9689317E-2,-1.8697968E-3],"split_indices":[0,2,3,0,0,40,22,0,0,0,0,0,0,0,0],"split_type":[0,0,0,0,0,0,0,0,0,0,0,0,0,0,0],"sum_hessian":[1.5E1,3E0,1.2E1,1E0,2E0,6E0,6E0,4E0,2E0,2E0,4E0,2E0,2E0,1E0,1E0],"tree_param":{"num_deleted":"0","num_feature":"41","num_nodes":"15","size_leaf_vector":"1"}},{"base_weights":[-1.5161835E-1,-1.6458303E-1,1.0060021E0,1.898401E0,-1.04951836E-1,2.772716E0,-1.9068878E0,-6.8363035E-3,3.1283507E0,-5.435553E-2,-1.8511048E-3,3.82757E0,2.1952583E-2,2.1237625E-2,8.189742E-2],"categories":[],"categories_nodes":[],"categories_segments":[],"categories_sizes":[],"default_left":[0,0,0,0,0,0,0,0,0,0,0,0,0,0,0],"id":18,"left_children":[1,-1,3,5,-1,7,9,-1,11,-1,-1,13,-1,-1,-1],"loss_changes":[1.4926163E2,0E0,8.775693E1,4.862512E1,0E0,1.3531952E1,3.8810873E0,0E0,9.505432E0,0E0,0E0,3.1095886E-1,0E0,0E0,0E0],"parents":[2147483647,0,0,2,2,3,3,5,5,6,6,8,8,11,11],"right_children":[2,-1,4,6,-1,8,10,-1,12,-1,-1,14,-1,-1,-1],"split_conditions":[8.3333336E-2,-1.6458303E-1,5.6666666E-1,6.9089794E-1,-1.04951836E-1,4.761905E-2,7.5E-1,-6.8363035E-3,6.666667E-1,-5.435553E-2,-1.8511048E-3,1.3492064E-1,2.1952583E-2,2.1237625E-2,8.189742E-2],"split_indices":[0,0,2,35,0,18,0,0,18,0,0,18,0,0,0],"split_type":[0,0,0,0,0,0,0,0,0,0,0,0,0,0,0],"sum_hessian":[1.4E1,1E0,1.3E1,1.2E1,1E0,1E1,2E0,1E0,9E0,1E0,1E0,6E0,3E0,1E0,5E0],"tree_param":{"num_deleted":"0","num_feature":"41","num_nodes":"15","size_leaf_vector":"1"}},{"base_weights":[2.2761169E-1,-5.0562253E0,7.002886E0,9.1305816E-1,-1.0034264E1,1.0910431E0,2.2278015E-1,3.519134E-2,-2.3729768E-2,4.522232E-3,-2.536177E-1,3.427311E-2,-6.767944E-3],"categories":[],"categories_nodes":[],"categories_segments":[],"categories_sizes":[],"default_left":[0,1,0,0,0,0,0,0,0,0,0,0,0],"id":19,"left_children":[1,3,5,7,9,11,-1,-1,-1,-1,-1,-1,-1],"loss_changes":[5.725945E2,2.7751184E2,1.5778854E2,1.1031435E1,1.398894E2,4.277371E0,0E0,0E0,0E0,0E0,0E0,0E0,0E0],"parents":[2147483647,0,0,1,1,2,2,3,3,4,4,5,5],"right_children":[2,4,6,8,10,12,-1,-1,-1,-1,-1,-1,-1],"split_conditions":[3.3371335E-1,6.3303304E-1,4.3820226E-1,7.1428573E-1,7.5E-1,6.1538464E-1,2.2278015E-1,3.519134E-2,-2.3729768E-2,4.522232E-3,-2.536177E-1,3.427311E-2,-6.767944E-3],"split_indices":[22,39,31,4,7,11,0,0,0,0,0,0,0],"split_type":[0,0,0,0,0,0,0,0,0,0,0,0,0],"sum_hessian":[1.4E1,8E0,6E0,4E0,4E0,3E0,3E0,3E0,1E0,1E0,3E0,2E0,1E0],"tree_param":{"num_deleted":"0","num_feature":"41","num_nodes":"13","size_leaf_vector":"1"}},{"base_weights":[-8.875434E-1,-3.0476895E-1,5.869243E-1,2.5670767E0,-2.2912595E-1,-7.646399E-1,5.9948645E0,9.2152303E-1,-1.6040106E-1,4.374938E-2,1.5034634E-1,1.6619476E0,-3.9449462E-1,6.7719114E-3,3.6777977E-2,4.4769896E-3,-1.4171183E-2],"categories":[],"categories_nodes":[],"categories_segments":[],"categories_sizes":[],"default_left":[0,0,0,0,0,0,0,0,0,0,0,0,0,0,0,0,0],"id":20,"left_children":[1,-1,3,5,-1,7,9,11,-1,-1,-1,13,15,-1,-1,-1,-1],"loss_changes":[4.5476785E2,0E0,5.0546863E2,2.1067444E2,0E0,1.304386E2,3.475482E1,9.55208E0,0E0,0E0,0E0,5.64621E-1,9.838814E-1,0E0,0E0,0E0,0E0],"parents":[2147483647,0,0,2,2,3,3,5,5,6,6,7,7,11,11,12,12],"right_children":[2,-1,4,6,-1,8,10,12,-1,-1,-1,14,16,-1,-1,-1,-1],"split_conditions":[2.1168967E-1,-3.0476895E-1,5.6666666E-1,6.315789E-1,-2.2912595E-1,8.59375E-1,2.644628E-1,2.1666667E-1,-1.6040106E-1,4.374938E-2,1.5034634E-1,4.761905E-2,2.1428572E-1,6.7719114E-3,3.6777977E-2,4.4769896E-3,-1.4171183E-2],"split_indices":[36,0,2,27,0,17,30,2,0,0,0,4,1,0,0,0,0],"split_type":[0,0,0,0,0,0,0,0,0,0,0,0,0,0,0,0,0],"sum_hessian":[2E1,1E0,1.9E1,1.7E1,2E0,9E0,8E0,8E0,1E0,3E0,5E0,5E0,3E0,1E0,4E0,1E0,2E0],"tree_param":{"num_deleted":"0","num_feature":"41","num_nodes":"17","size_leaf_vector":"1"}},{"base_weights":[-3.2508228E0,-6.407576E-1,-1.0410853E1,-8.290413E0,1.9541905E0,5.913869E-1,-3.5952285E-1,-4.3982986E-2,-1.9108899E-1,-1.24244474E-1,4.069999E0,-5.7543244E-2,7.628485E-2,9.06881E-1,-2.2986175E-2,2.7306966E-2,1.0111976E-1,-2.5523223E-3,2.6551707E-2],"categories":[],"categories_nodes":[],"categories_segments":[],"categories_sizes":[],"default_left":[0,0,0,0,1,0,0,0,0,0,0,0,0,0,0,0,0,0,0],"id":21,"left_children":[1,3,5,7,9,11,-1,-1,-1,13,15,-1,-1,17,-1,-1,-1,-1,-1],"loss_changes":[3.4729877E2,3.1459152E2,4.2854492E2,8.611328E0,5.3671104E1,4.4603798E1,0E0,0E0,0E0,8.465318E0,8.455208E0,0E0,0E0,2.030288E0,0E0,0E0,0E0,0E0,0E0],"parents":[2147483647,0,0,1,1,2,2,3,3,4,4,5,5,9,9,10,10,13,13],"right_children":[2,4,6,8,10,12,-1,-1,-1,14,16,-1,-1,18,-1,-1,-1,-1,-1],"split_conditions":[6.77686E-1,1.6666667E-1,1.8333334E-1,2.1666667E-1,5.652174E-1,8.3333336E-2,-3.5952285E-1,-4.3982986E-2,-1.9108899E-1,2.1666667E-1,6.233441E-1,-5.7543244E-2,7.628485E-2,4E-1,-2.2986175E-2,2.7306966E-2,1.0111976E-1,-2.5523223E-3,2.6551707E-2],"split_indices":[30,3,2,2,28,2,0,0,0,2,37,0,0,12,0,0,0,0,0],"split_type":[0,0,0,0,0,0,0,0,0,0,0,0,0,0,0,0,0,0,0],"sum_hessian":[1.8E1,1.4E1,4E0,3E0,1.1E1,2E0,2E0,1E0,2E0,6E0,5E0,1E0,1E0,3E0,3E0,2E0,3E0,1E0,2E0],"tree_param":{"num_deleted":"0","num_feature":"41","num_nodes":"19","size_leaf_vector":"1"}},{"base_weights":[-1.0952365E0,5.1503816E0,-6.435748E0,5.9412993E-3,5.8930902E0,1.839569E-2,-2.583898E-1,1.7629456E-2,1.3398238E-1,1.1338191E0,-2.1396525E-2,2.8352493E-2,4.662079E-3],"categories":[],"categories_nodes":[],"categories_segments":[],"categories_sizes":[],"default_left":[0,0,1,0,0,0,0,0,0,0,0,0,0],"id":22,"left_children":[1,3,5,-1,7,9,-1,-1,-1,11,-1,-1,-1],"loss_changes":[5.0024222E2,2.2862549E1,3.3630386E2,0E0,1.7573898E1,7.2885294E0,0E0,0E0,0E0,2.7135754E-1,0E0,0E0,0E0],"parents":[2147483647,0,0,1,1,2,2,4,4,5,5,9,9],"right_children":[2,4,6,-1,8,10,-1,-1,-1,12,-1,-1,-1],"split_conditions":[5.3846157E-1,4.761905E-2,2.4358974E-1,5.9412993E-3,3.846154E-2,6.1538464E-1,-2.583898E-1,1.7629456E-2,1.3398238E-1,4.1666668E-2,-2.1396525E-2,2.8352493E-2,4.662079E-3],"split_indices":[11,4,16,0,16,11,0,0,0,0,0,0,0],"split_type":[0,0,0,0,0,0,0,0,0,0,0,0,0],"sum_hessian":[1.3E1,6E0,7E0,1E0,5E0,4E0,3E0,1E0,4E0,2E0,2E0,1E0,1E0],"tree_param":{"num_deleted":"0","num_feature":"41","num_nodes":"13","size_leaf_vector":"1"}},{"base_weights":[-2.4932165E0,-5.6889815E0,2.0178413E-1,-9.1006523E-1,-3.0089602E-1,5.31951E-1,-1.5430227E-1,1.9856815E0,-2.1200652E0,8.13293E-4,2.7594662E0,-5.5906516E-2,-0E0,-6.1147916E-3,7.13919E-3,6.554572E-2,5.881866E-3],"categories":[],"categories_nodes":[],"categories_segments":[],"categories_sizes":[],"default_left":[0,0,0,1,0,0,0,0,0,0,0,0,0,0,0,0,0],"id":23,"left_children":[1,3,-1,5,-1,7,-1,9,11,13,15,-1,-1,-1,-1,-1,-1],"loss_changes":[7.8074567E2,6.553729E2,0E0,1.12765274E2,0E0,4.274951E1,0E0,1.0472752E1,5.4628296E0,4.4179162E-1,5.06213E0,0E0,0E0,0E0,0E0,0E0,0E0],"parents":[2147483647,0,0,1,1,3,3,5,5,7,7,8,8,9,9,10,10],"right_children":[2,4,-1,6,-1,8,-1,10,12,14,16,-1,-1,-1,-1,-1,-1],"split_conditions":[5.872093E-1,3.2170543E-1,2.0178413E-1,9.245742E-1,-3.0089602E-1,6.666667E-1,-1.5430227E-1,2.2787029E-1,1E0,4.642857E-1,6.711273E-1,-5.5906516E-2,-0E0,-6.1147916E-3,7.13919E-3,6.554572E-2,5.881866E-3],"split_indices":[21,21,0,13,0,26,0,20,6,1,13,0,0,0,0,0,0],"split_type":[0,0,0,0,0,0,0,0,0,0,0,0,0,0,0,0,0],"sum_hessian":[1.7E1,1.4E1,3E0,1E1,4E0,9E0,1E0,6E0,3E0,2E0,4E0,2E0,1E0,1E0,1E0,3E0,1E0],"tree_param":{"num_deleted":"0","num_feature":"41","num_nodes":"17","size_leaf_vector":"1"}},{"base_weights":[2.5601268E0,3.7558634E0,-1.5275922E-1,1.6691174E-1,1.9046338E0,-2.91459E-1,4.1659694E0,-1.9605271E0,2.8509475E-2,1.1498732E-1,1.265568E-2,-1.31150205E-2,-5.774855E-2],"categories":[],"categories_nodes":[],"categories_segments":[],"categories_sizes":[],"default_left":[0,0,0,0,0,0,0,0,0,0,0,0,0],"id":24,"left_children":[1,3,-1,-1,5,7,9,11,-1,-1,-1,-1,-1],"loss_changes":[2.2340656E2,1.1052916E2,0E0,0E0,6.1194893E1,2.2907928E1,2.929029E1,2.589837E0,0E0,0E0,0E0,0E0,0E0],"parents":[2147483647,0,0,1,1,4,4,5,5,6,6,7,7],"right_children":[2,4,-1,-1,6,8,10,12,-1,-1,-1,-1,-1],"split_conditions":[9.245742E-1,1.7475477E-1,-1.5275922E-1,1.6691174E-1,3.974359E-1,4.1424936E-1,5.3122467E-1,7.5E-1,2.8509475E-2,1.1498732E-1,1.265568E-2,-1.31150205E-2,-5.774855E-2],"split_indices":[13,32,0,0,16,40,13,7,0,0,0,0,0],"split_type":[0,0,0,0,0,0,0,0,0,0,0,0,0],"sum_hessian":[1.5E1,1.4E1,1E0,3E0,1.1E1,6E0,5E0,3E0,3E0,3E0,2E0,2E0,1E0],"tree_param":{"num_deleted":"0","num_feature":"41","num_nodes":"13","size_leaf_vector":"1"}},{"base_weights":[1.0302075E0,2.9670627E0,-8.318519E0,1.7358967E0,1.8872221E-1,-2.0927778E-1,-3.9277785E-2,5.1111037E-1,1.1229628E-1,1.3381937E0,-2.4916679E-2,-0E0,1.5333326E0,3.5155542E-2,1.2296285E-2],"categories":[],"categories_nodes":[],"categories_segments":[],"categories_sizes":[],"default_left":[0,0,0,0,0,0,0,0,0,0,0,0,0,0,0],"id":25,"left_children":[1,3,5,7,-1,-1,-1,9,-1,11,-1,-1,13,-1,-1],"loss_changes":[3.138605E2,9.4005295E1,1.91064E1,5.827861E1,0E0,0E0,0E0,1.7660936E1,0E0,2.1316624E0,0E0,0E0,1.251297E-1,0E0,0E0],"parents":[2147483647,0,0,1,1,2,2,3,3,7,7,9,9,12,12],"right_children":[2,4,6,8,-1,-1,-1,10,-1,12,-1,-1,14,-1,-1],"split_conditions":[5.903614E-1,6.344887E-1,4.3333334E-1,6.966292E-1,1.8872221E-1,-2.0927778E-1,-3.9277785E-2,4.438802E-1,1.1229628E-1,2.3114355E-1,-2.4916679E-2,-0E0,1.7829457E-1,3.5155542E-2,1.2296285E-2],"split_indices":[14,38,2,31,0,0,0,22,0,13,0,0,21,0,0],"split_type":[0,0,0,0,0,0,0,0,0,0,0,0,0,0,0],"sum_hessian":[1.5E1,1.3E1,2E0,1.2E1,1E0,1E0,1E0,1E1,2E0,7E0,3E0,1E0,6E0,4E0,2E0],"tree_param":{"num_deleted":"0","num_feature":"41","num_nodes":"15","size_leaf_vector":"1"}},{"base_weights":[-8.09008E0,-1.3415001E1,4.1577773E0,-1.9152382E1,-0E0,1.856296E-1,-2.318519E0,4.8722215E-2,-4.6346298E-1,4.562962E-2,-6.9277786E-2,-7.927778E-2,8.722213E-3],"categories":[],"categories_nodes":[],"categories_segments":[],"categories_sizes":[],"default_left":[0,0,0,0,0,0,0,0,0,0,0,0,0],"id":26,"left_children":[1,3,5,7,9,-1,11,-1,-1,-1,-1,-1,-1],"loss_changes":[9.697664E2,7.680736E2,1.881287E2,6.6614233E2,3.9612526E1,0E0,1.5678629E1,0E0,0E0,0E0,0E0,0E0,0E0],"parents":[2147483647,0,0,1,1,2,2,3,3,4,4,6,6],"right_children":[2,4,6,8,10,-1,12,-1,-1,-1,-1,-1,-1],"split_conditions":[6.666667E-1,4.526316E-1,2.9126215E-1,2.4528302E-1,5.660377E-1,1.856296E-1,4.716981E-1,4.8722215E-2,-4.6346298E-1,4.562962E-2,-6.9277786E-2,-7.927778E-2,8.722213E-3],"split_indices":[7,18,16,2,2,0,2,0,0,0,0,0,0],"split_type":[0,0,0,0,0,0,0,0,0,0,0,0,0],"sum_hessian":[1.3E1,9E0,4E0,6E0,3E0,2E0,2E0,1E0,5E0,2E0,1E0,1E0,1E0],"tree_param":{"num_deleted":"0","num_feature":"41","num_nodes":"13","size_leaf_vector":"1"}},{"base_weights":[-8.09008E0,-1.3415001E1,4.1577773E0,-1.9152382E1,-0E0,1.856296E-1,-2.318519E0,4.8722215E-2,-4.6346298E-1,4.562962E-2,-6.9277786E-2,-7.927778E-2,8.722213E-3],"categories":[],"categories_nodes":[],"categories_segments":[],"categories_sizes":[],"default_left":[0,0,0,0,0,0,0,0,0,0,0,0,0],"id":27,"left_children":[1,3,5,7,9,-1,11,-1,-1,-1,-1,-1,-1],"loss_changes":[9.697664E2,7.680736E2,1.881287E2,6.6614233E2,3.9612526E1,0E0,1.5678629E1,0E0,0E0,0E0,0E0,0E0,0E0],"parents":[2147483647,0,0,1,1,2,2,3,3,4,4,6,6],"right_children":[2,4,6,8,10,-1,12,-1,-1,-1,-1,-1,-1],"split_conditions":[6.666667E-1,4.526316E-1,2.9126215E-1,2.4528302E-1,5.660377E-1,1.856296E-1,4.716981E-1,4.8722215E-2,-4.6346298E-1,4.562962E-2,-6.9277786E-2,-7.927778E-2,8.722213E-3],"split_indices":[7,18,16,2,2,0,2,0,0,0,0,0,0],"split_type":[0,0,0,0,0,0,0,0,0,0,0,0,0],"sum_hessian":[1.3E1,9E0,4E0,6E0,3E0,2E0,2E0,1E0,5E0,2E0,1E0,1E0,1E0],"tree_param":{"num_deleted":"0","num_feature":"41","num_nodes":"13","size_leaf_vector":"1"}},{"base_weights":[-9.391212E-1,5.67619E0,-3.4651244E0,1.7115554E-1,-9.8518574E-1,-1.0602222E1,-6.6150874E-1,2.8722214E-2,-5.9277784E-2,-2.4991669E-1,-2.9277787E-2,-7.245834E0,1.7838376E0,-1.6637036E-1,-3.9277785E-2,4.626851E0,-1.3398155E0,1.2296285E-2,1.2908332E-1,-5.9916675E-2,1.2814809E0,-0E0,3.8722213E-2],"categories":[],"categories_nodes":[],"categories_segments":[],"categories_sizes":[],"default_left":[0,0,0,0,0,0,0,0,0,0,0,0,0,0,0,0,0,0,0,0,0,0,0],"id":28,"left_children":[1,3,5,-1,7,9,11,-1,-1,-1,-1,13,15,-1,-1,17,19,-1,-1,-1,21,-1,-1],"loss_changes":[4.204947E2,1.4355559E2,3.5203442E2,0E0,1.8782337E1,6.68338E1,2.3888496E2,0E0,0E0,0E0,0E0,5.2985687E0,1.0421431E2,0E0,0E0,3.93125E1,3.005603E1,0E0,0E0,0E0,2.5704694E0,0E0,0E0],"parents":[2147483647,0,0,1,1,2,2,4,4,5,5,6,6,11,11,12,12,15,15,16,16,20,20],"right_children":[2,4,6,-1,8,10,12,-1,-1,-1,-1,14,16,-1,-1,18,20,-1,-1,-1,22,-1,-1],"split_conditions":[3.846154E-1,6.581197E-1,3.6134455E-1,1.7115554E-1,7.692308E-2,7.1428573E-1,2.857143E-1,2.8722214E-2,-5.9277784E-2,-2.4991669E-1,-2.9277787E-2,6.7948717E-1,5.6302524E-1,-1.6637036E-1,-3.9277785E-2,1.810317E-2,2.596719E-1,1.2296285E-2,1.2908332E-1,-5.9916675E-2,4.4871795E-1,-0E0,3.8722213E-2],"split_indices":[2,13,16,0,2,7,7,0,0,0,0,2,16,0,0,35,35,0,0,0,2,0,0],"split_type":[0,0,0,0,0,0,0,0,0,0,0,0,0,0,0,0,0,0,0,0,0,0,0],"sum_hessian":[2.3E1,6E0,1.7E1,4E0,2E0,4E0,1.3E1,1E0,1E0,3E0,1E0,3E0,1E1,2E0,1E0,5E0,5E0,2E0,3E0,3E0,2E0,1E0,1E0],"tree_param":{"num_deleted":"0","num_feature":"41","num_nodes":"23","size_leaf_vector":"1"}},{"base_weights":[-9.391212E-1,5.67619E0,-3.4651244E0,1.7115554E-1,-9.8518574E-1,-1.0602222E1,-6.6150874E-1,2.8722214E-2,-5.9277784E-2,-2.4991669E-1,-2.9277787E-2,-7.245834E0,1.7838376E0,-1.6637036E-1,-3.9277785E-2,4.626851E0,-1.3398155E0,1.2296285E-2,1.2908332E-1,-5.9916675E-2,1.2814809E0,-0E0,3.8722213E-2],"categories":[],"categories_nodes":[],"categories_segments":[],"categories_sizes":[],"default_left":[0,0,0,0,0,0,0,0,0,0,0,0,0,0,0,0,0,0,0,0,0,0,0],"id":29,"left_children":[1,3,5,-1,7,9,11,-1,-1,-1,-1,13,15,-1,-1,17,19,-1,-1,-1,21,-1,-1],"loss_changes":[4.204947E2,1.4355559E2,3.5203442E2,0E0,1.8782337E1,6.68338E1,2.3888496E2,0E0,0E0,0E0,0E0,5.2985687E0,1.0421431E2,0E0,0E0,3.93125E1,3.005603E1,0E0,0E0,0E0,2.5704694E0,0E0,0E0],"parents":[2147483647,0,0,1,1,2,2,4,4,5,5,6,6,11,11,12,12,15,15,16,16,20,20],"right_children":[2,4,6,-1,8,10,12,-1,-1,-1,-1,14,16,-1,-1,18,20,-1,-1,-1,22,-1,-1],"split_conditions":[3.846154E-1,6.581197E-1,3.6134455E-1,1.7115554E-1,7.692308E-2,7.1428573E-1,2.857143E-1,2.8722214E-2,-5.9277784E-2,-2.4991669E-1,-2.9277787E-2,6.7948717E-1,5.6302524E-1,-1.6637036E-1,-3.9277785E-2,1.810317E-2,2.596719E-1,1.2296285E-2,1.2908332E-1,-5.9916675E-2,4.4871795E-1,-0E0,3.8722213E-2],"split_indices":[2,13,16,0,2,7,7,0,0,0,0,2,16,0,0,35,35,0,0,0,2,0,0],"split_type":[0,0,0,0,0,0,0,0,0,0,0,0,0,0,0,0,0,0,0,0,0,0,0],"sum_hessian":[2.3E1,6E0,1.7E1,4E0,2E0,4E0,1.3E1,1E0,1E0,3E0,1E0,3E0,1E1,2E0,1E0,5E0,5E0,2E0,3E0,3E0,2E0,1E0,1E0],"tree_param":{"num_deleted":"0","num_feature":"41","num_nodes":"23","size_leaf_vector":"1"}},{"base_weights":[-2.6213896E0,-1.4402223E1,1.2177075E0,-4.7303703E-1,-3.185191E-1,3.3512812E0,-1.1991668E-1,-3.9277785E-2,2.8722214E-2,4.631937E-1,1.3253702E-1,1.2935178E0,-2.6370382E-2,1.7577771E0,-9.277786E-3,3.908332E-2,8.722213E-3],"categories":[],"categories_nodes":[],"categories_segments":[],"categories_sizes":[],"default_left":[0,0,0,0,0,0,0,0,0,0,0,0,0,0,0,0,0],"id":30,"left_children":[1,3,5,-1,7,9,-1,-1,-1,11,-1,13,-1,15,-1,-1,-1],"loss_changes":[9.234114E2,6.4141455E2,2.6607922E2,0E0,1.1534187E1,1.1920322E2,0E0,0E0,0E0,1.3538221E1,0E0,5.8401575E0,0E0,2.0654392E-1,0E0,0E0,0E0],"parents":[2147483647,0,0,1,1,2,2,4,4,5,5,9,9,11,11,13,13],"right_children":[2,4,6,-1,8,10,-1,-1,-1,12,-1,14,-1,16,-1,-1,-1],"split_conditions":[3.2698877E-2,4.1538462E-1,5.3846157E-1,-4.7303703E-1,7.076923E-1,4.4395396E-1,-1.1991668E-1,-3.9277785E-2,2.8722214E-2,5.3846157E-1,1.3253702E-1,1E0,-2.6370382E-2,6.666667E-1,-9.277786E-3,3.908332E-2,8.722213E-3],"split_indices":[35,2,21,0,2,38,0,0,0,2,0,8,0,8,0,0,0],"split_type":[0,0,0,0,0,0,0,0,0,0,0,0,0,0,0,0,0],"sum_hessian":[1.9E1,4E0,1.5E1,2E0,2E0,1.2E1,3E0,1E0,1E0,7E0,5E0,5E0,2E0,4E0,1E0,3E0,1E0],"tree_param":{"num_deleted":"0","num_feature":"41","num_nodes":"17","size_leaf_vector":"1"}},{"base_weights":[-2.6213896E0,-1.4402223E1,1.2177075E0,-4.7303703E-1,-3.185191E-1,3.3512812E0,-1.1991668E-1,-3.9277785E-2,2.8722214E-2,4.631937E-1,1.3253702E-1,1.2935178E0,-2.6370382E-2,1.7577771E0,-9.277786E-3,3.908332E-2,8.722213E-3],"categories":[],"categories_nodes":[],"categories_segments":[],"categories_sizes":[],"default_left":[0,0,0,0,0,0,0,0,0,0,0,0,0,0,0,0,0],"id":31,"left_children":[1,3,5,-1,7,9,-1,-1,-1,11,-1,13,-1,15,-1,-1,-1],"loss_changes":[9.234114E2,6.4141455E2,2.6607922E2,0E0,1.1534187E1,1.1920322E2,0E0,0E0,0E0,1.3538221E1,0E0,5.8401575E0,0E0,2.0654392E-1,0E0,0E0,0E0],"parents":[2147483647,0,0,1,1,2,2,4,4,5,5,9,9,11,11,13,13],"right_children":[2,4,6,-1,8,10,-1,-1,-1,12,-1,14,-1,16,-1,-1,-1],"split_conditions":[3.2698877E-2,4.1538462E-1,5.3846157E-1,-4.7303703E-1,7.076923E-1,4.4395396E-1,-1.1991668E-1,-3.9277785E-2,2.8722214E-2,5.3846157E-1,1.3253702E-1,1E0,-2.6370382E-2,6.666667E-1,-9.277786E-3,3.908332E-2,8.722213E-3],"split_indices":[35,2,21,0,2,38,0,0,0,2,0,8,0,8,0,0,0],"split_type":[0,0,0,0,0,0,0,0,0,0,0,0,0,0,0,0,0],"sum_hessian":[1.9E1,4E0,1.5E1,2E0,2E0,1.2E1,3E0,1E0,1E0,7E0,5E0,5E0,2E0,4E0,1E0,3E0,1E0],"tree_param":{"num_deleted":"0","num_feature":"41","num_nodes":"17","size_leaf_vector":"1"}},{"base_weights":[-4.6568527E0,-1.1269793E1,2.7007399E0,-5.463704E-1,-7.0186515E0,-3.2952387E0,7.075308E0,3.204166E0,-1.0107072E1,9.408332E-2,-2.0991668E-1,1.9915554E-1,2.7577772E0,-0E0,8.562961E-2,-1.2015E1,8.872221E-2,6.4083315E-2,8.722213E-3,-1.52952385E1,-3.2458339E0,-3.4012964E-1,-4.9277786E-2,-7.970372E-2,-9.277786E-3],"categories":[],"categories_nodes":[],"categories_segments":[],"categories_sizes":[],"default_left":[0,0,0,0,0,0,0,0,0,0,0,0,0,0,0,0,0,0,0,0,0,0,0,0,0],"id":32,"left_children":[1,3,5,-1,7,9,11,13,15,-1,-1,-1,17,-1,-1,19,-1,-1,-1,21,23,-1,-1,-1,-1],"loss_changes":[1.4909532E3,8.964336E2,4.171401E2,0E0,4.7508795E2,4.5315662E2,8.327347E1,1.39265175E1,3.592788E2,0E0,0E0,0E0,3.420433E0,0E0,0E0,2.3614966E2,0E0,0E0,0E0,1.0985376E2,5.9337463E0,0E0,0E0,0E0,0E0],"parents":[2147483647,0,0,1,1,2,2,4,4,5,5,6,6,7,7,8,8,12,12,15,15,19,19,20,20],"right_children":[2,4,6,-1,8,10,12,14,16,-1,-1,-1,18,-1,-1,20,-1,-1,-1,22,24,-1,-1,-1,-1],"split_conditions":[5.2887535E-1,1.25E-1,2.2742963E-1,-5.463704E-1,3.4074074E-1,2.5252894E-1,2.5E-1,2.875E-1,5E-1,9.408332E-2,-2.0991668E-1,1.9915554E-1,4E-1,-0E0,8.562961E-2,5.221841E-1,8.872221E-2,6.4083315E-2,8.722213E-3,9.6081066E-1,5.625E-1,-3.4012964E-1,-4.9277786E-2,-7.970372E-2,-9.277786E-3],"split_indices":[13,24,22,0,16,38,24,2,18,0,0,0,8,0,0,40,0,0,0,32,2,0,0,0,0],"split_type":[0,0,0,0,0,0,0,0,0,0,0,0,0,0,0,0,0,0,0,0,0,0,0,0,0],"sum_hessian":[2.9E1,1.5E1,1.4E1,2E0,1.3E1,6E0,8E0,3E0,1E1,3E0,3E0,4E0,4E0,1E0,2E0,9E0,1E0,3E0,1E0,6E0,3E0,5E0,1E0,2E0,1E0],"tree_param":{"num_deleted":"0","num_feature":"41","num_nodes":"25","size_leaf_vector":"1"}},{"base_weights":[-4.6568527E0,-1.1269793E1,2.7007399E0,-5.463704E-1,-7.0186515E0,-3.2952387E0,7.075308E0,3.204166E0,-1.0107072E1,9.408332E-2,-2.0991668E-1,1.9915554E-1,2.7577772E0,-0E0,8.562961E-2,-1.2015E1,8.872221E-2,6.4083315E-2,8.722213E-3,-1.52952385E1,-3.2458339E0,-3.4012964E-1,-4.9277786E-2,-7.970372E-2,-9.277786E-3],"categories":[],"categories_nodes":[],"categories_segments":[],"categories_sizes":[],"default_left":[0,0,0,0,0,0,0,0,0,0,0,0,0,0,0,0,0,0,0,0,0,0,0,0,0],"id":33,"left_children":[1,3,5,-1,7,9,11,13,15,-1,-1,-1,17,-1,-1,19,-1,-1,-1,21,23,-1,-1,-1,-1],"loss_changes":[1.4909532E3,8.964336E2,4.171401E2,0E0,4.7508795E2,4.5315662E2,8.327347E1,1.39265175E1,3.592788E2,0E0,0E0,0E0,3.420433E0,0E0,0E0,2.3614966E2,0E0,0E0,0E0,1.0985376E2,5.9337463E0,0E0,0E0,0E0,0E0],"parents":[2147483647,0,0,1,1,2,2,4,4,5,5,6,6,7,7,8,8,12,12,15,15,19,19,20,20],"right_children":[2,4,6,-1,8,10,12,14,16,-1,-1,-1,18,-1,-1,20,-1,-1,-1,22,24,-1,-1,-1,-1],"split_conditions":[5.2887535E-1,1.25E-1,2.2742963E-1,-5.463704E-1,3.4074074E-1,2.5252894E-1,2.5E-1,2.875E-1,5E-1,9.408332E-2,-2.0991668E-1,1.9915554E-1,4E-1,-0E0,8.562961E-2,5.221841E-1,8.872221E-2,6.4083315E-2,8.722213E-3,9.6081066E-1,5.625E-1,-3.4012964E-1,-4.9277786E-2,-7.970372E-2,-9.277786E-3],"split_indices":[13,24,22,0,16,38,24,2,18,0,0,0,8,0,0,40,0,0,0,32,2,0,0,0,0],"split_type":[0,0,0,0,0,0,0,0,0,0,0,0,0,0,0,0,0,0,0,0,0,0,0,0,0],"sum_hessian":[2.9E1,1.5E1,1.4E1,2E0,1.3E1,6E0,8E0,3E0,1E1,3E0,3E0,4E0,4E0,1E0,2E0,9E0,1E0,3E0,1E0,6E0,3E0,5E0,1E0,2E0,1E0],"tree_param":{"num_deleted":"0","num_feature":"41","num_nodes":"25","size_leaf_vector":"1"}},{"base_weights":[1.70074E0,4.2383833E0,-4.202223E0,1.1577771E0,5.819047E0,6.148142E-1,-1.5303704E-1,-6.518524E-1,5.2296285E-2,8.722213E-3,1.3253702E-1,-0E0,1.8722214E-2,-1.9277785E-2,-0E0],"categories":[],"categories_nodes":[],"categories_segments":[],"categories_sizes":[],"default_left":[0,0,0,0,0,0,0,0,0,0,0,0,0,0,0],"id":34,"left_children":[1,3,5,7,9,11,-1,13,-1,-1,-1,-1,-1,-1,-1],"loss_changes":[2.4250844E2,4.6128586E1,8.849313E1,1.5084256E1,2.6842163E1,6.186167E-1,0E0,5.834305E-1,0E0,0E0,0E0,0E0,0E0,0E0,0E0],"parents":[2147483647,0,0,1,1,2,2,3,3,4,4,5,5,7,7],"right_children":[2,4,6,8,10,12,-1,14,-1,-1,-1,-1,-1,-1,-1],"split_conditions":[7.1428573E-1,1.8644068E-1,7.854546E-1,3.9066097E-1,2.4561404E-1,5.7894737E-1,-1.5303704E-1,3.6842105E-1,5.2296285E-2,8.722213E-3,1.3253702E-1,-0E0,1.8722214E-2,-1.9277785E-2,-0E0],"split_indices":[24,16,31,22,2,2,0,2,0,0,0,0,0,0,0],"split_type":[0,0,0,0,0,0,0,0,0,0,0,0,0,0,0],"sum_hessian":[1.4E1,1E1,4E0,4E0,6E0,2E0,2E0,2E0,2E0,1E0,5E0,1E0,1E0,1E0,1E0],"tree_param":{"num_deleted":"0","num_feature":"41","num_nodes":"15","size_leaf_vector":"1"}},{"base_weights":[1.70074E0,4.2383833E0,-4.202223E0,1.1577771E0,5.819047E0,6.148142E-1,-1.5303704E-1,-6.518524E-1,5.2296285E-2,8.722213E-3,1.3253702E-1,-0E0,1.8722214E-2,-1.9277785E-2,-0E0],"categories":[],"categories_nodes":[],"categories_segments":[],"categories_sizes":[],"default_left":[0,0,0,0,0,0,0,0,0,0,0,0,0,0,0],"id":35,"left_children":[1,3,5,7,9,11,-1,13,-1,-1,-1,-1,-1,-1,-1],"loss_changes":[2.4250844E2,4.6128586E1,8.849313E1,1.5084256E1,2.6842163E1,6.186167E-1,0E0,5.834305E-1,0E0,0E0,0E0,0E0,0E0,0E0,0E0],"parents":[2147483647,0,0,1,1,2,2,3,3,4,4,5,5,7,7],"right_children":[2,4,6,8,10,12,-1,14,-1,-1,-1,-1,-1,-1,-1],"split_conditions":[7.1428573E-1,1.8644068E-1,7.854546E-1,3.9066097E-1,2.4561404E-1,5.7894737E-1,-1.5303704E-1,3.6842105E-1,5.2296285E-2,8.722213E-3,1.3253702E-1,-0E0,1.8722214E-2,-1.9277785E-2,-0E0],"split_indices":[24,16,31,22,2,2,0,2,0,0,0,0,0,0,0],"split_type":[0,0,0,0,0,0,0,0,0,0,0,0,0,0,0],"sum_hessian":[1.4E1,1E1,4E0,4E0,6E0,2E0,2E0,2E0,2E0,1E0,5E0,1E0,1E0,1E0,1E0],"tree_param":{"num_deleted":"0","num_feature":"41","num_nodes":"15","size_leaf_vector":"1"}},{"base_weights":[-1.0479488E1,-1.7261806E1,2.935178E-1,2.6148143E0,-2.4339815E1,-7.4916676E-2,5.6148143E0,8.872221E-2,-9.277786E-3,-5.320444E-1,-1.2927778E-1,1.8722214E-2,1.487222E-1],"categories":[],"categories_nodes":[],"categories_segments":[],"categories_sizes":[],"default_left":[0,0,0,0,0,0,0,0,0,0,0,0,0],"id":36,"left_children":[1,3,5,7,9,-1,11,-1,-1,-1,-1,-1,-1],"loss_changes":[9.56621E2,1.1913115E3,1.5018658E2,1.927678E1,6.739551E1,0E0,1.776567E1,0E0,0E0,0E0,0E0,0E0,0E0],"parents":[2147483647,0,0,1,1,2,2,3,3,4,4,6,6],"right_children":[2,4,6,8,10,-1,12,-1,-1,-1,-1,-1,-1],"split_conditions":[5.935987E-1,4.390244E-1,5.365854E-1,2.3636363E-1,6E-1,-7.4916676E-2,3.272727E-1,8.872221E-2,-9.277786E-3,-5.320444E-1,-1.2927778E-1,1.8722214E-2,1.487222E-1],"split_indices":[32,18,18,2,2,0,2,0,0,0,0,0,0],"split_type":[0,0,0,0,0,0,0,0,0,0,0,0,0],"sum_hessian":[1.2E1,7E0,5E0,2E0,5E0,3E0,2E0,1E0,1E0,4E0,1E0,1E0,1E0],"tree_param":{"num_deleted":"0","num_feature":"41","num_nodes":"13","size_leaf_vector":"1"}},{"base_weights":[-1.0479488E1,-1.7261806E1,2.935178E-1,2.6148143E0,-2.4339815E1,-7.4916676E-2,5.6148143E0,8.872221E-2,-9.277786E-3,-5.320444E-1,-1.2927778E-1,1.8722214E-2,1.487222E-1],"categories":[],"categories_nodes":[],"categories_segments":[],"categories_sizes":[],"default_left":[0,0,0,0,0,0,0,0,0,0,0,0,0],"id":37,"left_children":[1,3,5,7,9,-1,11,-1,-1,-1,-1,-1,-1],"loss_changes":[9.56621E2,1.1913115E3,1.5018658E2,1.927678E1,6.739551E1,0E0,1.776567E1,0E0,0E0,0E0,0E0,0E0,0E0],"parents":[2147483647,0,0,1,1,2,2,3,3,4,4,6,6],"right_children":[2,4,6,8,10,-1,12,-1,-1,-1,-1,-1,-1],"split_conditions":[5.935987E-1,4.390244E-1,5.365854E-1,2.3636363E-1,6E-1,-7.4916676E-2,3.272727E-1,8.872221E-2,-9.277786E-3,-5.320444E-1,-1.2927778E-1,1.8722214E-2,1.487222E-1],"split_indices":[32,18,18,2,2,0,2,0,0,0,0,0,0],"split_type":[0,0,0,0,0,0,0,0,0,0,0,0,0],"sum_hessian":[1.2E1,7E0,5E0,2E0,5E0,3E0,2E0,1E0,1E0,4E0,1E0,1E0,1E0],"tree_param":{"num_deleted":"0","num_feature":"41","num_nodes":"13","size_leaf_vector":"1"}},{"base_weights":[-6.3179094E-1,-8.495834E0,1.5007399E0,-2.1303704E-1,-1.9277785E-2,-3.2618062E0,6.088194E0,-9.491668E-2,-2.8044457E-2,1.856296E-1,3.4601846E0,1.8722214E-2,7.515554E-2],"categories":[],"categories_nodes":[],"categories_segments":[],"categories_sizes":[],"default_left":[0,0,0,0,0,0,0,0,0,0,0,0,0],"id":38,"left_children":[1,3,5,-1,-1,7,9,-1,-1,-1,11,-1,-1],"loss_changes":[3.153152E2,5.3527283E1,3.4786057E2,0E0,0E0,1.4807861E1,3.3746094E1,0E0,0E0,0E0,5.197983E-1,0E0,0E0],"parents":[2147483647,0,0,1,1,2,2,5,5,6,6,10,10],"right_children":[2,4,6,-1,-1,8,10,-1,-1,-1,12,-1,-1],"split_conditions":[4.943439E-2,7.3913044E-1,6.1957014E-1,-2.1303704E-1,-1.9277785E-2,6E-1,4.102212E-1,-9.491668E-2,-2.8044457E-2,1.856296E-1,5.014465E-1,1.8722214E-2,7.515554E-2],"split_indices":[35,2,40,0,0,24,38,0,0,0,13,0,0],"split_type":[0,0,0,0,0,0,0,0,0,0,0,0,0],"sum_hessian":[1.7E1,3E0,1.4E1,2E0,1E0,7E0,7E0,3E0,4E0,2E0,5E0,1E0,4E0],"tree_param":{"num_deleted":"0","num_feature":"41","num_nodes":"13","size_leaf_vector":"1"}},{"base_weights":[-6.3179094E-1,-8.495834E0,1.5007399E0,-2.1303704E-1,-1.9277785E-2,-3.2618062E0,6.088194E0,-9.491668E-2,-2.8044457E-2,1.856296E-1,3.4601846E0,1.8722214E-2,7.515554E-2],"categories":[],"categories_nodes":[],"categories_segments":[],"categories_sizes":[],"default_left":[0,0,0,0,0,0,0,0,0,0,0,0,0],"id":39,"left_children":[1,3,5,-1,-1,7,9,-1,-1,-1,11,-1,-1],"loss_changes":[3.153152E2,5.3527283E1,3.4786057E2,0E0,0E0,1.4807861E1,3.3746094E1,0E0,0E0,0E0,5.197983E-1,0E0,0E0],"parents":[2147483647,0,0,1,1,2,2,5,5,6,6,10,10],"right_children":[2,4,6,-1,-1,8,10,-1,-1,-1,12,-1,-1],"split_conditions":[4.943439E-2,7.3913044E-1,6.1957014E-1,-2.1303704E-1,-1.9277785E-2,6E-1,4.102212E-1,-9.491668E-2,-2.8044457E-2,1.856296E-1,5.014465E-1,1.8722214E-2,7.515554E-2],"split_indices":[35,2,40,0,0,24,38,0,0,0,13,0,0],"split_type":[0,0,0,0,0,0,0,0,0,0,0,0,0],"sum_hessian":[1.7E1,3E0,1.4E1,2E0,1E0,7E0,7E0,3E0,4E0,2E0,5E0,1E0,4E0],"tree_param":{"num_deleted":"0","num_feature":"41","num_nodes":"13","size_leaf_vector":"1"}}]},"name":"gbtree"},"learner_model_param":{"base_score":"[8.102778E1]","boost_from_average":"1","num_class":"0","num_feature":"41","num_target":"1"},"objective":{"name":"reg:squarederror","reg_loss_param":{"scale_pos_weight":"1"}}},"version":[3,1,2]}