{"learner":{"attributes":{},"feature_names":[],"feature_types":[],"gradient_booster":{"model":{"cats":{"enc":[],"feature_segments":[],"sorted_idx":[]},"gbtree_model_param":{"num_parallel_tree":"1","num_trees":"40"},"iteration_indptr":[0,1,2,3,4,5,6,7,8,9,10,11,12,13,14,15,16,17,18,19,20,21,22,23,24,25,26,27,28,29,30,31,32,33,34,35,36,37,38,39,40],"tree_info":[0,0,0,0,0,0,0,0,0,0,0,0,0,0,0,0,0,0,0,0,0,0,0,0,0,0,0,0,0,0,0,0,0,0,0,0,0,0,0,0],"trees":[{"base_weights":[1.0302075E0,1.9229627E-1,-8.757944E-1,1.238383E0,-6.495834E0,2.5577772E0,1.04761176E-1,-2.0927778E-1,-3.3037048E-2,8.722213E-3,5.9083316E-2,1.8962951E-2,-4.022229E-1,-2.6370382E-2,6.148142E-1,1.8722214E-2,-0E0],"categories":[],"categories_nodes":[],"categories_segments":[],"categories_sizes":[],"default_left":[0,0,0,0,0,0,0,0,0,0,0,0,0,0,0,0,0],"id":0,"left_children":[1,-1,3,5,7,9,11,-1,-1,-1,-1,-1,13,-1,15,-1,-1],"loss_changes":[2.7109094E2,0E0,1.7491473E2,1.5918421E1,5.8388382E1,2.5776558E0,3.4290435E0,0E0,0E0,0E0,0E0,0E0,5.540551E0,0E0,6.186167E-1,0E0,0E0],"parents":[2147483647,0,0,2,2,3,3,4,4,5,5,6,6,12,12,14,14],"right_children":[2,-1,4,6,8,10,12,-1,-1,-1,-1,-1,14,-1,16,-1,-1],"split_conditions":[3.3333334E-1,1.9229627E-1,3.8333333E-1,2.4831143E-1,1.1806651E-1,8.439168E-2,1.6303493E-1,-2.0927778E-1,-3.3037048E-2,8.722213E-3,5.9083316E-2,1.8962951E-2,6.666667E-1,-2.6370382E-2,5.485838E-1,1.8722214E-2,-0E0],"split_indices":[14,0,7,0,0,0,2,0,0,0,0,0,14,0,0,0,0],"split_type":[0,0,0,0,0,0,0,0,0,0,0,0,0,0,0,0,0],"sum_hessian":[1.5E1,2E0,1.3E1,1E1,3E0,4E0,6E0,1E0,2E0,1E0,3E0,2E0,4E0,2E0,2E0,1E0,1E0],"tree_param":{"num_deleted":"0","num_feature":"18","num_nodes":"17","size_leaf_vector":"1"}},{"base_weights":[-7.588963E-1,-2.0718503E-1,6.5964717E-1,3.238613E0,-1.1218463E0,8.282641E-2,1.8442627E-2,-1.1901411E-1,2.1309929E-1,1.5391384E0,-1.4727246E0,4.6070088E-2,2.2839305E-1,-3.8947433E-2,-1.2641031E-2,9.052566E-3,-1.2007752E-3],"categories":[],"categories_nodes":[],"categories_segments":[],"categories_sizes":[],"default_left":[0,0,0,0,0,0,0,0,0,0,0,0,0,0,0,0,0],"id":1,"left_children":[1,-1,3,5,7,-1,-1,-1,9,11,13,-1,15,-1,-1,-1,-1],"loss_changes":[2.1208124E2,0E0,6.816666E1,8.221447E0,5.9858234E1,0E0,0E0,0E0,2.0157116E1,4.230152E0,1.0730934E-1,0E0,2.6046395E-1,0E0,0E0,0E0,0E0],"parents":[2147483647,0,0,2,2,3,3,4,4,8,8,9,9,10,10,12,12],"right_children":[2,-1,4,6,8,-1,-1,-1,10,12,14,-1,16,-1,-1,-1,-1],"split_conditions":[1.1806651E-1,-2.0718503E-1,2E-1,6.711273E-1,2.5E-1,8.282641E-2,1.8442627E-2,-1.1901411E-1,6.923077E-1,2.4888982E-1,7.692308E-1,4.6070088E-2,3.371279E-1,-3.8947433E-2,-1.2641031E-2,9.052566E-3,-1.2007752E-3],"split_indices":[0,0,7,17,7,0,0,0,10,0,10,0,0,0,0,0,0],"split_type":[0,0,0,0,0,0,0,0,0,0,0,0,0,0,0,0,0],"sum_hessian":[1.4E1,1E0,1.3E1,5E0,8E0,3E0,2E0,1E0,7E0,4E0,3E0,2E0,2E0,1E0,2E0,1E0,1E0],"tree_param":{"num_deleted":"0","num_feature":"18","num_nodes":"17","size_leaf_vector":"1"}},{"base_weights":[3.1759684E0,-9.3913114E-1,8.449735E0,1.5596303E0,-8.155705E0,2.8591905E-2,1.8468195E-1,-2.951474E-1,6.244964E-2,-3.8557954E-2,-2.051132E-1,1.7704299E-2,-8.365418E-1,-1.188797E-3,-2.0848582E-2],"categories":[],"categories_nodes":[],"categories_segments":[],"categories_sizes":[],"default_left":[0,0,0,0,0,0,0,0,0,0,0,0,0,0,0],"id":2,"left_children":[1,3,5,7,9,-1,-1,11,-1,-1,-1,-1,13,-1,-1],"loss_changes":[3.993238E2,2.1173695E2,2.9783325E1,2.7293007E1,1.8244125E1,0E0,0E0,3.9308598E0,0E0,0E0,0E0,0E0,4.6783304E-1,0E0,0E0],"parents":[2147483647,0,0,1,1,2,2,3,3,4,4,7,7,12,12],"right_children":[2,4,6,8,10,-1,-1,12,-1,-1,-1,-1,14,-1,-1],"split_conditions":[6.275197E-1,3.8333333E-1,1.3931108E-1,1.5099715E-1,6.071557E-1,2.8591905E-2,1.8468195E-1,2.5295915E-2,6.244964E-2,-3.8557954E-2,-2.051132E-1,1.7704299E-2,2.638391E-2,-1.188797E-3,-2.0848582E-2],"split_indices":[11,7,1,3,1,0,0,3,0,0,0,0,3,0,0],"split_type":[0,0,0,0,0,0,0,0,0,0,0,0,0,0,0],"sum_hessian":[1.7E1,1E1,7E0,8E0,2E0,1E0,6E0,4E0,4E0,1E0,1E0,1E0,3E0,1E0,2E0],"tree_param":{"num_deleted":"0","num_feature":"18","num_nodes":"15","size_leaf_vector":"1"}},{"base_weights":[2.319955E-1,-4.335505E0,5.3539343E0,-7.842379E0,1.9836823E0,7.7050366E0,1.0515724E0,-2.3597297E-1,1.3439941E-2,6.704626E-2,3.7670085E-1,6.936593E-2,1.8680194E-1,1.0923013E-1,-1.2078229E-1,-8.679183E-3,1.0082382E-2,-0E0,1.1013168E-2],"categories":[],"categories_nodes":[],"categories_segments":[],"categories_sizes":[],"default_left":[0,0,0,0,0,0,0,0,0,0,0,0,0,0,0,0,0,0,0],"id":3,"left_children":[1,3,5,7,9,11,13,-1,15,-1,17,-1,-1,-1,-1,-1,-1,-1,-1],"loss_changes":[3.9762518E2,2.1558801E2,7.194429E1,1.8781549E2,7.1617374E0,9.6154785E-1,1.5800278E2,0E0,8.843714E-1,0E0,1.8073878E-1,0E0,0E0,0E0,0E0,0E0,0E0,0E0,0E0],"parents":[2147483647,0,0,1,1,2,2,3,3,4,4,5,5,6,6,8,8,10,10],"right_children":[2,4,6,8,10,12,14,-1,16,-1,18,-1,-1,-1,-1,-1,-1,-1,-1],"split_conditions":[5.49518E-1,6.666667E-1,4.4828832E-1,7.505448E-1,5.81496E-1,6.9588083E-1,6.385103E-1,-2.3597297E-1,2.7102288E-2,6.704626E-2,6.071557E-1,6.936593E-2,1.8680194E-1,1.0923013E-1,-1.2078229E-1,-8.679183E-3,1.0082382E-2,-0E0,1.1013168E-2],"split_indices":[11,14,2,2,1,11,1,0,1,0,1,0,0,0,0,0,0,0,0],"split_type":[0,0,0,0,0,0,0,0,0,0,0,0,0,0,0,0,0,0,0],"sum_hessian":[1.5E1,8E0,7E0,5E0,3E0,4E0,3E0,3E0,2E0,1E0,2E0,2E0,2E0,2E0,1E0,1E0,1E0,1E0,1E0],"tree_param":{"num_deleted":"0","num_feature":"18","num_nodes":"19","size_leaf_vector":"1"}},{"base_weights":[6.6711265E-1,-1.8663148E0,1.7321315E-1,1.5308108E0,-7.7999926E0,1.07574195E-1,6.697659E-2,-2.0756873E-1,-3.0579785E-1,6.817178E-1,-2.7128233E-2,-1.1608877E-1,7.1190685E-2,-2.893425E-1,1.5073487E0,-0E0,-7.907704E-3,5.807632E-3,3.565754E-2],"categories":[],"categories_nodes":[],"categories_segments":[],"categories_sizes":[],"default_left":[0,0,0,0,0,0,0,0,0,0,0,0,0,0,0,0,0,0,0],"id":4,"left_children":[1,3,-1,5,7,-1,9,11,-1,13,-1,-1,-1,15,17,-1,-1,-1,-1],"loss_changes":[4.218643E2,3.350864E2,0E0,6.105474E1,3.364756E2,0E0,8.73236E0,1.05221535E2,0E0,6.170102E0,0E0,0E0,0E0,1.3411212E-1,6.161957E-1,0E0,0E0,0E0,0E0],"parents":[2147483647,0,0,1,1,3,3,4,4,6,6,7,7,9,9,13,13,14,14],"right_children":[2,4,-1,6,8,-1,10,12,-1,14,-1,-1,-1,16,18,-1,-1,-1,-1],"split_conditions":[1E0,7.5E-1,1.7321315E-1,1.1666667E-1,3.8333333E-1,1.07574195E-1,6.9343066E-1,3.3333334E-1,-3.0579785E-1,3.1224656E-1,-2.7128233E-2,-1.1608877E-1,7.1190685E-2,3.130664E-1,1.2925494E-1,-0E0,-7.907704E-3,5.807632E-3,3.565754E-2],"split_indices":[16,15,0,7,7,0,17,8,0,17,0,0,0,2,2,0,0,0,0],"split_type":[0,0,0,0,0,0,0,0,0,0,0,0,0,0,0,0,0,0,0],"sum_hessian":[1.9E1,1.5E1,4E0,1E1,5E0,2E0,8E0,3E0,2E0,6E0,2E0,1E0,2E0,3E0,3E0,1E0,2E0,1E0,2E0],"tree_param":{"num_deleted":"0","num_feature":"18","num_nodes":"19","size_leaf_vector":"1"}},{"base_weights":[-1.3964778E0,-6.900836E0,7.0221195E0,-1.080227E1,7.0162475E-1,2.0426862E0,2.2931762E-1,6.350647E-1,-3.5623366E-1,-1.4274307E0,9.317846E-2,8.529157E-2,3.960682E-1,-1.2747035E0,6.464369E-2,-3.5938047E-2,-2.190155E-3,-8.51332E-3,1.6904032E-2,-3.852896E-2,-0E0],"categories":[],"categories_nodes":[],"categories_segments":[],"categories_sizes":[],"default_left":[0,0,0,0,0,0,0,0,0,0,0,0,0,0,0,0,0,0,0,0,0],"id":5,"left_children":[1,3,5,7,9,11,-1,13,-1,15,-1,-1,17,19,-1,-1,-1,-1,-1,-1,-1],"loss_changes":[9.2888696E2,3.6451514E2,1.5224728E2,6.543813E2,4.909998E1,1.6137913E1,0E0,2.4155415E1,0E0,1.5603256E0,0E0,0E0,1.8780005E0,2.5477977E0,0E0,0E0,0E0,0E0,0E0,0E0,0E0],"parents":[2147483647,0,0,1,1,2,2,3,3,4,4,5,5,7,7,9,9,12,12,13,13],"right_children":[2,4,6,8,10,12,-1,14,-1,16,-1,-1,18,20,-1,-1,-1,-1,-1,-1,-1],"split_conditions":[3.3371335E-1,5.7843995E-1,3.3333334E-1,8.6952016E-2,1.5099715E-1,1.3333334E-1,2.2931762E-1,1E0,-3.5623366E-1,1.4285715E-1,9.317846E-2,8.529157E-2,9.52381E-2,2.1690199E-1,6.464369E-2,-3.5938047E-2,-2.190155E-3,-8.51332E-3,1.6904032E-2,-3.852896E-2,-0E0],"split_indices":[13,11,9,13,3,9,0,6,0,6,0,0,6,3,0,0,0,0,0,0,0],"split_type":[0,0,0,0,0,0,0,0,0,0,0,0,0,0,0,0,0,0,0,0,0],"sum_hessian":[1.8E1,1.1E1,7E0,7E0,4E0,4E0,3E0,3E0,4E0,3E0,1E0,1E0,3E0,2E0,1E0,2E0,1E0,1E0,2E0,1E0,1E0],"tree_param":{"num_deleted":"0","num_feature":"18","num_nodes":"21","size_leaf_vector":"1"}},{"base_weights":[-1.8651831E0,4.9410534E0,-4.347183E0,6.765985E0,-2.2586731E-2,1.7750255E0,-8.407942E0,-2.1682587E-3,1.8253843E-1,-2.6019888E-2,3.6632838E0,-2.7891085E-1,-2.2762723E0,8.533869E-2,1.752333E-2,-1.1809203E-1,4.154962E-2],"categories":[],"categories_nodes":[],"categories_segments":[],"categories_sizes":[],"default_left":[0,0,0,0,0,0,0,0,0,0,0,0,0,0,0,0,0],"id":6,"left_children":[1,3,5,7,-1,9,11,-1,-1,-1,13,-1,15,-1,-1,-1,-1],"loss_changes":[3.086026E2,6.3594963E1,3.3877814E2,6.681142E1,0E0,3.9852066E1,2.3827191E2,0E0,0E0,0E0,2.476921E0,0E0,9.163367E1,0E0,0E0,0E0,0E0],"parents":[2147483647,0,0,1,1,2,2,3,3,5,5,6,6,10,10,12,12],"right_children":[2,4,6,8,-1,10,12,-1,-1,-1,14,-1,16,-1,-1,-1,-1],"split_conditions":[3.3333334E-1,8.2008207E-1,2.1511628E-1,4.1107833E-1,-2.2586731E-2,3.894768E-2,5.49518E-1,-2.1682587E-3,1.8253843E-1,-2.6019888E-2,5.037413E-1,-2.7891085E-1,6.666667E-1,8.533869E-2,1.752333E-2,-1.1809203E-1,4.154962E-2],"split_indices":[14,1,12,1,0,3,11,0,0,0,1,0,14,0,0,0,0],"split_type":[0,0,0,0,0,0,0,0,0,0,0,0,0,0,0,0,0],"sum_hessian":[1.6E1,4E0,1.2E1,3E0,1E0,5E0,7E0,1E0,2E0,2E0,3E0,3E0,4E0,2E0,1E0,2E0,2E0],"tree_param":{"num_deleted":"0","num_feature":"18","num_nodes":"17","size_leaf_vector":"1"}},{"base_weights":[4.3072206E-1,2.3227189E0,-3.1633222E-1,3.6697197E0,-1.9129293E-1,1.7106633E0,1.8188445E-1,3.7978265E0,-1.340665E0,4.3387647E0,-0E0,7.920682E-1,-1.21043295E-1,1.1650476E-1,5.118255E-2,-3.8318925E-2,3.9461166E-2],"categories":[],"categories_nodes":[],"categories_segments":[],"categories_sizes":[],"default_left":[0,0,0,0,0,0,0,0,0,0,0,0,0,0,0,0,0],"id":7,"left_children":[1,3,-1,5,-1,7,-1,9,11,13,-1,15,-1,-1,-1,-1,-1],"loss_changes":[5.8870636E2,3.06719E2,0E0,1.5339287E2,0E0,8.8129395E1,0E0,1.6386246E1,6.560998E1,2.7717285E0,0E0,1.9776676E1,0E0,0E0,0E0,0E0,0E0],"parents":[2147483647,0,0,1,1,3,3,5,5,7,7,8,8,9,9,11,11],"right_children":[2,4,-1,6,-1,8,-1,10,12,14,-1,16,-1,-1,-1,-1,-1],"split_conditions":[7.1764237E-1,8.718573E-1,-3.1633222E-1,6.711273E-1,-1.9129293E-1,5.3122467E-1,1.8188445E-1,4.391416E-1,4.13618E-1,1.785648E-2,-0E0,4.2284176E-2,-1.21043295E-1,1.1650476E-1,5.118255E-2,-3.8318925E-2,3.9461166E-2],"split_indices":[3,17,0,17,0,17,0,3,13,3,0,13,0,0,0,0,0],"split_type":[0,0,0,0,0,0,0,0,0,0,0,0,0,0,0,0,0],"sum_hessian":[1.7E1,1.6E1,1E0,1.5E1,1E0,1.2E1,3E0,7E0,5E0,6E0,1E0,4E0,1E0,2E0,4E0,1E0,3E0],"tree_param":{"num_deleted":"0","num_feature":"18","num_nodes":"17","size_leaf_vector":"1"}},{"base_weights":[-2.0254464E0,4.5381174E0,-9.36203E0,1.0728635E0,1.7535001E-1,-3.356993E-1,-1.4293209E0,4.2140286E-2,-2.8557536E-1,-4.2076964E-2,4.942612E-3,-8.6798705E-3,-0E0],"categories":[],"categories_nodes":[],"categories_segments":[],"categories_sizes":[],"default_left":[0,0,0,0,0,0,0,0,0,0,0,0,0],"id":8,"left_children":[1,3,5,7,-1,-1,9,-1,11,-1,-1,-1,-1],"loss_changes":[6.20818E2,9.220085E1,3.2749133E2,7.8080096E0,0E0,0E0,5.2288465E0,0E0,1.320409E-1,0E0,0E0,0E0,0E0],"parents":[2147483647,0,0,1,1,2,2,3,3,6,6,8,8],"right_children":[2,4,6,8,-1,-1,10,-1,12,-1,-1,-1,-1],"split_conditions":[5.67721E-1,9.7100586E-1,8.252151E-1,2.4888982E-1,1.7535001E-1,-3.356993E-1,5.4160625E-1,4.2140286E-2,3.8507268E-1,-4.2076964E-2,4.942612E-3,-8.6798705E-3,-0E0],"split_indices":[17,4,4,0,0,0,0,0,0,0,0,0,0],"split_type":[0,0,0,0,0,0,0,0,0,0,0,0,0],"sum_hessian":[1.1E1,6E0,5E0,4E0,2E0,2E0,3E0,2E0,2E0,2E0,1E0,1E0,1E0],"tree_param":{"num_deleted":"0","num_feature":"18","num_nodes":"13","size_leaf_vector":"1"}},{"base_weights":[2.6934419E0,-3.2807813E0,4.298011E0,1.9832962E0,-7.484598E0,1.9342047E0,7.384276E0,6.909193E-2,-8.593048E-3,-1.86023E-1,-3.751494E-2,5.786296E0,-1.0793183E0,8.917946E0,2.3334014E0,1.2867358E-1,3.0967621E-2,6.456429E-1,-5.118899E-2,6.227792E-2,2.3432025E-1,-1.1699051E-2,8.270109E-2,3.1125015E-2,-1.4331004E-1,-4.411911E-3,-0E0],"categories":[],"categories_nodes":[],"categories_segments":[],"categories_sizes":[],"default_left":[0,0,0,0,0,0,0,0,0,0,0,0,0,0,0,0,0,0,0,0,0,0,0,0,0,0,0],"id":9,"left_children":[1,3,5,7,9,11,13,-1,-1,-1,-1,15,17,19,21,-1,-1,23,-1,-1,-1,-1,-1,-1,25,-1,-1],"loss_changes":[2.1550967E2,1.2604039E2,1.0880609E2,1.2437287E1,1.2002014E1,1.3440797E2,3.2290314E1,0E0,0E0,0E0,0E0,2.957779E0,1.9716057E1,4.32352E1,1.8547407E1,0E0,0E0,3.2380273E0,0E0,0E0,0E0,0E0,0E0,0E0,3.5711493E-2,0E0,0E0],"parents":[2147483647,0,0,1,1,2,2,3,3,4,4,5,5,6,6,11,11,12,12,13,13,14,14,17,17,24,24],"right_children":[2,4,6,8,10,12,14,-1,-1,-1,-1,16,18,20,22,-1,-1,24,-1,-1,-1,-1,-1,-1,26,-1,-1],"split_conditions":[3.0236635E-1,3.8333333E-1,3.3333334E-1,2.060822E-1,1.1806651E-1,2.3997675E-1,9.290096E-1,6.909193E-2,-8.593048E-3,-1.86023E-1,-3.751494E-2,7.1428573E-1,5.7941335E-1,8.4615386E-1,2.852577E-1,1.2867358E-1,3.0967621E-2,9.52381E-2,-5.118899E-2,6.227792E-2,2.3432025E-1,-1.1699051E-2,8.270109E-2,3.1125015E-2,3.402379E-1,-4.411911E-3,-0E0],"split_indices":[11,7,7,0,0,0,11,0,0,0,0,6,17,10,0,0,0,6,0,0,0,0,0,0,0,0,0],"split_type":[0,0,0,0,0,0,0,0,0,0,0,0,0,0,0,0,0,0,0,0,0,0,0,0,0,0,0],"sum_hessian":[2E1,4E0,1.6E1,2E0,2E0,1E1,6E0,1E0,1E0,1E0,1E0,4E0,6E0,4E0,2E0,3E0,1E0,3E0,3E0,2E0,2E0,1E0,1E0,1E0,2E0,1E0,1E0],"tree_param":{"num_deleted":"0","num_feature":"18","num_nodes":"27","size_leaf_vector":"1"}},{"base_weights":[-1.9005826E0,2.788814E0,-5.940981E0,5.3109556E-1,8.937539E-2,-1.0954207E1,8.584819E-2,9.01548E-1,-8.507141E-3,-4.6289775E-1,-3.00763E-1,2.3966206E-2,-0E0,3.0813737E-2,-4.570067E-2],"categories":[],"categories_nodes":[],"categories_segments":[],"categories_sizes":[],"default_left":[0,0,0,0,0,0,0,0,0,0,0,0,0,0,0],"id":10,"left_children":[1,3,5,7,-1,9,-1,11,-1,13,-1,-1,-1,-1,-1],"loss_changes":[3.5793005E2,3.1262466E1,5.6070905E2,2.2026997E0,0E0,2.9141028E2,0E0,1.0566876E0,0E0,1.4547364E1,0E0,0E0,0E0,0E0,0E0],"parents":[2147483647,0,0,1,1,2,2,3,3,5,5,7,7,9,9],"right_children":[2,4,6,8,-1,10,-1,12,-1,14,-1,-1,-1,-1,-1],"split_conditions":[2.1511628E-1,3.888889E-1,4.5542637E-1,1.7829457E-1,8.937539E-2,9.52381E-2,8.584819E-2,2.857143E-1,-8.507141E-3,2.3809524E-1,-3.00763E-1,2.3966206E-2,-0E0,3.0813737E-2,-4.570067E-2],"split_indices":[12,8,12,12,0,6,0,5,0,5,0,0,0,0,0],"split_type":[0,0,0,0,0,0,0,0,0,0,0,0,0,0,0],"sum_hessian":[1.7E1,8E0,9E0,4E0,4E0,6E0,3E0,3E0,1E0,2E0,4E0,2E0,1E0,1E0,1E0],"tree_param":{"num_deleted":"0","num_feature":"18","num_nodes":"15","size_leaf_vector":"1"}},{"base_weights":[8.3794487E-1,-1.3441762E0,2.3005135E-1,5.01164E0,-6.149347E0,8.412689E-3,1.13800704E-1,9.325615E-1,-9.862394E0,-8.422073E-3,3.1149687E-2,6.294447E-2,-2.6227525E-1],"categories":[],"categories_nodes":[],"categories_segments":[],"categories_sizes":[],"default_left":[0,0,0,0,0,0,0,0,0,0,0,0,0],"id":11,"left_children":[1,3,-1,5,7,-1,-1,9,11,-1,-1,-1,-1],"loss_changes":[4.1209277E2,4.8904385E2,0E0,1.879712E1,2.4674951E2,0E0,0E0,4.153246E0,2.9606293E2,0E0,0E0,0E0,0E0],"parents":[2147483647,0,0,1,1,3,3,4,4,7,7,8,8],"right_children":[2,4,-1,6,8,-1,-1,10,12,-1,-1,-1,-1],"split_conditions":[6.0658914E-1,3.3333334E-1,2.3005135E-1,5.5555556E-2,3.4468776E-1,8.412689E-3,1.13800704E-1,2.2222222E-1,3.9983922E-1,-8.422073E-3,3.1149687E-2,6.294447E-2,-2.6227525E-1],"split_indices":[12,16,0,8,17,0,0,8,2,0,0,0,0],"split_type":[0,0,0,0,0,0,0,0,0,0,0,0,0],"sum_hessian":[1.6E1,1.4E1,2E0,6E0,8E0,1E0,5E0,3E0,5E0,1E0,2E0,1E0,4E0],"tree_param":{"num_deleted":"0","num_feature":"18","num_nodes":"13","size_leaf_vector":"1"}},{"base_weights":[-4.3316526E0,-6.1674275E0,1.1291696E-1,-8.941415E0,-9.618757E-1,-3.6203568E0,-3.668682E-1,-1.1827062E-1,1.1911618E0,-2.1445704E-1,1.3452115E0,-2.141636E-2,6.178842E-2,-8.337844E-3,3.829921E-2],"categories":[],"categories_nodes":[],"categories_segments":[],"categories_sizes":[],"default_left":[0,0,0,0,0,0,0,0,0,0,0,0,0,0,0],"id":12,"left_children":[1,3,-1,5,7,9,-1,-1,11,-1,13,-1,-1,-1,-1],"loss_changes":[3.2793567E2,1.9257098E2,0E0,3.81651E2,7.148281E1,2.6223773E2,0E0,0E0,2.4979189E1,0E0,5.967923E0,0E0,0E0,0E0,0E0],"parents":[2147483647,0,0,1,1,3,3,4,4,5,5,8,8,10,10],"right_children":[2,4,-1,6,8,10,-1,-1,12,-1,14,-1,-1,-1,-1],"split_conditions":[1E0,5.7843995E-1,1.1291696E-1,6E-1,5.5555556E-2,1.6666667E-1,-3.668682E-1,-1.1827062E-1,3.3371335E-1,-2.1445704E-1,2.2222222E-1,-2.141636E-2,6.178842E-2,-8.337844E-3,3.829921E-2],"split_indices":[16,11,0,9,8,8,0,0,13,0,8,0,0,0,0],"split_type":[0,0,0,0,0,0,0,0,0,0,0,0,0,0,0],"sum_hessian":[1.5E1,1.3E1,2E0,8E0,5E0,6E0,2E0,1E0,4E0,2E0,4E0,2E0,2E0,1E0,3E0],"tree_param":{"num_deleted":"0","num_feature":"18","num_nodes":"15","size_leaf_vector":"1"}},{"base_weights":[1.043395E0,2.1482291E0,-1.7638785E-1,7.804646E-1,1.6475284E-1,4.932327E0,-1.7786994E0,1.2585814E-1,2.881555E-2,4.9621174E-1,-4.172853E0,-3.7899932E-1,3.0621786E-2,2.2031616E-2,-5.7918563E0,-9.71872E-3,-0E0,-1.4354354E-1,-1.5358947E-2],"categories":[],"categories_nodes":[],"categories_segments":[],"categories_sizes":[],"default_left":[0,0,0,0,0,0,0,0,0,0,0,0,0,0,0,0,0,0,0],"id":13,"left_children":[1,3,-1,5,-1,7,9,-1,-1,11,13,15,-1,-1,17,-1,-1,-1,-1],"loss_changes":[2.1442036E2,1.3426001E2,0E0,1.6846794E2,0E0,1.8663147E1,5.690314E1,0E0,0E0,6.129909E0,4.954586E1,1.3383931E-1,0E0,0E0,2.1532684E1,0E0,0E0,0E0,0E0],"parents":[2147483647,0,0,1,1,3,3,5,5,6,6,9,9,10,10,11,11,14,14],"right_children":[2,4,-1,6,-1,8,10,-1,-1,12,14,16,-1,-1,18,-1,-1,-1,-1],"split_conditions":[8.718573E-1,8.1916493E-1,-1.7638785E-1,1.5E-1,1.6475284E-1,6.385103E-1,3.4468776E-1,1.2585814E-1,2.881555E-2,7.5E-1,9.358483E-2,4.1107833E-1,3.0621786E-2,2.2031616E-2,6.600761E-1,-9.71872E-3,-0E0,-1.4354354E-1,-1.5358947E-2],"split_indices":[17,1,0,7,0,1,17,0,0,15,13,1,0,0,1,0,0,0,0],"split_type":[0,0,0,0,0,0,0,0,0,0,0,0,0,0,0,0,0,0,0],"sum_hessian":[1.7E1,1.6E1,1E0,1.4E1,2E0,5E0,9E0,3E0,2E0,5E0,4E0,3E0,2E0,1E0,3E0,2E0,1E0,2E0,1E0],"tree_param":{"num_deleted":"0","num_feature":"18","num_nodes":"19","size_leaf_vector":"1"}},{"base_weights":[6.0874987E-1,-4.0174613E0,5.1622825E0,-1.2020199E0,-7.3373766E0,3.1341314E-2,7.4419284E0,-2.9759552E-2,-0E0,-4.449736E-2,-1.7462392E-1,3.0412354E-2,1.7750986E-1],"categories":[],"categories_nodes":[],"categories_segments":[],"categories_sizes":[],"default_left":[0,0,0,0,0,0,0,0,0,0,0,0,0],"id":14,"left_children":[1,3,5,7,9,-1,11,-1,-1,-1,-1,-1,-1],"loss_changes":[2.9470657E2,5.575557E1,4.4807877E1,1.6320491E0,8.563843E-1,0E0,1.9418472E1,0E0,0E0,0E0,0E0,0E0,0E0],"parents":[2147483647,0,0,1,1,2,2,3,3,4,4,6,6],"right_children":[2,4,6,8,10,-1,12,-1,-1,-1,-1,-1,-1],"split_conditions":[3.888889E-1,7.5E-1,4.3333334E-1,2.2222222E-1,8.3333336E-2,3.1341314E-2,5.555556E-1,-2.9759552E-2,-0E0,-4.449736E-2,-1.7462392E-1,3.0412354E-2,1.7750986E-1],"split_indices":[8,15,7,8,7,0,8,0,0,0,0,0,0],"split_type":[0,0,0,0,0,0,0,0,0,0,0,0,0],"sum_hessian":[1.2E1,6E0,6E0,4E0,2E0,3E0,3E0,3E0,1E0,1E0,1E0,1E0,2E0],"tree_param":{"num_deleted":"0","num_feature":"18","num_nodes":"13","size_leaf_vector":"1"}},{"base_weights":[2.3237479E0,-7.055567E0,4.051361E0,-3.7789293E-2,-1.7287771E-1,-1.1535482E-1,5.1718497E0,-4.4052415E-2,5.9162416E0,1.8377365E0,8.22309E0,6.751578E-2,-1.5844919E-2,2.1521926E-1,5.939952E-2],"categories":[],"categories_nodes":[],"categories_segments":[],"categories_sizes":[],"default_left":[0,0,0,0,0,0,0,0,0,0,0,0,0,0,0],"id":15,"left_children":[1,3,5,-1,-1,-1,7,-1,9,11,13,-1,-1,-1,-1],"loss_changes":[3.0374927E2,7.230606E0,1.9480322E2,0E0,0E0,0E0,9.025552E1,0E0,1.06192474E2,2.7203121E1,7.3320984E1,0E0,0E0,0E0,0E0],"parents":[2147483647,0,0,1,1,2,2,6,6,8,8,9,9,10,10],"right_children":[2,4,6,-1,-1,-1,8,-1,10,12,14,-1,-1,-1,-1],"split_conditions":[1.3130894E-1,6.0574025E-1,5.5555556E-2,-3.7789293E-2,-1.7287771E-1,-1.1535482E-1,2.6311883E-1,-4.4052415E-2,2.777778E-1,4.9800748E-1,6.666667E-1,6.751578E-2,-1.5844919E-2,2.1521926E-1,5.939952E-2],"split_indices":[13,2,8,0,0,0,4,0,8,2,14,0,0,0,0],"split_type":[0,0,0,0,0,0,0,0,0,0,0,0,0,0,0],"sum_hessian":[1.6E1,2E0,1.4E1,1E0,1E0,1E0,1.3E1,1E0,1.2E1,5E0,7E0,3E0,2E0,4E0,3E0],"tree_param":{"num_deleted":"0","num_feature":"18","num_nodes":"15","size_leaf_vector":"1"}},{"base_weights":[-3.209694E0,-8.288168E0,4.9262996E0,1.2949567E0,-1.623366E1,-3.9842936E-1,7.7132716E0,-2.4268584E-2,3.4050238E0,-9.619787E-2,-3.5724252E-1,-2.5760865E-2,1.2807983E-2,1.8821512E-1,2.5208192E-2,1.7306427E-2,8.384428E-2],"categories":[],"categories_nodes":[],"categories_segments":[],"categories_sizes":[],"default_left":[0,0,0,0,0,0,0,0,0,0,0,0,0,0,0,0,0],"id":16,"left_children":[1,3,5,7,9,11,13,-1,15,-1,-1,-1,-1,-1,-1,-1,-1],"loss_changes":[6.1962427E2,7.0779944E2,9.28439E1,3.0815228E1,4.8339844E0,3.662095E0,3.0886017E1,0E0,1.8643227E0,0E0,0E0,0E0,0E0,0E0,0E0,0E0,0E0],"parents":[2147483647,0,0,1,1,2,2,3,3,4,4,5,5,6,6,8,8],"right_children":[2,4,6,8,10,12,14,-1,16,-1,-1,-1,-1,-1,-1,-1,-1],"split_conditions":[6.0999125E-1,2.1511628E-1,6.450482E-1,6.666667E-1,2.5E-1,1.8766377E-2,2.1690199E-1,-2.4268584E-2,2.9923216E-2,-9.619787E-2,-3.5724252E-1,-2.5760865E-2,1.2807983E-2,1.8821512E-1,2.5208192E-2,1.7306427E-2,8.384428E-2],"split_indices":[11,12,11,14,7,3,3,0,3,0,0,0,0,0,0,0,0],"split_type":[0,0,0,0,0,0,0,0,0,0,0,0,0,0,0,0,0],"sum_hessian":[1.3E1,8E0,5E0,4E0,4E0,2E0,3E0,2E0,2E0,1E0,3E0,1E0,1E0,2E0,1E0,1E0,1E0],"tree_param":{"num_deleted":"0","num_feature":"18","num_nodes":"17","size_leaf_vector":"1"}},{"base_weights":[8.3008707E-1,-3.209845E0,8.114948E0,4.340912E0,-2.631787E-1,2.1466915E-1,1.8852865E0,5.0817714E0,-4.2480453E-5,-1.6631454E-2,7.419005E-2,1.2051158E-1,2.0961044E0,-7.4584805E-3,7.134161E-2],"categories":[],"categories_nodes":[],"categories_segments":[],"categories_sizes":[],"default_left":[0,0,0,0,0,0,0,0,0,0,0,0,0,0,0],"id":17,"left_children":[1,3,5,7,-1,-1,9,11,-1,-1,-1,-1,13,-1,-1],"loss_changes":[4.974237E2,8.8435834E2,7.6377014E1,2.304184E1,0E0,0E0,1.8240929E1,3.4649658E0,0E0,0E0,0E0,0E0,1.2545313E1,0E0,0E0],"parents":[2147483647,0,0,1,1,2,2,3,3,6,6,7,7,12,12],"right_children":[2,4,6,8,-1,-1,10,12,-1,-1,-1,-1,14,-1,-1],"split_conditions":[5.872093E-1,3.8333333E-1,8.4302324E-1,4.256425E-1,-2.631787E-1,2.1466915E-1,5E-1,2E-1,-4.2480453E-5,-1.6631454E-2,7.419005E-2,1.2051158E-1,3.894768E-2,-7.4584805E-3,7.134161E-2],"split_indices":[12,7,12,3,0,0,7,7,0,0,0,0,3,0,0],"split_type":[0,0,0,0,0,0,0,0,0,0,0,0,0,0,0],"sum_hessian":[1.5E1,1E1,5E0,6E0,4E0,3E0,2E0,5E0,1E0,1E0,1E0,3E0,2E0,1E0,1E0],"tree_param":{"num_deleted":"0","num_feature":"18","num_nodes":"15","size_leaf_vector":"1"}},{"base_weights":[-1.8267405E-1,-1.6494481E-1,9.7531223E-1,-6.161507E-1,2.6690824E0,4.65628E-2,-4.167476E0,1.7285359E-1,3.6130033E0,-1.0554346E-1,-7.383865E-3,6.22763E-3,-4.202269E-5,9.4984226E-2,2.4782551E-2],"categories":[],"categories_nodes":[],"categories_segments":[],"categories_sizes":[],"default_left":[0,0,0,0,0,0,0,0,0,0,0,0,0,0,0],"id":18,"left_children":[1,-1,3,5,7,-1,9,11,13,-1,-1,-1,-1,-1,-1],"loss_changes":[1.4885071E2,0E0,3.9587864E1,9.3535484E1,1.5490597E1,0E0,1.4346832E1,1.0429066E-1,7.002365E0,0E0,0E0,0E0,0E0,0E0,0E0],"parents":[2147483647,0,0,2,2,3,3,4,4,6,6,7,7,8,8],"right_children":[2,-1,4,6,8,-1,10,12,14,-1,-1,-1,-1,-1,-1],"split_conditions":[1.3333334E-1,-1.6494481E-1,3.8507268E-1,2.4888982E-1,4E-1,4.65628E-2,3.6381972E-1,6.837982E-1,6.2500036E-1,-1.0554346E-1,-7.383865E-3,6.22763E-3,-4.202269E-5,9.4984226E-2,2.4782551E-2],"split_indices":[9,0,0,0,9,0,0,0,1,0,0,0,0,0,0],"split_type":[0,0,0,0,0,0,0,0,0,0,0,0,0,0,0],"sum_hessian":[1.4E1,1E0,1.3E1,7E0,6E0,4E0,3E0,2E0,4E0,2E0,1E0,1E0,1E0,2E0,2E0],"tree_param":{"num_deleted":"0","num_feature":"18","num_nodes":"15","size_leaf_vector":"1"}},{"base_weights":[1.0042613E-1,-8.893536E0,4.188552E0,-1.4290893E0,-2.6720273E-1,1.4711056E0,2.1822748E-1,-3.456267E-2,-7.3100124E-3,2.8447435E0,-9.417997E-2,3.7173765E0,1.1789653E-1,4.406805E-2,1.11872464E-1,-6.6900477E-3,1.1226944E-2],"categories":[],"categories_nodes":[],"categories_segments":[],"categories_sizes":[],"default_left":[0,0,0,0,0,0,0,0,0,0,0,0,0,0,0,0,0],"id":19,"left_children":[1,3,5,7,-1,9,-1,-1,-1,11,-1,13,15,-1,-1,-1,-1],"loss_changes":[5.8830725E2,1.4613177E2,1.8366794E2,1.13182545E-1,0E0,8.96125E1,0E0,0E0,0E0,1.82145E1,0E0,3.9388351E0,8.1230634E-1,0E0,0E0,0E0,0E0],"parents":[2147483647,0,0,1,1,2,2,3,3,5,5,9,9,11,11,12,12],"right_children":[2,4,6,8,-1,10,-1,-1,-1,12,-1,14,16,-1,-1,-1,-1],"split_conditions":[3.0236635E-1,6.071557E-1,9.7697586E-1,3.371279E-1,-2.6720273E-1,8E-1,2.1822748E-1,-3.456267E-2,-7.3100124E-3,2.4888982E-1,-9.417997E-2,6.7011243E-1,3.402379E-1,4.406805E-2,1.11872464E-1,-6.6900477E-3,1.1226944E-2],"split_indices":[11,1,4,0,0,9,0,0,0,0,0,4,0,0,0,0,0],"split_type":[0,0,0,0,0,0,0,0,0,0,0,0,0,0,0,0,0],"sum_hessian":[1.4E1,4E0,1E1,2E0,2E0,8E0,2E0,1E0,1E0,7E0,1E0,5E0,2E0,4E0,1E0,1E0,1E0],"tree_param":{"num_deleted":"0","num_feature":"18","num_nodes":"17","size_leaf_vector":"1"}},{"base_weights":[-8.9522797E-1,8.278595E-1,-2.3086078E-1,-1.0176642E1,2.7270153E0,-7.2369226E-3,-2.9706234E-1,-2.1846387E0,4.9639244E0,-1.606233E-1,5.7089967E-1,1.9099392E0,1.5365839E-1,-1.7591994E-2,1.1784245E0,2.8409016E-1,4.9669214E-2,2.810261E-2,3.9830627E-3,1.6145842E-2,-6.623138E-3],"categories":[],"categories_nodes":[],"categories_segments":[],"categories_sizes":[],"default_left":[0,0,0,0,0,0,0,0,0,0,0,0,0,0,0,0,0,0,0,0,0],"id":20,"left_children":[1,3,-1,5,7,-1,-1,9,11,-1,13,15,-1,-1,17,19,-1,-1,-1,-1,-1],"loss_changes":[3.959168E2,4.240929E2,0E0,1.3079993E2,1.9789998E2,0E0,0E0,1.01993E2,8.4012085E1,0E0,5.472496E0,5.5449314E0,0E0,0E0,4.477625E-1,1.2806494E0,0E0,0E0,0E0,0E0,0E0],"parents":[2147483647,0,0,1,1,3,3,4,4,7,7,8,8,10,10,11,11,14,14,15,15],"right_children":[2,4,-1,6,8,-1,-1,10,12,-1,14,16,-1,-1,18,20,-1,-1,-1,-1,-1],"split_conditions":[5.6666666E-1,1.702158E-1,-2.3086078E-1,2.7102288E-2,2.3809524E-1,-7.2369226E-3,-2.9706234E-1,6.099627E-1,4.9311557E-1,-1.606233E-1,6.854385E-1,7.0208037E-1,1.5365839E-1,-1.7591994E-2,8.2663137E-1,3.3886242E-1,4.9669214E-2,2.810261E-2,3.9830627E-3,1.6145842E-2,-6.623138E-3],"split_indices":[7,1,0,1,5,0,0,1,1,0,1,2,0,0,1,1,0,0,0,0,0],"split_type":[0,0,0,0,0,0,0,0,0,0,0,0,0,0,0,0,0,0,0,0,0],"sum_hessian":[2E1,1.8E1,2E0,2E0,1.6E1,1E0,1E0,5E0,1.1E1,1E0,4E0,6E0,5E0,1E0,3E0,2E0,4E0,2E0,1E0,1E0,1E0],"tree_param":{"num_deleted":"0","num_feature":"18","num_nodes":"21","size_leaf_vector":"1"}},{"base_weights":[-3.1152568E0,-1.341002E0,-2.419523E-1,-5.331744E0,3.802551E0,-3.622561E-1,-1.0208781E1,1.2707639E0,1.1983294E-1,-2.076383E0,4.021331E-2,-3.027392E-1,-3.6886837E-2,-1.6904298E-3,3.311431E-2,-7.1645197E-3,-4.9927205E-2],"categories":[],"categories_nodes":[],"categories_segments":[],"categories_sizes":[],"default_left":[0,0,0,0,0,0,0,0,0,0,0,0,0,0,0,0,0],"id":21,"left_children":[1,3,-1,5,7,9,11,13,-1,15,-1,-1,-1,-1,-1,-1,-1],"loss_changes":[2.8523608E2,3.6937927E2,0E0,2.3760846E2,3.5998398E1,2.8586418E1,1.7649133E2,2.9056606E0,0E0,1.7066269E0,0E0,0E0,0E0,0E0,0E0,0E0,0E0],"parents":[2147483647,0,0,1,1,3,3,4,4,5,5,6,6,7,7,9,9],"right_children":[2,4,-1,6,8,10,12,14,-1,16,-1,-1,-1,-1,-1,-1,-1],"split_conditions":[5.6666666E-1,6.666667E-1,-2.419523E-1,2.2868218E-1,5.555556E-1,3.3333334E-1,6.099627E-1,5.620155E-2,1.1983294E-1,2.7102288E-2,4.021331E-2,-3.027392E-1,-3.6886837E-2,-1.6904298E-3,3.311431E-2,-7.1645197E-3,-4.9927205E-2],"split_indices":[7,14,0,12,8,5,1,12,0,1,0,0,0,0,0,0,0],"split_type":[0,0,0,0,0,0,0,0,0,0,0,0,0,0,0,0,0],"sum_hessian":[1.8E1,1.6E1,2E0,9E0,7E0,5E0,4E0,4E0,3E0,3E0,2E0,2E0,2E0,1E0,3E0,1E0,2E0],"tree_param":{"num_deleted":"0","num_feature":"18","num_nodes":"17","size_leaf_vector":"1"}},{"base_weights":[-1.2292458E0,5.110518E0,-6.6353836E0,4.3121185E-3,5.873736E0,-9.352066E0,9.7644246E-1,1.3391767E-1,1.6629929E-2,-3.6951967E-2,-1.046344E1,-3.5294953E-3,3.382277E-2,-2.5739887E-1,-4.535789E0,-1.2798078E-1,-7.0928796E-3],"categories":[],"categories_nodes":[],"categories_segments":[],"categories_sizes":[],"default_left":[0,0,0,0,0,0,0,0,0,0,0,0,0,0,0,0,0],"id":22,"left_children":[1,3,5,-1,7,9,11,-1,-1,-1,13,-1,-1,-1,15,-1,-1],"loss_changes":[5.138937E2,2.4275848E1,1.7540057E2,0E0,1.8552475E1,2.9478271E1,2.9218657E0,0E0,0E0,0E0,1.1208679E1,0E0,0E0,0E0,2.0426807E1,0E0,0E0],"parents":[2147483647,0,0,1,1,2,2,4,4,5,5,6,6,10,10,14,14],"right_children":[2,4,6,-1,8,10,12,-1,-1,-1,14,-1,-1,-1,16,-1,-1],"split_conditions":[5.3846157E-1,4.761905E-2,3.2690623E-1,4.3121185E-3,4.256425E-1,7.624891E-2,2.638391E-2,1.3391767E-1,1.6629929E-2,-3.6951967E-2,3.2915327E-1,-3.5294953E-3,3.382277E-2,-2.5739887E-1,1.785648E-2,-1.2798078E-1,-7.0928796E-3],"split_indices":[10,5,11,0,3,11,3,0,0,0,13,0,0,0,3,0,0],"split_type":[0,0,0,0,0,0,0,0,0,0,0,0,0,0,0,0,0],"sum_hessian":[1.3E1,6E0,7E0,1E0,5E0,5E0,2E0,4E0,1E0,1E0,4E0,1E0,1E0,2E0,2E0,1E0,1E0],"tree_param":{"num_deleted":"0","num_feature":"18","num_nodes":"17","size_leaf_vector":"1"}},{"base_weights":[-2.4075885E0,-6.652804E0,7.174976E0,9.3903327E-1,-1.1527581E1,1.705779E-2,2.0195594E-1,-1.732223E0,2.732717E0,-4.08668E-1,-3.0298212E-1,-7.0219263E-3,-4.3944765E-2,7.488026E-2,-2.0117036E-3,-3.6582474E-2,2.3322433E-2],"categories":[],"categories_nodes":[],"categories_segments":[],"categories_sizes":[],"default_left":[0,0,0,0,0,0,0,0,0,0,0,0,0,0,0,0,0],"id":23,"left_children":[1,3,5,7,9,-1,-1,11,13,15,-1,-1,-1,-1,-1,-1,-1],"loss_changes":[7.7992236E2,4.9299432E2,1.011626E2,3.358206E1,3.1439258E2,0E0,0E0,9.0045834E-1,1.220216E1,8.910037E0,0E0,0E0,0E0,0E0,0E0,0E0,0E0],"parents":[2147483647,0,0,1,1,2,2,3,3,4,4,7,7,8,8,9,9],"right_children":[2,4,6,8,10,-1,-1,12,14,16,-1,-1,-1,-1,-1,-1,-1],"split_conditions":[6.600761E-1,3.1666666E-1,1.6666667E-1,2.857143E-1,7.624891E-2,1.705779E-2,2.0195594E-1,2.7102288E-2,5.108481E-1,6.071557E-1,-3.0298212E-1,-7.0219263E-3,-4.3944765E-2,7.488026E-2,-2.0117036E-3,-3.6582474E-2,2.3322433E-2],"split_indices":[1,7,7,5,11,0,0,1,1,1,0,0,0,0,0,0,0],"split_type":[0,0,0,0,0,0,0,0,0,0,0,0,0,0,0,0,0],"sum_hessian":[1.7E1,1.2E1,5E0,5E0,7E0,2E0,3E0,2E0,3E0,2E0,5E0,1E0,1E0,2E0,1E0,1E0,1E0],"tree_param":{"num_deleted":"0","num_feature":"18","num_nodes":"17","size_leaf_vector":"1"}},{"base_weights":[2.660102E0,6.4090425E-1,1.7064938E-1,-1.5038587E-1,1.9558619E0,3.2181776E0,1.4051667E-1,1.0265247E-1,1.4058744E0,4.1568287E-2,-1.3230358E0,-7.477341E-2,7.428465E-2,-2.8053743E-1,-4.350531E-2,1.0026997E-2,-1.9031432E-2,-6.9517363E-3,-4.6438596E-4],"categories":[],"categories_nodes":[],"categories_segments":[],"categories_sizes":[],"default_left":[0,0,0,0,0,0,0,0,0,0,0,0,0,0,0,0,0,0,0],"id":24,"left_children":[1,3,-1,-1,5,7,9,-1,11,-1,13,15,-1,17,-1,-1,-1,-1,-1],"loss_changes":[1.8333365E2,1.5364445E2,0E0,0E0,2.6710384E1,1.6417229E1,1.9842646E1,0E0,1.7730997E1,0E0,2.697969E0,2.5426683E0,0E0,6.607756E-3,0E0,0E0,0E0,0E0,0E0],"parents":[2147483647,0,0,1,1,4,4,5,5,6,6,8,8,10,10,11,11,13,13],"right_children":[2,4,-1,-1,6,8,10,-1,12,-1,14,16,-1,18,-1,-1,-1,-1,-1],"split_conditions":[7.1428573E-1,1.3130894E-1,1.7064938E-1,-1.5038587E-1,3.3333334E-1,3.3333334E-1,2.4551767E-1,1.0265247E-1,1E0,4.1568287E-2,6.266433E-1,6.783523E-1,7.428465E-2,2.857143E-1,-4.350531E-2,1.0026997E-2,-1.9031432E-2,-6.9517363E-3,-4.6438596E-4],"split_indices":[5,13,0,0,16,14,13,0,11,0,11,11,0,5,0,0,0,0,0],"split_type":[0,0,0,0,0,0,0,0,0,0,0,0,0,0,0,0,0,0,0],"sum_hessian":[1.5E1,1.2E1,3E0,1E0,1.1E1,6E0,5E0,2E0,4E0,2E0,3E0,3E0,1E0,2E0,1E0,2E0,1E0,1E0,1E0],"tree_param":{"num_deleted":"0","num_feature":"18","num_nodes":"19","size_leaf_vector":"1"}},{"base_weights":[1.0302075E0,1.9229627E-1,-8.757944E-1,1.238383E0,-6.495834E0,2.5577772E0,1.04761176E-1,-2.0927778E-1,-3.3037048E-2,8.722213E-3,5.9083316E-2,1.8962951E-2,-4.022229E-1,-2.6370382E-2,6.148142E-1,1.8722214E-2,-0E0],"categories":[],"categories_nodes":[],"categories_segments":[],"categories_sizes":[],"default_left":[0,0,0,0,0,0,0,0,0,0,0,0,0,0,0,0,0],"id":25,"left_children":[1,-1,3,5,7,9,11,-1,-1,-1,-1,-1,13,-1,15,-1,-1],"loss_changes":[2.7109094E2,0E0,1.7491473E2,1.5918421E1,5.8388382E1,2.5776558E0,3.4290435E0,0E0,0E0,0E0,0E0,0E0,5.540551E0,0E0,6.186167E-1,0E0,0E0],"parents":[2147483647,0,0,2,2,3,3,4,4,5,5,6,6,12,12,14,14],"right_children":[2,-1,4,6,8,10,12,-1,-1,-1,-1,-1,14,-1,16,-1,-1],"split_conditions":[3.3333334E-1,1.9229627E-1,3.8333333E-1,2.4831143E-1,1.1806651E-1,8.439168E-2,1.6303493E-1,-2.0927778E-1,-3.3037048E-2,8.722213E-3,5.9083316E-2,1.8962951E-2,6.666667E-1,-2.6370382E-2,5.485838E-1,1.8722214E-2,-0E0],"split_indices":[14,0,7,0,0,0,2,0,0,0,0,0,14,0,0,0,0],"split_type":[0,0,0,0,0,0,0,0,0,0,0,0,0,0,0,0,0],"sum_hessian":[1.5E1,2E0,1.3E1,1E1,3E0,4E0,6E0,1E0,2E0,1E0,3E0,2E0,4E0,2E0,2E0,1E0,1E0],"tree_param":{"num_deleted":"0","num_feature":"18","num_nodes":"17","size_leaf_vector":"1"}},{"base_weights":[-8.09008E0,-4.933797E0,-3.597037E-1,6.1577773E0,-1.12618065E1,1.8962951E-2,1.856296E-1,-4.002223E0,-1.7495834E1,-1.9970371E-1,6.562962E-2,-7.927778E-2,-4.1303703E-1],"categories":[],"categories_nodes":[],"categories_segments":[],"categories_sizes":[],"default_left":[0,0,0,0,0,0,0,0,0,0,0,0,0],"id":26,"left_children":[1,3,-1,5,7,-1,-1,9,11,-1,-1,-1,-1],"loss_changes":[3.4621735E2,9.12109E2,0E0,7.154352E1,2.8987964E2,0E0,0E0,2.513272E2,8.650488E1,0E0,0E0,0E0,0E0],"parents":[2147483647,0,0,1,1,3,3,4,4,7,7,8,8],"right_children":[2,4,-1,6,8,-1,-1,10,12,-1,-1,-1,-1],"split_conditions":[6.780947E-1,3.617753E-1,-3.597037E-1,5.374986E-1,7.777778E-1,1.8962951E-2,1.856296E-1,3.1641436E-1,1.3566001E-1,-1.9970371E-1,6.562962E-2,-7.927778E-2,-4.1303703E-1],"split_indices":[2,0,0,2,10,0,0,2,2,0,0,0,0],"split_type":[0,0,0,0,0,0,0,0,0,0,0,0,0],"sum_hessian":[1.3E1,1.1E1,2E0,4E0,7E0,2E0,2E0,4E0,3E0,2E0,2E0,1E0,2E0],"tree_param":{"num_deleted":"0","num_feature":"18","num_nodes":"13","size_leaf_vector":"1"}},{"base_weights":[-8.09008E0,-4.933797E0,-3.597037E-1,6.1577773E0,-1.12618065E1,1.8962951E-2,1.856296E-1,-4.002223E0,-1.7495834E1,-1.9970371E-1,6.562962E-2,-7.927778E-2,-4.1303703E-1],"categories":[],"categories_nodes":[],"categories_segments":[],"categories_sizes":[],"default_left":[0,0,0,0,0,0,0,0,0,0,0,0,0],"id":27,"left_children":[1,3,-1,5,7,-1,-1,9,11,-1,-1,-1,-1],"loss_changes":[3.4621735E2,9.12109E2,0E0,7.154352E1,2.8987964E2,0E0,0E0,2.513272E2,8.650488E1,0E0,0E0,0E0,0E0],"parents":[2147483647,0,0,1,1,3,3,4,4,7,7,8,8],"right_children":[2,4,-1,6,8,-1,-1,10,12,-1,-1,-1,-1],"split_conditions":[6.780947E-1,3.617753E-1,-3.597037E-1,5.374986E-1,7.777778E-1,1.8962951E-2,1.856296E-1,3.1641436E-1,1.3566001E-1,-1.9970371E-1,6.562962E-2,-7.927778E-2,-4.1303703E-1],"split_indices":[2,0,0,2,10,0,0,2,2,0,0,0,0],"split_type":[0,0,0,0,0,0,0,0,0,0,0,0,0],"sum_hessian":[1.3E1,1.1E1,2E0,4E0,7E0,2E0,2E0,4E0,3E0,2E0,2E0,1E0,2E0],"tree_param":{"num_deleted":"0","num_feature":"18","num_nodes":"13","size_leaf_vector":"1"}},{"base_weights":[-9.391212E-1,5.67619E0,-3.4651244E0,-9.8518574E-1,1.7115554E-1,1.5333326E0,-6.100464E0,-5.9277784E-2,2.8722214E-2,-1.6022229E0,1.2562962E-1,-8.3868065E0,-1.202223E0,-6.637038E-2,1.2296285E-2,-5.006482E0,-2.4637036E-1,3.8722213E-2,-2.4958339E0,2.0416602E-1,-2.0637037E-1,-6.637038E-2,-0E0,6.872221E-2,-3.9703716E-2],"categories":[],"categories_nodes":[],"categories_segments":[],"categories_sizes":[],"default_left":[0,0,0,0,0,0,0,0,0,0,0,0,0,0,0,0,0,0,0,0,0,0,0,0,0],"id":28,"left_children":[1,3,5,7,-1,9,11,-1,-1,13,-1,15,17,-1,-1,19,-1,-1,21,23,-1,-1,-1,-1,-1],"loss_changes":[4.204947E2,1.4355559E2,2.469181E2,1.8782337E1,0E0,1.1474884E2,1.23346924E2,0E0,0E0,2.133611E1,0E0,4.2918823E1,2.5187096E1,0E0,0E0,1.6919307E2,0E0,0E0,8.12096E0,3.5269863E1,0E0,0E0,0E0,0E0,0E0],"parents":[2147483647,0,0,1,1,2,2,3,3,5,5,6,6,9,9,11,11,12,12,15,15,18,18,19,19],"right_children":[2,4,6,8,-1,10,12,-1,-1,14,-1,16,18,-1,-1,20,-1,-1,22,24,-1,-1,-1,-1,-1],"split_conditions":[3.846154E-1,1.7296022E-1,9.0065524E-2,1.9868156E-1,1.7115554E-1,1.9455314E-2,3.017195E-1,-5.9277784E-2,2.8722214E-2,3.0788615E-1,1.2562962E-1,4.871795E-1,3.6046135E-1,-6.637038E-2,1.2296285E-2,6.286977E-1,-2.4637036E-1,3.8722213E-2,5.371786E-1,3.6879194E-1,-2.0637037E-1,-6.637038E-2,-0E0,6.872221E-2,-3.9703716E-2],"split_indices":[7,3,3,0,0,3,3,0,0,2,0,7,3,0,0,2,0,0,0,0,0,0,0,0,0],"split_type":[0,0,0,0,0,0,0,0,0,0,0,0,0,0,0,0,0,0,0,0,0,0,0,0,0],"sum_hessian":[2.3E1,6E0,1.7E1,2E0,4E0,6E0,1.1E1,1E0,1E0,4E0,2E0,7E0,4E0,2E0,2E0,5E0,2E0,1E0,3E0,3E0,2E0,2E0,1E0,1E0,2E0],"tree_param":{"num_deleted":"0","num_feature":"18","num_nodes":"25","size_leaf_vector":"1"}},{"base_weights":[-9.391212E-1,5.67619E0,-3.4651244E0,-9.8518574E-1,1.7115554E-1,1.5333326E0,-6.100464E0,-5.9277784E-2,2.8722214E-2,-1.6022229E0,1.2562962E-1,-8.3868065E0,-1.202223E0,-6.637038E-2,1.2296285E-2,-5.006482E0,-2.4637036E-1,3.8722213E-2,-2.4958339E0,2.0416602E-1,-2.0637037E-1,-6.637038E-2,-0E0,6.872221E-2,-3.9703716E-2],"categories":[],"categories_nodes":[],"categories_segments":[],"categories_sizes":[],"default_left":[0,0,0,0,0,0,0,0,0,0,0,0,0,0,0,0,0,0,0,0,0,0,0,0,0],"id":29,"left_children":[1,3,5,7,-1,9,11,-1,-1,13,-1,15,17,-1,-1,19,-1,-1,21,23,-1,-1,-1,-1,-1],"loss_changes":[4.204947E2,1.4355559E2,2.469181E2,1.8782337E1,0E0,1.1474884E2,1.23346924E2,0E0,0E0,2.133611E1,0E0,4.2918823E1,2.5187096E1,0E0,0E0,1.6919307E2,0E0,0E0,8.12096E0,3.5269863E1,0E0,0E0,0E0,0E0,0E0],"parents":[2147483647,0,0,1,1,2,2,3,3,5,5,6,6,9,9,11,11,12,12,15,15,18,18,19,19],"right_children":[2,4,6,8,-1,10,12,-1,-1,14,-1,16,18,-1,-1,20,-1,-1,22,24,-1,-1,-1,-1,-1],"split_conditions":[3.846154E-1,1.7296022E-1,9.0065524E-2,1.9868156E-1,1.7115554E-1,1.9455314E-2,3.017195E-1,-5.9277784E-2,2.8722214E-2,3.0788615E-1,1.2562962E-1,4.871795E-1,3.6046135E-1,-6.637038E-2,1.2296285E-2,6.286977E-1,-2.4637036E-1,3.8722213E-2,5.371786E-1,3.6879194E-1,-2.0637037E-1,-6.637038E-2,-0E0,6.872221E-2,-3.9703716E-2],"split_indices":[7,3,3,0,0,3,3,0,0,2,0,7,3,0,0,2,0,0,0,0,0,0,0,0,0],"split_type":[0,0,0,0,0,0,0,0,0,0,0,0,0,0,0,0,0,0,0,0,0,0,0,0,0],"sum_hessian":[2.3E1,6E0,1.7E1,2E0,4E0,6E0,1.1E1,1E0,1E0,4E0,2E0,7E0,4E0,2E0,2E0,5E0,2E0,1E0,3E0,3E0,2E0,2E0,1E0,1E0,2E0],"tree_param":{"num_deleted":"0","num_feature":"18","num_nodes":"25","size_leaf_vector":"1"}},{"base_weights":[-2.6213896E0,-1.4402223E1,1.2177075E0,-4.7303703E-1,-3.185191E-1,2.30074E0,-1.4927778E-1,2.8722214E-2,-3.9277785E-2,3.466203E0,-1.745834E0,5.247618E0,7.935178E-1,-9.277786E-3,-3.9703716E-2,3.908332E-2,1.4408332E-1,2.954166E0,-4.637038E-2,8.722213E-3,7.2296284E-2],"categories":[],"categories_nodes":[],"categories_segments":[],"categories_sizes":[],"default_left":[0,0,0,0,0,0,0,0,0,0,0,0,0,0,0,0,0,0,0,0,0],"id":30,"left_children":[1,3,5,-1,7,9,-1,-1,-1,11,13,15,17,-1,-1,-1,-1,19,-1,-1,-1],"loss_changes":[9.234114E2,6.4141455E2,1.6709537E2,0E0,1.1534187E1,7.696543E1,0E0,0E0,0E0,5.2365753E1,6.152916E-2,3.011261E1,4.7256958E1,0E0,0E0,0E0,0E0,4.6726456E0,0E0,0E0,0E0],"parents":[2147483647,0,0,1,1,2,2,4,4,5,5,9,9,10,10,11,11,12,12,17,17],"right_children":[2,4,6,-1,8,10,-1,-1,-1,12,14,16,18,-1,-1,-1,-1,20,-1,-1,-1],"split_conditions":[3.2698877E-2,4.7705498E-1,8.359633E-1,-4.7303703E-1,6.089126E-1,8.5714287E-1,-1.4927778E-1,2.8722214E-2,-3.9277785E-2,6.666667E-1,9.750747E-2,5.3846157E-1,6.3076925E-1,-9.277786E-3,-3.9703716E-2,3.908332E-2,1.4408332E-1,1.7631027E-1,-4.637038E-2,8.722213E-3,7.2296284E-2],"split_indices":[3,0,3,0,0,16,0,0,0,14,0,7,7,0,0,0,0,0,0,0,0],"split_type":[0,0,0,0,0,0,0,0,0,0,0,0,0,0,0,0,0,0,0,0,0],"sum_hessian":[1.9E1,4E0,1.5E1,2E0,2E0,1.4E1,1E0,1E0,1E0,1.1E1,3E0,6E0,5E0,1E0,2E0,3E0,3E0,3E0,2E0,1E0,2E0],"tree_param":{"num_deleted":"0","num_feature":"18","num_nodes":"21","size_leaf_vector":"1"}},{"base_weights":[-2.6213896E0,-1.4402223E1,1.2177075E0,-4.7303703E-1,-3.185191E-1,2.30074E0,-1.4927778E-1,2.8722214E-2,-3.9277785E-2,3.466203E0,-1.745834E0,5.247618E0,7.935178E-1,-9.277786E-3,-3.9703716E-2,3.908332E-2,1.4408332E-1,2.954166E0,-4.637038E-2,8.722213E-3,7.2296284E-2],"categories":[],"categories_nodes":[],"categories_segments":[],"categories_sizes":[],"default_left":[0,0,0,0,0,0,0,0,0,0,0,0,0,0,0,0,0,0,0,0,0],"id":31,"left_children":[1,3,5,-1,7,9,-1,-1,-1,11,13,15,17,-1,-1,-1,-1,19,-1,-1,-1],"loss_changes":[9.234114E2,6.4141455E2,1.6709537E2,0E0,1.1534187E1,7.696543E1,0E0,0E0,0E0,5.2365753E1,6.152916E-2,3.011261E1,4.7256958E1,0E0,0E0,0E0,0E0,4.6726456E0,0E0,0E0,0E0],"parents":[2147483647,0,0,1,1,2,2,4,4,5,5,9,9,10,10,11,11,12,12,17,17],"right_children":[2,4,6,-1,8,10,-1,-1,-1,12,14,16,18,-1,-1,-1,-1,20,-1,-1,-1],"split_conditions":[3.2698877E-2,4.7705498E-1,8.359633E-1,-4.7303703E-1,6.089126E-1,8.5714287E-1,-1.4927778E-1,2.8722214E-2,-3.9277785E-2,6.666667E-1,9.750747E-2,5.3846157E-1,6.3076925E-1,-9.277786E-3,-3.9703716E-2,3.908332E-2,1.4408332E-1,1.7631027E-1,-4.637038E-2,8.722213E-3,7.2296284E-2],"split_indices":[3,0,3,0,0,16,0,0,0,14,0,7,7,0,0,0,0,0,0,0,0],"split_type":[0,0,0,0,0,0,0,0,0,0,0,0,0,0,0,0,0,0,0,0,0],"sum_hessian":[1.9E1,4E0,1.5E1,2E0,2E0,1.4E1,1E0,1E0,1E0,1.1E1,3E0,6E0,5E0,1E0,2E0,3E0,3E0,3E0,2E0,1E0,2E0],"tree_param":{"num_deleted":"0","num_feature":"18","num_nodes":"21","size_leaf_vector":"1"}},{"base_weights":[-4.6568527E0,1.8340733E0,-1.0457293E1,9.247619E0,-4.124692E0,-4.470708E0,-1.967315E1,2.0587036E-1,2.8722214E-2,7.935178E-1,-2.0991668E-1,9.6190405E-1,-1.1202223E1,4.8722215E-2,-4.9204445E-1,-1.0927778E-1,3.157777E0,3.7577772E0,-7.970372E-2,-3.3303702E-1,-1.9851857E0,-0E0,7.9083316E-2,8.9083314E-2,8.722213E-3,-9.277786E-3,-4.9277786E-2],"categories":[],"categories_nodes":[],"categories_segments":[],"categories_sizes":[],"default_left":[0,0,0,0,0,0,0,0,0,0,0,0,0,0,0,0,0,0,0,0,0,0,0,0,0,0,0],"id":32,"left_children":[1,3,5,7,9,11,13,-1,-1,15,-1,17,19,-1,-1,-1,21,23,-1,-1,25,-1,-1,-1,-1,-1,-1],"loss_changes":[1.1495486E3,7.012894E2,7.9237695E2,4.1234802E1,2.9131036E2,4.1406628E2,7.1601953E2,0E0,0E0,1.05787926E2,0E0,1.1177274E2,2.1622644E2,0E0,0E0,0E0,1.2683937E1,9.134323E0,0E0,0E0,7.4900055E-1,0E0,0E0,0E0,0E0,0E0,0E0],"parents":[2147483647,0,0,1,1,2,2,3,3,4,4,5,5,6,6,9,9,11,11,12,12,16,16,17,17,20,20],"right_children":[2,4,6,8,10,12,14,-1,-1,16,-1,18,20,-1,-1,-1,22,24,-1,-1,26,-1,-1,-1,-1,-1,-1],"split_conditions":[5.146406E-1,2.857143E-1,5.875E-1,5.25E-1,3.7473464E-1,8.7832487E-1,1.2277307E-1,2.0587036E-1,2.8722214E-2,2.301601E-1,-2.0991668E-1,4.75E-1,9.6081066E-1,4.8722215E-2,-4.9204445E-1,-1.0927778E-1,4.7562212E-1,7.9056793E-1,-7.970372E-2,-3.3303702E-1,1E0,-0E0,7.9083316E-2,8.9083314E-2,8.722213E-3,-9.277786E-3,-4.9277786E-2],"split_indices":[0,16,7,7,0,0,2,0,0,0,0,7,0,0,0,0,2,0,0,0,0,0,0,0,0,0,0],"split_type":[0,0,0,0,0,0,0,0,0,0,0,0,0,0,0,0,0,0,0,0,0,0,0,0,0,0,0],"sum_hessian":[2.9E1,1.4E1,1.5E1,6E0,8E0,1E1,5E0,5E0,1E0,5E0,3E0,6E0,4E0,1E0,4E0,1E0,4E0,4E0,2E0,2E0,2E0,1E0,3E0,3E0,1E0,1E0,1E0],"tree_param":{"num_deleted":"0","num_feature":"18","num_nodes":"27","size_leaf_vector":"1"}},{"base_weights":[-4.6568527E0,1.8340733E0,-1.0457293E1,9.247619E0,-4.124692E0,-4.470708E0,-1.967315E1,2.0587036E-1,2.8722214E-2,7.935178E-1,-2.0991668E-1,9.6190405E-1,-1.1202223E1,4.8722215E-2,-4.9204445E-1,-1.0927778E-1,3.157777E0,3.7577772E0,-7.970372E-2,-3.3303702E-1,-1.9851857E0,-0E0,7.9083316E-2,8.9083314E-2,8.722213E-3,-9.277786E-3,-4.9277786E-2],"categories":[],"categories_nodes":[],"categories_segments":[],"categories_sizes":[],"default_left":[0,0,0,0,0,0,0,0,0,0,0,0,0,0,0,0,0,0,0,0,0,0,0,0,0,0,0],"id":33,"left_children":[1,3,5,7,9,11,13,-1,-1,15,-1,17,19,-1,-1,-1,21,23,-1,-1,25,-1,-1,-1,-1,-1,-1],"loss_changes":[1.1495486E3,7.012894E2,7.9237695E2,4.1234802E1,2.9131036E2,4.1406628E2,7.1601953E2,0E0,0E0,1.05787926E2,0E0,1.1177274E2,2.1622644E2,0E0,0E0,0E0,1.2683937E1,9.134323E0,0E0,0E0,7.4900055E-1,0E0,0E0,0E0,0E0,0E0,0E0],"parents":[2147483647,0,0,1,1,2,2,3,3,4,4,5,5,6,6,9,9,11,11,12,12,16,16,17,17,20,20],"right_children":[2,4,6,8,10,12,14,-1,-1,16,-1,18,20,-1,-1,-1,22,24,-1,-1,26,-1,-1,-1,-1,-1,-1],"split_conditions":[5.146406E-1,2.857143E-1,5.875E-1,5.25E-1,3.7473464E-1,8.7832487E-1,1.2277307E-1,2.0587036E-1,2.8722214E-2,2.301601E-1,-2.0991668E-1,4.75E-1,9.6081066E-1,4.8722215E-2,-4.9204445E-1,-1.0927778E-1,4.7562212E-1,7.9056793E-1,-7.970372E-2,-3.3303702E-1,1E0,-0E0,7.9083316E-2,8.9083314E-2,8.722213E-3,-9.277786E-3,-4.9277786E-2],"split_indices":[0,16,7,7,0,0,2,0,0,0,0,7,0,0,0,0,2,0,0,0,0,0,0,0,0,0,0],"split_type":[0,0,0,0,0,0,0,0,0,0,0,0,0,0,0,0,0,0,0,0,0,0,0,0,0,0,0],"sum_hessian":[2.9E1,1.4E1,1.5E1,6E0,8E0,1E1,5E0,5E0,1E0,5E0,3E0,6E0,4E0,1E0,4E0,1E0,4E0,4E0,2E0,2E0,2E0,1E0,3E0,3E0,1E0,1E0,1E0],"tree_param":{"num_deleted":"0","num_feature":"18","num_nodes":"27","size_leaf_vector":"1"}},{"base_weights":[1.70074E0,5.29753E0,-3.1523817E0,8.722213E-3,1.16763875E-1,-5.745834E0,2.0416602E-1,-0E0,-1.5303704E-1,-1.9277785E-2,9.481476E-1,2.8722214E-2,-0E0],"categories":[],"categories_nodes":[],"categories_segments":[],"categories_sizes":[],"default_left":[0,0,0,0,0,0,0,0,0,0,0,0,0],"id":34,"left_children":[1,3,5,-1,-1,7,9,-1,-1,-1,11,-1,-1],"loss_changes":[2.7874924E2,2.0481995E1,6.266259E1,0E0,0E0,4.35941E1,4.3883815E0,0E0,0E0,0E0,1.4278762E0,0E0,0E0],"parents":[2147483647,0,0,1,1,2,2,5,5,6,6,10,10],"right_children":[2,4,6,-1,-1,8,10,-1,-1,-1,12,-1,-1],"split_conditions":[4.9210903E-1,1.6067427E-1,6.2772566E-1,8.722213E-3,1.16763875E-1,5.143233E-1,2.290147E-1,-0E0,-1.5303704E-1,-1.9277785E-2,2.9145077E-1,2.8722214E-2,-0E0],"split_indices":[2,2,2,0,0,2,0,0,0,0,0,0,0],"split_type":[0,0,0,0,0,0,0,0,0,0,0,0,0],"sum_hessian":[1.4E1,8E0,6E0,1E0,7E0,3E0,3E0,1E0,2E0,1E0,2E0,1E0,1E0],"tree_param":{"num_deleted":"0","num_feature":"18","num_nodes":"13","size_leaf_vector":"1"}},{"base_weights":[1.70074E0,5.29753E0,-3.1523817E0,8.722213E-3,1.16763875E-1,-5.745834E0,2.0416602E-1,-0E0,-1.5303704E-1,-1.9277785E-2,9.481476E-1,2.8722214E-2,-0E0],"categories":[],"categories_nodes":[],"categories_segments":[],"categories_sizes":[],"default_left":[0,0,0,0,0,0,0,0,0,0,0,0,0],"id":35,"left_children":[1,3,5,-1,-1,7,9,-1,-1,-1,11,-1,-1],"loss_changes":[2.7874924E2,2.0481995E1,6.266259E1,0E0,0E0,4.35941E1,4.3883815E0,0E0,0E0,0E0,1.4278762E0,0E0,0E0],"parents":[2147483647,0,0,1,1,2,2,5,5,6,6,10,10],"right_children":[2,4,6,-1,-1,8,10,-1,-1,-1,12,-1,-1],"split_conditions":[4.9210903E-1,1.6067427E-1,6.2772566E-1,8.722213E-3,1.16763875E-1,5.143233E-1,2.290147E-1,-0E0,-1.5303704E-1,-1.9277785E-2,2.9145077E-1,2.8722214E-2,-0E0],"split_indices":[2,2,2,0,0,2,0,0,0,0,0,0,0],"split_type":[0,0,0,0,0,0,0,0,0,0,0,0,0],"sum_hessian":[1.4E1,8E0,6E0,1E0,7E0,3E0,3E0,1E0,2E0,1E0,2E0,1E0,1E0],"tree_param":{"num_deleted":"0","num_feature":"18","num_nodes":"13","size_leaf_vector":"1"}},{"base_weights":[-1.0479488E1,-5.809531E-1,-1.8866667E1,1.487222E-1,-3.1731489E0,-2.2339815E1,1.8722214E-2,-1.1204445E-1,8.872221E-2,-9.277786E-3,-5.320444E-1],"categories":[],"categories_nodes":[],"categories_segments":[],"categories_sizes":[],"default_left":[0,0,0,0,0,0,0,0,0,0,0],"id":36,"left_children":[1,3,5,-1,7,9,-1,-1,-1,-1,-1],"loss_changes":[1.0663649E3,1.6864218E2,5.0449902E2,0E0,1.3586943E2,5.444175E2,0E0,0E0,0E0,0E0,0E0],"parents":[2147483647,0,0,1,1,2,2,4,4,5,5],"right_children":[2,4,6,-1,8,10,-1,-1,-1,-1,-1],"split_conditions":[6.666667E-1,3.2658154E-1,5.935987E-1,1.487222E-1,6.8064666E-1,1.2610869E-1,1.8722214E-2,-1.1204445E-1,8.872221E-2,-9.277786E-3,-5.320444E-1],"split_indices":[14,2,0,0,3,0,0,0,0,0,0],"split_type":[0,0,0,0,0,0,0,0,0,0,0],"sum_hessian":[1.2E1,6E0,6E0,1E0,5E0,5E0,1E0,4E0,1E0,1E0,4E0],"tree_param":{"num_deleted":"0","num_feature":"18","num_nodes":"11","size_leaf_vector":"1"}},{"base_weights":[-1.0479488E1,-5.809531E-1,-1.8866667E1,1.487222E-1,-3.1731489E0,-2.2339815E1,1.8722214E-2,-1.1204445E-1,8.872221E-2,-9.277786E-3,-5.320444E-1],"categories":[],"categories_nodes":[],"categories_segments":[],"categories_sizes":[],"default_left":[0,0,0,0,0,0,0,0,0,0,0],"id":37,"left_children":[1,3,5,-1,7,9,-1,-1,-1,-1,-1],"loss_changes":[1.0663649E3,1.6864218E2,5.0449902E2,0E0,1.3586943E2,5.444175E2,0E0,0E0,0E0,0E0,0E0],"parents":[2147483647,0,0,1,1,2,2,4,4,5,5],"right_children":[2,4,6,-1,8,10,-1,-1,-1,-1,-1],"split_conditions":[6.666667E-1,3.2658154E-1,5.935987E-1,1.487222E-1,6.8064666E-1,1.2610869E-1,1.8722214E-2,-1.1204445E-1,8.872221E-2,-9.277786E-3,-5.320444E-1],"split_indices":[14,2,0,0,3,0,0,0,0,0,0],"split_type":[0,0,0,0,0,0,0,0,0,0,0],"sum_hessian":[1.2E1,6E0,6E0,1E0,5E0,5E0,1E0,4E0,1E0,1E0,4E0],"tree_param":{"num_deleted":"0","num_feature":"18","num_nodes":"11","size_leaf_vector":"1"}},{"base_weights":[-6.3179094E-1,-8.495834E0,1.5007399E0,-1.9277785E-2,-2.1303704E-1,-2.7618062E0,5.588194E0,-7.161906E-2,2.8722214E-2,7.957777E0,1.204166E0,2.8722214E-2,1.8408333E-1,-9.277786E-3,3.896295E-2],"categories":[],"categories_nodes":[],"categories_segments":[],"categories_sizes":[],"default_left":[0,0,0,0,0,0,0,0,0,0,0,0,0,0,0],"id":38,"left_children":[1,3,5,-1,-1,7,9,-1,-1,11,13,-1,-1,-1,-1],"loss_changes":[3.153152E2,5.3527283E1,2.7706058E2,0E0,0E0,3.2866806E1,7.260785E1,0E0,0E0,2.6360443E1,6.016161E0,0E0,0E0,0E0,0E0],"parents":[2147483647,0,0,1,1,2,2,5,5,6,6,9,9,10,10],"right_children":[2,4,6,-1,-1,8,10,-1,-1,12,14,-1,-1,-1,-1],"split_conditions":[4.943439E-2,2.2276178E-1,6.666667E-1,-1.9277785E-2,-2.1303704E-1,1E0,7.257256E-1,-7.161906E-2,2.8722214E-2,2.813647E-1,8.972187E-1,2.8722214E-2,1.8408333E-1,-9.277786E-3,3.896295E-2],"split_indices":[3,2,16,0,0,3,0,0,0,0,0,0,0,0,0],"split_type":[0,0,0,0,0,0,0,0,0,0,0,0,0,0,0],"sum_hessian":[1.7E1,3E0,1.4E1,1E0,2E0,7E0,7E0,6E0,1E0,4E0,3E0,1E0,3E0,1E0,2E0],"tree_param":{"num_deleted":"0","num_feature":"18","num_nodes":"15","size_leaf_vector":"1"}},{"base_weights":[-6.3179094E-1,-8.495834E0,1.5007399E0,-1.9277785E-2,-2.1303704E-1,-2.7618062E0,5.588194E0,-7.161906E-2,2.8722214E-2,7.957777E0,1.204166E0,2.8722214E-2,1.8408333E-1,-9.277786E-3,3.896295E-2],"categories":[],"categories_nodes":[],"categories_segments":[],"categories_sizes":[],"default_left":[0,0,0,0,0,0,0,0,0,0,0,0,0,0,0],"id":39,"left_children":[1,3,5,-1,-1,7,9,-1,-1,11,13,-1,-1,-1,-1],"loss_changes":[3.153152E2,5.3527283E1,2.7706058E2,0E0,0E0,3.2866806E1,7.260785E1,0E0,0E0,2.6360443E1,6.016161E0,0E0,0E0,0E0,0E0],"parents":[2147483647,0,0,1,1,2,2,5,5,6,6,9,9,10,10],"right_children":[2,4,6,-1,-1,8,10,-1,-1,12,14,-1,-1,-1,-1],"split_conditions":[4.943439E-2,2.2276178E-1,6.666667E-1,-1.9277785E-2,-2.1303704E-1,1E0,7.257256E-1,-7.161906E-2,2.8722214E-2,2.813647E-1,8.972187E-1,2.8722214E-2,1.8408333E-1,-9.277786E-3,3.896295E-2],"split_indices":[3,2,16,0,0,3,0,0,0,0,0,0,0,0,0],"split_type":[0,0,0,0,0,0,0,0,0,0,0,0,0,0,0],"sum_hessian":[1.7E1,3E0,1.4E1,1E0,2E0,7E0,7E0,6E0,1E0,4E0,3E0,1E0,3E0,1E0,2E0],"tree_param":{"num_deleted":"0","num_feature":"18","num_nodes":"15","size_leaf_vector":"1"}}]},"name":"gbtree"},"learner_model_param":{"base_score":"[8.102778E1]","boost_from_average":"1","num_class":"0","num_feature":"18","num_target":"1"},"objective":{"name":"reg:squarederror","reg_loss_param":{"scale_pos_weight":"1"}}},"version":[3,1,2]}