{"learner":{"attributes":{},"feature_names":["deep_sleep_pct","rem_sleep_pct","light_sleep_pct","awake_sleep_pct","sleep_efficiency","hr_restingHeartRate","hr_lastSevenDaysAvgRestingHeartRate","hr_maxHeartRate","hr_minHeartRate","str_avgStressLevel","str_maxStressLevel","act_totalCalories","act_activeKilocalories","act_distance","resp_lowestRespirationValue","resp_highestRespirationValue","resp_avgSleepRespirationValue","sleep_day_ptc"],"feature_types":["float","float","float","float","float","int","int","int","int","int","int","float","float","int","float","float","float","float"],"gradient_booster":{"model":{"cats":{"enc":[],"feature_segments":[],"sorted_idx":[]},"gbtree_model_param":{"num_parallel_tree":"1","num_trees":"308"},"iteration_indptr":[0,1,2,3,4,5,6,7,8,9,10,11,12,13,14,15,16,17,18,19,20,21,22,23,24,25,26,27,28,29,30,31,32,33,34,35,36,37,38,39,40,41,42,43,44,45,46,47,48,49,50,51,52,53,54,55,56,57,58,59,60,61,62,63,64,65,66,67,68,69,70,71,72,73,74,75,76,77,78,79,80,81,82,83,84,85,86,87,88,89,90,91,92,93,94,95,96,97,98,99,100,101,102,103,104,105,106,107,108,109,110,111,112,113,114,115,116,117,118,119,120,121,122,123,124,125,126,127,128,129,130,131,132,133,134,135,136,137,138,139,140,141,142,143,144,145,146,147,148,149,150,151,152,153,154,155,156,157,158,159,160,161,162,163,164,165,166,167,168,169,170,171,172,173,174,175,176,177,178,179,180,181,182,183,184,185,186,187,188,189,190,191,192,193,194,195,196,197,198,199,200,201,202,203,204,205,206,207,208,209,210,211,212,213,214,215,216,217,218,219,220,221,222,223,224,225,226,227,228,229,230,231,232,233,234,235,236,237,238,239,240,241,242,243,244,245,246,247,248,249,250,251,252,253,254,255,256,257,258,259,260,261,262,263,264,265,266,267,268,269,270,271,272,273,274,275,276,277,278,279,280,281,282,283,284,285,286,287,288,289,290,291,292,293,294,295,296,297,298,299,300,301,302,303,304,305,306,307,308],"tree_info":[0,0,0,0,0,0,0,0,0,0,0,0,0,0,0,0,0,0,0,0,0,0,0,0,0,0,0,0,0,0,0,0,0,0,0,0,0,0,0,0,0,0,0,0,0,0,0,0,0,0,0,0,0,0,0,0,0,0,0,0,0,0,0,0,0,0,0,0,0,0,0,0,0,0,0,0,0,0,0,0,0,0,0,0,0,0,0,0,0,0,0,0,0,0,0,0,0,0,0,0,0,0,0,0,0,0,0,0,0,0,0,0,0,0,0,0,0,0,0,0,0,0,0,0,0,0,0,0,0,0,0,0,0,0,0,0,0,0,0,0,0,0,0,0,0,0,0,0,0,0,0,0,0,0,0,0,0,0,0,0,0,0,0,0,0,0,0,0,0,0,0,0,0,0,0,0,0,0,0,0,0,0,0,0,0,0,0,0,0,0,0,0,0,0,0,0,0,0,0,0,0,0,0,0,0,0,0,0,0,0,0,0,0,0,0,0,0,0,0,0,0,0,0,0,0,0,0,0,0,0,0,0,0,0,0,0,0,0,0,0,0,0,0,0,0,0,0,0,0,0,0,0,0,0,0,0,0,0,0,0,0,0,0,0,0,0,0,0,0,0,0,0,0,0,0,0,0,0,0,0,0,0,0,0,0,0,0,0,0,0,0,0,0,0,0,0,0,0,0,0,0,0,0,0,0,0,0,0],"trees":[{"base_weights":[-4.6583675E-2,-7.164288E0,1.4616137E0,1.1611094E0,-1.0746669E1,4.9156837E0,-2.0725515E0,7.9791605E-2,4.7916034E-3,-6.253126E-1,-9.0208404E-2,7.8769207E0,-3.7466688E0,-3.436312E0,3.193748E0,4.1388806E-2,4.53712E-1,-2.503126E-1,2.9791603E-2,7.066657E-2,-2.7637511E-1,2.9791603E-2,1.9138882E-1],"categories":[],"categories_nodes":[],"categories_segments":[],"categories_sizes":[],"default_left":[0,0,0,0,0,0,0,0,0,0,0,0,0,0,0,0,0,0,0,0,0,0,0],"id":0,"left_children":[1,3,5,7,9,11,13,-1,-1,-1,-1,15,17,19,21,-1,-1,-1,-1,-1,-1,-1,-1],"loss_changes":[4.2970288E2,2.222099E2,4.133117E2,1.0672026E0,5.468097E1,4.6599695E2,1.3309247E2,0E0,0E0,0E0,0E0,1.0121942E2,3.0772621E1,1.5020499E2,3.8655357E0,0E0,0E0,0E0,0E0,0E0,0E0,0E0,0E0],"parents":[2147483647,0,0,1,1,2,2,3,3,4,4,5,5,6,6,11,11,12,12,13,13,14,14],"right_children":[2,4,6,8,10,12,14,-1,-1,-1,-1,16,18,20,22,-1,-1,-1,-1,-1,-1,-1,-1],"split_conditions":[4.2E1,8.8E1,6.1121494E-1,2.0226097E-1,3.426466E-1,7.1E1,8.93E3,7.9791605E-2,4.7916034E-3,-6.253126E-1,-9.0208404E-2,2.2E1,5.838397E-1,1.4457831E-1,1.1610487E-1,4.1388806E-2,4.53712E-1,-2.503126E-1,2.9791603E-2,7.066657E-2,-2.7637511E-1,2.9791603E-2,1.9138882E-1],"split_indices":[8,10,2,0,0,6,13,0,0,0,0,9,2,0,0,0,0,0,0,0,0,0,0],"split_type":[0,0,0,0,0,0,0,0,0,0,0,0,0,0,0,0,0,0,0,0,0,0,0],"sum_hessian":[3.8E1,6E0,3.2E1,2E0,4E0,1.6E1,1.6E1,1E0,1E0,3E0,1E0,1.2E1,4E0,1.3E1,3E0,2E0,1E1,3E0,1E0,4E0,9E0,1E0,2E0],"tree_param":{"num_deleted":"0","num_feature":"18","num_nodes":"23","size_leaf_vector":"1"}},{"base_weights":[8.696401E-1,3.7577093E0,-4.3426003E0,5.5803914E0,-7.1814685E0,1.0904955E0,-5.8925724E-1,6.915617E0,-2.132028E0,-1.4960249E-1,-4.9124312E-1,-1.067848E0,2.0401934E-1,2.006167E-1,5.196795E-1,-1.631664E-1,2.9046783E-2,-1.3518268E-1,2.0048408E-2],"categories":[],"categories_nodes":[],"categories_segments":[],"categories_sizes":[],"default_left":[0,0,0,0,0,0,0,0,0,0,0,0,0,0,0,0,0,0,0],"id":1,"left_children":[1,3,5,7,9,11,-1,13,15,-1,-1,17,-1,-1,-1,-1,-1,-1,-1],"loss_changes":[5.882856E2,5.3838135E2,5.80026E2,2.4177466E2,1.3618973E1,6.2737396E1,0E0,1.4871008E2,1.4440725E1,0E0,0E0,1.57305355E1,0E0,0E0,0E0,0E0,0E0,0E0,0E0],"parents":[2147483647,0,0,1,1,2,2,3,3,4,4,5,5,7,7,8,8,11,11],"right_children":[2,4,6,8,10,12,-1,14,16,-1,-1,18,-1,-1,-1,-1,-1,-1,-1],"split_conditions":[6.415762E-1,2.70045E-1,1.768868E-1,6.9E1,4.074074E-1,9.7E1,-5.8925724E-1,3E1,1.8712273E-1,-1.4960249E-1,-4.9124312E-1,5E1,2.0401934E-1,2.006167E-1,5.196795E-1,-1.631664E-1,2.9046783E-2,-1.3518268E-1,2.0048408E-2],"split_indices":[2,0,0,5,0,10,0,9,0,0,0,5,0,0,0,0,0,0,0],"split_type":[0,0,0,0,0,0,0,0,0,0,0,0,0,0,0,0,0,0,0],"sum_hessian":[3.7E1,2.4E1,1.3E1,2.1E1,3E0,8E0,5E0,1.8E1,3E0,2E0,1E0,5E0,3E0,1.1E1,7E0,2E0,1E0,2E0,3E0],"tree_param":{"num_deleted":"0","num_feature":"18","num_nodes":"19","size_leaf_vector":"1"}},{"base_weights":[3.7959024E-1,-7.7945123E0,2.005091E0,-6.6169864E-1,2.0229385E0,4.46967E0,-4.231112E0,2.384334E-1,-8.421303E-2,5.4312534E0,-1.1902691E0,2.5660053E-1,-6.055504E0,1.15212075E-1,4.319287E-1,3.889628E-2,-1.7987134E-1,-3.8095194E-1,-4.382996E-2],"categories":[],"categories_nodes":[],"categories_segments":[],"categories_sizes":[],"default_left":[0,0,0,0,0,0,0,0,0,0,0,0,0,0,0,0,0,0,0],"id":2,"left_children":[1,3,5,-1,7,9,11,-1,-1,13,15,-1,17,-1,-1,-1,-1,-1,-1],"loss_changes":[4.800951E2,3.483024E2,4.8002393E2,0E0,3.887702E1,1.2662393E2,1.8490729E2,0E0,0E0,1.6955756E2,2.2031498E1,0E0,5.7250763E1,0E0,0E0,0E0,0E0,0E0,0E0],"parents":[2147483647,0,0,1,1,2,2,4,4,5,5,6,6,9,9,10,10,12,12],"right_children":[2,4,6,-1,8,10,12,-1,-1,14,16,-1,18,-1,-1,-1,-1,-1,-1],"split_conditions":[4.5E1,4.4E1,3.6E1,-6.6169864E-1,2.4484536E-1,6.9E1,1.4962594E-1,2.384334E-1,-8.421303E-2,3E1,2.291918E-1,2.5660053E-1,7.1E1,1.15212075E-1,4.319287E-1,3.889628E-2,-1.7987134E-1,-3.8095194E-1,-4.382996E-2],"split_indices":[6,5,9,0,0,5,0,0,0,9,1,0,5,0,0,0,0,0,0],"split_type":[0,0,0,0,0,0,0,0,0,0,0,0,0,0,0,0,0,0,0],"sum_hessian":[3.4E1,5E0,2.9E1,3E0,2E0,2.1E1,8E0,1E0,1E0,1.8E1,3E0,1E0,7E0,1E1,8E0,2E0,1E0,5E0,2E0],"tree_param":{"num_deleted":"0","num_feature":"18","num_nodes":"19","size_leaf_vector":"1"}},{"base_weights":[-1.2336071E-1,2.1616428E0,-1.0402957E1,-9.1422E0,3.8634422E0,2.734829E-2,-6.0298276E-1,-4.4556197E-2,-5.478595E-1,4.9800143E0,-8.2145995E-1,3.156544E-1,-2.4953958E-2,-2.0614652E-1,2.4607389E-1],"categories":[],"categories_nodes":[],"categories_segments":[],"categories_sizes":[],"default_left":[0,0,0,0,0,0,0,0,0,0,0,0,0,0,0],"id":3,"left_children":[1,3,5,7,9,-1,-1,-1,-1,11,13,-1,-1,-1,-1],"loss_changes":[1.0333348E3,7.273199E2,1.5287317E2,6.3929016E1,1.7189975E2,0E0,0E0,0E0,0E0,1.9363708E2,1.5293204E2,0E0,0E0,0E0,0E0],"parents":[2147483647,0,0,1,1,2,2,3,3,4,4,9,9,10,10],"right_children":[2,4,6,8,10,-1,-1,-1,-1,12,14,-1,-1,-1,-1],"split_conditions":[1.42E2,2.28E3,1.903409E-1,1.1070111E-1,5.9E1,2.734829E-2,-6.0298276E-1,-4.4556197E-2,-5.478595E-1,6.7930937E-1,1.35E2,3.156544E-1,-2.4953958E-2,-2.0614652E-1,2.4607389E-1],"split_indices":[7,11,0,0,5,0,0,0,0,2,7,0,0,0,0],"split_type":[0,0,0,0,0,0,0,0,0,0,0,0,0,0,0],"sum_hessian":[4.2E1,3.5E1,7E0,4E0,3.1E1,1E0,6E0,1E0,3E0,2.5E1,6E0,2E1,5E0,4E0,2E0],"tree_param":{"num_deleted":"0","num_feature":"18","num_nodes":"15","size_leaf_vector":"1"}},{"base_weights":[-1.8853632E-1,1.961963E0,-1.1542813E1,-6.9495864E0,3.2557747E0,-1.6896932E-1,-6.161744E-1,-5.2055234E-1,-5.6913223E-2,4.7192297E0,-1.1600196E0,3.0031285E-1,2.6870498E-2,-1.7723192E-1,2.3787153E-1],"categories":[],"categories_nodes":[],"categories_segments":[],"categories_sizes":[],"default_left":[0,0,0,0,0,0,0,0,0,0,0,0,0,0,0],"id":4,"left_children":[1,3,5,7,9,-1,-1,-1,-1,11,13,-1,-1,-1,-1],"loss_changes":[1.0735514E3,4.4886194E2,1.3947144E0,8.7572815E1,2.1908676E2,0E0,0E0,0E0,0E0,1.3067072E2,1.4373985E2,0E0,0E0,0E0,0E0],"parents":[2147483647,0,0,1,1,2,2,3,3,4,4,9,9,10,10],"right_children":[2,4,6,8,10,-1,-1,-1,-1,12,14,-1,-1,-1,-1],"split_conditions":[1.42E2,2.28E3,7.2289154E-2,4.4E1,5.9E1,-1.6896932E-1,-6.161744E-1,-5.2055234E-1,-5.6913223E-2,4.1775458E-2,1.35E2,3.0031285E-1,2.6870498E-2,-1.7723192E-1,2.3787153E-1],"split_indices":[7,11,1,5,5,0,0,0,0,3,7,0,0,0,0],"split_type":[0,0,0,0,0,0,0,0,0,0,0,0,0,0,0],"sum_hessian":[4.2E1,3.6E1,6E0,4E0,3.2E1,1E0,5E0,2E0,2E0,2.4E1,8E0,1.8E1,6E0,6E0,2E0],"tree_param":{"num_deleted":"0","num_feature":"18","num_nodes":"15","size_leaf_vector":"1"}},{"base_weights":[-3.584339E-1,-3.626147E0,2.527491E0,-5.7939854E0,8.7931806E-1,-1.387753E0,5.7100224E0,-1.0645541E1,-1.3656657E0,2.938798E-1,-1.7497073E0,1.3417718E0,-2.7487212E-1,1.7607623E0,7.6973042E0,2.3504218E-2,-6.29658E-1,1.975209E-1,-2.3493886E-1,1.9688264E-3,-2.6987815E-1,1.9559991E-1,-4.8138183E-2,1.8965553E-1,-8.934478E-3,4.218312E-1,4.2068824E-2],"categories":[],"categories_nodes":[],"categories_segments":[],"categories_sizes":[],"default_left":[0,0,0,0,0,0,0,0,0,0,0,0,0,0,0,0,0,0,0,0,0,0,0,0,0,0,0],"id":5,"left_children":[1,3,5,7,9,11,13,15,17,-1,19,21,-1,23,25,-1,-1,-1,-1,-1,-1,-1,-1,-1,-1,-1,-1],"loss_changes":[4.4307214E2,2.2046289E2,3.1986597E2,3.0652423E2,1.15821655E2,1.4240187E2,9.537717E1,1.5867517E2,1.7810889E2,0E0,3.9906273E1,5.144668E1,0E0,2.4689085E1,3.7592285E1,0E0,0E0,0E0,0E0,0E0,0E0,0E0,0E0,0E0,0E0,0E0,0E0],"parents":[2147483647,0,0,1,1,2,2,3,3,4,4,5,5,6,6,7,7,8,8,10,10,11,11,13,13,14,14],"right_children":[2,4,6,8,10,12,14,16,18,-1,20,22,-1,24,26,-1,-1,-1,-1,-1,-1,-1,-1,-1,-1,-1,-1],"split_conditions":[1.8527855E-1,2.3E1,3.051736E-1,2.7655092E-1,2.609028E-1,9.7E1,2.745E3,1.1597768E-1,3.114236E-1,2.938798E-1,1.8441558E-1,2.7074075E-1,-2.7487212E-1,1.9855716E-3,5.6E1,2.3504218E-2,-6.29658E-1,1.975209E-1,-2.3493886E-1,1.9688264E-3,-2.6987815E-1,1.9559991E-1,-4.8138183E-2,1.8965553E-1,-8.934478E-3,4.218312E-1,4.2068824E-2],"split_indices":[1,15,17,17,17,10,11,1,17,0,1,17,0,3,5,0,0,0,0,0,0,0,0,0,0,0,0],"split_type":[0,0,0,0,0,0,0,0,0,0,0,0,0,0,0,0,0,0,0,0,0,0,0,0,0,0,0],"sum_hessian":[4.5E1,2.1E1,2.4E1,1.4E1,7E0,1.1E1,1.3E1,6E0,8E0,2E0,5E0,7E0,4E0,5E0,8E0,1E0,5E0,3E0,5E0,4E0,1E0,3E0,4E0,2E0,3E0,7E0,1E0],"tree_param":{"num_deleted":"0","num_feature":"18","num_nodes":"27","size_leaf_vector":"1"}},{"base_weights":[6.399946E-1,-1.4722859E0,6.5003805E0,-8.337063E0,1.5054639E-2,8.371201E0,7.881754E-2,-4.0815886E-2,-4.9940854E-1,2.09179E0,-6.5471163E0,4.5095062E-1,1.0960823E-1,-1.0239867E-1,2.342825E-1,-4.1933537E-1,6.3771024E-2],"categories":[],"categories_nodes":[],"categories_segments":[],"categories_sizes":[],"default_left":[0,0,0,0,0,0,0,0,0,0,0,0,0,0,0,0,0],"id":6,"left_children":[1,3,5,7,9,11,-1,-1,-1,13,15,-1,-1,-1,-1,-1,-1],"loss_changes":[4.6808804E2,2.8684506E2,7.7929016E1,5.285379E1,3.403191E2,7.127716E0,0E0,0E0,0E0,2.1388121E2,9.774933E1,0E0,0E0,0E0,0E0,0E0,0E0],"parents":[2147483647,0,0,1,1,2,2,3,3,4,4,5,5,9,9,10,10],"right_children":[2,4,6,8,10,12,-1,-1,-1,14,16,-1,-1,-1,-1,-1,-1],"split_conditions":[2.2983274E-1,2.28E3,1.6867469E-1,1.1070111E-1,8.57E2,8.402E3,7.881754E-2,-4.0815886E-2,-4.9940854E-1,1.7244211E-1,6.643991E-1,4.5095062E-1,1.0960823E-1,-1.0239867E-1,2.342825E-1,-4.1933537E-1,6.3771024E-2],"split_indices":[1,11,0,0,12,13,0,0,0,1,2,0,0,0,0,0,0],"split_type":[0,0,0,0,0,0,0,0,0,0,0,0,0,0,0,0,0],"sum_hessian":[3.6E1,2.7E1,9E0,4E0,2.3E1,6E0,3E0,1E0,3E0,1.8E1,5E0,5E0,1E0,7E0,1.1E1,4E0,1E0],"tree_param":{"num_deleted":"0","num_feature":"18","num_nodes":"17","size_leaf_vector":"1"}},{"base_weights":[-8.263209E-1,3.7557364E0,-4.2326007E0,7.4261646E0,7.3581266E-1,-2.021393E0,-9.299619E0,1.9662215E-1,4.9558878E-1,2.362179E0,-1.668263E0,-7.915443E0,2.2086705E-1,5.1500477E-2,-5.604779E-1,1.303299E-2,1.9240768E-1,-1.8265311E-1,1.5427338E-1,-4.8068085E-1,-2.5568733E-2,-3.9662324E-2,2.118516E-1],"categories":[],"categories_nodes":[],"categories_segments":[],"categories_sizes":[],"default_left":[0,0,0,0,0,0,0,0,0,0,0,0,0,0,0,0,0,0,0,0,0,0,0],"id":7,"left_children":[1,3,5,7,9,11,13,-1,-1,15,17,19,21,-1,-1,-1,-1,-1,-1,-1,-1,-1,-1],"loss_changes":[6.5586273E2,1.9323897E2,2.4897119E2,2.9110352E1,4.7019115E1,2.4040558E2,1.5066669E2,0E0,0E0,2.044569E1,5.8504173E1,5.6938324E1,6.0725246E1,0E0,0E0,0E0,0E0,0E0,0E0,0E0,0E0,0E0,0E0],"parents":[2147483647,0,0,1,1,2,2,3,3,4,4,5,5,6,6,9,9,10,10,11,11,12,12],"right_children":[2,4,6,8,10,12,14,-1,-1,16,18,20,22,-1,-1,-1,-1,-1,-1,-1,-1,-1,-1],"split_conditions":[1.768868E-1,6.465377E-1,1.38E2,2.7E1,3.17757E-2,2.28E3,1.903409E-1,1.9662215E-1,4.9558878E-1,1.32E2,1.5419501E-1,7E1,1.35E2,5.1500477E-2,-5.604779E-1,1.303299E-2,1.9240768E-1,-1.8265311E-1,1.5427338E-1,-4.8068085E-1,-2.5568733E-2,-3.9662324E-2,2.118516E-1],"split_indices":[0,2,7,9,3,11,0,0,0,7,0,5,7,0,0,0,0,0,0,0,0,0,0],"split_type":[0,0,0,0,0,0,0,0,0,0,0,0,0,0,0,0,0,0,0,0,0,0,0],"sum_hessian":[4E1,1.7E1,2.3E1,7E0,1E1,1.7E1,6E0,4E0,3E0,6E0,4E0,4E0,1.3E1,1E0,5E0,3E0,3E0,3E0,1E0,3E0,1E0,1.1E1,2E0],"tree_param":{"num_deleted":"0","num_feature":"18","num_nodes":"23","size_leaf_vector":"1"}},{"base_weights":[-1.9241245E0,-5.1577578E0,7.539882E-1,-1.4831237E-1,-9.026402E0,-3.5156325E-1,2.0151978E0,-5.3608737E0,4.0313993E0,-5.103554E-1,-1.6146454E-1,3.0683918E0,-2.4130797E0,-9.2081174E-2,-3.954656E-1,5.430753E-2,2.7997574E-1,3.9507295E-3,1.7572628E-1,-2.1471748E-2,-1.4489083E-1],"categories":[],"categories_nodes":[],"categories_segments":[],"categories_sizes":[],"default_left":[0,0,0,0,0,0,0,0,0,0,0,0,0,0,0,0,0,0,0,0,0],"id":8,"left_children":[1,3,5,7,9,-1,11,13,15,-1,-1,17,19,-1,-1,-1,-1,-1,-1,-1,-1],"loss_changes":[3.0743048E2,3.0781998E2,2.1004448E2,1.9604079E2,2.7296814E1,0E0,9.141885E1,2.0333313E1,1.6341965E1,0E0,0E0,1.9367874E1,2.2690353E0,0E0,0E0,0E0,0E0,0E0,0E0,0E0,0E0],"parents":[2147483647,0,0,1,1,2,2,3,3,4,4,6,6,7,7,8,8,11,11,12,12],"right_children":[2,4,6,8,10,-1,12,14,16,-1,-1,18,20,-1,-1,-1,-1,-1,-1,-1,-1],"split_conditions":[2.9305556E-1,2.546E3,2.242E3,8.041818E-3,7.2E1,-3.5156325E-1,3.17757E-2,4.074074E-1,4.8E1,-5.103554E-1,-1.6146454E-1,2.2E1,1.3714285E-1,-9.2081174E-2,-3.954656E-1,5.430753E-2,2.7997574E-1,3.9507295E-3,1.7572628E-1,-2.1471748E-2,-1.4489083E-1],"split_indices":[17,11,11,3,6,0,3,0,5,0,0,9,0,0,0,0,0,0,0,0,0],"split_type":[0,0,0,0,0,0,0,0,0,0,0,0,0,0,0,0,0,0,0,0,0],"sum_hessian":[3.4E1,1.5E1,1.9E1,7E0,8E0,2E0,1.7E1,3E0,4E0,6E0,2E0,1.4E1,3E0,2E0,1E0,2E0,2E0,2E0,1.2E1,1E0,2E0],"tree_param":{"num_deleted":"0","num_feature":"18","num_nodes":"21","size_leaf_vector":"1"}},{"base_weights":[2.347694E-1,1.6156995E0,-7.8431177E0,-6.3787036E0,3.1640568E0,4.5819815E-2,-4.8991498E-1,-7.5053205E0,-1.6140519E-2,4.1018596E0,-1.2541311E0,-3.781925E-2,-4.4892293E-1,-3.856074E-3,2.5777304E-1,6.2371906E-2,-2.1024232E-1],"categories":[],"categories_nodes":[],"categories_segments":[],"categories_sizes":[],"default_left":[0,0,0,0,0,0,0,0,0,0,0,0,0,0,0,0,0],"id":9,"left_children":[1,3,5,7,9,-1,-1,11,-1,13,15,-1,-1,-1,-1,-1,-1],"loss_changes":[4.582493E2,4.5309787E2,1.12625946E2,3.7730392E1,1.2973071E2,0E0,0E0,4.1945892E1,0E0,1.1097995E2,4.9829533E1,0E0,0E0,0E0,0E0,0E0,0E0],"parents":[2147483647,0,0,1,1,2,2,3,3,4,4,7,7,9,9,10,10],"right_children":[2,4,6,8,10,-1,-1,12,-1,14,16,-1,-1,-1,-1,-1,-1],"split_conditions":[1.42E2,2.28E3,1.903409E-1,7E1,7.1E1,4.5819815E-2,-4.8991498E-1,1.1070111E-1,-1.6140519E-2,1.5732759E-1,1.8594104E-1,-3.781925E-2,-4.4892293E-1,-3.856074E-3,2.5777304E-1,6.2371906E-2,-2.1024232E-1],"split_indices":[7,11,0,5,6,0,0,0,0,1,1,0,0,0,0,0,0],"split_type":[0,0,0,0,0,0,0,0,0,0,0,0,0,0,0,0,0],"sum_hessian":[3.9E1,3.4E1,5E0,5E0,2.9E1,1E0,4E0,4E0,1E0,2.4E1,5E0,1E0,3E0,5E0,1.9E1,3E0,2E0],"tree_param":{"num_deleted":"0","num_feature":"18","num_nodes":"17","size_leaf_vector":"1"}},{"base_weights":[-3.2319248E-1,1.0612614E0,-6.8714495E0,-7.059309E0,2.2271905E0,2.4649577E-1,-9.275918E0,-4.3208838E-1,-1.5736923E-2,3.1101415E0,-2.394938E0,-4.954469E-1,-1.3444497E-1,2.3601739E-1,2.1366019E-2,-1.9540708E-1,1.9382326E-2],"categories":[],"categories_nodes":[],"categories_segments":[],"categories_sizes":[],"default_left":[0,0,0,0,0,0,0,0,0,0,0,0,0,0,0,0,0],"id":10,"left_children":[1,3,5,7,9,-1,11,-1,-1,13,15,-1,-1,-1,-1,-1,-1],"loss_changes":[4.158326E2,3.7502362E2,2.7317215E2,4.974945E1,1.4627794E2,0E0,1.2841187E0,0E0,0E0,1.2274512E2,2.7130733E1,0E0,0E0,0E0,0E0,0E0,0E0],"parents":[2147483647,0,0,1,1,2,2,3,3,4,4,6,6,9,9,10,10],"right_children":[2,4,6,8,10,-1,12,-1,-1,14,16,-1,-1,-1,-1,-1,-1],"split_conditions":[1.42E2,2.28E3,4.263E3,7E1,7.1E1,2.4649577E-1,6.985019E-1,-4.3208838E-1,-1.5736923E-2,2.0408163E-2,5.838397E-1,-4.954469E-1,-1.3444497E-1,2.3601739E-1,2.1366019E-2,-1.9540708E-1,1.9382326E-2],"split_indices":[7,11,13,5,6,0,2,0,0,3,2,0,0,0,0,0,0],"split_type":[0,0,0,0,0,0,0,0,0,0,0,0,0,0,0,0,0],"sum_hessian":[4.4E1,3.7E1,7E0,4E0,3.3E1,1E0,6E0,3E0,1E0,2.8E1,5E0,5E0,1E0,1.7E1,1.1E1,3E0,2E0],"tree_param":{"num_deleted":"0","num_feature":"18","num_nodes":"17","size_leaf_vector":"1"}},{"base_weights":[6.615565E-1,2.3469036E0,-5.580445E0,3.6125045E0,-2.8556855E0,-4.4514108E-1,3.998583E0,9.972645E-1,6.3445115E0,-2.3458946E-1,1.1230489E0,2.4033332E-1,5.70604E-2,1.3616006E-1,-2.224133E-2,-2.7344767E-3,3.7610328E-1,-1.2794113E-3,8.800808E-2],"categories":[],"categories_nodes":[],"categories_segments":[],"categories_sizes":[],"default_left":[0,0,0,0,0,0,0,0,0,0,0,0,0,0,0,0,0,0,0],"id":11,"left_children":[1,3,5,7,9,-1,11,13,15,-1,17,-1,-1,-1,-1,-1,-1,-1,-1],"loss_changes":[4.4409094E2,2.2767706E2,3.2251535E2,1.858497E2,5.6763557E1,0E0,8.4679794E-1,3.877356E1,9.911841E1,0E0,2.4139307E0,0E0,0E0,0E0,0E0,0E0,0E0,0E0,0E0],"parents":[2147483647,0,0,1,1,2,2,3,3,4,4,6,6,7,7,8,8,10,10],"right_children":[2,4,6,8,10,-1,12,14,16,-1,18,-1,-1,-1,-1,-1,-1,-1,-1],"split_conditions":[1.42E2,7.1E1,1.5E1,3E1,6.1422414E-1,-4.4514108E-1,1.9201995E-1,6.6964286E-3,1.4772727E-1,-2.3458946E-1,1.6928865E-1,2.4033332E-1,5.70604E-2,1.3616006E-1,-2.224133E-2,-2.7344767E-3,3.7610328E-1,-1.2794113E-3,8.800808E-2],"split_indices":[7,6,16,9,2,0,1,3,1,0,1,0,0,0,0,0,0,0,0],"split_type":[0,0,0,0,0,0,0,0,0,0,0,0,0,0,0,0,0,0,0],"sum_hessian":[4E1,3.2E1,8E0,2.6E1,6E0,6E0,2E0,1.4E1,1.2E1,4E0,2E0,1E0,1E0,6E0,8E0,2E0,1E1,1E0,1E0],"tree_param":{"num_deleted":"0","num_feature":"18","num_nodes":"19","size_leaf_vector":"1"}},{"base_weights":[3.642221E-1,-3.3787698E-1,1.346016E0,3.978866E0,-2.598565E0,5.2932262E0,-1.5286038E0,3.5700822E-1,-3.5540465E-1,1.4905633E-1,4.2431828E-1,-1.5277721E-1,2.3726884E-2,-1.8956469E-1,1.3453756E-1],"categories":[],"categories_nodes":[],"categories_segments":[],"categories_sizes":[],"default_left":[0,0,0,0,0,0,0,0,0,0,0,0,0,0,0],"id":12,"left_children":[1,-1,3,5,7,9,11,13,-1,-1,-1,-1,-1,-1,-1],"loss_changes":[2.882387E2,0E0,3.8435504E2,1.6772128E2,2.0313637E2,1.0644571E2,1.7001457E1,1.0690207E2,0E0,0E0,0E0,0E0,0E0,0E0,0E0],"parents":[2147483647,0,0,2,2,3,3,4,4,5,5,6,6,7,7],"right_children":[2,-1,4,6,8,10,12,14,-1,-1,-1,-1,-1,-1,-1],"split_conditions":[5.296779E-1,-3.3787698E-1,6.415762E-1,7.1E1,3.6E1,3E1,5.838397E-1,4.5E1,-3.5540465E-1,1.4905633E-1,4.2431828E-1,-1.5277721E-1,2.3726884E-2,-1.8956469E-1,1.3453756E-1],"split_indices":[2,0,2,6,9,9,2,8,0,0,0,0,0,0,0],"split_type":[0,0,0,0,0,0,0,0,0,0,0,0,0,0,0],"sum_hessian":[3.9E1,4E0,3.5E1,2.1E1,1.4E1,1.7E1,4E0,9E0,5E0,1.1E1,6E0,2E0,2E0,3E0,6E0],"tree_param":{"num_deleted":"0","num_feature":"18","num_nodes":"15","size_leaf_vector":"1"}},{"base_weights":[1.721712E-1,3.4523296E0,-2.0612235E0,1.2420468E-1,6.3857512E0,1.8992701E-1,-5.466942E0,1.7200671E0,-2.27564E0,6.889888E0,5.6316532E-2,-3.559322E-1,2.4318008E0,-1.7283069E0,-4.4199577E-1,-1.4477365E-1,1.6211347E-1,-3.8638156E-2,-1.6710679E-1,3.7068388E-1,7.8083955E-2,1.9136427E-1,-8.199309E-2,2.4953652E-3,-1.7782451E-1],"categories":[],"categories_nodes":[],"categories_segments":[],"categories_sizes":[],"default_left":[0,0,0,0,0,0,0,0,0,0,0,0,0,0,0,0,0,0,0,0,0,0,0,0,0],"id":13,"left_children":[1,3,5,7,9,11,13,15,17,19,-1,-1,21,23,-1,-1,-1,-1,-1,-1,-1,-1,-1,-1,-1],"loss_changes":[3.0761655E2,1.6452336E2,1.9323563E2,3.8327095E1,1.530127E1,2.7900076E2,1.0976828E2,5.15773E1,3.417078E0,9.851593E0,0E0,0E0,8.036024E1,2.0033564E1,0E0,0E0,0E0,0E0,0E0,0E0,0E0,0E0,0E0,0E0,0E0],"parents":[2147483647,0,0,1,1,2,2,3,3,4,4,5,5,6,6,7,7,8,8,9,9,12,12,13,13],"right_children":[2,4,6,8,10,12,14,16,18,20,-1,-1,22,24,-1,-1,-1,-1,-1,-1,-1,-1,-1,-1,-1],"split_conditions":[1.768868E-1,2.1084337E-1,5.9356135E-1,1.8539326E-1,4.1775458E-2,5.296779E-1,1.27E2,4.5E1,1.3714285E-1,9.053E3,5.6316532E-2,-3.559322E-1,7.1E1,3.2777777E-1,-4.4199577E-1,-1.4477365E-1,1.6211347E-1,-3.8638156E-2,-1.6710679E-1,3.7068388E-1,7.8083955E-2,1.9136427E-1,-8.199309E-2,2.4953652E-3,-1.7782451E-1],"split_indices":[0,1,2,1,3,2,7,8,0,13,0,0,6,17,0,0,0,0,0,0,0,0,0,0,0],"split_type":[0,0,0,0,0,0,0,0,0,0,0,0,0,0,0,0,0,0,0,0,0,0,0,0,0],"sum_hessian":[4E1,1.6E1,2.4E1,8E0,8E0,1.5E1,9E0,5E0,3E0,7E0,1E0,3E0,1.2E1,5E0,4E0,1E0,4E0,2E0,1E0,6E0,1E0,9E0,3E0,3E0,2E0],"tree_param":{"num_deleted":"0","num_feature":"18","num_nodes":"25","size_leaf_vector":"1"}},{"base_weights":[2.68983E-1,1.0927666E0,-5.860812E0,-3.42776E0,2.2651482E0,-3.8207713E-1,-1.0465721E-1,-5.7072597E0,2.2404933E0,3.663086E0,-1.3926051E0,-1.0651205E-1,-3.4691045E-1,1.3563134E-1,2.9905662E-2,8.957713E-2,3.0781275E-1,-1.3109632E-1,9.533396E-2],"categories":[],"categories_nodes":[],"categories_segments":[],"categories_sizes":[],"default_left":[0,0,0,0,0,0,0,0,0,0,0,0,0,0,0,0,0,0,0],"id":14,"left_children":[1,3,5,7,9,-1,-1,11,13,15,17,-1,-1,-1,-1,-1,-1,-1,-1],"loss_changes":[2.129623E2,2.0374004E2,1.6577682E1,1.16500015E2,1.5872762E2,0E0,0E0,1.0731873E1,3.7273502E-1,9.082968E1,4.157362E1,0E0,0E0,0E0,0E0,0E0,0E0,0E0,0E0],"parents":[2147483647,0,0,1,1,2,2,3,3,4,4,7,7,8,8,9,9,10,10],"right_children":[2,4,6,8,10,-1,-1,12,14,16,18,-1,-1,-1,-1,-1,-1,-1,-1],"split_conditions":[2.70045E-1,1.4897959E-1,2.4E1,1.5E1,7.1E1,-3.8207713E-1,-1.0465721E-1,1.3639808E-1,1.768868E-1,3E1,1.35E2,-1.0651205E-1,-3.4691045E-1,1.3563134E-1,2.9905662E-2,8.957713E-2,3.0781275E-1,-1.3109632E-1,9.533396E-2],"split_indices":[0,1,9,16,6,0,0,1,0,9,7,0,0,0,0,0,0,0,0],"split_type":[0,0,0,0,0,0,0,0,0,0,0,0,0,0,0,0,0,0,0],"sum_hessian":[4E1,3.6E1,4E0,7E0,2.9E1,2E0,2E0,5E0,2E0,2.1E1,8E0,2E0,3E0,1E0,1E0,1.3E1,8E0,6E0,2E0],"tree_param":{"num_deleted":"0","num_feature":"18","num_nodes":"19","size_leaf_vector":"1"}},{"base_weights":[3.994438E-1,-6.566389E0,1.3326795E0,-2.6009902E-2,-3.9614436E-1,2.259253E0,-2.5146207E-1,-3.3619896E-1,2.7532284E0,-8.379238E-2,1.9218123E-1],"categories":[],"categories_nodes":[],"categories_segments":[],"categories_sizes":[],"default_left":[0,0,0,0,0,0,0,0,0,0,0],"id":15,"left_children":[1,3,5,-1,-1,7,-1,-1,9,-1,-1],"loss_changes":[2.7475882E2,3.6042465E1,2.2919247E2,0E0,0E0,1.6455292E2,0E0,0E0,1.6120042E2,0E0,0E0],"parents":[2147483647,0,0,1,1,2,2,5,5,8,8],"right_children":[2,4,6,-1,-1,8,-1,-1,10,-1,-1],"split_conditions":[2.28E3,1.1070111E-1,4.3E1,-2.6009902E-2,-3.9614436E-1,1.4E1,-2.5146207E-1,-3.3619896E-1,4.3E1,-8.379238E-2,1.9218123E-1],"split_indices":[11,0,9,0,0,16,0,0,8,0,0],"split_type":[0,0,0,0,0,0,0,0,0,0,0],"sum_hessian":[4E1,4E0,3.6E1,1E0,3E0,3.2E1,4E0,1E0,3.1E1,6E0,2.5E1],"tree_param":{"num_deleted":"0","num_feature":"18","num_nodes":"11","size_leaf_vector":"1"}},{"base_weights":[-1.0200554E-1,-5.6779556E0,1.0460432E0,1.9513137E0,-4.569963E-1,2.5139537E0,-2.7183378E0,2.5929794E-2,1.17918745E-1,3.772255E0,-2.5050953E-1,-3.0885017E-1,-3.3933783E-1,1.0789819E-1,3.454442E-1,-1.4742836E-1,6.370337E-2],"categories":[],"categories_nodes":[],"categories_segments":[],"categories_sizes":[],"default_left":[0,0,0,0,0,0,0,0,0,0,0,0,0,0,0,0,0],"id":16,"left_children":[1,3,5,7,-1,9,11,-1,-1,13,-1,-1,15,-1,-1,-1,-1],"loss_changes":[2.6246106E2,2.0343987E2,1.946897E2,2.3886967E-1,0E0,2.5546692E2,7.953393E1,0E0,0E0,9.557971E1,0E0,0E0,3.3392334E1,0E0,0E0,0E0,0E0],"parents":[2147483647,0,0,1,1,2,2,3,3,5,5,6,6,9,9,12,12],"right_children":[2,4,6,8,-1,10,12,-1,-1,14,-1,-1,16,-1,-1,-1,-1],"split_conditions":[4.4E1,1.9855716E-3,7.1E1,4.2E1,-4.569963E-1,4.3E1,7E1,2.5929794E-2,1.17918745E-1,2.3E1,-2.5050953E-1,-3.0885017E-1,2.961111E-1,1.0789819E-1,3.454442E-1,-1.4742836E-1,6.370337E-2],"split_indices":[5,3,6,5,0,9,5,0,0,15,0,0,17,0,0,0,0],"split_type":[0,0,0,0,0,0,0,0,0,0,0,0,0,0,0,0,0],"sum_hessian":[3.9E1,6E0,3.3E1,2E0,4E0,2.4E1,9E0,1E0,1E0,2.1E1,3E0,3E0,6E0,1.5E1,6E0,2E0,4E0],"tree_param":{"num_deleted":"0","num_feature":"18","num_nodes":"17","size_leaf_vector":"1"}},{"base_weights":[-3.6949363E-1,3.7730596E0,-2.0743608E0,2.073387E0,4.073808E-1,9.503487E-2,-5.642011E0,-7.6602556E-2,3.02004E0,1.9274118E0,-5.401103E0,-4.0728536E-1,-2.1813135E0,1.955742E-2,-3.9496385E-2,1.7067616E-1,1.3978538E-2,2.3424272E-1,-2.1015583E-2,-3.4610912E-1,-1.0231613E-1,1.2963079E-2,-1.7457083E-1],"categories":[],"categories_nodes":[],"categories_segments":[],"categories_sizes":[],"default_left":[0,0,0,0,0,0,0,0,0,0,0,0,0,0,0,0,0,0,0,0,0,0,0],"id":17,"left_children":[1,3,5,7,-1,9,11,13,15,17,19,-1,21,-1,-1,-1,-1,-1,-1,-1,-1,-1,-1],"loss_changes":[2.9015692E2,7.130852E1,2.255406E2,2.0878624E1,0E0,2.014117E2,7.650882E1,1.6834908E0,6.2246704E0,9.9501236E1,1.0452576E1,0E0,2.041283E1,0E0,0E0,0E0,0E0,0E0,0E0,0E0,0E0,0E0,0E0],"parents":[2147483647,0,0,1,1,2,2,3,3,5,5,6,6,7,7,8,8,9,9,10,10,12,12],"right_children":[2,4,6,8,-1,10,12,14,16,18,20,-1,22,-1,-1,-1,-1,-1,-1,-1,-1,-1,-1],"split_conditions":[1.768868E-1,2.5211865E-1,6E-1,1.3714285E-1,4.073808E-1,2.70045E-1,1.3234182E-2,1.2265308E-1,5.5E1,2.193159E-1,1.5E1,-4.0728536E-1,1.9753245E-1,1.955742E-2,-3.9496385E-2,1.7067616E-1,1.3978538E-2,2.3424272E-1,-2.1015583E-2,-3.4610912E-1,-1.0231613E-1,1.2963079E-2,-1.7457083E-1],"split_indices":[0,1,2,0,0,0,3,0,6,1,16,0,0,0,0,0,0,0,0,0,0,0,0],"split_type":[0,0,0,0,0,0,0,0,0,0,0,0,0,0,0,0,0,0,0,0,0,0,0],"sum_hessian":[3.9E1,1.1E1,2.8E1,9E0,2E0,1.8E1,1E1,3E0,6E0,1.4E1,4E0,5E0,5E0,2E0,1E0,5E0,1E0,6E0,8E0,2E0,2E0,2E0,3E0],"tree_param":{"num_deleted":"0","num_feature":"18","num_nodes":"23","size_leaf_vector":"1"}},{"base_weights":[3.6300758E-1,1.8238487E0,-5.1480227E0,9.212015E-1,6.1328444E0,2.1021704E-1,-7.0989804E0,-3.5783E0,1.4494225E0,3.6858854E-1,2.6928483E-2,-1.535971E-1,-4.0377036E-1,-2.2089744E-1,-4.4975054E-2,9.27738E-2,-9.890554E-2],"categories":[],"categories_nodes":[],"categories_segments":[],"categories_sizes":[],"default_left":[0,0,0,0,0,0,0,0,0,0,0,0,0,0,0,0,0],"id":18,"left_children":[1,3,5,7,9,-1,11,13,15,-1,-1,-1,-1,-1,-1,-1,-1],"loss_changes":[3.069341E2,1.10330086E2,1.7610454E2,6.6768585E1,2.9893219E1,0E0,1.6028442E0,2.2420578E0,3.706036E1,0E0,0E0,0E0,0E0,0E0,0E0,0E0,0E0],"parents":[2147483647,0,0,1,1,2,2,3,3,4,4,6,6,7,7,8,8],"right_children":[2,4,6,8,10,-1,12,14,16,-1,-1,-1,-1,-1,-1,-1,-1],"split_conditions":[1.42E2,2.5211865E-1,9.3E1,2E1,1.6867469E-1,2.1021704E-1,1.2273861E-1,1.8625277E-1,2.70045E-1,3.6858854E-1,2.6928483E-2,-1.535971E-1,-4.0377036E-1,-2.2089744E-1,-4.4975054E-2,9.27738E-2,-9.890554E-2],"split_indices":[7,1,10,9,0,0,1,0,0,0,0,0,0,0,0,0,0],"split_type":[0,0,0,0,0,0,0,0,0,0,0,0,0,0,0,0,0],"sum_hessian":[3.6E1,2.9E1,7E0,2.5E1,4E0,1E0,6E0,2E0,2.3E1,3E0,1E0,2E0,4E0,1E0,1E0,2.1E1,2E0],"tree_param":{"num_deleted":"0","num_feature":"18","num_nodes":"17","size_leaf_vector":"1"}},{"base_weights":[-0E0,-2.3861735E0,2.2707345E0,-6.9290435E-1,-3.6537E-1,-5.1298094E-1,4.8571105E0,-5.719093E0,1.4507496E0,1.474304E0,-1.6062918E-1,1.5547141E-1,6.588291E0,-3.515662E-1,-9.254227E-3,2.4232851E-1,1.3846427E-2,1.6819093E-1,2.9104093E-2,7.182156E-2,-3.5849612E-2,5.980412E-2,3.586726E-1],"categories":[],"categories_nodes":[],"categories_segments":[],"categories_sizes":[],"default_left":[0,0,0,0,0,0,0,0,0,0,0,0,0,0,0,0,0,0,0,0,0,0,0],"id":19,"left_children":[1,3,5,7,-1,9,11,13,15,17,-1,19,21,-1,-1,-1,-1,-1,-1,-1,-1,-1,-1],"loss_changes":[2.2215742E2,1.6079584E2,1.5412042E2,1.8111435E2,0E0,6.392383E1,8.7834595E1,3.4286453E1,4.5978516E1,9.448459E0,0E0,5.572217E0,1.58255005E1,0E0,0E0,0E0,0E0,0E0,0E0,0E0,0E0,0E0,0E0],"parents":[2147483647,0,0,1,1,2,2,3,3,5,5,6,6,7,7,8,8,9,9,11,11,12,12],"right_children":[2,4,6,8,-1,10,12,14,16,18,-1,20,22,-1,-1,-1,-1,-1,-1,-1,-1,-1,-1],"split_conditions":[1.8527855E-1,1.42E2,3.051736E-1,2.28E3,-3.6537E-1,9.7E1,2.745E3,7E1,1.1E2,9.369159E-1,-1.6062918E-1,1.18367344E-1,2.7E1,-3.515662E-1,-9.254227E-3,2.4232851E-1,1.3846427E-2,1.6819093E-1,2.9104093E-2,7.182156E-2,-3.5849612E-2,5.980412E-2,3.586726E-1],"split_indices":[1,7,17,11,0,10,11,5,7,4,0,0,9,0,0,0,0,0,0,0,0,0,0],"split_type":[0,0,0,0,0,0,0,0,0,0,0,0,0,0,0,0,0,0,0,0,0,0,0],"sum_hessian":[3.9E1,1.9E1,2E1,1.5E1,4E0,1E1,1E1,4E0,1.1E1,6E0,4E0,3E0,7E0,3E0,1E0,2E0,9E0,1E0,5E0,1E0,2E0,1E0,6E0],"tree_param":{"num_deleted":"0","num_feature":"18","num_nodes":"23","size_leaf_vector":"1"}},{"base_weights":[4.8774838E-1,-4.815873E0,1.3149585E0,-5.686865E0,-9.022865E-3,-3.6513932E0,2.3633804E0,-3.15929E-2,-3.383826E-1,-5.0224085E0,1.1186749E-1,3.0852509E0,-6.411926E-1,-1.0408081E-1,-2.9737005E-1,6.3918E-2,2.3930569E-1,-1.5321414E-1,9.5859796E-2],"categories":[],"categories_nodes":[],"categories_segments":[],"categories_sizes":[],"default_left":[0,0,0,0,0,0,0,0,0,0,0,0,0,0,0,0,0,0,0],"id":20,"left_children":[1,3,5,7,-1,9,11,-1,-1,13,-1,15,17,-1,-1,-1,-1,-1,-1],"loss_changes":[1.9463258E2,2.261148E1,2.0636044E2,2.2300797E1,0E0,6.803028E1,7.162785E1,0E0,0E0,3.138153E0,0E0,7.31803E1,4.9383987E1,0E0,0E0,0E0,0E0,0E0,0E0],"parents":[2147483647,0,0,1,1,2,2,3,3,5,5,6,6,9,9,11,11,12,12],"right_children":[2,4,6,8,-1,10,12,-1,-1,14,-1,16,18,-1,-1,-1,-1,-1,-1],"split_conditions":[2.28E3,7E1,1.4897959E-1,1.1070111E-1,-9.022865E-3,7.590361E-1,9.35E2,-3.15929E-2,-3.383826E-1,1.3639808E-1,1.1186749E-1,4.69E2,2.944E3,-1.0408081E-1,-2.9737005E-1,6.3918E-2,2.3930569E-1,-1.5321414E-1,9.5859796E-2],"split_indices":[11,5,1,0,0,2,12,0,0,1,0,12,11,0,0,0,0,0,0],"split_type":[0,0,0,0,0,0,0,0,0,0,0,0,0,0,0,0,0,0,0],"sum_hessian":[4.2E1,5E0,3.7E1,4E0,1E0,6E0,3.1E1,1E0,3E0,5E0,1E0,2.5E1,6E0,2E0,3E0,1.3E1,1.2E1,3E0,3E0],"tree_param":{"num_deleted":"0","num_feature":"18","num_nodes":"19","size_leaf_vector":"1"}},{"base_weights":[-3.0949724E-1,-4.274662E0,6.028117E-1,-6.5918474E0,1.7512634E0,1.3685038E0,-3.3094506E0,-0E0,-3.9491424E-1,1.07682765E-1,2.1161994E-2,2.232372E0,-2.4423647E0,-2.0060804E-1,2.602539E-3,-5.1146913E-2,1.4529523E-1,6.3041685E-4,-1.8490016E-1],"categories":[],"categories_nodes":[],"categories_segments":[],"categories_sizes":[],"default_left":[0,0,0,0,0,0,0,0,0,0,0,0,0,0,0,0,0,0,0],"id":21,"left_children":[1,3,5,7,9,11,13,-1,-1,-1,-1,15,17,-1,-1,-1,-1,-1,-1],"loss_changes":[1.5487712E2,1.2373363E2,1.0918048E2,5.1199768E1,4.339552E-1,1.04193924E2,1.4777817E1,0E0,0E0,0E0,0E0,5.7974777E1,1.8910519E1,0E0,0E0,0E0,0E0,0E0,0E0],"parents":[2147483647,0,0,1,1,2,2,3,3,4,4,5,5,6,6,11,11,12,12],"right_children":[2,4,6,8,10,12,14,-1,-1,-1,-1,16,18,-1,-1,-1,-1,-1,-1],"split_conditions":[4.4E1,2.1907216E-1,4.3E1,1.7244211E-1,1.6101696E-1,9E0,2.2675736E-1,-0E0,-3.9491424E-1,1.07682765E-1,2.1161994E-2,4.3E1,1.8441558E-1,-2.0060804E-1,2.602539E-3,-5.1146913E-2,1.4529523E-1,6.3041685E-4,-1.8490016E-1],"split_indices":[5,1,9,1,0,14,0,0,0,0,0,8,1,0,0,0,0,0,0],"split_type":[0,0,0,0,0,0,0,0,0,0,0,0,0,0,0,0,0,0,0],"sum_hessian":[4.1E1,7E0,3.4E1,5E0,2E0,2.9E1,5E0,1E0,4E0,1E0,1E0,2.4E1,5E0,4E0,1E0,4E0,2E1,2E0,3E0],"tree_param":{"num_deleted":"0","num_feature":"18","num_nodes":"19","size_leaf_vector":"1"}},{"base_weights":[-6.387626E-1,-6.3285723E0,3.811674E-1,-0E0,-3.7911773E-1,-3.1324131E0,1.5865927E0,6.775433E-1,-2.583491E-1,3.175511E0,-1.2632277E0,9.1589965E-2,-6.7130625E-2,7.108441E-2,3.540174E-1,-1.30518E-1,2.9298842E-2],"categories":[],"categories_nodes":[],"categories_segments":[],"categories_sizes":[],"default_left":[0,0,0,0,0,0,0,0,0,0,0,0,0,0,0,0,0],"id":22,"left_children":[1,3,5,-1,-1,7,9,11,-1,13,15,-1,-1,-1,-1,-1,-1],"loss_changes":[2.293321E2,4.7155533E1,1.4881747E2,0E0,0E0,7.3714355E1,1.2193405E2,1.18354225E1,0E0,1.05506424E2,2.6643286E1,0E0,0E0,0E0,0E0,0E0,0E0],"parents":[2147483647,0,0,1,1,2,2,5,5,6,6,7,7,9,9,10,10],"right_children":[2,4,6,-1,-1,8,10,12,-1,14,16,-1,-1,-1,-1,-1,-1],"split_conditions":[4.4E1,1.7244211E-1,1.4897959E-1,-0E0,-3.7911773E-1,2.509E3,7.1E1,1.9753245E-1,-2.583491E-1,2.3E1,6.1422414E-1,9.1589965E-2,-6.7130625E-2,7.108441E-2,3.540174E-1,-1.30518E-1,2.9298842E-2],"split_indices":[5,1,1,0,0,11,6,0,0,15,2,0,0,0,0,0,0],"split_type":[0,0,0,0,0,0,0,0,0,0,0,0,0,0,0,0,0],"sum_hessian":[3.8E1,5E0,3.3E1,1E0,4E0,8E0,2.5E1,3E0,5E0,1.6E1,9E0,2E0,1E0,1.2E1,4E0,5E0,4E0],"tree_param":{"num_deleted":"0","num_feature":"18","num_nodes":"17","size_leaf_vector":"1"}},{"base_weights":[-6.056703E-1,-1.7827501E0,1.9527631E0,-4.600383E0,8.5373245E-2,3.531028E0,-2.850656E0,-6.0184493E0,-2.3463783E-1,1.796515E0,-2.479511E0,2.004998E0,3.4493876E-1,1.1494598E-2,-1.9937347E-1,-3.5473076E-1,-7.339564E-2,-7.8678094E-2,3.5142872E-2,-1.5088436E-1,1.5355621E-1,-1.8266113E-1,-5.123198E-2,2.447651E-2,1.3322385E-1],"categories":[],"categories_nodes":[],"categories_segments":[],"categories_sizes":[],"default_left":[0,0,0,0,0,0,0,0,0,0,0,0,0,0,0,0,0,0,0,0,0,0,0,0,0],"id":23,"left_children":[1,3,5,7,9,11,13,15,17,19,21,23,-1,-1,-1,-1,-1,-1,-1,-1,-1,-1,-1,-1,-1],"loss_changes":[1.3295793E2,1.5875482E2,1.1626872E2,7.225354E1,8.777491E1,4.1809708E1,1.5300476E1,3.280365E1,6.2139997E0,8.2907745E1,9.449776E0,7.3750305E0,0E0,0E0,0E0,0E0,0E0,0E0,0E0,0E0,0E0,0E0,0E0,0E0,0E0],"parents":[2147483647,0,0,1,1,2,2,3,3,4,4,5,5,6,6,7,7,8,8,9,9,10,10,11,11],"right_children":[2,4,6,8,10,12,14,16,18,20,22,24,-1,-1,-1,-1,-1,-1,-1,-1,-1,-1,-1,-1,-1],"split_conditions":[2.3E1,2.8189814E-1,9E0,1.5E1,2.905569E-2,2.476415E-1,1.5313654E-1,1.9253209E-1,4.440433E-1,2E1,5.2E1,4.8E1,3.4493876E-1,1.1494598E-2,-1.9937347E-1,-3.5473076E-1,-7.339564E-2,-7.8678094E-2,3.5142872E-2,-1.5088436E-1,1.5355621E-1,-1.8266113E-1,-5.123198E-2,2.447651E-2,1.3322385E-1],"split_indices":[15,17,14,16,3,1,1,1,2,9,5,5,0,0,0,0,0,0,0,0,0,0,0,0,0],"split_type":[0,0,0,0,0,0,0,0,0,0,0,0,0,0,0,0,0,0,0,0,0,0,0,0,0],"sum_hessian":[4.2E1,2.9E1,1.3E1,1.1E1,1.8E1,1E1,3E0,8E0,3E0,1.1E1,7E0,8E0,2E0,1E0,2E0,6E0,2E0,1E0,2E0,2E0,9E0,3E0,4E0,3E0,5E0],"tree_param":{"num_deleted":"0","num_feature":"18","num_nodes":"25","size_leaf_vector":"1"}},{"base_weights":[2.7075332E-1,-4.174686E0,1.0738407E0,-4.953134E0,-4.5611956E-3,2.1021469E0,-2.3898847E0,-2.946659E-2,-2.9358757E-1,2.5158007E0,-1.8744655E0,-4.273276E0,1.0700961E-1,3.7311826E-2,1.8596649E-1,-0E0,-1.4155938E-1,-2.591719E-1,4.4383625E-3],"categories":[],"categories_nodes":[],"categories_segments":[],"categories_sizes":[],"default_left":[0,0,0,0,0,0,0,0,0,0,0,0,0,0,0,0,0,0,0],"id":24,"left_children":[1,3,5,7,-1,9,11,-1,-1,13,15,17,-1,-1,-1,-1,-1,-1,-1],"loss_changes":[1.3983577E2,1.8116302E1,1.2253354E2,1.5936798E1,0E0,4.7548378E1,7.761418E1,0E0,0E0,4.789128E1,5.490382E0,2.479058E1,0E0,0E0,0E0,0E0,0E0,0E0,0E0],"parents":[2147483647,0,0,1,1,2,2,3,3,5,5,6,6,9,9,10,10,11,11],"right_children":[2,4,6,8,-1,10,12,-1,-1,14,16,18,-1,-1,-1,-1,-1,-1,-1],"split_conditions":[2.28E3,7E1,9.35E2,2.6616983E-3,-4.5611956E-3,7.2E1,1.5E1,-2.946659E-2,-2.9358757E-1,5.1E1,2.2573364E-3,3.133E3,1.0700961E-1,3.7311826E-2,1.8596649E-1,-0E0,-1.4155938E-1,-2.591719E-1,4.4383625E-3],"split_indices":[11,5,12,3,0,5,16,0,0,6,3,11,0,0,0,0,0,0,0],"split_type":[0,0,0,0,0,0,0,0,0,0,0,0,0,0,0,0,0,0,0],"sum_hessian":[3.7E1,5E0,3.2E1,4E0,1E0,2.5E1,7E0,1E0,3E0,2.3E1,2E0,5E0,2E0,1E1,1.3E1,1E0,1E0,4E0,1E0],"tree_param":{"num_deleted":"0","num_feature":"18","num_nodes":"19","size_leaf_vector":"1"}},{"base_weights":[2.8991487E-2,2.3784714E0,-1.3110324E0,4.4736104E0,-2.6336938E-1,6.7786686E-2,-3.8096855E0,5.4788923E0,6.034159E-1,-1.8107969E0,1.7117573E0,1.5042297E0,-4.2350993E0,-1.2009237E0,-6.1582623E0,7.2580494E-2,2.9457524E-1,3.842884E-2,4.3273545E-3,-2.2869213E-2,-1.2636386E-1,6.5579987E-3,1.08078495E-1,2.1657522E-1,-1.6627913E-2,-4.2275008E-2,-2.4230622E-1,-1.0447919E-1,1.7546564E-2,-8.174473E-2,-3.4276903E-1],"categories":[],"categories_nodes":[],"categories_segments":[],"categories_sizes":[],"default_left":[0,0,0,0,0,0,0,0,0,0,0,0,0,0,0,0,0,0,0,0,0,0,0,0,0,0,0,0,0,0,0],"id":25,"left_children":[1,3,5,7,9,11,13,15,17,19,21,23,25,27,29,-1,-1,-1,-1,-1,-1,-1,-1,-1,-1,-1,-1,-1,-1,-1,-1],"loss_changes":[1.3860442E2,9.015961E1,9.709777E1,3.1101456E1,2.7560469E1,1.2353364E2,5.3137253E1,2.3454742E0,1.04069114E-1,3.3940659E0,2.3311043E0,7.973694E1,5.6890793E0,9.181598E0,3.7097626E0,0E0,0E0,0E0,0E0,0E0,0E0,0E0,0E0,0E0,0E0,0E0,0E0,0E0,0E0,0E0,0E0],"parents":[2147483647,0,0,1,1,2,2,3,3,4,4,5,5,6,6,7,7,8,8,9,9,10,10,11,11,12,12,13,13,14,14],"right_children":[2,4,6,8,10,12,14,16,18,20,22,24,26,28,30,-1,-1,-1,-1,-1,-1,-1,-1,-1,-1,-1,-1,-1,-1,-1,-1],"split_conditions":[1.768868E-1,6.7930937E-1,6E-1,3.123E3,2.3E1,2.611607E-1,1.27E2,7E0,1.474666E-1,1.1610487E-1,1.31E2,2.193159E-1,2.8329298E-1,2.316E3,7.2289154E-2,7.2580494E-2,2.9457524E-1,3.842884E-2,4.3273545E-3,-2.2869213E-2,-1.2636386E-1,6.5579987E-3,1.08078495E-1,2.1657522E-1,-1.6627913E-2,-4.2275008E-2,-2.4230622E-1,-1.0447919E-1,1.7546564E-2,-8.174473E-2,-3.4276903E-1],"split_indices":[0,2,2,11,15,0,7,14,0,0,7,1,0,11,1,0,0,0,0,0,0,0,0,0,0,0,0,0,0,0,0],"split_type":[0,0,0,0,0,0,0,0,0,0,0,0,0,0,0,0,0,0,0,0,0,0,0,0,0,0,0,0,0,0,0],"sum_hessian":[4.2E1,1.5E1,2.7E1,8E0,7E0,1.8E1,9E0,6E0,2E0,4E0,3E0,1.4E1,4E0,5E0,4E0,1E0,5E0,1E0,1E0,2E0,2E0,1E0,2E0,5E0,9E0,1E0,3E0,3E0,2E0,1E0,3E0],"tree_param":{"num_deleted":"0","num_feature":"18","num_nodes":"31","size_leaf_vector":"1"}},{"base_weights":[-8.3301616E-1,-2.0078728E0,1.0485109E0,1.2473485E0,-3.348645E0,3.155382E0,-9.296534E-1,-1.6729045E0,2.5162504E0,-3.883944E0,5.891642E-1,3.7505493E-1,2.3642837E-1,-2.7952075E0,4.5232493E-1,-1.20465815E-1,-2.5020218E-3,1.483377E-1,4.093323E-3,-5.0097145E-4,-2.2147515E-1,4.219208E-3,3.746811E-2,-5.950699E-3,3.0637462E-2,-1.8352127E-3,-1.8345703E-1,-1.5894203E-2,6.809143E-2],"categories":[],"categories_nodes":[],"categories_segments":[],"categories_sizes":[],"default_left":[0,0,0,0,0,0,0,0,0,0,0,0,0,0,0,0,0,0,0,0,0,0,0,0,0,0,0,0,0],"id":26,"left_children":[1,3,5,7,9,11,13,15,17,19,21,23,-1,25,27,-1,-1,-1,-1,-1,-1,-1,-1,-1,-1,-1,-1,-1,-1],"loss_changes":[9.062221E1,1.13499794E2,6.9839775E1,3.3937893E1,4.0560043E1,3.2707924E1,2.4702032E1,3.218789E0,6.0324516E0,3.3326965E1,9.598529E-2,5.920487E-1,0E0,9.13773E0,4.7403455E0,0E0,0E0,0E0,0E0,0E0,0E0,0E0,0E0,0E0,0E0,0E0,0E0,0E0,0E0],"parents":[2147483647,0,0,1,1,2,2,3,3,4,4,5,5,6,6,7,7,8,8,9,9,10,10,11,11,13,13,14,14],"right_children":[2,4,6,8,10,12,14,16,18,20,22,24,-1,26,28,-1,-1,-1,-1,-1,-1,-1,-1,-1,-1,-1,-1,-1,-1],"split_conditions":[2.3E1,2.1E1,6.9E1,1.5732759E-1,3.133E3,4.8E1,1.21E2,1.4315353E-1,1.36E2,8.8E1,1.8181819E-1,1.7244211E-1,2.3642837E-1,1.8441558E-1,1.31E2,-1.20465815E-1,-2.5020218E-3,1.483377E-1,4.093323E-3,-5.0097145E-4,-2.2147515E-1,4.219208E-3,3.746811E-2,-5.950699E-3,3.0637462E-2,-1.8352127E-3,-1.8345703E-1,-1.5894203E-2,6.809143E-2],"split_indices":[15,15,5,1,11,5,7,1,7,10,1,1,0,1,7,0,0,0,0,0,0,0,0,0,0,0,0,0,0],"split_type":[0,0,0,0,0,0,0,0,0,0,0,0,0,0,0,0,0,0,0,0,0,0,0,0,0,0,0,0,0],"sum_hessian":[3.9E1,2.4E1,1.5E1,7E0,1.7E1,7E0,8E0,2E0,5E0,1.5E1,2E0,3E0,4E0,3E0,5E0,1E0,1E0,4E0,1E0,2E0,1.3E1,1E0,1E0,1E0,2E0,1E0,2E0,3E0,2E0],"tree_param":{"num_deleted":"0","num_feature":"18","num_nodes":"29","size_leaf_vector":"1"}},{"base_weights":[-2.6100683E-1,-1.9720905E0,1.4581271E0,-5.5069227E0,-7.379497E-1,-8.944481E-1,2.8013945E0,-5.801926E-3,-3.400317E-1,-1.8500295E0,3.0357966E0,-2.9346342E0,1.8543965E0,1.9474182E-1,3.553916E0,-1.3914126E-1,4.597338E-2,1.9805919E-1,3.9908984E-3,-2.8145561E-2,-1.6809185E-1,1.4278561E-1,2.6769359E-2,-5.726341E-2,1.07869305E-1,1.1423459E-1,2.4307898E-1],"categories":[],"categories_nodes":[],"categories_segments":[],"categories_sizes":[],"default_left":[0,0,0,0,0,0,0,0,0,0,0,0,0,0,0,0,0,0,0,0,0,0,0,0,0,0,0],"id":27,"left_children":[1,3,5,7,9,11,13,-1,-1,15,17,19,21,23,25,-1,-1,-1,-1,-1,-1,-1,-1,-1,-1,-1,-1],"loss_changes":[1.1764865E2,8.256129E1,6.589914E1,3.339044E1,7.264504E1,5.0415234E1,2.4433342E1,0E0,0E0,3.6328938E1,1.022142E1,2.7811432E0,3.414956E0,1.309185E1,4.7753525E0,0E0,0E0,0E0,0E0,0E0,0E0,0E0,0E0,0E0,0E0,0E0,0E0],"parents":[2147483647,0,0,1,1,2,2,3,3,4,4,5,5,6,6,9,9,10,10,11,11,12,12,13,13,14,14],"right_children":[2,4,6,8,10,12,14,-1,-1,16,18,20,22,24,26,-1,-1,-1,-1,-1,-1,-1,-1,-1,-1,-1,-1],"split_conditions":[1.8527855E-1,4.4E1,3.051736E-1,1.7244211E-1,2.0908725E-1,2.2675736E-1,4.61E2,-5.801926E-3,-3.400317E-1,8.93E3,2.611607E-1,1.1070111E-1,2.193159E-1,2.2983274E-1,4.716981E-3,-1.3914126E-1,4.597338E-2,1.9805919E-1,3.9908984E-3,-2.8145561E-2,-1.6809185E-1,1.4278561E-1,2.6769359E-2,-5.726341E-2,1.07869305E-1,1.1423459E-1,2.4307898E-1],"split_indices":[1,5,17,1,0,0,12,0,0,13,0,0,1,1,3,0,0,0,0,0,0,0,0,0,0,0,0],"split_type":[0,0,0,0,0,0,0,0,0,0,0,0,0,0,0,0,0,0,0,0,0,0,0,0,0,0,0],"sum_hessian":[3.8E1,1.9E1,1.9E1,4E0,1.5E1,7E0,1.2E1,1E0,3E0,1.2E1,3E0,4E0,3E0,3E0,9E0,9E0,3E0,2E0,1E0,1E0,3E0,1E0,2E0,2E0,1E0,6E0,3E0],"tree_param":{"num_deleted":"0","num_feature":"18","num_nodes":"27","size_leaf_vector":"1"}},{"base_weights":[7.8633E-2,-1.8590037E0,1.6649433E0,1.0632064E0,-3.824338E0,-8.668669E-1,3.180754E0,-1.5188178E-1,1.8426358E0,-4.773636E0,1.39216E-1,-1.8027854E0,1.5725652E0,3.650614E0,-7.068574E-2,-2.3732606E-2,1.7910728E-2,4.61726E-2,1.3548428E-1,-2.7154884E-1,-6.9809064E-2,-1.15694955E-1,-1.5833383E-2,1.0269891E-2,1.0517251E-1,2.1528672E-1,-0E0],"categories":[],"categories_nodes":[],"categories_segments":[],"categories_sizes":[],"default_left":[0,0,0,0,0,0,0,0,0,0,0,0,0,0,0,0,0,0,0,0,0,0,0,0,0,0,0],"id":28,"left_children":[1,3,5,7,9,11,13,15,17,19,-1,21,23,25,-1,-1,-1,-1,-1,-1,-1,-1,-1,-1,-1,-1,-1],"loss_changes":[1.2294976E2,1.0771832E2,8.741905E1,8.025541E0,8.2499695E1,2.3406006E1,3.560724E1,8.402469E-1,1.1193123E0,1.393605E1,0E0,4.32123E0,1.5144958E0,3.0682007E1,0E0,0E0,0E0,0E0,0E0,0E0,0E0,0E0,0E0,0E0,0E0,0E0,0E0],"parents":[2147483647,0,0,1,1,2,2,3,3,4,4,5,5,6,6,7,7,8,8,9,9,11,11,12,12,13,13],"right_children":[2,4,6,8,10,12,14,16,18,20,-1,22,24,26,-1,-1,-1,-1,-1,-1,-1,-1,-1,-1,-1,-1,-1],"split_conditions":[2.961111E-1,8.9E1,2.745E3,2.2E1,7.4742265E-2,9.6E1,6.7930937E-1,4.5E1,2.4110807E-1,7.2E1,1.39216E-1,9.4E1,1.2265308E-1,2.2844827E-1,-7.068574E-2,-2.3732606E-2,1.7910728E-2,4.61726E-2,1.3548428E-1,-2.7154884E-1,-6.9809064E-2,-1.15694955E-1,-1.5833383E-2,1.0269891E-2,1.0517251E-1,2.1528672E-1,-0E0],"split_indices":[17,10,11,9,3,10,2,5,0,6,0,10,0,0,0,0,0,0,0,0,0,0,0,0,0,0,0],"split_type":[0,0,0,0,0,0,0,0,0,0,0,0,0,0,0,0,0,0,0,0,0,0,0,0,0,0,0],"sum_hessian":[3.8E1,1.7E1,2.1E1,7E0,1E1,8E0,1.3E1,3E0,4E0,9E0,1E0,6E0,2E0,1.2E1,1E0,2E0,1E0,3E0,1E0,7E0,2E0,4E0,2E0,1E0,1E0,1E1,2E0],"tree_param":{"num_deleted":"0","num_feature":"18","num_nodes":"27","size_leaf_vector":"1"}},{"base_weights":[-9.686071E-2,-1.9974991E0,1.4730954E0,-5.314292E-1,-5.0687456E0,-1.0670394E0,2.9056365E0,1.4773633E0,-2.235194E0,-9.297369E-2,-3.0917567E-1,9.6914643E-1,-1.4549087E-1,-5.059918E-1,4.2013187E0,1.24991775E-1,3.0275155E-3,-1.5184453E-1,3.996506E-3,9.178675E-2,-5.9930194E-2,-4.850634E-2,3.1263694E-2,2.862213E-1,9.8066255E-2],"categories":[],"categories_nodes":[],"categories_segments":[],"categories_sizes":[],"default_left":[0,0,0,0,0,0,0,0,0,0,0,0,0,0,0,0,0,0,0,0,0,0,0,0,0],"id":29,"left_children":[1,3,5,7,9,11,13,15,17,-1,-1,19,-1,21,23,-1,-1,-1,-1,-1,-1,-1,-1,-1,-1],"loss_changes":[1.2533562E2,8.229688E1,8.697778E1,5.1293118E1,9.1631775E0,3.678425E1,6.880115E1,9.733159E0,1.538665E1,0E0,0E0,1.1656769E1,0E0,3.2663798E0,2.5533234E1,0E0,0E0,0E0,0E0,0E0,0E0,0E0,0E0,0E0,0E0],"parents":[2147483647,0,0,1,1,2,2,3,3,4,4,5,5,6,6,7,7,8,8,11,11,13,13,14,14],"right_children":[2,4,6,8,10,12,14,16,18,-1,-1,20,-1,22,24,-1,-1,-1,-1,-1,-1,-1,-1,-1,-1],"split_conditions":[1.8527855E-1,1.42E2,2.9305556E-1,3.2008103E-1,1.2273861E-1,7.65E2,4.61E2,1.7356716E-1,7E1,-9.297369E-2,-3.0917567E-1,2.509381E-1,-1.4549087E-1,2.2983274E-1,9.8956656E-1,1.24991775E-1,3.0275155E-3,-1.5184453E-1,3.996506E-3,9.178675E-2,-5.9930194E-2,-4.850634E-2,3.1263694E-2,2.862213E-1,9.8066255E-2],"split_indices":[1,7,17,17,1,12,12,1,5,0,0,0,0,1,4,0,0,0,0,0,0,0,0,0,0],"split_type":[0,0,0,0,0,0,0,0,0,0,0,0,0,0,0,0,0,0,0,0,0,0,0,0,0],"sum_hessian":[4E1,1.8E1,2.2E1,1.3E1,5E0,8E0,1.4E1,6E0,7E0,2E0,3E0,4E0,4E0,4E0,1E1,3E0,3E0,5E0,2E0,3E0,1E0,3E0,1E0,5E0,5E0],"tree_param":{"num_deleted":"0","num_feature":"18","num_nodes":"25","size_leaf_vector":"1"}},{"base_weights":[4.2291197E-1,2.7719393E0,-8.5436857E-1,1.1687067E0,4.1939282E0,-5.2437453E0,-4.950442E-2,1.9378811E0,-5.993805E-2,2.4464364E-1,-0E0,-3.0896172E-1,-5.843197E-2,-1.5544829E0,2.4531825E0,2.5841674E-2,1.0694673E-1,1.8387578E-2,-3.607517E-2,-1.3511418E-1,6.307875E-2,1.6775958E-1,-2.1794993E-2],"categories":[],"categories_nodes":[],"categories_segments":[],"categories_sizes":[],"default_left":[0,0,0,0,0,0,0,0,0,0,0,0,0,0,0,0,0,0,0,0,0,0,0],"id":30,"left_children":[1,3,5,7,9,11,13,15,17,-1,-1,-1,-1,19,21,-1,-1,-1,-1,-1,-1,-1,-1],"loss_changes":[1.19574326E2,2.6479172E1,9.106525E1,7.8642836E0,2.051799E1,7.292778E0,9.035283E1,5.7483673E-2,1.4324878E0,0E0,0E0,0E0,0E0,5.2037296E1,2.5208271E1,0E0,0E0,0E0,0E0,0E0,0E0,0E0,0E0],"parents":[2147483647,0,0,1,1,2,2,3,3,4,4,5,5,6,6,7,7,8,8,13,13,14,14],"right_children":[2,4,6,8,10,12,14,16,18,-1,-1,-1,-1,20,22,-1,-1,-1,-1,-1,-1,-1,-1],"split_conditions":[1.768868E-1,2.9E1,2.5208333E-1,4.716981E-3,1.36E2,4.0241447E-3,2.2382672E-1,6.055993E-1,4.717426E-2,2.4464364E-1,-0E0,-3.0896172E-1,-5.843197E-2,6.516E3,2.611607E-1,2.5841674E-2,1.0694673E-1,1.8387578E-2,-3.607517E-2,-1.3511418E-1,6.307875E-2,1.6775958E-1,-2.1794993E-2],"split_indices":[0,9,17,3,7,3,0,2,3,0,0,0,0,13,0,0,0,0,0,0,0,0,0],"split_type":[0,0,0,0,0,0,0,0,0,0,0,0,0,0,0,0,0,0,0,0,0,0,0],"sum_hessian":[3.8E1,1.3E1,2.5E1,7E0,6E0,3E0,2.2E1,4E0,3E0,5E0,1E0,2E0,1E0,1.4E1,8E0,1E0,3E0,2E0,1E0,1E1,4E0,6E0,2E0],"tree_param":{"num_deleted":"0","num_feature":"18","num_nodes":"23","size_leaf_vector":"1"}},{"base_weights":[-1.4935192E-1,2.031172E0,-1.2755073E0,1.0436741E0,2.7999696E-1,-4.178667E0,-3.3213237E-1,1.5644059E0,-1.2762772E-1,1.8696797E-1,-2.9911575E-1,-1.9514066E0,1.9580649E0,-3.3471528E-3,1.2004741E-1,2.8905068E-2,-1.2382469E-2,1.2476846E-2,-1.6064952E-1,1.3605924E-2,2.1969774E-1],"categories":[],"categories_nodes":[],"categories_segments":[],"categories_sizes":[],"default_left":[0,0,0,0,0,0,0,0,0,0,0,0,0,0,0,0,0,0,0,0,0],"id":31,"left_children":[1,3,5,7,-1,9,11,13,-1,15,-1,17,19,-1,-1,-1,-1,-1,-1,-1,-1],"loss_changes":[1.0810639E2,4.635339E1,7.758533E1,2.8239138E1,0E0,5.681652E1,8.911484E1,1.677044E1,0E0,6.861917E-1,0E0,3.997155E1,3.9405518E1,0E0,0E0,0E0,0E0,0E0,0E0,0E0,0E0],"parents":[2147483647,0,0,1,1,2,2,3,3,5,5,6,6,7,7,9,9,11,11,12,12],"right_children":[2,4,6,8,-1,10,12,14,-1,16,-1,18,20,-1,-1,-1,-1,-1,-1,-1,-1],"split_conditions":[1.768868E-1,2.5211865E-1,4.4E1,4E1,2.7999696E-1,8.8E1,2.2675736E-1,1.4457831E-1,-1.2762772E-1,2.0226097E-1,-2.9911575E-1,1.2E2,1.038961E-2,-3.3471528E-3,1.2004741E-1,2.8905068E-2,-1.2382469E-2,1.2476846E-2,-1.6064952E-1,1.3605924E-2,2.1969774E-1],"split_indices":[0,1,5,9,0,10,0,0,0,0,0,7,3,0,0,0,0,0,0,0,0],"split_type":[0,0,0,0,0,0,0,0,0,0,0,0,0,0,0,0,0,0,0,0,0],"sum_hessian":[4.2E1,1.4E1,2.8E1,1.2E1,2E0,6E0,2.2E1,1.1E1,1E0,2E0,4E0,1.3E1,9E0,4E0,7E0,1E0,1E0,5E0,8E0,6E0,3E0],"tree_param":{"num_deleted":"0","num_feature":"18","num_nodes":"21","size_leaf_vector":"1"}},{"base_weights":[-8.240963E-2,-2.2666662E0,1.4640391E0,-5.4124894E0,-4.9653232E-1,-5.7316715E-1,2.96727E0,-3.412119E-1,-1.692662E0,-1.0825007E0,1.46228E-1,-1.1355017E0,1.23754464E-1,3.8669178E-1,4.3468475E0,-1.3346992E-1,4.0202714E-3,-6.214785E-3,-1.0937438E-1,1.4050026E-2,-1.3141021E-1,9.784048E-2,-4.312847E-2,7.845711E-2,2.4510144E-1],"categories":[],"categories_nodes":[],"categories_segments":[],"categories_sizes":[],"default_left":[0,0,0,0,0,0,0,0,0,0,0,0,0,0,0,0,0,0,0,0,0,0,0,0,0],"id":32,"left_children":[1,3,5,7,9,11,13,-1,15,17,-1,19,-1,21,23,-1,-1,-1,-1,-1,-1,-1,-1,-1,-1],"loss_changes":[1.3851237E2,9.13866E1,7.543753E1,1.9105942E1,2.703745E1,2.153205E1,4.768725E1,0E0,5.668992E0,1.1143771E1,0E0,2.2117409E1,0E0,1.356623E1,5.5401E0,0E0,0E0,0E0,0E0,0E0,0E0,0E0,0E0,0E0,0E0],"parents":[2147483647,0,0,1,1,2,2,3,3,4,4,5,5,6,6,8,8,9,9,11,11,13,13,14,14],"right_children":[2,4,6,8,10,12,14,-1,16,18,-1,20,-1,22,24,-1,-1,-1,-1,-1,-1,-1,-1,-1,-1],"split_conditions":[1.8527855E-1,1.0543426E-2,3.051736E-1,2.6944444E-1,2.4388242E-1,7.4742265E-2,2.745E3,-3.412119E-1,1.8625277E-1,1.9753245E-1,1.46228E-1,5.1E1,1.23754464E-1,1.9855716E-3,2.1551724E-3,-1.3346992E-1,4.0202714E-3,-6.214785E-3,-1.0937438E-1,1.4050026E-2,-1.3141021E-1,9.784048E-2,-4.312847E-2,7.845711E-2,2.4510144E-1],"split_indices":[1,3,17,17,0,3,11,0,0,0,0,6,0,3,3,0,0,0,0,0,0,0,0,0,0],"split_type":[0,0,0,0,0,0,0,0,0,0,0,0,0,0,0,0,0,0,0,0,0,0,0,0,0],"sum_hessian":[3.9E1,1.6E1,2.3E1,5E0,1.1E1,1E1,1.3E1,3E0,2E0,1E1,1E0,9E0,1E0,5E0,8E0,1E0,1E0,6E0,4E0,5E0,4E0,2E0,3E0,2E0,6E0],"tree_param":{"num_deleted":"0","num_feature":"18","num_nodes":"25","size_leaf_vector":"1"}},{"base_weights":[5.4327554E-1,1.6708051E0,-1.2072564E0,2.3047051E0,-8.0964637E-1,1.0678338E0,-2.5543816E0,1.1316751E0,4.05692E0,-1.0007576E-1,2.6166686E-1,-4.573069E-2,2.0637357E0,6.562765E-2,-3.5706506E0,9.498401E-2,-3.0533507E-2,1.7348988E-3,2.6876053E-1,-6.836955E-4,2.969223E-2,9.692727E-3,1.2288711E-1,-2.0013928E-1,-3.3927916E-4],"categories":[],"categories_nodes":[],"categories_segments":[],"categories_sizes":[],"default_left":[0,0,0,0,0,0,0,0,0,0,0,0,0,0,0,0,0,0,0,0,0,0,0,0,0],"id":33,"left_children":[1,3,5,7,9,11,13,15,17,-1,19,-1,21,-1,23,-1,-1,-1,-1,-1,-1,-1,-1,-1,-1],"loss_changes":[8.496207E1,4.2896828E1,5.4978436E1,3.8053444E1,8.358904E0,1.5822697E1,4.8140778E1,2.00228E1,4.169217E1,0E0,4.3198556E-1,0E0,2.9421234E0,0E0,1.3432518E1,0E0,0E0,0E0,0E0,0E0,0E0,0E0,0E0,0E0,0E0],"parents":[2147483647,0,0,1,1,2,2,3,3,4,4,5,5,6,6,7,7,8,8,10,10,12,12,14,14],"right_children":[2,4,6,8,10,12,14,16,18,-1,20,-1,22,-1,24,-1,-1,-1,-1,-1,-1,-1,-1,-1,-1],"split_conditions":[6.415762E-1,7.1E1,1.4962594E-1,1.038961E-2,7E1,1.15E2,1.1597768E-1,6.6964286E-3,4.5E1,-1.0007576E-1,1.8441558E-1,-4.573069E-2,1.5313654E-1,6.562765E-2,8.93E3,9.498401E-2,-3.0533507E-2,1.7348988E-3,2.6876053E-1,-6.836955E-4,2.969223E-2,9.692727E-3,1.2288711E-1,-2.0013928E-1,-3.3927916E-4],"split_indices":[2,6,0,3,5,7,1,3,6,0,1,0,1,0,13,0,0,0,0,0,0,0,0,0,0],"split_type":[0,0,0,0,0,0,0,0,0,0,0,0,0,0,0,0,0,0,0,0,0,0,0,0,0],"sum_hessian":[4.1E1,2.5E1,1.6E1,2E1,5E0,6E0,1E1,1.3E1,7E0,2E0,3E0,2E0,4E0,2E0,8E0,9E0,4E0,2E0,5E0,2E0,1E0,1E0,3E0,7E0,1E0],"tree_param":{"num_deleted":"0","num_feature":"18","num_nodes":"25","size_leaf_vector":"1"}},{"base_weights":[-9.6720225E-1,-1.6776096E0,6.442806E-1,-4.7589793E0,-7.1257013E-1,-9.301196E-1,1.9160122E0,-9.381829E-3,-2.8078604E-1,2.6370287E-1,-2.054679E0,-9.289721E-2,2.9184315E-2,1.353812E-1,3.101986E-2,6.509198E-2,-5.7388168E-2,-1.2306447E-1,-1.938474E-2],"categories":[],"categories_nodes":[],"categories_segments":[],"categories_sizes":[],"default_left":[0,0,0,0,0,0,0,0,0,0,0,0,0,0,0,0,0,0,0],"id":34,"left_children":[1,3,5,7,9,11,13,-1,-1,15,17,-1,-1,-1,-1,-1,-1,-1,-1],"loss_changes":[4.3542126E1,7.337648E1,2.5907282E1,2.1864716E1,2.8236477E1,9.63916E0,5.1667633E0,0E0,0E0,2.0558447E1,4.861191E0,0E0,0E0,0E0,0E0,0E0,0E0,0E0,0E0],"parents":[2147483647,0,0,1,1,2,2,3,3,4,4,5,5,6,6,9,9,10,10],"right_children":[2,4,6,8,10,12,14,-1,-1,16,18,-1,-1,-1,-1,-1,-1,-1,-1],"split_conditions":[2.2285715E-1,4.4E1,5.838397E-1,1.7244211E-1,2.704E3,6.592E3,5.928E3,-9.381829E-3,-2.8078604E-1,1.8441558E-1,2.2382672E-1,-9.289721E-2,2.9184315E-2,1.353812E-1,3.101986E-2,6.509198E-2,-5.7388168E-2,-1.2306447E-1,-1.938474E-2],"split_indices":[1,5,2,1,11,13,13,0,0,1,0,0,0,0,0,0,0,0,0],"split_type":[0,0,0,0,0,0,0,0,0,0,0,0,0,0,0,0,0,0,0],"sum_hessian":[3.6E1,2.5E1,1.1E1,5E0,2E1,5E0,6E0,1E0,4E0,1.2E1,8E0,3E0,2E0,3E0,3E0,7E0,5E0,6E0,2E0],"tree_param":{"num_deleted":"0","num_feature":"18","num_nodes":"19","size_leaf_vector":"1"}},{"base_weights":[-1.4176193E-1,-1.9300805E0,1.1818545E0,-2.3333572E-1,-3.7972515E0,-1.1072898E0,2.7396822E0,-2.7326794E0,1.8716733E0,-4.919433E0,-1.4202114E0,7.289944E-1,-2.469645E0,5.6531036E-1,3.5428998E0,-2.0472566E-2,-2.0558405E-1,1.0594635E-2,1.7137448E-1,-5.5029836E-2,-2.7869967E-1,-0E0,-9.484454E-2,7.4544415E-2,-5.5464517E-2,-1.127304E-2,-1.7551859E-1,8.964803E-2,-4.0872168E-2,6.758154E-2,2.3809038E-1],"categories":[],"categories_nodes":[],"categories_segments":[],"categories_sizes":[],"default_left":[0,0,0,0,0,0,0,0,0,0,0,0,0,0,0,0,0,0,0,0,0,0,0,0,0,0,0,0,0,0,0],"id":35,"left_children":[1,3,5,7,9,11,13,15,17,19,21,23,25,27,29,-1,-1,-1,-1,-1,-1,-1,-1,-1,-1,-1,-1,-1,-1,-1,-1],"loss_changes":[9.467077E1,5.2568825E1,8.521698E1,5.7812195E1,1.3719162E1,2.6991135E1,2.2037254E1,1.388303E1,1.4403687E1,5.6961136E0,2.7265816E0,8.694876E0,1.2848461E1,1.0050884E1,1.966201E1,0E0,0E0,0E0,0E0,0E0,0E0,0E0,0E0,0E0,0E0,0E0,0E0,0E0,0E0,0E0,0E0],"parents":[2147483647,0,0,1,1,2,2,3,3,4,4,5,5,6,6,7,7,8,8,9,9,10,10,11,11,12,12,13,13,14,14],"right_children":[2,4,6,8,10,12,14,16,18,20,22,24,26,28,30,-1,-1,-1,-1,-1,-1,-1,-1,-1,-1,-1,-1,-1,-1,-1,-1],"split_conditions":[1.8527855E-1,1.31E2,3.051736E-1,2.316E3,3.056E3,2.7074075E-1,2.745E3,1.9905214E-1,2.3422945E-1,7.2289154E-2,1.5473887E-1,2.509381E-1,1.08E2,1.9855716E-3,4.716981E-3,-2.0472566E-2,-2.0558405E-1,1.0594635E-2,1.7137448E-1,-5.5029836E-2,-2.7869967E-1,-0E0,-9.484454E-2,7.4544415E-2,-5.5464517E-2,-1.127304E-2,-1.7551859E-1,8.964803E-2,-4.0872168E-2,6.758154E-2,2.3809038E-1],"split_indices":[1,7,17,11,11,17,11,0,0,1,0,0,7,3,3,0,0,0,0,0,0,0,0,0,0,0,0,0,0,0,0],"split_type":[0,0,0,0,0,0,0,0,0,0,0,0,0,0,0,0,0,0,0,0,0,0,0,0,0,0,0,0,0,0,0],"sum_hessian":[3.8E1,1.6E1,2.2E1,9E0,7E0,9E0,1.3E1,4E0,5E0,4E0,3E0,4E0,5E0,4E0,9E0,2E0,2E0,3E0,2E0,1E0,3E0,1E0,2E0,3E0,1E0,2E0,3E0,2E0,2E0,4E0,5E0],"tree_param":{"num_deleted":"0","num_feature":"18","num_nodes":"31","size_leaf_vector":"1"}},{"base_weights":[-4.225324E-2,-6.198072E-1,3.6425428E0,-2.4020133E0,1.7766531E-1,2.2121942E-1,1.037899E-2,-1.5122579E-1,-2.301278E-1,1.8893387E0,-1.5404801E0,-3.7825566E-2,3.364484E-2,1.5835254E-1,3.3559036E-3,1.13512576E-1,-1.05119385E-1],"categories":[],"categories_nodes":[],"categories_segments":[],"categories_sizes":[],"default_left":[0,0,0,0,0,0,0,0,0,0,0,0,0,0,0,0,0],"id":36,"left_children":[1,3,5,7,9,-1,-1,11,-1,13,15,-1,-1,-1,-1,-1,-1],"loss_changes":[7.856947E1,4.6129517E1,1.2046448E1,4.8358128E1,7.058616E1,0E0,0E0,3.5103924E0,0E0,2.7403301E1,3.045151E1,0E0,0E0,0E0,0E0,0E0,0E0],"parents":[2147483647,0,0,1,1,2,2,3,3,4,4,7,7,9,9,10,10],"right_children":[2,4,6,8,10,-1,-1,12,-1,14,16,-1,-1,-1,-1,-1,-1],"split_conditions":[2.5197905E-1,5E1,1.6867469E-1,8.8E1,5.2E1,2.2121942E-1,1.037899E-2,4.5E1,-2.301278E-1,2.905569E-2,5.375896E-1,-3.7825566E-2,3.364484E-2,1.5835254E-1,3.3559036E-3,1.13512576E-1,-1.05119385E-1],"split_indices":[1,5,0,10,8,0,0,6,0,3,2,0,0,0,0,0,0],"split_type":[0,0,0,0,0,0,0,0,0,0,0,0,0,0,0,0,0],"sum_hessian":[3.5E1,3.1E1,4E0,9E0,2.2E1,3E0,1E0,5E0,4E0,1.1E1,1.1E1,3E0,2E0,6E0,5E0,1E0,1E1],"tree_param":{"num_deleted":"0","num_feature":"18","num_nodes":"17","size_leaf_vector":"1"}},{"base_weights":[9.7563595E-2,-2.3824668E0,8.2705593E-1,-1.4352773E-1,-4.5727E0,-1.0339667E0,1.5423827E0,-3.6407072E-2,3.252332E-2,-2.603814E-1,-4.8324738E-2,3.175873E-1,-1.234519E-1,2.568475E0,-9.4662267E-1,7.7171676E-2,-1.0813431E-2,8.358084E-2,2.0334612E-1,-8.930492E-2,5.07268E-2],"categories":[],"categories_nodes":[],"categories_segments":[],"categories_sizes":[],"default_left":[0,0,0,0,0,0,0,0,0,0,0,0,0,0,0,0,0,0,0,0,0],"id":37,"left_children":[1,3,5,7,9,11,13,-1,-1,-1,-1,15,-1,17,19,-1,-1,-1,-1,-1,-1],"loss_changes":[7.96089E1,4.7910065E1,4.6907753E1,3.2664783E0,5.797844E0,2.0395046E1,6.644229E1,0E0,0E0,0E0,0E0,4.3930635E0,0E0,1.681791E1,1.5059978E1,0E0,0E0,0E0,0E0,0E0,0E0],"parents":[2147483647,0,0,1,1,2,2,3,3,4,4,5,5,6,6,11,11,13,13,14,14],"right_children":[2,4,6,8,10,12,14,-1,-1,-1,-1,16,-1,18,20,-1,-1,-1,-1,-1,-1],"split_conditions":[4.3E1,8.8E1,1.6928865E-1,4.5E1,1.8504673E-1,1.33E2,7.1E1,-3.6407072E-2,3.252332E-2,-2.603814E-1,-4.8324738E-2,1.0443864E-1,-1.234519E-1,2.3E1,1.35E2,7.7171676E-2,-1.0813431E-2,8.358084E-2,2.0334612E-1,-8.930492E-2,5.07268E-2],"split_indices":[8,10,1,6,1,7,6,0,0,0,0,1,0,15,7,0,0,0,0,0,0],"split_type":[0,0,0,0,0,0,0,0,0,0,0,0,0,0,0,0,0,0,0,0,0],"sum_hessian":[4.2E1,9E0,3.3E1,5E0,4E0,9E0,2.4E1,3E0,2E0,3E0,1E0,5E0,4E0,1.7E1,7E0,1E0,4E0,1.2E1,5E0,5E0,2E0],"tree_param":{"num_deleted":"0","num_feature":"18","num_nodes":"21","size_leaf_vector":"1"}},{"base_weights":[-3.8805684E-1,-2.2149563E0,8.657571E-1,1.7947433E0,-2.875899E0,-8.043243E-1,2.2425585E0,1.7198144E-2,1.14907615E-1,-4.8639154E0,-1.3854995E0,8.0096555E-1,-1.71959E0,8.1153564E-2,3.0890052E0,-4.858948E-2,-2.7139914E-1,-1.3606502E-1,-3.4944337E-2,-1.4852333E-3,1.0559117E-1,4.060917E-3,-1.4181595E-1,-3.997868E-2,9.260155E-2,7.060692E-2,2.2317222E-1],"categories":[],"categories_nodes":[],"categories_segments":[],"categories_sizes":[],"default_left":[0,0,0,0,0,0,0,0,0,0,0,0,0,0,0,0,0,0,0,0,0,0,0,0,0,0,0],"id":38,"left_children":[1,3,5,7,9,11,13,-1,-1,15,17,19,21,23,25,-1,-1,-1,-1,-1,-1,-1,-1,-1,-1,-1,-1],"loss_changes":[9.5966805E1,5.0322716E1,5.943183E1,1.1363163E0,3.70802E1,1.9100395E1,2.5045494E1,0E0,0E0,7.2576904E0,6.9278793E0,5.715395E0,1.6593987E1,9.384379E0,1.6156952E1,0E0,0E0,0E0,0E0,0E0,0E0,0E0,0E0,0E0,0E0,0E0,0E0],"parents":[2147483647,0,0,1,1,2,2,3,3,4,4,5,5,6,6,9,9,10,10,11,11,12,12,13,13,14,14],"right_children":[2,4,6,8,10,12,14,-1,-1,16,18,20,22,24,26,-1,-1,-1,-1,-1,-1,-1,-1,-1,-1,-1,-1],"split_conditions":[1.8527855E-1,8.8E1,3.051736E-1,1.9753245E-1,2.7655092E-1,2.7074075E-1,1.18E2,1.7198144E-2,1.14907615E-1,1.2273861E-1,2.8E1,2.4110807E-1,2.3E1,2.2983274E-1,4.716981E-3,-4.858948E-2,-2.7139914E-1,-1.3606502E-1,-3.4944337E-2,-1.4852333E-3,1.0559117E-1,4.060917E-3,-1.4181595E-1,-3.997868E-2,9.260155E-2,7.060692E-2,2.2317222E-1],"split_indices":[1,10,17,0,17,17,7,0,0,1,9,0,9,1,3,0,0,0,0,0,0,0,0,0,0,0,0],"split_type":[0,0,0,0,0,0,0,0,0,0,0,0,0,0,0,0,0,0,0,0,0,0,0,0,0,0,0],"sum_hessian":[4E1,1.6E1,2.4E1,2E0,1.4E1,1.1E1,1.3E1,1E0,1E0,5E0,9E0,4E0,7E0,4E0,9E0,1E0,4E0,2E0,7E0,3E0,1E0,3E0,4E0,3E0,1E0,5E0,4E0],"tree_param":{"num_deleted":"0","num_feature":"18","num_nodes":"27","size_leaf_vector":"1"}},{"base_weights":[-4.2188153E-2,5.527723E-1,-3.1102436E0,2.2674136E-1,3.0657563E-1,2.607933E-2,-3.8191462E0,-6.8010974E-1,9.250765E-1,-2.3671548E-1,-6.4627305E-2,2.6851145E-3,-8.420714E-2,-5.6467034E-2,5.959926E-2],"categories":[],"categories_nodes":[],"categories_segments":[],"categories_sizes":[],"default_left":[0,0,0,0,0,0,0,0,0,0,0,0,0,0,0],"id":39,"left_children":[1,3,5,-1,7,-1,9,11,13,-1,-1,-1,-1,-1,-1],"loss_changes":[7.864061E1,3.341886E1,2.034407E1,0E0,2.201295E1,0E0,7.151512E0,1.0568289E1,1.3415941E1,0E0,0E0,0E0,0E0,0E0,0E0],"parents":[2147483647,0,0,1,1,2,2,4,4,6,6,7,7,8,8],"right_children":[2,4,6,-1,8,-1,10,12,14,-1,-1,-1,-1,-1,-1],"split_conditions":[1.42E2,1.1048799E-1,1.903409E-1,2.2674136E-1,9.5E1,2.607933E-2,6.643991E-1,4.9E1,4.901501E-1,-2.3671548E-1,-6.4627305E-2,2.6851145E-3,-8.420714E-2,-5.6467034E-2,5.959926E-2],"split_indices":[7,0,0,0,10,0,2,5,2,0,0,0,0,0,0],"split_type":[0,0,0,0,0,0,0,0,0,0,0,0,0,0,0],"sum_hessian":[4.1E1,3.5E1,6E0,1E0,3.4E1,1E0,5E0,1.3E1,2.1E1,3E0,2E0,8E0,5E0,2E0,1.9E1],"tree_param":{"num_deleted":"0","num_feature":"18","num_nodes":"15","size_leaf_vector":"1"}},{"base_weights":[3.583935E-2,-8.2547957E-1,1.9073771E0,-3.0366743E0,5.1789844E-1,3.3734863E0,-7.9987305E-1,-1.0902608E-1,-3.742458E0,1.6056739E0,-1.2511628E0,2.4921646E-2,2.1160494E-1,1.4538804E-2,-8.286156E-2,-2.7537499E-2,1.6860543E-2,-2.0427404E-1,-3.1032523E-2,-9.896825E-3,1.0197902E-1,-8.645194E-2,-2.1575925E-4],"categories":[],"categories_nodes":[],"categories_segments":[],"categories_sizes":[],"default_left":[0,0,0,0,0,0,0,0,0,0,0,0,0,0,0,0,0,0,0,0,0,0,0],"id":40,"left_children":[1,3,5,7,9,11,13,15,17,19,21,-1,-1,-1,-1,-1,-1,-1,-1,-1,-1,-1,-1],"loss_changes":[6.1326355E1,7.905681E1,5.0585217E1,1.986969E1,3.4758213E1,1.7165977E1,5.2939134E0,7.984133E-1,5.5605392E0,9.196449E0,3.9900732E0,0E0,0E0,0E0,0E0,0E0,0E0,0E0,0E0,0E0,0E0,0E0,0E0],"parents":[2147483647,0,0,1,1,2,2,3,3,4,4,5,5,6,6,7,7,8,8,9,9,10,10],"right_children":[2,4,6,8,10,12,14,16,18,20,22,-1,-1,-1,-1,-1,-1,-1,-1,-1,-1,-1,-1],"split_conditions":[2.3E1,2.9305556E-1,7.1E1,8.9E1,2.905569E-2,4.8E1,1.8441558E-1,1.1070111E-1,2.1907216E-1,2.2E1,8.93E3,2.4921646E-2,2.1160494E-1,1.4538804E-2,-8.286156E-2,-2.7537499E-2,1.6860543E-2,-2.0427404E-1,-3.1032523E-2,-9.896825E-3,1.0197902E-1,-8.645194E-2,-2.1575925E-4],"split_indices":[15,17,6,10,3,6,1,0,1,9,13,0,0,0,0,0,0,0,0,0,0,0,0],"split_type":[0,0,0,0,0,0,0,0,0,0,0,0,0,0,0,0,0,0,0,0,0,0,0],"sum_hessian":[3.6E1,2.5E1,1.1E1,9E0,1.6E1,7E0,4E0,2E0,7E0,1E1,6E0,2E0,5E0,2E0,2E0,1E0,1E0,6E0,1E0,2E0,8E0,4E0,2E0],"tree_param":{"num_deleted":"0","num_feature":"18","num_nodes":"23","size_leaf_vector":"1"}},{"base_weights":[-1.8157555E-1,2.1578288E-1,-4.1011122E-1,-2.9063015E0,-3.893799E-2,-1.962283E-1,2.6668891E-2,3.740939E-1,-1.7587932E0,-2.5504339E-3,7.544321E-2,3.0021649E-5,-1.5517442E-1],"categories":[],"categories_nodes":[],"categories_segments":[],"categories_sizes":[],"default_left":[0,0,0,0,0,0,0,0,0,0,0,0,0],"id":41,"left_children":[1,-1,3,5,7,-1,-1,9,11,-1,-1,-1,-1],"loss_changes":[4.2490475E1,0E0,3.5726555E1,1.9944912E1,2.565885E1,0E0,0E0,1.421217E1,1.687309E1,0E0,0E0,0E0,0E0],"parents":[2147483647,0,0,2,2,3,3,4,4,7,7,8,8],"right_children":[2,-1,4,6,8,-1,-1,10,12,-1,-1,-1,-1],"split_conditions":[1.1048799E-1,2.1578288E-1,4.4E1,2.1907216E-1,8.57E2,-1.962283E-1,2.6668891E-2,2.1558441E-1,3.9E1,-2.5504339E-3,7.544321E-2,3.0021649E-5,-1.5517442E-1],"split_indices":[0,0,5,1,12,0,0,0,9,0,0,0,0],"split_type":[0,0,0,0,0,0,0,0,0,0,0,0,0],"sum_hessian":[3.9E1,1E0,3.8E1,4E0,3.4E1,3E0,1E0,2.8E1,6E0,2.1E1,7E0,3E0,3E0],"tree_param":{"num_deleted":"0","num_feature":"18","num_nodes":"13","size_leaf_vector":"1"}},{"base_weights":[-3.3612114E-1,-3.661015E0,1.322286E-1,-1.0232887E-2,-2.22447E-1,9.54764E-1,-1.3887774E0,1.6741819E0,-1.0172771E0,-2.2179077E0,1.0062424E0,3.296403E-2,1.7887191E-1,-1.242036E-1,2.3127594E-3,-1.7988889E-1,-7.053589E-2,6.974083E-2,1.8922273E-2],"categories":[],"categories_nodes":[],"categories_segments":[],"categories_sizes":[],"default_left":[0,0,0,0,0,0,0,0,0,0,0,0,0,0,0,0,0,0,0],"id":42,"left_children":[1,3,5,-1,-1,7,9,11,13,15,17,-1,-1,-1,-1,-1,-1,-1,-1],"loss_changes":[6.3125496E1,1.2240883E1,4.6321476E1,0E0,0E0,3.5818123E1,2.81681E1,3.1986908E1,1.1278568E1,5.5618744E0,2.7059507E-1,0E0,0E0,0E0,0E0,0E0,0E0,0E0,0E0],"parents":[2147483647,0,0,1,1,2,2,5,5,6,6,7,7,8,8,9,9,10,10],"right_children":[2,4,6,-1,-1,8,10,12,14,16,18,-1,-1,-1,-1,-1,-1,-1,-1],"split_conditions":[4.4E1,1.7244211E-1,6.465377E-1,-1.0232887E-2,-2.22447E-1,6.9E1,1.5E1,2.3E1,3.5E1,6.643991E-1,1.0443864E-1,3.296403E-2,1.7887191E-1,-1.242036E-1,2.3127594E-3,-1.7988889E-1,-7.053589E-2,6.974083E-2,1.8922273E-2],"split_indices":[5,1,2,0,0,5,16,15,9,2,1,0,0,0,0,0,0,0,0],"split_type":[0,0,0,0,0,0,0,0,0,0,0,0,0,0,0,0,0,0,0],"sum_hessian":[3.9E1,4E0,3.5E1,1E0,3E0,2.3E1,1.2E1,1.7E1,6E0,9E0,3E0,1.2E1,5E0,2E0,4E0,2E0,7E0,1E0,2E0],"tree_param":{"num_deleted":"0","num_feature":"18","num_nodes":"19","size_leaf_vector":"1"}},{"base_weights":[1.3543288E-1,-2.0338466E0,6.448094E-1,-3.563161E0,8.3469875E-2,1.1011636E0,-1.651704E0,-9.9771125E-3,-2.0879881E-1,1.6473231E0,-2.844491E-1,-9.5685564E-2,-6.0416795E-3,2.2781271E-2,1.4513141E-1,-6.566161E-2,6.5241896E-2],"categories":[],"categories_nodes":[],"categories_segments":[],"categories_sizes":[],"default_left":[0,0,0,0,0,0,0,0,0,0,0,0,0,0,0,0,0],"id":43,"left_children":[1,3,5,7,-1,9,11,-1,-1,13,15,-1,-1,-1,-1,-1,-1],"loss_changes":[4.6476727E1,5.1445103E1,3.7396534E1,1.1096832E1,0E0,2.2551075E1,1.9719009E0,0E0,0E0,2.9756489E1,1.6429678E1,0E0,0E0,0E0,0E0,0E0,0E0],"parents":[2147483647,0,0,1,1,2,2,3,3,5,5,6,6,9,9,10,10],"right_children":[2,4,6,8,-1,10,12,-1,-1,14,16,-1,-1,-1,-1,-1,-1],"split_conditions":[4.4E1,2.1907216E-1,4.3E1,1.7244211E-1,8.3469875E-2,6.7930937E-1,2.2675736E-1,-9.9771125E-3,-2.0879881E-1,1.038961E-2,1.5E1,-9.5685564E-2,-6.0416795E-3,2.2781271E-2,1.4513141E-1,-6.566161E-2,6.5241896E-2],"split_indices":[5,1,9,1,0,2,0,0,0,3,16,0,0,0,0,0,0],"split_type":[0,0,0,0,0,0,0,0,0,0,0,0,0,0,0,0,0],"sum_hessian":[4E1,7E0,3.3E1,5E0,2E0,2.8E1,5E0,1E0,4E0,2E1,8E0,4E0,1E0,1.1E1,9E0,5E0,3E0],"tree_param":{"num_deleted":"0","num_feature":"18","num_nodes":"17","size_leaf_vector":"1"}},{"base_weights":[-8.0079325E-2,6.927258E-1,-1.4063109E0,1.3454182E0,-1.4410456E-1,-1.7873663E0,8.618523E-2,2.2636478E0,-4.171608E-1,-1.1613734E0,-1.7267759E-1,1.3426608E-1,-7.213186E-3,2.6634812E-2,-7.62596E-2,-8.72919E-2,-1.8333994E-2],"categories":[],"categories_nodes":[],"categories_segments":[],"categories_sizes":[],"default_left":[0,0,0,0,0,0,0,0,0,0,0,0,0,0,0,0,0],"id":44,"left_children":[1,3,5,7,-1,9,-1,11,13,15,-1,-1,-1,-1,-1,-1,-1],"loss_changes":[3.8967533E1,5.9722095E1,1.9785187E1,3.5116447E1,0E0,9.08691E0,0E0,1.4856453E1,9.331482E0,4.257756E0,0E0,0E0,0E0,0E0,0E0,0E0,0E0],"parents":[2147483647,0,0,1,1,2,2,3,3,5,5,7,7,8,8,9,9],"right_children":[2,4,6,8,-1,10,-1,12,14,16,-1,-1,-1,-1,-1,-1,-1],"split_conditions":[5.4E1,2.70045E-1,7.4742265E-2,6.4E-1,-1.4410456E-1,2.899E3,8.618523E-2,8.402E3,1.768868E-1,6.1422414E-1,-1.7267759E-1,1.3426608E-1,-7.213186E-3,2.6634812E-2,-7.62596E-2,-8.72919E-2,-1.8333994E-2],"split_indices":[5,0,3,2,0,11,0,13,0,2,0,0,0,0,0,0,0],"split_type":[0,0,0,0,0,0,0,0,0,0,0,0,0,0,0,0,0],"sum_hessian":[3.6E1,2.3E1,1.3E1,2E1,3E0,1.2E1,1E0,1.3E1,7E0,1E1,2E0,1.1E1,2E0,4E0,3E0,5E0,5E0],"tree_param":{"num_deleted":"0","num_feature":"18","num_nodes":"17","size_leaf_vector":"1"}},{"base_weights":[1.0347059E-1,1.0330158E0,-1.2910641E0,1.6690807E0,-2.539579E0,-1.6236587E-1,-3.6003673E-1,2.3959613E0,-5.3078055E-1,-1.6869734E-1,-0E0,-1.2121732E0,6.77462E-1,-2.4049568E-3,1.4856838E-1,-7.587545E-2,1.5848046E-2,-7.692533E-2,1.6145667E-2,-1.7880732E-2,6.5470204E-2],"categories":[],"categories_nodes":[],"categories_segments":[],"categories_sizes":[],"default_left":[0,0,0,0,0,0,0,0,0,0,0,0,0,0,0,0,0,0,0,0,0],"id":45,"left_children":[1,3,5,7,9,-1,11,13,15,-1,-1,17,19,-1,-1,-1,-1,-1,-1,-1,-1],"loss_changes":[5.1862926E1,5.868936E1,2.7611322E1,3.503801E1,8.352701E0,0E0,1.1483759E1,2.2936485E1,5.6199894E0,0E0,0E0,4.1250134E0,4.4880915E0,0E0,0E0,0E0,0E0,0E0,0E0,0E0,0E0],"parents":[2147483647,0,0,1,1,2,2,3,3,4,4,6,6,7,7,8,8,11,11,12,12],"right_children":[2,4,6,8,10,-1,12,14,16,-1,-1,18,20,-1,-1,-1,-1,-1,-1,-1,-1],"split_conditions":[6.415762E-1,1.0269E4,6.643991E-1,6.9E1,6.020738E-1,-1.6236587E-1,5.3E1,2.2E1,5.838397E-1,-1.6869734E-1,-0E0,1.5E1,9.698925E-1,-2.4049568E-3,1.4856838E-1,-7.587545E-2,1.5848046E-2,-7.692533E-2,1.6145667E-2,-1.7880732E-2,6.5470204E-2],"split_indices":[2,13,2,5,2,0,6,9,2,0,0,16,4,0,0,0,0,0,0,0,0],"split_type":[0,0,0,0,0,0,0,0,0,0,0,0,0,0,0,0,0,0,0,0,0],"sum_hessian":[3.8E1,2.3E1,1.5E1,2E1,3E0,4E0,1.1E1,1.5E1,5E0,2E0,1E0,6E0,5E0,3E0,1.2E1,2E0,3E0,5E0,1E0,2E0,3E0],"tree_param":{"num_deleted":"0","num_feature":"18","num_nodes":"21","size_leaf_vector":"1"}},{"base_weights":[5.5608902E-2,1.952173E-1,-1.4062399E-1,-6.033898E-1,1.0830882E0,1.2329738E0,-1.2482771E0,2.0072286E0,-1.010965E0,7.8696E-2,-2.634121E-2,1.0165396E-2,-9.7295195E-2,-3.6365257E-3,1.3646685E-1,-5.828438E-3,-6.1845373E-2],"categories":[],"categories_nodes":[],"categories_segments":[],"categories_sizes":[],"default_left":[0,0,0,0,0,0,0,0,0,0,0,0,0,0,0,0,0],"id":46,"left_children":[1,-1,3,5,7,9,11,13,15,-1,-1,-1,-1,-1,-1,-1,-1],"loss_changes":[3.1135366E1,0E0,2.2690948E1,3.58838E1,2.3416056E1,5.733858E0,2.2848503E1,1.2479813E1,5.287962E-1,0E0,0E0,0E0,0E0,0E0,0E0,0E0,0E0],"parents":[2147483647,0,0,2,2,3,3,4,4,5,5,6,6,7,7,8,8],"right_children":[2,-1,4,6,8,10,12,14,16,-1,-1,-1,-1,-1,-1,-1,-1],"split_conditions":[1.1048799E-1,1.952173E-1,2.2675736E-1,2.5110906E-3,7.65E2,2.0373832E-1,1.4962594E-1,2.2E1,2.3422945E-1,7.8696E-2,-2.634121E-2,1.0165396E-2,-9.7295195E-2,-3.6365257E-3,1.3646685E-1,-5.828438E-3,-6.1845373E-2],"split_indices":[0,0,0,3,12,0,0,9,0,0,0,0,0,0,0,0,0],"split_type":[0,0,0,0,0,0,0,0,0,0,0,0,0,0,0,0,0],"sum_hessian":[3.9E1,1E0,3.8E1,2.8E1,1E1,7E0,2.1E1,7E0,3E0,6E0,1E0,7E0,1.4E1,2E0,5E0,1E0,2E0],"tree_param":{"num_deleted":"0","num_feature":"18","num_nodes":"17","size_leaf_vector":"1"}},{"base_weights":[-2.0184837E-1,1.2275178E0,-1.2100724E0,-1.0289227E0,1.7916782E0,-1.858239E0,3.0604059E-1,-0E0,-6.897555E-2,6.378744E-1,2.8400714E0,-6.5538424E-1,-3.4686909E0,7.911738E-2,-7.5621307E-1,-4.3367613E-3,7.04584E-2,1.6640115E-1,-0E0,-6.735899E-2,2.1210311E-2,-2.1344528E-2,-1.9439213E-1,-3.5510827E-3,-8.4924474E-2],"categories":[],"categories_nodes":[],"categories_segments":[],"categories_sizes":[],"default_left":[0,0,0,0,0,0,0,0,0,0,0,0,0,0,0,0,0,0,0,0,0,0,0,0,0],"id":47,"left_children":[1,3,5,7,9,11,13,-1,-1,15,17,19,21,-1,23,-1,-1,-1,-1,-1,-1,-1,-1,-1,-1],"loss_changes":[5.9128498E1,2.3560675E1,2.4308567E1,1.4744244E0,1.4775555E1,3.0245644E1,1.21252985E1,0E0,0E0,4.7255607E0,9.992386E0,8.879194E0,6.8336716E0,0E0,2.9306178E0,0E0,0E0,0E0,0E0,0E0,0E0,0E0,0E0,0E0,0E0],"parents":[2147483647,0,0,1,1,2,2,3,3,4,4,5,5,6,6,9,9,10,10,11,11,12,12,14,14],"right_children":[2,4,6,8,10,12,14,-1,-1,16,18,20,22,-1,24,-1,-1,-1,-1,-1,-1,-1,-1,-1,-1],"split_conditions":[1.6867469E-1,9.598997E-1,2.3E1,6.415762E-1,2.9E1,2.2E1,5.8994526E-1,-0E0,-6.897555E-2,9.977477E-1,1.36E2,6.516E3,1.8871595E-1,7.911738E-2,7.3E1,-4.3367613E-3,7.04584E-2,1.6640115E-1,-0E0,-6.735899E-2,2.1210311E-2,-2.1344528E-2,-1.9439213E-1,-3.5510827E-3,-8.4924474E-2],"split_indices":[0,4,15,2,9,15,2,0,0,4,7,13,0,0,6,0,0,0,0,0,0,0,0,0,0],"split_type":[0,0,0,0,0,0,0,0,0,0,0,0,0,0,0,0,0,0,0,0,0,0,0,0,0],"sum_hessian":[3.9E1,1.6E1,2.3E1,3E0,1.3E1,1.6E1,7E0,1E0,2E0,7E0,6E0,1E1,6E0,3E0,4E0,4E0,3E0,5E0,1E0,6E0,4E0,1E0,5E0,3E0,1E0],"tree_param":{"num_deleted":"0","num_feature":"18","num_nodes":"25","size_leaf_vector":"1"}},{"base_weights":[-1.11680776E-1,-1.9559608E0,3.3389303E-1,-2.7916107E-1,-1.559385E-1,6.7643505E-1,-1.4134748E-1,1.7644271E-2,-3.2040253E-2,9.4698644E-1,-1.0909821E0,1.5690608E-2,7.728382E-2,-6.733612E-2,-5.594025E-3],"categories":[],"categories_nodes":[],"categories_segments":[],"categories_sizes":[],"default_left":[0,0,0,0,0,0,0,0,0,0,0,0,0,0,0],"id":48,"left_children":[1,3,5,7,-1,9,-1,-1,-1,11,13,-1,-1,-1,-1],"loss_changes":[2.9576986E1,1.2438156E1,3.309612E1,1.169226E0,0E0,1.3929526E1,0E0,0E0,0E0,8.426804E0,7.0505047E-1,0E0,0E0,0E0,0E0],"parents":[2147483647,0,0,1,1,2,2,3,3,5,5,9,9,10,10],"right_children":[2,4,6,8,-1,10,-1,-1,-1,12,14,-1,-1,-1,-1],"split_conditions":[1.4897959E-1,1.3639808E-1,2.8329298E-1,1.1597768E-1,-1.559385E-1,4.2E1,-1.4134748E-1,1.7644271E-2,-3.2040253E-2,5.1E1,2.2675736E-1,1.5690608E-2,7.728382E-2,-6.733612E-2,-5.594025E-3],"split_indices":[1,1,0,1,0,9,0,0,0,8,0,0,0,0,0],"split_type":[0,0,0,0,0,0,0,0,0,0,0,0,0,0,0],"sum_hessian":[3.4E1,6E0,2.8E1,3E0,3E0,2.6E1,2E0,1E0,2E0,2.3E1,3E0,1.2E1,1.1E1,2E0,1E0],"tree_param":{"num_deleted":"0","num_feature":"18","num_nodes":"15","size_leaf_vector":"1"}},{"base_weights":[-2.8173683E-2,-1.0715816E0,8.7601465E-1,-3.0675402E-1,-3.2847135E0,1.5660566E0,-9.106607E-1,-2.3884106E0,5.778324E-1,-6.0374428E-2,-2.1168505E-1,-8.377042E-1,2.3778064E0,-1.6369034E0,1.8247223E-2,-1.5359238E-1,6.133423E-3,9.160219E-2,-2.827338E-2,-0E0,-5.244587E-2,1.3843755E-1,5.920385E-3,-9.3251646E-2,-2.1312866E-2,2.491413E-2,-1.3726274E-2],"categories":[],"categories_nodes":[],"categories_segments":[],"categories_sizes":[],"default_left":[0,0,0,0,0,0,0,0,0,0,0,0,0,0,0,0,0,0,0,0,0,0,0,0,0,0,0],"id":49,"left_children":[1,3,5,7,9,11,13,15,17,-1,-1,19,21,23,25,-1,-1,-1,-1,-1,-1,-1,-1,-1,-1,-1,-1],"loss_changes":[4.058264E1,3.2486538E1,2.9847946E1,3.1023645E1,4.200035E0,3.5317196E1,4.9140234E0,9.252554E0,1.8369896E1,0E0,0E0,8.921695E-1,1.0866341E1,8.062458E-2,7.2133195E-1,0E0,0E0,0E0,0E0,0E0,0E0,0E0,0E0,0E0,0E0,0E0,0E0],"parents":[2147483647,0,0,1,1,2,2,3,3,4,4,5,5,6,6,7,7,8,8,11,11,12,12,13,13,14,14],"right_children":[2,4,6,8,10,12,14,16,18,-1,-1,20,22,24,26,-1,-1,-1,-1,-1,-1,-1,-1,-1,-1,-1,-1],"split_conditions":[1.8527855E-1,1.42E2,8.57E2,2.28E3,1.4315353E-1,4.5E1,2.1907216E-1,7E1,3.98E2,-6.0374428E-2,-2.1168505E-1,9.598997E-1,6.7930937E-1,9.8E-1,2.291918E-1,-1.5359238E-1,6.133423E-3,9.160219E-2,-2.827338E-2,-0E0,-5.244587E-2,1.3843755E-1,5.920385E-3,-9.3251646E-2,-2.1312866E-2,2.491413E-2,-1.3726274E-2],"split_indices":[1,7,12,11,1,6,1,5,12,0,0,4,2,4,1,0,0,0,0,0,0,0,0,0,0,0,0],"split_type":[0,0,0,0,0,0,0,0,0,0,0,0,0,0,0,0,0,0,0,0,0,0,0,0,0,0,0],"sum_hessian":[4.1E1,1.9E1,2.2E1,1.5E1,4E0,1.6E1,6E0,4E0,1.1E1,2E0,2E0,4E0,1.2E1,3E0,3E0,3E0,1E0,5E0,6E0,1E0,3E0,1E1,2E0,2E0,1E0,1E0,2E0],"tree_param":{"num_deleted":"0","num_feature":"18","num_nodes":"27","size_leaf_vector":"1"}},{"base_weights":[-1.8487155E-1,-2.7618394E0,2.2425155E-1,-1.7396796E-1,1.8143997E-2,-1.5405802E-1,1.4714777E0,-6.9589645E-1,8.3601713E-1,2.4677796E0,-1.8292217E-2,-9.401545E-3,-9.1645546E-2,-4.276417E-2,7.948326E-2,1.4728507E-1,-0E0],"categories":[],"categories_nodes":[],"categories_segments":[],"categories_sizes":[],"default_left":[0,0,0,0,0,0,0,0,0,0,0,0,0,0,0,0,0],"id":50,"left_children":[1,3,5,-1,-1,7,9,11,13,15,-1,-1,-1,-1,-1,-1,-1],"loss_changes":[4.620788E1,1.5026527E1,1.8288265E1,0E0,0E0,1.6661592E1,1.7587765E1,1.100227E1,1.5454151E1,6.8461647E0,0E0,0E0,0E0,0E0,0E0,0E0,0E0],"parents":[2147483647,0,0,1,1,2,2,5,5,6,6,7,7,8,8,9,9],"right_children":[2,4,6,-1,-1,8,10,12,14,16,-1,-1,-1,-1,-1,-1,-1],"split_conditions":[4.4E1,2.1907216E-1,2.2675736E-1,-1.7396796E-1,1.8143997E-2,6.849E3,3.2E1,7.25E2,3.2E1,2.193159E-1,-1.8292217E-2,-9.401545E-3,-9.1645546E-2,-4.276417E-2,7.948326E-2,1.4728507E-1,-0E0],"split_indices":[5,1,0,0,0,13,9,12,9,1,0,0,0,0,0,0,0],"split_type":[0,0,0,0,0,0,0,0,0,0,0,0,0,0,0,0,0],"sum_hessian":[4.2E1,5E0,3.7E1,4E0,1E0,2.9E1,8E0,1.9E1,1E1,5E0,3E0,1.4E1,5E0,3E0,7E0,4E0,1E0],"tree_param":{"num_deleted":"0","num_feature":"18","num_nodes":"17","size_leaf_vector":"1"}},{"base_weights":[-1.9694516E-1,2.3424947E-1,-2.2330015E0,-1.9841275E0,5.5653286E-1,2.2304116E-2,-2.6937397E0,-1.3571547E-1,-2.7961833E-2,1.833925E-1,3.4807327E-1,-2.0020203E-1,-6.7440554E-2,2.5788737E-2,-4.8585303E-2],"categories":[],"categories_nodes":[],"categories_segments":[],"categories_sizes":[],"default_left":[0,0,0,0,0,0,0,0,0,0,0,0,0,0,0],"id":51,"left_children":[1,3,5,7,9,-1,11,-1,-1,-1,13,-1,-1,-1,-1],"loss_changes":[4.02301E1,2.8129425E1,1.1301243E1,3.3568478E0,2.0373577E1,0E0,6.399845E0,0E0,0E0,0E0,7.7594414E0,0E0,0E0,0E0,0E0],"parents":[2147483647,0,0,1,1,2,2,3,3,4,4,6,6,10,10],"right_children":[2,4,6,8,10,-1,12,-1,-1,-1,14,-1,-1,-1,-1],"split_conditions":[1.42E2,1.61E2,1.903409E-1,6.583541E-1,1.1048799E-1,2.2304116E-2,1.0543426E-2,-1.3571547E-1,-2.7961833E-2,1.833925E-1,4.3E1,-2.0020203E-1,-6.7440554E-2,2.5788737E-2,-4.8585303E-2],"split_indices":[7,12,0,2,0,0,3,0,0,0,9,0,0,0,0],"split_type":[0,0,0,0,0,0,0,0,0,0,0,0,0,0,0],"sum_hessian":[4.4E1,3.7E1,7E0,4E0,3.3E1,1E0,6E0,2E0,2E0,1E0,3.2E1,2E0,4E0,2.9E1,3E0],"tree_param":{"num_deleted":"0","num_feature":"18","num_nodes":"15","size_leaf_vector":"1"}},{"base_weights":[-3.9901915E-1,-2.4280577E0,-1.1133777E-1,-2.041622E-2,-1.4029549E-1,4.0685725E-1,-1.1069945E0,7.061218E-1,-9.114255E-1,-2.212252E0,1.9078976E0,-2.4621945E-2,4.693976E-2,-0E0,-7.6886594E-2,-1.5728734E-1,-3.1480394E-2,2.1746596E-2,1.1102878E-1],"categories":[],"categories_nodes":[],"categories_segments":[],"categories_sizes":[],"default_left":[0,0,0,0,0,0,0,0,0,0,0,0,0,0,0,0,0,0,0],"id":52,"left_children":[1,3,5,-1,-1,7,9,11,13,15,17,-1,-1,-1,-1,-1,-1,-1,-1],"loss_changes":[2.3408104E1,2.3486595E0,1.9610344E1,0E0,0E0,1.04859295E1,4.7570198E1,6.3632708E0,2.9403768E0,1.24157715E1,6.109047E-1,0E0,0E0,0E0,0E0,0E0,0E0,0E0,0E0],"parents":[2147483647,0,0,1,1,2,2,5,5,6,6,7,7,8,8,9,9,10,10],"right_children":[2,4,6,-1,-1,8,10,12,14,16,18,-1,-1,-1,-1,-1,-1,-1,-1],"split_conditions":[2.28E3,1.1070111E-1,1.33E2,-2.041622E-2,-1.4029549E-1,5.2E1,1.5E1,5.3608245E-1,1.6928865E-1,3.056E3,1.903409E-1,-2.4621945E-2,4.693976E-2,-0E0,-7.6886594E-2,-1.5728734E-1,-3.1480394E-2,2.1746596E-2,1.1102878E-1],"split_indices":[11,0,7,0,0,8,16,2,1,11,0,0,0,0,0,0,0,0,0],"split_type":[0,0,0,0,0,0,0,0,0,0,0,0,0,0,0,0,0,0,0],"sum_hessian":[4E1,4E0,3.6E1,1E0,3E0,2.4E1,1.2E1,2E1,4E0,9E0,3E0,3E0,1.7E1,2E0,2E0,5E0,4E0,1E0,2E0],"tree_param":{"num_deleted":"0","num_feature":"18","num_nodes":"19","size_leaf_vector":"1"}},{"base_weights":[-4.74731E-1,-0E0,-2.5170994E0,-2.1217856E0,3.0506402E-1,-1.8828568E-1,-6.2225558E-2,-1.9905815E-2,-1.2651518E-1,9.988625E-1,-2.7146378E-1,1.212308E-1,2.5506204E-2,-5.547136E-2,2.462221E-2],"categories":[],"categories_nodes":[],"categories_segments":[],"categories_sizes":[],"default_left":[0,0,0,0,0,0,0,0,0,0,0,0,0,0,0],"id":53,"left_children":[1,3,5,7,9,-1,-1,-1,-1,11,13,-1,-1,-1,-1],"loss_changes":[3.6011852E1,2.0613691E1,5.9353065E0,1.5164032E0,1.154373E1,0E0,0E0,0E0,0E0,7.5283365E0,1.0850061E1,0E0,0E0,0E0,0E0],"parents":[2147483647,0,0,1,1,2,2,3,3,4,4,9,9,10,10],"right_children":[2,4,6,8,10,-1,-1,-1,-1,12,14,-1,-1,-1,-1],"split_conditions":[1.42E2,1.61E2,1.0543426E-2,1.1070111E-1,1.8539326E-1,-1.8828568E-1,-6.2225558E-2,-1.9905815E-2,-1.2651518E-1,1.1E2,6.404E3,1.212308E-1,2.5506204E-2,-5.547136E-2,2.462221E-2],"split_indices":[7,12,3,0,1,0,0,0,0,7,13,0,0,0,0],"split_type":[0,0,0,0,0,0,0,0,0,0,0,0,0,0,0],"sum_hessian":[3.6E1,3E1,6E0,3E0,2.7E1,2E0,4E0,1E0,2E0,1.2E1,1.5E1,2E0,1E1,7E0,8E0],"tree_param":{"num_deleted":"0","num_feature":"18","num_nodes":"15","size_leaf_vector":"1"}},{"base_weights":[3.4631115E-1,-2.027522E0,6.6916823E-1,-1.3219021E-1,8.44017E-3,9.132569E-2,1.6767876E0,-3.466385E-1,1.2187585E0,2.5032308E0,2.7873203E-1,1.608834E-2,-6.1743297E-2,1.1575519E-1,1.4859985E-2,1.0159531E-2,1.6096896E-1,3.40905E-2,-1.591413E-2],"categories":[],"categories_nodes":[],"categories_segments":[],"categories_sizes":[],"default_left":[0,0,0,0,0,0,0,0,0,0,0,0,0,0,0,0,0,0,0],"id":54,"left_children":[1,3,5,-1,-1,7,9,11,13,15,17,-1,-1,-1,-1,-1,-1,-1,-1],"loss_changes":[3.187727E1,7.461565E0,2.0630886E1,0E0,0E0,1.2360285E1,1.4044449E1,1.1175176E1,6.123148E0,1.2180954E1,1.6972215E0,0E0,0E0,0E0,0E0,0E0,0E0,0E0,0E0],"parents":[2147483647,0,0,1,1,2,2,5,5,6,6,7,7,8,8,9,9,10,10],"right_children":[2,4,6,-1,-1,8,10,12,14,16,18,-1,-1,-1,-1,-1,-1,-1,-1],"split_conditions":[2.28E3,7E1,2.3E1,-1.3219021E-1,8.44017E-3,1.5E1,6.9E1,1.35E2,5.526E3,4.8E1,1.903409E-1,1.608834E-2,-6.1743297E-2,1.1575519E-1,1.4859985E-2,1.0159531E-2,1.6096896E-1,3.40905E-2,-1.591413E-2],"split_indices":[11,5,15,0,0,16,5,7,13,6,0,0,0,0,0,0,0,0,0],"split_type":[0,0,0,0,0,0,0,0,0,0,0,0,0,0,0,0,0,0,0],"sum_hessian":[3.9E1,4E0,3.5E1,3E0,1E0,2.3E1,1.2E1,1.7E1,6E0,7E0,5E0,1E1,7E0,2E0,4E0,2E0,5E0,3E0,2E0],"tree_param":{"num_deleted":"0","num_feature":"18","num_nodes":"19","size_leaf_vector":"1"}},{"base_weights":[-1.9252852E-1,-5.731773E-1,1.9799026E0,-2.4338117E0,-2.4063233E-1,1.5447596E-1,-1.262202E-1,-0E0,-1.5197742E-1,-7.668966E-1,1.0614173E0,-1.2376175E-2,4.096603E-4,-1.1967621E-2,-1.0585612E-1,1.0534038E-1,-3.7351113E-2],"categories":[],"categories_nodes":[],"categories_segments":[],"categories_sizes":[],"default_left":[0,0,0,0,0,0,0,0,0,0,0,0,0,0,0,0,0],"id":55,"left_children":[1,3,5,7,9,-1,11,-1,-1,13,15,-1,-1,-1,-1,-1,-1],"loss_changes":[3.3244564E1,2.018422E1,1.4708221E1,7.3382244E0,2.1341213E1,0E0,7.4875414E-2,0E0,0E0,1.4928297E1,1.8724533E1,0E0,0E0,0E0,0E0,0E0,0E0],"parents":[2147483647,0,0,1,1,2,2,3,3,4,4,6,6,9,9,10,10],"right_children":[2,4,6,8,10,-1,12,-1,-1,14,16,-1,-1,-1,-1,-1,-1],"split_conditions":[2.5211865E-1,2.5208333E-1,1.6867469E-1,1.4457831E-1,2.2382672E-1,1.5447596E-1,2.2675736E-1,-0E0,-1.5197742E-1,2.0226097E-1,7.65E2,-1.2376175E-2,4.096603E-4,-1.1967621E-2,-1.0585612E-1,1.0534038E-1,-3.7351113E-2],"split_indices":[1,17,0,0,0,0,0,0,0,0,12,0,0,0,0,0,0],"split_type":[0,0,0,0,0,0,0,0,0,0,0,0,0,0,0,0,0],"sum_hessian":[3.8E1,3.3E1,5E0,4E0,2.9E1,3E0,2E0,1E0,3E0,2.1E1,8E0,1E0,1E0,1.6E1,5E0,5E0,3E0],"tree_param":{"num_deleted":"0","num_feature":"18","num_nodes":"17","size_leaf_vector":"1"}},{"base_weights":[-7.505667E-2,-1.8274949E0,7.651159E-1,-2.753308E-1,-2.5566604E0,1.4516023E0,-3.9977401E-1,-2.0858867E-2,-4.1870118E-4,-3.451785E0,-3.8679488E-2,-1.3688637E-1,2.4283843E0,6.5577054E-1,-1.2294322E0,-4.727417E-2,-1.9084947E-1,-7.6072924E-2,3.5061706E-2,4.3818116E-2,1.6501693E-1,-1.09506985E-2,6.7264915E-2,-9.366745E-2,-2.0706825E-2],"categories":[],"categories_nodes":[],"categories_segments":[],"categories_sizes":[],"default_left":[0,0,0,0,0,0,0,0,0,0,0,0,0,0,0,0,0,0,0,0,0,0,0,0,0],"id":56,"left_children":[1,3,5,7,9,11,13,-1,-1,15,-1,17,19,21,23,-1,-1,-1,-1,-1,-1,-1,-1,-1,-1],"loss_changes":[5.45091E1,1.2594292E1,2.0677525E1,1.4328581E-1,9.675758E0,2.5387276E1,9.621002E0,0E0,0E0,4.9141693E-1,0E0,9.271989E0,1.0222958E1,3.423208E0,2.1453257E0,0E0,0E0,0E0,0E0,0E0,0E0,0E0,0E0,0E0,0E0],"parents":[2147483647,0,0,1,1,2,2,3,3,4,4,5,5,6,6,9,9,11,11,12,12,13,13,14,14],"right_children":[2,4,6,8,10,12,14,-1,-1,16,-1,18,20,22,24,-1,-1,-1,-1,-1,-1,-1,-1,-1,-1],"split_conditions":[2.7773148E-1,8.9E1,6.465377E-1,4.5E1,4E1,5.838397E-1,1.4962594E-1,-2.0858867E-2,-4.1870118E-4,1.03E2,-3.8679488E-2,6.401E3,2.2573364E-3,1.31E2,5E1,-4.727417E-2,-1.9084947E-1,-7.6072924E-2,3.5061706E-2,4.3818116E-2,1.6501693E-1,-1.09506985E-2,6.7264915E-2,-9.366745E-2,-2.0706825E-2],"split_indices":[17,10,2,5,9,2,0,0,0,7,0,13,3,7,5,0,0,0,0,0,0,0,0,0,0],"split_type":[0,0,0,0,0,0,0,0,0,0,0,0,0,0,0,0,0,0,0,0,0,0,0,0,0],"sum_hessian":[3.5E1,1.1E1,2.4E1,4E0,7E0,1.5E1,9E0,2E0,2E0,4E0,3E0,6E0,9E0,4E0,5E0,1E0,3E0,2E0,4E0,4E0,5E0,2E0,2E0,2E0,3E0],"tree_param":{"num_deleted":"0","num_feature":"18","num_nodes":"25","size_leaf_vector":"1"}},{"base_weights":[-5.4432243E-2,-5.76364E-1,1.4597721E0,-1.1071318E0,1.7798986E-1,6.9892275E-1,1.6111982E-1,-6.2856905E-2,-2.0306938E0,-6.0526335E-1,8.6444914E-2,1.0034101E0,-1.0559439E-2,-8.258048E-2,6.274565E-2,-1.1237224E-1,-0E0,-6.947318E-2,6.622365E-3,5.9480913E-2,-3.4595488E-4],"categories":[],"categories_nodes":[],"categories_segments":[],"categories_sizes":[],"default_left":[0,0,0,0,0,0,0,0,0,0,0,0,0,0,0,0,0,0,0,0,0],"id":57,"left_children":[1,3,5,7,9,11,-1,13,15,17,-1,19,-1,-1,-1,-1,-1,-1,-1,-1,-1],"loss_changes":[3.39461E1,1.3102348E1,1.2107668E1,1.7987598E1,1.816536E1,2.7851887E0,0E0,2.30484E1,4.2219086E0,6.0948606E0,0E0,1.4434209E0,0E0,0E0,0E0,0E0,0E0,0E0,0E0,0E0,0E0],"parents":[2147483647,0,0,1,1,2,2,3,3,4,4,5,5,7,7,8,8,9,9,11,11],"right_children":[2,4,6,8,10,12,-1,14,16,18,-1,20,-1,-1,-1,-1,-1,-1,-1,-1,-1],"split_conditions":[2.2983274E-1,1.5E1,4.716981E-3,1.2E2,1.31E2,1.29E2,1.6111982E-1,2.333E3,3.133E3,6.1422414E-1,8.6444914E-2,2.0373832E-1,-1.0559439E-2,-8.258048E-2,6.274565E-2,-1.1237224E-1,-0E0,-6.947318E-2,6.622365E-3,5.9480913E-2,-3.4595488E-4],"split_indices":[1,16,3,7,7,7,0,11,11,2,0,0,0,0,0,0,0,0,0,0,0],"split_type":[0,0,0,0,0,0,0,0,0,0,0,0,0,0,0,0,0,0,0,0,0],"sum_hessian":[4.1E1,3.1E1,1E1,1.8E1,1.3E1,8E0,2E0,9E0,9E0,9E0,4E0,6E0,2E0,4E0,5E0,8E0,1E0,4E0,5E0,5E0,1E0],"tree_param":{"num_deleted":"0","num_feature":"18","num_nodes":"21","size_leaf_vector":"1"}},{"base_weights":[-5.313361E-2,-3.507286E-1,1.7742244E0,-1.3814832E-1,-1.0224893E-1,1.393481E-1,-1.3416748E-1,-6.0462266E-1,1.4409711E0,-1.08358E-2,-0E0,8.408241E-3,-6.7068286E-2,1.24867916E-1,-1.0737781E-2],"categories":[],"categories_nodes":[],"categories_segments":[],"categories_sizes":[],"default_left":[0,0,0,0,0,0,0,0,0,0,0,0,0,0,0],"id":58,"left_children":[1,3,5,7,-1,-1,9,11,13,-1,-1,-1,-1,-1,-1],"loss_changes":[2.3320047E1,1.2825251E1,1.2235403E1,2.583265E1,0E0,0E0,3.9928917E-2,1.5715226E1,1.4757292E1,0E0,0E0,0E0,0E0,0E0,0E0],"parents":[2147483647,0,0,1,1,2,2,3,3,6,6,7,7,8,8],"right_children":[2,4,6,8,-1,-1,10,12,14,-1,-1,-1,-1,-1,-1],"split_conditions":[2.5197905E-1,2.70045E-1,1.6867469E-1,2.2227836E-1,-1.0224893E-1,1.393481E-1,2.2675736E-1,1.768868E-1,6.989E3,-1.08358E-2,-0E0,8.408241E-3,-6.7068286E-2,1.24867916E-1,-1.0737781E-2],"split_indices":[1,0,0,0,0,0,0,0,13,0,0,0,0,0,0],"split_type":[0,0,0,0,0,0,0,0,0,0,0,0,0,0,0],"sum_hessian":[4.1E1,3.6E1,5E0,3.3E1,3E0,3E0,2E0,2.6E1,7E0,1E0,1E0,1.3E1,1.3E1,4E0,3E0],"tree_param":{"num_deleted":"0","num_feature":"18","num_nodes":"15","size_leaf_vector":"1"}},{"base_weights":[-2.1731487E-2,-4.5194137E-1,1.403605E0,-1.1387162E0,4.0713817E-1,1.1834411E-2,2.4946547E0,2.6502076E-1,-1.754025E0,-2.1871726E-1,1.025728E-1,2.778661E-2,-2.5133744E-2,1.4277723E-1,2.377735E-2,-2.4525529E-2,6.0869444E-2,-1.3805555E-1,-3.12974E-2,5.770138E-2,-4.4512503E-2],"categories":[],"categories_nodes":[],"categories_segments":[],"categories_sizes":[],"default_left":[0,0,0,0,0,0,0,0,0,0,0,0,0,0,0,0,0,0,0,0,0],"id":59,"left_children":[1,3,5,7,9,11,13,15,17,19,-1,-1,-1,-1,-1,-1,-1,-1,-1,-1,-1],"loss_changes":[2.3840548E1,1.8236599E1,1.3386244E1,1.5297195E1,1.5039435E1,1.6838608E0,1.9523258E0,4.987094E0,1.1565819E1,1.1141269E1,0E0,0E0,0E0,0E0,0E0,0E0,0E0,0E0,0E0,0E0,0E0],"parents":[2147483647,0,0,1,1,2,2,3,3,4,4,5,5,6,6,7,7,8,8,9,9],"right_children":[2,4,6,8,10,12,14,16,18,20,-1,-1,-1,-1,-1,-1,-1,-1,-1,-1,-1],"split_conditions":[3.4583333E-1,1.5E1,2.9E1,8.8E1,1.31E2,2.1551724E-3,1.4962594E-1,2.2E1,4.5E1,1.6867469E-1,1.025728E-1,2.778661E-2,-2.5133744E-2,1.4277723E-1,2.377735E-2,-2.4525529E-2,6.0869444E-2,-1.3805555E-1,-3.12974E-2,5.770138E-2,-4.4512503E-2],"split_indices":[17,16,9,10,7,3,0,9,8,0,0,0,0,0,0,0,0,0,0,0,0],"split_type":[0,0,0,0,0,0,0,0,0,0,0,0,0,0,0,0,0,0,0,0,0],"sum_hessian":[3.7E1,2.9E1,8E0,1.6E1,1.3E1,4E0,4E0,5E0,1.1E1,1E1,3E0,2E0,2E0,3E0,1E0,3E0,2E0,5E0,6E0,3E0,7E0],"tree_param":{"num_deleted":"0","num_feature":"18","num_nodes":"21","size_leaf_vector":"1"}},{"base_weights":[-9.853007E-2,-1.4384565E0,3.480631E-1,-2.1154296E-1,-2.2044752E0,9.347124E-1,-1.1135311E0,-4.0201288E-2,2.0906042E-2,-1.3149604E-2,-1.2600867E-1,-4.539042E-1,1.3757117E0,-1.7750942E0,1.3219604E-1,-6.7758545E-2,4.328763E-2,8.768176E-2,-1.3297443E-2,-1.265682E-1,-7.0851385E-3,2.318283E-2,-4.975484E-3],"categories":[],"categories_nodes":[],"categories_segments":[],"categories_sizes":[],"default_left":[0,0,0,0,0,0,0,0,0,0,0,0,0,0,0,0,0,0,0,0,0,0,0],"id":60,"left_children":[1,3,5,7,9,11,13,-1,-1,-1,-1,15,17,19,21,-1,-1,-1,-1,-1,-1,-1,-1],"loss_changes":[2.3947392E1,8.690445E0,2.6746248E1,2.2400956E0,2.736435E0,1.4188959E1,7.8160915E0,0E0,0E0,0E0,0E0,8.35836E0,1.1162327E1,6.7857018E0,3.897583E-1,0E0,0E0,0E0,0E0,0E0,0E0,0E0,0E0],"parents":[2147483647,0,0,1,1,2,2,3,3,4,4,5,5,6,6,11,11,12,12,13,13,14,14],"right_children":[2,4,6,8,10,12,14,-1,-1,-1,-1,16,18,20,22,-1,-1,-1,-1,-1,-1,-1,-1],"split_conditions":[4.3E1,2.0226097E-1,8E0,1.8625277E-1,1.7244211E-1,1.5732759E-1,1.9253209E-1,-4.0201288E-2,2.0906042E-2,-1.3149604E-2,-1.2600867E-1,7.326531E-1,2.905569E-2,6.643991E-1,1.903409E-1,-6.7758545E-2,4.328763E-2,8.768176E-2,-1.3297443E-2,-1.265682E-1,-7.0851385E-3,2.318283E-2,-4.975484E-3],"split_indices":[8,0,14,0,1,1,1,0,0,0,0,2,3,2,0,0,0,0,0,0,0,0,0],"split_type":[0,0,0,0,0,0,0,0,0,0,0,0,0,0,0,0,0,0,0,0,0,0,0],"sum_hessian":[3.8E1,9E0,2.9E1,4E0,5E0,2.1E1,8E0,2E0,2E0,1E0,4E0,5E0,1.6E1,5E0,3E0,3E0,2E0,1.3E1,3E0,3E0,2E0,1E0,2E0],"tree_param":{"num_deleted":"0","num_feature":"18","num_nodes":"23","size_leaf_vector":"1"}},{"base_weights":[-3.895011E-2,1.5173393E-1,-1.9037224E-1,-7.0886016E-1,2.850882E-1,-2.2766767E0,-1.6836372E-1,-5.4519325E-1,1.1740236E0,-1.28207775E-2,-1.346319E-1,5.7002056E-2,-4.379121E-2,2.3038292E-3,-7.0109315E-2,1.0873983E-1,2.5719205E-2],"categories":[],"categories_nodes":[],"categories_segments":[],"categories_sizes":[],"default_left":[0,0,0,0,0,0,0,0,0,0,0,0,0,0,0,0,0],"id":61,"left_children":[1,-1,3,5,7,9,11,13,15,-1,-1,-1,-1,-1,-1,-1,-1],"loss_changes":[1.9840734E1,0E0,1.0351805E1,1.6320168E1,1.6940418E1,3.2164154E0,1.5782369E1,6.2807884E0,5.8740454E0,0E0,0E0,0E0,0E0,0E0,0E0,0E0,0E0],"parents":[2147483647,0,0,2,2,3,3,4,4,5,5,6,6,7,7,8,8],"right_children":[2,-1,4,6,8,10,12,14,16,-1,-1,-1,-1,-1,-1,-1,-1],"split_conditions":[1.1048799E-1,1.5173393E-1,1.8527855E-1,4.4E1,3.051736E-1,1.7244211E-1,1.13E2,3.2E1,3.3472222E-1,-1.28207775E-2,-1.346319E-1,5.7002056E-2,-4.379121E-2,2.3038292E-3,-7.0109315E-2,1.0873983E-1,2.5719205E-2],"split_indices":[0,0,1,5,17,1,7,9,17,0,0,0,0,0,0,0,0],"split_type":[0,0,0,0,0,0,0,0,0,0,0,0,0,0,0,0,0],"sum_hessian":[4.1E1,1E0,4E1,1.9E1,2.1E1,4E0,1.5E1,1.1E1,1E1,1E0,3E0,5E0,1E1,7E0,4E0,3E0,7E0],"tree_param":{"num_deleted":"0","num_feature":"18","num_nodes":"17","size_leaf_vector":"1"}},{"base_weights":[1.0762024E-2,1.479406E-1,-1.4618018E-1,-1.5921208E0,7.430112E-2,-1.0514071E-1,8.766327E-3,2.1758027E-1,-1.1026579E-1,5.5850524E-2,2.9723273E-4],"categories":[],"categories_nodes":[],"categories_segments":[],"categories_sizes":[],"default_left":[0,0,0,0,0,0,0,0,0,0,0],"id":62,"left_children":[1,-1,3,5,7,-1,-1,9,-1,-1,-1],"loss_changes":[1.8295376E1,0E0,1.2065784E1,5.074548E0,1.1059571E1,0E0,0E0,5.972311E0,0E0,0E0,0E0],"parents":[2147483647,0,0,2,2,3,3,4,4,7,7],"right_children":[2,-1,4,6,8,-1,-1,10,-1,-1,-1],"split_conditions":[1.1048799E-1,1.479406E-1,2.28E3,6.8E1,1.086E3,-1.0514071E-1,8.766327E-3,2.361E3,-1.1026579E-1,5.5850524E-2,2.9723273E-4],"split_indices":[0,0,11,8,12,0,0,11,0,0,0],"split_type":[0,0,0,0,0,0,0,0,0,0,0],"sum_hessian":[3.7E1,1E0,3.6E1,4E0,3.2E1,3E0,1E0,3.1E1,1E0,5E0,2.6E1],"tree_param":{"num_deleted":"0","num_feature":"18","num_nodes":"11","size_leaf_vector":"1"}},{"base_weights":[3.493866E-1,-2.2739258E-1,1.6900113E0,-1.1362555E0,3.1472635E-1,3.5764667E-1,1.3620204E-1,-0E0,-1.6201878E0,9.6209514E-1,-1.0157989E0,4.4367188E-1,-0E0,1.2421761E-2,-8.635177E-3,-3.0913908E-2,-1.09602526E-1,-2.7004033E-2,7.669702E-2,-6.094542E-2,-0E0,3.0065156E-3,2.4976235E-2],"categories":[],"categories_nodes":[],"categories_segments":[],"categories_sizes":[],"default_left":[0,0,0,0,0,0,0,0,0,0,0,0,0,0,0,0,0,0,0,0,0,0,0],"id":63,"left_children":[1,3,5,7,9,11,-1,13,15,17,19,21,-1,-1,-1,-1,-1,-1,-1,-1,-1,-1,-1],"loss_changes":[2.8367357E1,1.3250268E1,1.3872334E1,5.4642944E0,1.5614716E1,2.167567E-1,0E0,2.1291965E-1,2.3743553E0,1.1235983E1,1.2376027E0,2.1107376E-2,0E0,0E0,0E0,0E0,0E0,0E0,0E0,0E0,0E0,0E0,0E0],"parents":[2147483647,0,0,1,1,2,2,3,3,4,4,5,5,7,7,8,8,9,9,10,10,11,11],"right_children":[2,4,6,8,10,12,-1,14,16,18,20,22,-1,-1,-1,-1,-1,-1,-1,-1,-1,-1,-1],"split_conditions":[2.3E1,2.8189814E-1,2.473E3,8.9E1,2.905569E-2,3.1746034E-2,1.3620204E-1,1.1597768E-1,2.6597223E-1,2.2E1,3.2E1,1.5313654E-1,-0E0,1.2421761E-2,-8.635177E-3,-3.0913908E-2,-1.09602526E-1,-2.7004033E-2,7.669702E-2,-6.094542E-2,-0E0,3.0065156E-3,2.4976235E-2],"split_indices":[15,17,11,10,3,3,0,1,17,9,9,1,0,0,0,0,0,0,0,0,0,0,0],"split_type":[0,0,0,0,0,0,0,0,0,0,0,0,0,0,0,0,0,0,0,0,0,0,0],"sum_hessian":[3.5E1,2.5E1,1E1,9E0,1.6E1,5E0,5E0,3E0,6E0,1.1E1,5E0,4E0,1E0,1E0,2E0,3E0,3E0,3E0,8E0,4E0,1E0,1E0,3E0],"tree_param":{"num_deleted":"0","num_feature":"18","num_nodes":"23","size_leaf_vector":"1"}},{"base_weights":[-2.262872E-1,-5.3961986E-1,1.5180904E0,-1.8232769E0,-2.4170692E-1,2.3738017E0,-9.555511E-2,-2.3029835E0,1.1881409E-2,-7.586057E-1,9.227022E-1,1.3604645E-1,3.0810509E-2,-9.456596E-3,-0E0,-1.3994437E-1,-5.030426E-2,2.636574E-2,-5.1121682E-2,8.567084E-2,-2.3452263E-2],"categories":[],"categories_nodes":[],"categories_segments":[],"categories_sizes":[],"default_left":[0,0,0,0,0,0,0,0,0,0,0,0,0,0,0,0,0,0,0,0,0],"id":64,"left_children":[1,3,5,7,9,11,13,15,-1,17,19,-1,-1,-1,-1,-1,-1,-1,-1,-1,-1],"loss_changes":[2.1491024E1,1.1972597E1,8.739541E0,6.68557E0,1.7536243E1,4.300537E-1,4.414943E-2,1.9268036E-2,0E0,7.373893E0,1.0832383E1,0E0,0E0,0E0,0E0,0E0,0E0,0E0,0E0,0E0,0E0],"parents":[2147483647,0,0,1,1,2,2,3,3,4,4,5,5,6,6,7,7,9,9,10,10],"right_children":[2,4,6,8,10,12,14,16,-1,18,20,-1,-1,-1,-1,-1,-1,-1,-1,-1,-1],"split_conditions":[2.5211865E-1,4.4E1,1.6867469E-1,2.1907216E-1,2.2382672E-1,1.6252822E-1,2.2675736E-1,2.6944444E-1,1.1881409E-2,7E0,6.989E3,1.3604645E-1,3.0810509E-2,-9.456596E-3,-0E0,-1.3994437E-1,-5.030426E-2,2.636574E-2,-5.1121682E-2,8.567084E-2,-2.3452263E-2],"split_indices":[1,5,0,1,0,0,0,17,0,14,13,0,0,0,0,0,0,0,0,0,0],"split_type":[0,0,0,0,0,0,0,0,0,0,0,0,0,0,0,0,0,0,0,0,0],"sum_hessian":[3.7E1,3.2E1,5E0,5E0,2.7E1,3E0,2E0,4E0,1E0,1.9E1,8E0,2E0,1E0,1E0,1E0,2E0,2E0,3E0,1.6E1,5E0,3E0],"tree_param":{"num_deleted":"0","num_feature":"18","num_nodes":"21","size_leaf_vector":"1"}},{"base_weights":[-1.9400719E-1,7.8788596E-1,-7.3602164E-1,4.513397E-3,1.9455259E0,3.2873014E-1,-1.4948341E0,4.8119527E-1,-6.174047E-2,1.2900837E-1,4.1749522E-1,7.312739E-1,-3.1708796E-2,-2.0149968E0,-2.7539673E-1,-3.5545856E-3,7.293521E-2,-0E0,3.0040322E-2,5.5704553E-2,-3.850935E-5,-1.17157295E-1,-1.6277542E-2,-2.5454164E-2,1.9825896E-2],"categories":[],"categories_nodes":[],"categories_segments":[],"categories_sizes":[],"default_left":[0,0,0,0,0,0,0,0,0,0,0,0,0,0,0,0,0,0,0,0,0,0,0,0,0],"id":65,"left_children":[1,3,5,7,9,11,13,15,-1,-1,17,19,-1,21,23,-1,-1,-1,-1,-1,-1,-1,-1,-1,-1],"loss_changes":[2.2394926E1,1.3399166E1,2.2422573E1,6.4264503E0,4.441536E0,5.124808E0,9.364929E0,4.561386E0,0E0,0E0,1.9902992E-1,2.6343412E0,0E0,5.0686073E0,1.1552216E0,0E0,0E0,0E0,0E0,0E0,0E0,0E0,0E0,0E0,0E0],"parents":[2147483647,0,0,1,1,2,2,3,3,4,4,5,5,6,6,7,7,10,10,11,11,13,13,14,14],"right_children":[2,4,6,8,10,12,14,16,-1,-1,18,20,-1,22,24,-1,-1,-1,-1,-1,-1,-1,-1,-1,-1],"split_conditions":[1.768868E-1,9.8E1,9.4E1,4.717426E-2,3.123E3,3.2008103E-1,2.961111E-1,5.3E1,-6.174047E-2,1.2900837E-1,1.5473887E-1,6.989E3,-3.1708796E-2,7.2E1,2.2106233E-1,-3.5545856E-3,7.293521E-2,-0E0,3.0040322E-2,5.5704553E-2,-3.850935E-5,-1.17157295E-1,-1.6277542E-2,-2.5454164E-2,1.9825896E-2],"split_indices":[0,10,10,3,11,17,17,5,0,0,0,13,0,6,1,0,0,0,0,0,0,0,0,0,0],"split_type":[0,0,0,0,0,0,0,0,0,0,0,0,0,0,0,0,0,0,0,0,0,0,0,0,0],"sum_hessian":[4E1,1.4E1,2.6E1,9E0,5E0,1.1E1,1.5E1,7E0,2E0,3E0,2E0,8E0,3E0,1E1,5E0,5E0,2E0,1E0,1E0,5E0,3E0,8E0,2E0,4E0,1E0],"tree_param":{"num_deleted":"0","num_feature":"18","num_nodes":"25","size_leaf_vector":"1"}},{"base_weights":[-9.196627E-2,-6.7521644E-1,5.937378E-1,-2.203655E0,1.3008979E-1,1.02544546E-1,-4.6855044E-3,-2.7081044E0,-2.9751053E-2,-6.136636E-1,7.771128E-1,-3.9642528E-1,6.999611E-2,-3.392235E-2,-1.5104535E-1,-5.500273E-2,1.8410467E-2,5.780791E-2,-1.0334116E-2,-3.340499E-2,5.5508006E-2],"categories":[],"categories_nodes":[],"categories_segments":[],"categories_sizes":[],"default_left":[0,0,0,0,0,0,0,0,0,0,0,0,0,0,0,0,0,0,0,0,0],"id":66,"left_children":[1,3,5,7,9,-1,11,13,-1,15,17,19,-1,-1,-1,-1,-1,-1,-1,-1,-1],"loss_changes":[1.4806781E1,2.5111252E1,1.5038134E1,3.7386284E0,7.230388E0,0E0,7.6077437E0,7.549515E-1,0E0,3.8212543E0,3.31713E0,5.199802E0,0E0,0E0,0E0,0E0,0E0,0E0,0E0,0E0,0E0],"parents":[2147483647,0,0,1,1,2,2,3,3,4,4,6,6,7,7,9,9,10,10,11,11],"right_children":[2,4,6,8,10,-1,12,14,-1,16,18,20,-1,-1,-1,-1,-1,-1,-1,-1,-1],"split_conditions":[1.3234182E-2,2.7655092E-1,2.905569E-2,1.8504673E-1,5.446E3,1.02544546E-1,7.4742265E-2,1.4315353E-1,-2.9751053E-2,6.583541E-1,1.29E2,2.237354E-1,6.999611E-2,-3.392235E-2,-1.5104535E-1,-5.500273E-2,1.8410467E-2,5.780791E-2,-1.0334116E-2,-3.340499E-2,5.5508006E-2],"split_indices":[3,17,3,1,13,0,3,1,0,2,7,1,0,0,0,0,0,0,0,0,0],"split_type":[0,0,0,0,0,0,0,0,0,0,0,0,0,0,0,0,0,0,0,0,0],"sum_hessian":[3.5E1,1.9E1,1.6E1,6E0,1.3E1,4E0,1.2E1,4E0,2E0,6E0,7E0,1E1,2E0,1E0,3E0,4E0,2E0,5E0,2E0,9E0,1E0],"tree_param":{"num_deleted":"0","num_feature":"18","num_nodes":"21","size_leaf_vector":"1"}},{"base_weights":[1.56834E-2,2.8908893E-1,-8.217231E-1,-1.8489274E-1,1.6373595E0,-1.7459503E0,-2.4439411E-1,6.1886835E-1,-5.82057E-1,-0E0,1.2340907E-1,-8.069382E-3,-1.09350435E-1,-1.3135269E0,3.1423798E-1,8.2175806E-2,3.851907E-3,-8.4227525E-2,5.061779E-3,1.0140191E-2,-7.974344E-3,-1.0914002E-2,-8.5100524E-2,2.3970855E-2,-1.0291443E-2],"categories":[],"categories_nodes":[],"categories_segments":[],"categories_sizes":[],"default_left":[0,0,0,0,0,0,0,0,0,0,0,0,0,0,0,0,0,0,0,0,0,0,0,0,0],"id":67,"left_children":[1,3,5,7,9,11,13,15,17,19,-1,-1,-1,21,23,-1,-1,-1,-1,-1,-1,-1,-1,-1,-1],"loss_changes":[1.0258158E1,2.2175869E1,5.2436805E0,8.65639E0,1.2423004E1,2.2077427E0,5.290704E0,4.697996E0,1.3888729E1,1.5856698E-1,0E0,0E0,0E0,7.129121E-1,6.4146185E-1,0E0,0E0,0E0,0E0,0E0,0E0,0E0,0E0,0E0,0E0],"parents":[2147483647,0,0,1,1,2,2,3,3,4,4,5,5,6,6,7,7,8,8,9,9,13,13,14,14],"right_children":[2,4,6,8,10,12,14,16,18,20,-1,-1,-1,22,24,-1,-1,-1,-1,-1,-1,-1,-1,-1,-1],"split_conditions":[7.1E1,2.3E1,7E1,6.6964286E-3,4.8E1,4.901501E-1,5.838397E-1,1.07E2,4.5E1,5.625E-1,1.2340907E-1,-8.069382E-3,-1.09350435E-1,5.5530477E-1,7.5E1,8.2175806E-2,3.851907E-3,-8.4227525E-2,5.061779E-3,1.0140191E-2,-7.974344E-3,-1.0914002E-2,-8.5100524E-2,2.3970855E-2,-1.0291443E-2],"split_indices":[6,15,5,3,6,2,2,7,8,2,0,0,0,2,5,0,0,0,0,0,0,0,0,0,0],"split_type":[0,0,0,0,0,0,0,0,0,0,0,0,0,0,0,0,0,0,0,0,0,0,0,0,0],"sum_hessian":[4.3E1,3.3E1,1E1,2.5E1,8E0,3E0,7E0,8E0,1.7E1,3E0,5E0,1E0,2E0,2E0,5E0,2E0,6E0,6E0,1.1E1,1E0,2E0,1E0,1E0,4E0,1E0],"tree_param":{"num_deleted":"0","num_feature":"18","num_nodes":"25","size_leaf_vector":"1"}},{"base_weights":[9.0141445E-2,1.3138406E-1,-3.6489066E-2,1.1530898E-1,-1.4564987E0,6.1543405E-1,-2.4911423E-1,-9.9832155E-3,-8.877777E-2,6.392733E-4,9.5935196E-2,9.876831E-3,-5.3397264E-2],"categories":[],"categories_nodes":[],"categories_segments":[],"categories_sizes":[],"default_left":[0,0,0,0,0,0,0,0,0,0,0,0,0],"id":68,"left_children":[1,-1,3,5,7,9,11,-1,-1,-1,-1,-1,-1],"loss_changes":[1.3529528E1,0E0,8.924253E0,6.9334607E0,1.0519695E0,1.2348939E1,8.344094E0,0E0,0E0,0E0,0E0,0E0,0E0],"parents":[2147483647,0,0,2,2,3,3,4,4,5,5,6,6],"right_children":[2,-1,4,6,8,10,12,-1,-1,-1,-1,-1,-1],"split_conditions":[1.1048799E-1,1.3138406E-1,1.0269E4,5.8994526E-1,1.474666E-1,1.038961E-2,3.17757E-2,-9.9832155E-3,-8.877777E-2,6.392733E-4,9.5935196E-2,9.876831E-3,-5.3397264E-2],"split_indices":[0,0,13,2,0,3,3,0,0,0,0,0,0],"split_type":[0,0,0,0,0,0,0,0,0,0,0,0,0],"sum_hessian":[4E1,1E0,3.9E1,3.6E1,3E0,1.5E1,2.1E1,1E0,2E0,1.1E1,4E0,1.4E1,7E0],"tree_param":{"num_deleted":"0","num_feature":"18","num_nodes":"13","size_leaf_vector":"1"}},{"base_weights":[3.6752433E-2,1.1349372E0,-5.100811E-1,-1.9870423E-1,1.6982641E0,-1.07305884E-1,-2.2391199E-1,5.5339434E-3,-3.287197E-1,1.1875296E-1,8.345576E-1,-6.0115E-1,6.4036256E-1,-2.1906001E-2,-0E0,1.8752797E-3,5.993536E-2,2.8680211E-2,-4.405039E-2,7.010672E-2,-2.2347145E-2],"categories":[],"categories_nodes":[],"categories_segments":[],"categories_sizes":[],"default_left":[0,0,0,0,0,0,0,0,0,0,0,0,0,0,0,0,0,0,0,0,0],"id":69,"left_children":[1,3,5,7,9,-1,11,-1,13,-1,15,17,19,-1,-1,-1,-1,-1,-1,-1,-1],"loss_changes":[2.526289E1,1.1005276E1,1.2391584E1,2.5930938E-1,3.5424366E0,0E0,8.531963E0,0E0,1.4362085E-1,0E0,1.5728974E0,6.453844E0,7.348423E0,0E0,0E0,0E0,0E0,0E0,0E0,0E0,0E0],"parents":[2147483647,0,0,1,1,2,2,3,3,4,4,6,6,8,8,10,10,11,11,12,12],"right_children":[2,4,6,8,10,-1,12,-1,14,-1,16,18,20,-1,-1,-1,-1,-1,-1,-1,-1],"split_conditions":[1.768868E-1,9.6E1,2.5208333E-1,1.5732759E-1,5.5E1,-1.07305884E-1,2.4388242E-1,5.5339434E-3,1.3714285E-1,1.1875296E-1,1.8181819E-1,1.9855716E-3,2.611607E-1,-2.1906001E-2,-0E0,1.8752797E-3,5.993536E-2,2.8680211E-2,-4.405039E-2,7.010672E-2,-2.2347145E-2],"split_indices":[0,10,17,1,6,0,0,0,0,0,1,3,0,0,0,0,0,0,0,0,0],"split_type":[0,0,0,0,0,0,0,0,0,0,0,0,0,0,0,0,0,0,0,0,0],"sum_hessian":[4E1,1.3E1,2.7E1,4E0,9E0,3E0,2.4E1,1E0,3E0,4E0,5E0,1.7E1,7E0,2E0,1E0,2E0,3E0,3E0,1.4E1,4E0,3E0],"tree_param":{"num_deleted":"0","num_feature":"18","num_nodes":"21","size_leaf_vector":"1"}},{"base_weights":[-0E0,-5.9092844E-1,6.855492E-1,-1.6521834E0,1.2637319E-1,1.8572407E0,-0E0,-2.3164367E-2,-2.4461656E0,7.043627E-1,-5.3795385E-1,1.1995454E-1,-3.23465E-2,8.822751E-1,-4.8740286E-1,9.15371E-3,-9.313431E-3,-1.4479347E-1,-2.4411774E-3,4.3586396E-2,-9.179841E-3,-1.2026214E-3,-3.5935197E-2,-0E0,5.514868E-2,-1.221199E-3,-5.1751025E-2],"categories":[],"categories_nodes":[],"categories_segments":[],