{"learner":{"attributes":{},"feature_names":["deep_sleep_pct","rem_sleep_pct","light_sleep_pct","awake_sleep_pct","sleep_efficiency","hr_restingHeartRate","hr_lastSevenDaysAvgRestingHeartRate","hr_maxHeartRate","hr_minHeartRate","str_avgStressLevel","str_maxStressLevel","act_totalCalories","act_activeKilocalories","act_distance","resp_lowestRespirationValue","resp_highestRespirationValue","resp_avgSleepRespirationValue","sleep_day_ptc"],"feature_types":["float","float","float","float","float","float","float","float","float","int","float","float","float","float","float","float","float","float"],"gradient_booster":{"model":{"cats":{"enc":[],"feature_segments":[],"sorted_idx":[]},"gbtree_model_param":{"num_parallel_tree":"1","num_trees":"315"},"iteration_indptr":[0,1,2,3,4,5,6,7,8,9,10,11,12,13,14,15,16,17,18,19,20,21,22,23,24,25,26,27,28,29,30,31,32,33,34,35,36,37,38,39,40,41,42,43,44,45,46,47,48,49,50,51,52,53,54,55,56,57,58,59,60,61,62,63,64,65,66,67,68,69,70,71,72,73,74,75,76,77,78,79,80,81,82,83,84,85,86,87,88,89,90,91,92,93,94,95,96,97,98,99,100,101,102,103,104,105,106,107,108,109,110,111,112,113,114,115,116,117,118,119,120,121,122,123,124,125,126,127,128,129,130,131,132,133,134,135,136,137,138,139,140,141,142,143,144,145,146,147,148,149,150,151,152,153,154,155,156,157,158,159,160,161,162,163,164,165,166,167,168,169,170,171,172,173,174,175,176,177,178,179,180,181,182,183,184,185,186,187,188,189,190,191,192,193,194,195,196,197,198,199,200,201,202,203,204,205,206,207,208,209,210,211,212,213,214,215,216,217,218,219,220,221,222,223,224,225,226,227,228,229,230,231,232,233,234,235,236,237,238,239,240,241,242,243,244,245,246,247,248,249,250,251,252,253,254,255,256,257,258,259,260,261,262,263,264,265,266,267,268,269,270,271,272,273,274,275,276,277,278,279,280,281,282,283,284,285,286,287,288,289,290,291,292,293,294,295,296,297,298,299,300,301,302,303,304,305,306,307,308,309,310,311,312,313,314,315],"tree_info":[0,0,0,0,0,0,0,0,0,0,0,0,0,0,0,0,0,0,0,0,0,0,0,0,0,0,0,0,0,0,0,0,0,0,0,0,0,0,0,0,0,0,0,0,0,0,0,0,0,0,0,0,0,0,0,0,0,0,0,0,0,0,0,0,0,0,0,0,0,0,0,0,0,0,0,0,0,0,0,0,0,0,0,0,0,0,0,0,0,0,0,0,0,0,0,0,0,0,0,0,0,0,0,0,0,0,0,0,0,0,0,0,0,0,0,0,0,0,0,0,0,0,0,0,0,0,0,0,0,0,0,0,0,0,0,0,0,0,0,0,0,0,0,0,0,0,0,0,0,0,0,0,0,0,0,0,0,0,0,0,0,0,0,0,0,0,0,0,0,0,0,0,0,0,0,0,0,0,0,0,0,0,0,0,0,0,0,0,0,0,0,0,0,0,0,0,0,0,0,0,0,0,0,0,0,0,0,0,0,0,0,0,0,0,0,0,0,0,0,0,0,0,0,0,0,0,0,0,0,0,0,0,0,0,0,0,0,0,0,0,0,0,0,0,0,0,0,0,0,0,0,0,0,0,0,0,0,0,0,0,0,0,0,0,0,0,0,0,0,0,0,0,0,0,0,0,0,0,0,0,0,0,0,0,0,0,0,0,0,0,0,0,0,0,0,0,0,0,0,0,0,0,0,0,0,0,0,0,0,0,0,0,0,0,0],"trees":[{"base_weights":[1.0898744E0,5.471635E0,-4.4368196E0,9.937878E0,3.8531802E0,-1.0783638E1,-2.169888E0,5.488181E-1,1.1613633E-1,5.2657187E-1,8.764771E0,-7.082955E-1,6.613632E-2,5.7768446E-1,-6.8621225E0,2.0522721E-1,-1.1051144E-1,4.9689388E-1,1.7318176E-1,1.3856053E-1,-8.4772795E-2,6.5150964E-3,-5.207955E-1],"categories":[],"categories_nodes":[],"categories_segments":[],"categories_sizes":[],"default_left":[1,0,0,0,0,0,0,0,0,1,0,0,0,0,0,0,0,0,0,0,0,0,0],"id":0,"left_children":[1,3,5,7,9,11,13,-1,-1,15,17,-1,-1,19,21,-1,-1,-1,-1,-1,-1,-1,-1],"loss_changes":[1.0899126E3,1.4103876E2,2.630614E2,2.0624329E1,3.2123434E2,2.2475708E2,2.1086865E2,0E0,0E0,1.3655997E2,1.3989014E1,0E0,0E0,5.9654163E1,1.514833E2,0E0,0E0,0E0,0E0,0E0,0E0,0E0,0E0],"parents":[2147483647,0,0,1,1,2,2,3,3,4,4,5,5,6,6,9,9,10,10,13,13,14,14],"right_children":[2,4,6,8,10,12,14,-1,-1,16,18,-1,-1,20,22,-1,-1,-1,-1,-1,-1,-1,-1],"split_conditions":[2.2099448E-2,1.08E2,2.605E3,8E0,3.2E1,6.1E1,5.551E3,5.488181E-1,1.1613633E-1,2.0360824E-1,8.448601E-1,-7.082955E-1,6.613632E-2,1.8275154E-1,2.951389E-1,2.0522721E-1,-1.1051144E-1,4.9689388E-1,1.7318176E-1,1.3856053E-1,-8.4772795E-2,6.5150964E-3,-5.207955E-1],"split_indices":[3,7,13,14,9,5,13,0,0,0,0,0,0,0,17,0,0,0,0,0,0,0,0],"split_type":[0,0,0,0,0,0,0,0,0,0,0,0,0,0,0,0,0,0,0,0,0,0,0],"sum_hessian":[4.3E1,2.4E1,1.9E1,5E0,1.9E1,4E0,1.5E1,4E0,1E0,1.2E1,7E0,3E0,1E0,1E1,5E0,5E0,7E0,5E0,2E0,5E0,5E0,2E0,3E0],"tree_param":{"num_deleted":"0","num_feature":"18","num_nodes":"23","size_leaf_vector":"1"}},{"base_weights":[8.6812484E-1,3.8362765E0,-2.7320635E0,7.4139214E-1,6.861045E0,-7.139892E-1,-6.5010655E-1,2.5070205E0,-3.8330264E0,8.138444E0,1.7124991E-1,3.3236063E0,-3.4900699E0,3.1449714E-1,-5.2329242E-2,-2.1980119E-1,-5.1100887E-2,4.8018557E-1,1.23088054E-1,2.2544837E-1,4.9300175E-2,-3.2266945E-1,6.682952E-2],"categories":[],"categories_nodes":[],"categories_segments":[],"categories_sizes":[],"default_left":[1,0,0,0,0,0,0,0,0,0,0,0,0,0,0,0,0,0,0,0,0,0,0],"id":1,"left_children":[1,3,5,7,9,-1,11,13,15,17,-1,19,21,-1,-1,-1,-1,-1,-1,-1,-1,-1,-1],"loss_changes":[4.7008533E2,2.1882443E2,4.700608E2,1.1447427E2,2.3639954E1,0E0,2.1474983E2,1.4153741E2,1.2957382E0,4.1694275E1,0E0,1.7171867E1,1.6646947E2,0E0,0E0,0E0,0E0,0E0,0E0,0E0,0E0,0E0,0E0],"parents":[2147483647,0,0,1,1,2,2,3,3,4,4,6,6,7,7,8,8,9,9,11,11,12,12],"right_children":[2,4,6,8,10,-1,12,14,16,18,-1,20,22,-1,-1,-1,-1,-1,-1,-1,-1,-1,-1],"split_conditions":[2.2099448E-2,3.1041667E-1,2.3335572E-2,7.684E3,6.486368E-1,-7.139892E-1,4.474273E-2,1.7020793E-3,1.7020793E-3,2.5537634E-1,1.7124991E-1,3.341E3,6.782407E-1,3.1449714E-1,-5.2329242E-2,-2.1980119E-1,-5.1100887E-2,4.8018557E-1,1.23088054E-1,2.2544837E-1,4.9300175E-2,-3.2266945E-1,6.682952E-2],"split_indices":[3,17,3,13,2,0,3,3,3,0,0,13,2,0,0,0,0,0,0,0,0,0,0],"split_type":[0,0,0,0,0,0,0,0,0,0,0,0,0,0,0,0,0,0,0,0,0,0,0],"sum_hessian":[4.2E1,2.3E1,1.9E1,1.2E1,1.1E1,2E0,1.7E1,9E0,3E0,7E0,4E0,7E0,1E1,4E0,5E0,2E0,1E0,5E0,2E0,4E0,3E0,6E0,4E0],"tree_param":{"num_deleted":"0","num_feature":"18","num_nodes":"23","size_leaf_vector":"1"}},{"base_weights":[-8.960524E-1,5.2280827E0,-6.9822803E0,6.4108896E0,-3.9723887E0,-1.515912E1,-1.8039234E0,9.4873506E-1,4.7548756E-1,-2.4560581E-1,-4.982334E-2,1.100174E-2,-8.7009305E-1,-9.910862E0,2.4199386E0,-7.3631935E-2,1.3580436E-1,-1.9246137E-1,-6.3177717E-1,2.2977173E-1,-3.2732226E-2],"categories":[],"categories_nodes":[],"categories_segments":[],"categories_sizes":[],"default_left":[1,0,0,1,0,0,0,0,0,0,0,0,0,0,0,0,0,0,0,0,0],"id":2,"left_children":[1,3,5,7,9,11,13,15,-1,-1,-1,-1,-1,17,19,-1,-1,-1,-1,-1,-1],"loss_changes":[1.5648674E3,2.5424042E2,8.601522E2,3.1153473E2,2.904049E0,2.8147888E2,5.0412906E2,3.8359516E1,0E0,0E0,0E0,0E0,0E0,3.2294556E1,7.028989E1,0E0,0E0,0E0,0E0,0E0,0E0],"parents":[2147483647,0,0,1,1,2,2,3,3,4,4,5,5,6,6,7,7,13,13,14,14],"right_children":[2,4,6,8,10,12,14,16,-1,-1,-1,-1,-1,18,20,-1,-1,-1,-1,-1,-1],"split_conditions":[2.1352313E-2,2.776E3,1.6169754E-1,1.7992178E-1,2.9850745E-1,1.18257076E-1,2.3E1,1.11E2,4.7548756E-1,-2.4560581E-1,-4.982334E-2,1.100174E-2,-8.7009305E-1,1.3659793E-1,3E1,-7.3631935E-2,1.3580436E-1,-1.9246137E-1,-6.3177717E-1,2.2977173E-1,-3.2732226E-2],"split_indices":[3,11,0,1,0,0,15,7,0,0,0,0,0,1,9,0,0,0,0,0,0],"split_type":[0,0,0,0,0,0,0,0,0,0,0,0,0,0,0,0,0,0,0,0,0],"sum_hessian":[4E1,2E1,2E1,1.8E1,2E0,7E0,1.3E1,7E0,1.1E1,1E0,1E0,1E0,6E0,4E0,9E0,3E0,4E0,2E0,2E0,5E0,4E0],"tree_param":{"num_deleted":"0","num_feature":"18","num_nodes":"21","size_leaf_vector":"1"}},{"base_weights":[-3.1511623E-1,4.6799827E0,-5.1098223E0,-7.485845E-1,6.079554E0,-8.7540907E-1,-2.7270722E0,5.7641566E-2,-6.897169E-2,6.9089317E0,-2.3946567E-1,3.1405735E0,-4.988628E0,9.096419E-2,4.0691096E-1,2.2126272E-1,8.608252E-2,-7.658813E-1,-1.2917933E-1],"categories":[],"categories_nodes":[],"categories_segments":[],"categories_sizes":[],"default_left":[1,0,0,0,1,0,0,0,0,1,0,0,0,0,0,0,0,0,0],"id":3,"left_children":[1,3,5,7,9,-1,11,-1,-1,13,-1,15,17,-1,-1,-1,-1,-1,-1],"loss_changes":[1.2214584E3,1.9502582E2,7.183273E2,8.809957E0,2.1358899E2,0E0,3.2106216E2,0E0,0E0,1.03074646E2,0E0,4.526619E0,3.809439E2,0E0,0E0,0E0,0E0,0E0,0E0],"parents":[2147483647,0,0,1,1,2,2,3,3,4,4,6,6,9,9,11,11,12,12],"right_children":[2,4,6,8,10,-1,12,-1,-1,14,-1,16,18,-1,-1,-1,-1,-1,-1],"split_conditions":[2.1352313E-2,1.7283726E-1,2.3335572E-2,5E1,2.890443E-1,-8.7540907E-1,3.837472E-2,5.7641566E-2,-6.897169E-2,2.1875E-1,-2.3946567E-1,2.4E1,4.0954415E-2,9.096419E-2,4.0691096E-1,2.2126272E-1,8.608252E-2,-7.658813E-1,-1.2917933E-1],"split_indices":[3,1,3,5,1,0,3,0,0,17,0,9,3,0,0,0,0,0,0],"split_type":[0,0,0,0,0,0,0,0,0,0,0,0,0,0,0,0,0,0,0],"sum_hessian":[4.9E1,2.4E1,2.5E1,5E0,1.9E1,3E0,2.2E1,1E0,4E0,1.8E1,1E0,6E0,1.6E1,4E0,1.4E1,2E0,4E0,2E0,1.4E1],"tree_param":{"num_deleted":"0","num_feature":"18","num_nodes":"19","size_leaf_vector":"1"}},{"base_weights":[-2.9116422E-1,4.3105216E0,-5.4847584E0,-1.0999652E0,5.655874E0,-1.1290769E1,-1.4238375E-1,5.6200564E-2,-8.9478135E-2,6.410626E0,-2.3347907E-1,2.2774196E0,-1.4570079E1,-4.0502903E-1,2.0318866E0,4.0998966E-1,1.3447003E-1,1.432243E-1,2.508217E-2,-9.3273E-1,-2.3878896E-1,1.5841602E-1,-1.01068854E-1],"categories":[],"categories_nodes":[],"categories_segments":[],"categories_sizes":[],"default_left":[1,0,0,0,1,0,0,0,0,0,0,0,0,0,0,0,0,0,0,0,0,0,0],"id":4,"left_children":[1,3,5,7,9,11,13,-1,-1,15,-1,17,19,-1,21,-1,-1,-1,-1,-1,-1,-1,-1],"loss_changes":[1.1709254E3,1.9593109E2,7.1066034E2,1.1279934E1,1.9376538E2,5.2384875E2,2.4200885E2,0E0,0E0,1.1001636E2,0E0,1.3539324E0,2.6861194E2,0E0,5.718799E1,0E0,0E0,0E0,0E0,0E0,0E0,0E0,0E0],"parents":[2147483647,0,0,1,1,2,2,3,3,4,4,5,5,6,6,9,9,11,11,12,12,14,14],"right_children":[2,4,6,8,10,12,14,-1,-1,16,-1,18,20,-1,22,-1,-1,-1,-1,-1,-1,-1,-1],"split_conditions":[2.1352313E-2,1.7283726E-1,8E0,5E1,2.890443E-1,9E1,1.5E1,5.6200564E-2,-8.9478135E-2,9.5E1,-2.3347907E-1,1.7079931E-1,4.0954415E-2,-4.0502903E-1,5.528E3,4.0998966E-1,1.3447003E-1,1.432243E-1,2.508217E-2,-9.3273E-1,-2.3878896E-1,1.5841602E-1,-1.01068854E-1],"split_indices":[3,1,14,5,1,10,16,0,0,10,0,1,3,0,13,0,0,0,0,0,0,0,0],"split_type":[0,0,0,0,0,0,0,0,0,0,0,0,0,0,0,0,0,0,0,0,0,0,0],"sum_hessian":[4.7E1,2.5E1,2.2E1,5E0,2E1,1E1,1.2E1,1E0,4E0,1.9E1,1E0,2E0,8E0,2E0,1E1,1.2E1,7E0,1E0,1E0,5E0,3E0,8E0,2E0],"tree_param":{"num_deleted":"0","num_feature":"18","num_nodes":"23","size_leaf_vector":"1"}},{"base_weights":[-1.4021043E-1,3.7444038E0,-4.3339853E0,4.5155635E0,-1.9483627E-1,-8.0760366E-1,-1.9836977E0,9.307895E-1,6.8366933E0,4.0658493E0,-4.5126433E0,-1.9748023E-2,1.3103408E-1,3.8192254E-1,5.250903E-2,2.540315E-1,4.9296543E-2,1.13015436E-1,-3.1285974E-1],"categories":[],"categories_nodes":[],"categories_segments":[],"categories_sizes":[],"default_left":[1,0,0,1,0,0,0,0,0,0,0,0,0,0,0,0,0,0,0],"id":5,"left_children":[1,3,5,7,-1,-1,9,11,13,15,17,-1,-1,-1,-1,-1,-1,-1,-1],"loss_changes":[8.471383E2,1.7675607E2,6.605432E2,2.008778E2,0E0,0E0,3.5496985E2,2.5901752E1,6.0700134E1,1.6262291E1,2.035951E2,0E0,0E0,0E0,0E0,0E0,0E0,0E0,0E0],"parents":[2147483647,0,0,1,1,2,2,3,3,6,6,7,7,8,8,9,9,10,10],"right_children":[2,4,6,8,-1,-1,10,12,14,16,18,-1,-1,-1,-1,-1,-1,-1,-1],"split_conditions":[2.1352313E-2,2.776E3,2.3335572E-2,1.7992178E-1,-1.9483627E-1,-8.0760366E-1,9.2E1,3.968254E-3,1.6E1,1.7992178E-1,3.837472E-2,-1.9748023E-2,1.3103408E-1,3.8192254E-1,5.250903E-2,2.540315E-1,4.9296543E-2,1.13015436E-1,-3.1285974E-1],"split_indices":[3,11,3,1,0,0,10,3,16,1,3,0,0,0,0,0,0,0,0],"split_type":[0,0,0,0,0,0,0,0,0,0,0,0,0,0,0,0,0,0,0],"sum_hessian":[5E1,2.6E1,2.4E1,2.4E1,2E0,3E0,2.1E1,1E1,1.4E1,6E0,1.5E1,6E0,4E0,1.2E1,2E0,4E0,2E0,3E0,1.2E1],"tree_param":{"num_deleted":"0","num_feature":"18","num_nodes":"19","size_leaf_vector":"1"}},{"base_weights":[-7.783477E-1,-8.349053E0,1.6909496E0,2.7326946E0,-7.5430757E-1,-1.7966269E0,3.940241E0,1.7817268E-2,1.6063479E-1,-4.209314E0,3.3680723E0,7.28898E0,2.7176566E0,-7.2931126E-2,-2.891669E-1,5.6496914E-2,2.225091E-1,2.3222694E-2,4.426999E-1,1.9543086E-1,-4.5118622E-2],"categories":[],"categories_nodes":[],"categories_segments":[],"categories_sizes":[],"default_left":[0,0,0,0,0,0,0,0,0,0,0,0,1,0,0,0,0,0,0,0,0],"id":6,"left_children":[1,3,5,7,-1,9,11,-1,-1,13,15,17,19,-1,-1,-1,-1,-1,-1,-1,-1],"loss_changes":[8.3733374E2,8.637083E2,2.740091E2,4.201519E0,0E0,1.8871262E2,6.516684E1,0E0,0E0,3.4136627E1,6.523094E0,4.83584E1,7.711995E1,0E0,0E0,0E0,0E0,0E0,0E0,0E0,0E0],"parents":[2147483647,0,0,1,1,2,2,3,3,5,5,6,6,9,9,10,10,11,11,12,12],"right_children":[2,4,6,8,-1,10,12,-1,-1,14,16,18,20,-1,-1,-1,-1,-1,-1,-1,-1],"split_conditions":[1.6169754E-1,1.3962264E-1,3.0763888E-1,1.18257076E-1,-7.5430757E-1,3.2E1,1.01E2,1.7817268E-2,1.6063479E-1,1.4672686E-1,1.9941308E-1,1.8112245E-1,2.4835165E-1,-7.2931126E-2,-2.891669E-1,5.6496914E-2,2.225091E-1,2.3222694E-2,4.426999E-1,1.9543086E-1,-4.5118622E-2],"split_indices":[0,0,17,0,0,9,7,0,0,1,0,0,0,0,0,0,0,0,0,0,0],"split_type":[0,0,0,0,0,0,0,0,0,0,0,0,0,0,0,0,0,0,0,0,0],"sum_hessian":[4.3E1,1E1,3.3E1,4E0,6E0,1.3E1,2E1,1E0,3E0,9E0,4E0,4E0,1.6E1,4E0,5E0,2E0,2E0,1E0,3E0,1.2E1,4E0],"tree_param":{"num_deleted":"0","num_feature":"18","num_nodes":"21","size_leaf_vector":"1"}},{"base_weights":[-2.2500624E-1,-1.0556491E1,1.9533328E0,2.0194495E0,-7.5508565E-1,3.6682117E0,-3.2051497E0,1.7371902E-2,1.315868E-1,5.4883137E0,1.5968957E0,-5.9815217E-2,-5.245496E-1,1.060796E-1,4.5093128E-1,-1.904546E-2,2.8243437E-1,1.6057342E-1,-8.510773E-2],"categories":[],"categories_nodes":[],"categories_segments":[],"categories_sizes":[],"default_left":[0,0,1,0,0,0,0,0,0,0,0,0,0,0,0,0,0,0,0],"id":7,"left_children":[1,3,5,7,-1,9,11,-1,-1,13,15,17,-1,-1,-1,-1,-1,-1,-1],"loss_changes":[1.0342272E3,4.8908875E2,3.4795807E2,1.8589678E0,0E0,9.985739E1,2.2748149E2,0E0,0E0,1.5803583E2,1.22883224E2,4.8295948E1,0E0,0E0,0E0,0E0,0E0,0E0,0E0],"parents":[2147483647,0,0,1,1,2,2,3,3,5,5,6,6,9,9,10,10,11,11],"right_children":[2,4,6,8,-1,10,12,-1,-1,14,16,18,-1,-1,-1,-1,-1,-1,-1],"split_conditions":[1.5306123E-1,1.3962264E-1,3.837472E-2,1.18257076E-1,-7.5508565E-1,2.5537634E-1,1.44E2,1.7371902E-2,1.315868E-1,2.043956E-1,3.2E1,9.2E1,-5.245496E-1,1.060796E-1,4.5093128E-1,-1.904546E-2,2.8243437E-1,1.6057342E-1,-8.510773E-2],"split_indices":[0,0,3,0,0,0,7,0,0,0,9,10,0,0,0,0,0,0,0],"split_type":[0,0,0,0,0,0,0,0,0,0,0,0,0,0,0,0,0,0,0],"sum_hessian":[4.4E1,7E0,3.7E1,2E0,5E0,2.8E1,9E0,1E0,1E0,1.4E1,1.4E1,7E0,2E0,8E0,6E0,1E1,4E0,2E0,5E0],"tree_param":{"num_deleted":"0","num_feature":"18","num_nodes":"19","size_leaf_vector":"1"}},{"base_weights":[-5.249583E-2,-8.906346E0,2.6290495E0,2.0132957E0,-6.944046E-1,5.296424E0,1.0643633E-1,1.6937599E-2,1.2126132E-1,1.8698184E0,7.7426925E0,-2.2932572E0,3.4052103E0,2.9467314E-2,1.8870784E-1,1.526554E-1,4.316065E-1,-2.1163468E-1,5.861155E-4,2.1757224E-1,6.7305736E-2],"categories":[],"categories_nodes":[],"categories_segments":[],"categories_sizes":[],"default_left":[0,0,0,0,0,0,0,0,0,0,1,0,0,0,0,0,0,0,0,0,0],"id":8,"left_children":[1,3,5,7,-1,9,11,-1,-1,13,15,17,19,-1,-1,-1,-1,-1,-1,-1,-1],"loss_changes":[1.02120703E3,5.7313696E2,2.2094485E2,1.6612339E0,0E0,1.1867975E2,1.5040904E2,0E0,0E0,1.684698E1,1.0016418E1,4.9645695E1,9.159798E0,0E0,0E0,0E0,0E0,0E0,0E0,0E0,0E0],"parents":[2147483647,0,0,1,1,2,2,3,3,5,5,6,6,9,9,10,10,11,11,12,12],"right_children":[2,4,6,8,-1,10,12,-1,-1,14,16,18,20,-1,-1,-1,-1,-1,-1,-1,-1],"split_conditions":[1.6169754E-1,1.3962264E-1,5.2E1,1.18257076E-1,-6.944046E-1,4.9E1,6.4E1,1.6937599E-2,1.2126132E-1,3.2734954E-1,1.7992178E-1,9.4E1,1.9941308E-1,2.9467314E-2,1.8870784E-1,1.526554E-1,4.316065E-1,-2.1163468E-1,5.861155E-4,2.1757224E-1,6.7305736E-2],"split_indices":[0,0,6,0,0,8,6,0,0,17,1,10,1,0,0,0,0,0,0,0,0],"split_type":[0,0,0,0,0,0,0,0,0,0,0,0,0,0,0,0,0,0,0,0,0],"sum_hessian":[4.1E1,9E0,3.2E1,3E0,6E0,1.5E1,1.7E1,1E0,2E0,7E0,8E0,1E1,7E0,5E0,2E0,2E0,6E0,5E0,5E0,4E0,3E0],"tree_param":{"num_deleted":"0","num_feature":"18","num_nodes":"21","size_leaf_vector":"1"}},{"base_weights":[5.292574E-2,-3.9936724E0,3.6158152E0,-9.905478E0,8.489326E-2,4.4016685E0,-3.5810008E0,-2.6132407E0,-1.3099389E1,-3.1077378E0,2.8803337E0,7.821798E-1,6.2732506E0,-2.1580234E-1,-5.0272714E-2,2.5280913E-2,-1.9273667E-1,-2.9928742E-2,-7.7299184E-1,7.354022E-2,-2.6266578E-1,1.8916976E-1,7.8090884E-2,-1.6923128E-2,1.1462992E-1,3.546724E-1,1.1096733E-1],"categories":[],"categories_nodes":[],"categories_segments":[],"categories_sizes":[],"default_left":[0,0,0,0,0,1,0,0,0,0,0,0,0,0,0,0,0,0,0,0,0,0,0,0,0,0,0],"id":9,"left_children":[1,3,5,7,9,11,13,15,17,19,21,23,25,-1,-1,-1,-1,-1,-1,-1,-1,-1,-1,-1,-1,-1,-1],"loss_changes":[6.776114E2,5.3228E2,1.572355E2,1.7381378E2,1.3387592E2,1.5019357E2,8.077011E-1,1.7772093E1,1.6618542E2,7.687017E1,3.0821152E0,1.6205124E1,3.3200928E1,0E0,0E0,0E0,0E0,0E0,0E0,0E0,0E0,0E0,0E0,0E0,0E0,0E0,0E0],"parents":[2147483647,0,0,1,1,2,2,3,3,4,4,5,5,6,6,7,7,8,8,9,9,10,10,11,11,12,12],"right_children":[2,4,6,8,10,12,14,16,18,20,22,24,26,-1,-1,-1,-1,-1,-1,-1,-1,-1,-1,-1,-1,-1,-1],"split_conditions":[9.838384E-1,8E0,2.776E3,9.3E1,9.5843524E-1,1.7992178E-1,2.9850745E-1,1.8112245E-1,5.3254437E-2,1.2264151E-1,1.19E2,2.3E1,5.3E1,-2.1580234E-1,-5.0272714E-2,2.5280913E-2,-1.9273667E-1,-2.9928742E-2,-7.7299184E-1,7.354022E-2,-2.6266578E-1,1.8916976E-1,7.8090884E-2,-1.6923128E-2,1.1462992E-1,3.546724E-1,1.1096733E-1],"split_indices":[4,14,11,10,4,1,0,0,1,1,7,15,5,0,0,0,0,0,0,0,0,0,0,0,0,0,0],"split_type":[0,0,0,0,0,0,0,0,0,0,0,0,0,0,0,0,0,0,0,0,0,0,0,0,0,0,0],"sum_hessian":[4.5E1,2.1E1,2.4E1,8E0,1.3E1,2.2E1,2E0,3E0,5E0,6E0,7E0,8E0,1.4E1,1E0,1E0,1E0,2E0,1E0,4E0,2E0,4E0,3E0,4E0,5E0,3E0,1.1E1,3E0],"tree_param":{"num_deleted":"0","num_feature":"18","num_nodes":"27","size_leaf_vector":"1"}},{"base_weights":[-1.0879176E-1,3.357785E0,-3.9910061E0,4.4027528E-1,2.3478384E0,-6.6568863E-1,-2.110003E0,6.5183574E-1,6.601583E0,2.4638267E0,-3.9854283E0,-1.4576928E-1,7.5457565E-2,3.9074057E-1,1.1728374E-1,1.7313331E-1,6.7587875E-2,-6.344766E-1,-9.142235E-2],"categories":[],"categories_nodes":[],"categories_segments":[],"categories_sizes":[],"default_left":[1,0,0,0,0,0,0,0,0,0,0,0,0,0,0,0,0,0,0],"id":10,"left_children":[1,3,5,-1,7,-1,9,11,13,15,17,-1,-1,-1,-1,-1,-1,-1,-1],"loss_changes":[7.132799E2,1.3226416E2,4.087693E2,0E0,1.753306E2,0E0,1.9868484E2,6.23656E1,1.679663E1,2.6133232E0,2.7573947E2,0E0,0E0,0E0,0E0,0E0,0E0,0E0,0E0],"parents":[2147483647,0,0,1,1,2,2,4,4,6,6,7,7,8,8,9,9,10,10],"right_children":[2,4,6,-1,8,-1,10,12,14,16,18,-1,-1,-1,-1,-1,-1,-1,-1],"split_conditions":[2.1352313E-2,1.02E2,2.3335572E-2,4.4027528E-1,3.2E1,-6.6568863E-1,3.837472E-2,2.1E1,8.448601E-1,2.4E1,4.0954415E-2,-1.4576928E-1,7.5457565E-2,3.9074057E-1,1.1728374E-1,1.7313331E-1,6.7587875E-2,-6.344766E-1,-9.142235E-2],"split_indices":[3,7,3,0,9,0,3,15,0,9,3,0,0,0,0,0,0,0,0],"split_type":[0,0,0,0,0,0,0,0,0,0,0,0,0,0,0,0,0,0,0],"sum_hessian":[5.1E1,2.7E1,2.4E1,3E0,2.4E1,3E0,2.1E1,1.8E1,6E0,6E0,1.5E1,3E0,1.5E1,4E0,2E0,2E0,4E0,2E0,1.3E1],"tree_param":{"num_deleted":"0","num_feature":"18","num_nodes":"19","size_leaf_vector":"1"}},{"base_weights":[1.3970066E-2,3.6008897E0,-4.644724E0,6.4431816E-1,5.402227E0,-6.407253E-1,-2.4433208E0,-6.329945E-2,1.5314319E0,6.924446E0,-3.4688716E0,-4.0114522E-1,-7.244313E0,-3.5382804E-2,9.833406E-2,3.745563E-1,1.15812145E-1,-5.0902333E-2,-2.0676303E-1,-1.7161903E-1,1.3365553E-1,-4.8836023E-1,6.86813E-2],"categories":[],"categories_nodes":[],"categories_segments":[],"categories_sizes":[],"default_left":[1,1,0,0,0,0,0,0,0,0,0,0,0,0,0,0,0,0,0,0,0,0,0],"id":11,"left_children":[1,3,5,7,9,-1,11,-1,13,15,17,19,21,-1,-1,-1,-1,-1,-1,-1,-1,-1,-1],"loss_changes":[7.685869E2,1.3438498E2,3.2686395E2,2.0606577E1,2.4042566E2,0E0,1.6300537E2,0E0,9.314127E0,1.8227295E1,1.743927E-1,1.3039536E2,1.2296643E2,0E0,0E0,0E0,0E0,0E0,0E0,0E0,0E0,0E0,0E0],"parents":[2147483647,0,0,1,1,2,2,3,3,4,4,6,6,8,8,9,9,10,10,11,11,12,12],"right_children":[2,4,6,8,10,-1,12,-1,14,16,18,20,22,-1,-1,-1,-1,-1,-1,-1,-1,-1,-1],"split_conditions":[2.1352313E-2,1.7992178E-1,2.3335572E-2,1.11E2,5.87E2,-6.407253E-1,4.38E2,-6.329945E-2,6.122449E-2,8E0,2.3318386E-1,2.3E1,1.6680378E-1,-3.5382804E-2,9.833406E-2,3.745563E-1,1.15812145E-1,-5.0902333E-2,-2.0676303E-1,-1.7161903E-1,1.3365553E-1,-4.8836023E-1,6.86813E-2],"split_indices":[3,1,3,7,12,0,12,0,1,14,1,15,1,0,0,0,0,0,0,0,0,0,0],"split_type":[0,0,0,0,0,0,0,0,0,0,0,0,0,0,0,0,0,0,0,0,0,0,0],"sum_hessian":[4.4E1,2.5E1,1.9E1,1E1,1.5E1,3E0,1.6E1,3E0,7E0,1.3E1,2E0,1.2E1,4E0,1E0,6E0,1.1E1,2E0,1E0,1E0,6E0,6E0,3E0,1E0],"tree_param":{"num_deleted":"0","num_feature":"18","num_nodes":"23","size_leaf_vector":"1"}},{"base_weights":[-1.0626581E0,-4.6312857E0,2.1162405E0,1.9120634E0,-7.818986E0,6.2527937E-1,5.846529E0,-2.0528369E-1,3.3725507E0,-1.2117339E1,-2.5307596E0,2.87047E0,-6.2407553E-1,3.4219924E-1,1.10096335E-1,3.953537E-2,2.1135734E-1,-1.8263204E-1,-7.1567327E-1,-2.6310858E-1,7.455977E-2,-1.7697677E-2,1.7417665E-1,-6.997862E-2,2.1454711E-1],"categories":[],"categories_nodes":[],"categories_segments":[],"categories_sizes":[],"default_left":[0,0,0,0,0,0,0,0,0,0,0,0,1,0,0,0,0,0,0,0,0,0,0,0,0],"id":12,"left_children":[1,3,5,7,9,11,13,-1,15,17,19,21,23,-1,-1,-1,-1,-1,-1,-1,-1,-1,-1,-1,-1],"loss_changes":[5.3189044E2,4.7442224E2,1.3473999E2,8.4083916E1,3.088291E2,5.531179E1,9.472763E0,0E0,1.1600807E1,9.4637695E1,9.610894E1,1.53833885E1,5.5266888E1,0E0,0E0,0E0,0E0,0E0,0E0,0E0,0E0,0E0,0E0,0E0,0E0],"parents":[2147483647,0,0,1,1,2,2,3,3,4,4,5,5,6,6,8,8,9,9,10,10,11,11,12,12],"right_children":[2,4,6,8,10,12,14,-1,16,18,20,22,24,-1,-1,-1,-1,-1,-1,-1,-1,-1,-1,-1,-1],"split_conditions":[9.838384E-1,9.2E1,3.2E1,8.929385E-1,8E0,1.9939578E-1,8.448601E-1,-2.0528369E-1,6.0780287E-1,9.3573517E-1,7.534517E-1,1.9E1,3.7142858E-1,3.4219924E-1,1.10096335E-1,3.953537E-2,2.1135734E-1,-1.8263204E-1,-7.1567327E-1,-2.6310858E-1,7.455977E-2,-1.7697677E-2,1.7417665E-1,-6.997862E-2,2.1454711E-1],"split_indices":[4,10,9,4,14,0,0,0,2,4,2,9,0,0,0,0,0,0,0,0,0,0,0,0,0],"split_type":[0,0,0,0,0,0,0,0,0,0,0,0,0,0,0,0,0,0,0,0,0,0,0,0,0],"sum_hessian":[4.5E1,2.1E1,2.4E1,7E0,1.4E1,1.8E1,6E0,1E0,6E0,7E0,7E0,6E0,1.2E1,4E0,2E0,2E0,4E0,2E0,5E0,4E0,3E0,1E0,5E0,1.1E1,1E0],"tree_param":{"num_deleted":"0","num_feature":"18","num_nodes":"25","size_leaf_vector":"1"}},{"base_weights":[-5.626854E-1,2.5767572E0,-4.1092024E0,-9.4925123E-1,3.7454572E0,1.9049549E0,-6.4898214E0,-1.5140125E0,5.8482897E-2,4.4031925E0,-1.9984452E-1,3.5734582E0,-2.0015159E-1,-1.1227883E1,-1.5460085E0,-1.7255172E-2,-8.293868E-2,1.4561026E-1,3.8386595E-1,2.0290306E-1,2.62611E-2,-6.858534E-1,-1.2367755E-1,7.55513E-2,-1.671515E-1],"categories":[],"categories_nodes":[],"categories_segments":[],"categories_sizes":[],"default_left":[1,0,0,0,1,0,0,0,0,0,0,0,0,0,0,0,0,0,0,0,0,0,0,0,0],"id":13,"left_children":[1,3,5,7,9,11,13,15,-1,17,-1,19,-1,21,23,-1,-1,-1,-1,-1,-1,-1,-1,-1,-1],"loss_changes":[5.2290967E2,1.06856186E2,3.278045E2,1.0182056E1,1.143956E2,8.3264175E1,3.5614966E2,2.4243832E-1,0E0,6.445337E1,0E0,6.2733994E0,0E0,1.3878033E2,5.4676617E1,0E0,0E0,0E0,0E0,0E0,0E0,0E0,0E0,0E0,0E0],"parents":[2147483647,0,0,1,1,2,2,3,3,4,4,5,5,6,6,7,7,9,9,11,11,13,13,14,14],"right_children":[2,4,6,8,10,12,14,16,-1,18,-1,20,-1,22,24,-1,-1,-1,-1,-1,-1,-1,-1,-1,-1],"split_conditions":[2.1352313E-2,1.7283726E-1,9.2E1,3.968254E-3,2.890443E-1,9.010989E-2,8E0,1.625E-1,5.8482897E-2,6.955E3,-1.9984452E-1,1.7992178E-1,-2.0015159E-1,4.0954415E-2,1.2264151E-1,-1.7255172E-2,-8.293868E-2,1.4561026E-1,3.8386595E-1,2.0290306E-1,2.62611E-2,-6.858534E-1,-1.2367755E-1,7.55513E-2,-1.671515E-1],"split_indices":[3,1,10,3,1,3,14,0,0,13,0,1,0,3,1,0,0,0,0,0,0,0,0,0,0],"split_type":[0,0,0,0,0,0,0,0,0,0,0,0,0,0,0,0,0,0,0,0,0,0,0,0,0],"sum_hessian":[4.5E1,2.4E1,2.1E1,6E0,1.8E1,6E0,1.5E1,5E0,1E0,1.7E1,1E0,5E0,1E0,7E0,8E0,1E0,4E0,1.3E1,4E0,4E0,1E0,5E0,2E0,3E0,5E0],"tree_param":{"num_deleted":"0","num_feature":"18","num_nodes":"25","size_leaf_vector":"1"}},{"base_weights":[1.8593335E-1,-2.59584E0,2.5364366E0,3.4338121E0,-4.5771384E0,1.0807787E0,5.664069E0,1.9478689E-1,2.560459E-2,1.1296293E0,-6.427654E0,-7.4673015E-1,5.181503E0,1.23314194E-1,4.1101417E-1,7.9325184E-2,-1.4946708E-2,6.290243E-2,-3.9742565E-1,-7.129883E-2,1.9958684E-1,1.2736766E-1,3.466601E-1],"categories":[],"categories_nodes":[],"categories_segments":[],"categories_sizes":[],"default_left":[0,0,1,0,0,0,0,0,0,0,0,1,1,0,0,0,0,0,0,0,0,0,0],"id":14,"left_children":[1,3,5,7,9,11,13,-1,-1,15,17,19,21,-1,-1,-1,-1,-1,-1,-1,-1,-1,-1],"loss_changes":[3.138909E2,2.7865527E2,1.1157573E2,5.6619415E0,1.8731851E2,1.4670076E2,4.4051575E1,0E0,0E0,3.8663874E0,1.6262402E2,5.0495754E1,9.07605E0,0E0,0E0,0E0,0E0,0E0,0E0,0E0,0E0,0E0,0E0],"parents":[2147483647,0,0,1,1,2,2,3,3,4,4,5,5,6,6,9,9,10,10,11,11,12,12],"right_children":[2,4,6,8,10,12,14,-1,-1,16,18,20,22,-1,-1,-1,-1,-1,-1,-1,-1,-1,-1],"split_conditions":[9.790941E-1,9.2E1,3.3541667E-1,1.7992178E-1,8.75E-2,3.2E1,1.9939578E-1,1.9478689E-1,2.560459E-2,1.9941308E-1,2.3E1,3.7142858E-1,2.043956E-1,1.23314194E-1,4.1101417E-1,7.9325184E-2,-1.4946708E-2,6.290243E-2,-3.9742565E-1,-7.129883E-2,1.9958684E-1,1.2736766E-1,3.466601E-1],"split_indices":[4,10,17,1,1,9,0,0,0,0,9,0,0,0,0,0,0,0,0,0,0,0,0],"split_type":[0,0,0,0,0,0,0,0,0,0,0,0,0,0,0,0,0,0,0,0,0,0,0],"sum_hessian":[4.6E1,2.1E1,2.5E1,5E0,1.6E1,1.8E1,7E0,4E0,1E0,4E0,1.2E1,1.3E1,5E0,4E0,3E0,3E0,1E0,2E0,1E1,1.2E1,1E0,3E0,2E0],"tree_param":{"num_deleted":"0","num_feature":"18","num_nodes":"23","size_leaf_vector":"1"}},{"base_weights":[5.472385E-1,2.6712086E0,-2.342483E0,3.0748181E0,-1.9306599E-1,-6.194584E0,1.3632888E0,4.3720925E-1,4.6897483E0,-1.1881009E0,-9.317555E0,-2.4263607E-1,2.480162E0,-7.950234E-2,5.377468E-2,3.0148673E-1,2.5791535E-2,9.0544105E-2,-1.9121918E-1,-1.4573059E-2,-5.522241E-1,1.5187977E-1,4.2980652E-2],"categories":[],"categories_nodes":[],"categories_segments":[],"categories_sizes":[],"default_left":[1,1,0,1,0,0,0,0,0,0,0,0,0,0,0,0,0,0,0,0,0,0,0],"id":15,"left_children":[1,3,5,7,-1,9,11,13,15,17,19,-1,21,-1,-1,-1,-1,-1,-1,-1,-1,-1,-1],"loss_changes":[2.886235E2,8.298215E1,2.9442828E2,1.081853E2,0E0,1.4423029E2,8.8165726E1,1.5892252E1,8.572305E1,4.6657692E1,8.9171814E1,0E0,6.0326004E0,0E0,0E0,0E0,0E0,0E0,0E0,0E0,0E0,0E0,0E0],"parents":[2147483647,0,0,1,1,2,2,3,3,5,5,6,6,7,7,8,8,9,9,10,10,12,12],"right_children":[2,4,6,8,-1,10,12,14,16,18,20,-1,22,-1,-1,-1,-1,-1,-1,-1,-1,-1,-1],"split_conditions":[2.2099448E-2,2.890443E-1,8E0,1.7992178E-1,-1.9306599E-1,9.3E1,2.2E1,6.6071427E-1,9.5E1,7.862265E-2,5.3254437E-2,-2.4263607E-1,7.5765306E-1,-7.950234E-2,5.377468E-2,3.0148673E-1,2.5791535E-2,9.0544105E-2,-1.9121918E-1,-1.4573059E-2,-5.522241E-1,1.5187977E-1,4.2980652E-2],"split_indices":[3,1,14,1,0,10,15,2,10,3,1,0,2,0,0,0,0,0,0,0,0,0,0],"split_type":[0,0,0,0,0,0,0,0,0,0,0,0,0,0,0,0,0,0,0,0,0,0,0],"sum_hessian":[4.5E1,2.6E1,1.9E1,2.5E1,1E0,9E0,1E1,1E1,1.5E1,4E0,5E0,1E0,9E0,2E0,8E0,1.1E1,4E0,2E0,2E0,1E0,4E0,6E0,3E0],"tree_param":{"num_deleted":"0","num_feature":"18","num_nodes":"23","size_leaf_vector":"1"}},{"base_weights":[1.1181977E-1,2.9704947E0,-3.6050487E0,6.2433515E0,2.0870957E0,-6.9936433E0,4.7291017E-1,3.8070858E-1,1.650177E-2,-1.4892402E0,3.5275493E0,-2.2178498E-1,-6.2916136E-1,1.4792513E0,-2.12104E-1,-1.5861191E-1,-8.079666E-3,-1.250305E-4,2.3563872E-1,1.2075012E-1,-1.8484533E-1,2.5635246E-2,1.6040546E-1],"categories":[],"categories_nodes":[],"categories_segments":[],"categories_sizes":[],"default_left":[1,0,0,0,0,0,0,0,0,0,0,0,0,0,0,0,0,0,0,0,0,0,0],"id":16,"left_children":[1,3,5,7,9,11,13,-1,-1,15,17,19,-1,21,-1,-1,-1,-1,-1,-1,-1,-1,-1],"loss_changes":[4.887847E2,6.130867E1,2.803304E2,3.72231E1,1.1879121E2,4.1229932E2,5.3447704E1,0E0,0E0,1.4794993E1,6.742526E1,6.403517E1,0E0,1.3022295E1,0E0,0E0,0E0,0E0,0E0,0E0,0E0,0E0,0E0],"parents":[2147483647,0,0,1,1,2,2,3,3,4,4,5,5,6,6,9,9,10,10,11,11,13,13],"right_children":[2,4,6,8,10,12,14,-1,-1,16,18,20,-1,22,-1,-1,-1,-1,-1,-1,-1,-1,-1],"split_conditions":[2.1352313E-2,1.02E2,8E0,2.9E1,2.6E1,9.3E1,3.6319444E-1,3.8070858E-1,1.650177E-2,1.7020793E-3,1.63E2,9.010989E-2,-6.2916136E-1,1.6E1,-2.12104E-1,-1.5861191E-1,-8.079666E-3,-1.250305E-4,2.3563872E-1,1.2075012E-1,-1.8484533E-1,2.5635246E-2,1.6040546E-1],"split_indices":[3,7,14,9,9,10,17,0,0,3,12,3,0,16,0,0,0,0,0,0,0,0,0],"split_type":[0,0,0,0,0,0,0,0,0,0,0,0,0,0,0,0,0,0,0,0,0,0,0],"sum_hessian":[4.4E1,2.5E1,1.9E1,4E0,2.1E1,1E1,9E0,3E0,1E0,6E0,1.5E1,5E0,5E0,8E0,1E0,2E0,4E0,4E0,1.1E1,3E0,2E0,6E0,2E0],"tree_param":{"num_deleted":"0","num_feature":"18","num_nodes":"23","size_leaf_vector":"1"}},{"base_weights":[-6.280949E-3,2.5618804E0,-2.6901762E0,5.975395E0,1.0865202E0,-3.9935691E0,2.7807522E0,3.576081E-1,1.9889852E0,3.5963163E-1,3.3359066E-1,-4.2933226E-1,-2.189639E0,1.6113165E-1,2.2830734E-2,-2.94952E-2,1.811691E-1,1.0171963E-1,-1.1546129E-1,1.06666364E-1,-2.2872277E-1],"categories":[],"categories_nodes":[],"categories_segments":[],"categories_sizes":[],"default_left":[1,0,0,0,1,0,0,0,0,1,0,0,0,0,0,0,0,0,0,0,0],"id":17,"left_children":[1,3,5,7,9,11,13,-1,15,17,-1,-1,19,-1,-1,-1,-1,-1,-1,-1,-1],"loss_changes":[3.2396786E2,1.1366934E2,1.7523409E2,1.7697876E1,6.99754E1,1.375469E2,3.2955322E0,0E0,1.508558E1,8.065525E1,0E0,0E0,1.646451E2,0E0,0E0,0E0,0E0,0E0,0E0,0E0,0E0],"parents":[2147483647,0,0,1,1,2,2,3,3,4,4,5,5,6,6,8,8,9,9,12,12],"right_children":[2,4,6,8,10,12,14,-1,16,18,-1,-1,20,-1,-1,-1,-1,-1,-1,-1,-1],"split_conditions":[2.2099448E-2,1.08E2,5.6E1,2.894309E-1,4.2242503E-1,2.652E3,1.7992178E-1,3.576081E-1,3.0588236E-1,2.5537634E-1,3.3359066E-1,-4.2933226E-1,1.89E2,1.6113165E-1,2.2830734E-2,-2.94952E-2,1.811691E-1,1.0171963E-1,-1.1546129E-1,1.06666364E-1,-2.2872277E-1],"split_indices":[3,7,8,0,0,13,1,0,0,0,0,0,12,0,0,0,0,0,0,0,0],"split_type":[0,0,0,0,0,0,0,0,0,0,0,0,0,0,0,0,0,0,0,0,0],"sum_hessian":[4.5E1,2.3E1,2.2E1,6E0,1.7E1,1.8E1,4E0,4E0,2E0,1.6E1,1E0,4E0,1.4E1,3E0,1E0,1E0,1E0,1E1,6E0,5E0,9E0],"tree_param":{"num_deleted":"0","num_feature":"18","num_nodes":"21","size_leaf_vector":"1"}},{"base_weights":[-8.6189425E-1,1.7035565E0,-3.635393E0,3.2629266E-1,9.2877334E-1,-5.2318424E-1,-1.9104732E0,-1.4699705E0,1.9929355E0,-5.826129E-1,-4.1611186E-1,-2.4452515E-2,-1.8138729E-1,2.3195809E-2,1.8299136E-1,-2.0249346E-1,6.762459E-2],"categories":[],"categories_nodes":[],"categories_segments":[],"categories_sizes":[],"default_left":[1,0,0,0,0,0,0,0,0,0,0,0,0,0,0,0,0],"id":18,"left_children":[1,3,5,-1,7,-1,9,11,13,15,-1,-1,-1,-1,-1,-1,-1],"loss_changes":[3.1234308E2,7.9126884E1,2.2611533E2,0E0,5.6587555E1,0E0,1.4751154E2,1.2630407E1,3.612041E1,1.1309922E2,0E0,0E0,0E0,0E0,0E0,0E0,0E0],"parents":[2147483647,0,0,1,1,2,2,4,4,6,6,7,7,8,8,9,9],"right_children":[2,4,6,-1,8,-1,10,12,14,16,-1,-1,-1,-1,-1,-1,-1],"split_conditions":[2.1352313E-2,1.02E2,7E0,3.2629266E-1,2.6E1,-5.2318424E-1,2.415E3,2.700186E-1,2.35E3,2.605E3,-4.1611186E-1,-2.4452515E-2,-1.8138729E-1,2.3195809E-2,1.8299136E-1,-2.0249346E-1,6.762459E-2],"split_indices":[3,7,14,0,9,0,11,1,11,13,0,0,0,0,0,0,0],"split_type":[0,0,0,0,0,0,0,0,0,0,0,0,0,0,0,0,0],"sum_hessian":[4.2E1,2.2E1,2E1,2E0,2E1,3E0,1.7E1,6E0,1.4E1,1.5E1,2E0,5E0,1E0,8E0,6E0,5E0,1E1],"tree_param":{"num_deleted":"0","num_feature":"18","num_nodes":"17","size_leaf_vector":"1"}},{"base_weights":[-3.3126932E-1,-3.9471755E0,1.4843928E0,-5.5283437E0,1.758123E0,2.8661776E0,-2.0471249E0,1.0033528E-1,-6.4048667E0,1.0656621E-1,1.3462982E-2,5.261139E0,4.23615E-1,-0E0,-3.0547127E-1,8.600592E-3,-3.9483094E-1,3.0773863E-1,1.0667932E-1,-1.0565118E-1,2.208757E-1,4.2673707E-2,-7.272031E-2],"categories":[],"categories_nodes":[],"categories_segments":[],"categories_sizes":[],"default_left":[0,0,1,0,0,0,0,0,0,0,0,0,0,0,0,0,0,0,0,0,0,0,0],"id":19,"left_children":[1,3,5,7,9,11,13,-1,15,-1,-1,17,19,21,-1,-1,-1,-1,-1,-1,-1,-1,-1],"loss_changes":[2.9497705E2,1.4541208E2,1.5234326E2,9.254825E1,1.4086447E0,1.2589932E2,7.425874E1,0E0,1.1005252E2,0E0,0E0,1.6783203E1,1.3113768E2,9.987983E0,0E0,0E0,0E0,0E0,0E0,0E0,0E0,0E0,0E0],"parents":[2147483647,0,0,1,1,2,2,3,3,4,4,5,5,6,6,8,8,11,11,12,12,13,13],"right_children":[2,4,6,8,10,12,14,-1,16,-1,-1,18,20,22,-1,-1,-1,-1,-1,-1,-1,-1,-1],"split_conditions":[9.6385545E-1,5.6E1,6.5561694E-1,1.01E2,1.979798E-1,2.5537634E-1,1.736111E-1,1.0033528E-1,8.909091E-1,1.0656621E-1,1.3462982E-2,6.5E1,3.2E1,1.9939578E-1,-3.0547127E-1,8.600592E-3,-3.9483094E-1,3.0773863E-1,1.0667932E-1,-1.0565118E-1,2.208757E-1,4.2673707E-2,-7.272031E-2],"split_indices":[4,8,2,7,0,0,1,0,4,0,0,6,9,0,0,0,0,0,0,0,0,0,0],"split_type":[0,0,0,0,0,0,0,0,0,0,0,0,0,0,0,0,0,0,0,0,0,0,0],"sum_hessian":[4.3E1,1.4E1,2.9E1,1.1E1,3E0,2.1E1,8E0,1E0,1E1,2E0,1E0,1E1,1.1E1,6E0,2E0,2E0,8E0,7E0,3E0,7E0,4E0,4E0,2E0],"tree_param":{"num_deleted":"0","num_feature":"18","num_nodes":"23","size_leaf_vector":"1"}},{"base_weights":[-1.0925523E-1,-5.2442665E0,1.3393186E0,1.8331662E0,-4.7823405E-1,2.0097299E0,-1.9982374E0,2.737437E-2,1.23722814E-1,2.2934232E0,-1.7421128E-1,1.342127E0,-3.6228085E0,8.1651345E-2,2.7564788E-1,9.782692E-2,3.3260343E-4,6.6475645E-2,-2.6091334E-1],"categories":[],"categories_nodes":[],"categories_segments":[],"categories_sizes":[],"default_left":[0,0,1,0,0,1,0,0,0,1,0,0,0,0,0,0,0,0,0],"id":20,"left_children":[1,3,5,7,-1,9,11,-1,-1,13,-1,15,17,-1,-1,-1,-1,-1,-1],"loss_changes":[3.7189798E2,3.5465866E2,9.128094E1,2.465536E0,0E0,5.9305435E1,4.307695E1,0E0,0E0,5.8319977E1,0E0,2.2522597E0,4.683275E1,0E0,0E0,0E0,0E0,0E0,0E0],"parents":[2147483647,0,0,1,1,2,2,3,3,5,5,6,6,9,9,11,11,12,12],"right_children":[2,4,6,8,-1,10,12,-1,-1,14,-1,16,18,-1,-1,-1,-1,-1,-1],"split_conditions":[1.6169754E-1,1.3962264E-1,7.0393376E-2,1.3001911E-1,-4.7823405E-1,2.890443E-1,1.08E2,2.737437E-2,1.23722814E-1,2.4844721E-1,-1.7421128E-1,1.8275154E-1,5.487805E-2,8.1651345E-2,2.7564788E-1,9.782692E-2,3.3260343E-4,6.6475645E-2,-2.6091334E-1],"split_indices":[0,0,3,0,0,1,7,0,0,1,0,0,1,0,0,0,0,0,0],"split_type":[0,0,0,0,0,0,0,0,0,0,0,0,0,0,0,0,0,0,0],"sum_hessian":[4.8E1,1E1,3.8E1,4E0,6E0,3.2E1,6E0,2E0,2E0,3.1E1,1E0,2E0,4E0,2.7E1,4E0,1E0,1E0,1E0,3E0],"tree_param":{"num_deleted":"0","num_feature":"18","num_nodes":"19","size_leaf_vector":"1"}},{"base_weights":[-4.394456E-1,-5.010885E0,8.9279854E-1,1.7727262E0,-4.577383E-1,-1.9582161E0,2.2878137E0,2.6461894E-2,1.1959862E-1,2.7964088E-1,-5.614715E0,1.6605011E0,3.255188E-1,-4.9093615E-2,7.526129E-2,-1.0511714E-1,-3.6110914E-1,1.6293891E-1,-6.7713454E-2],"categories":[],"categories_nodes":[],"categories_segments":[],"categories_sizes":[],"default_left":[0,0,0,0,0,0,1,0,0,0,0,1,0,0,0,0,0,0,0],"id":21,"left_children":[1,3,5,7,-1,9,11,-1,-1,13,15,17,-1,-1,-1,-1,-1,-1,-1],"loss_changes":[2.9721863E2,3.261824E2,1.5564691E2,2.2920837E0,0E0,1.08479004E2,5.7242935E1,0E0,0E0,1.5445098E1,1.2114166E1,1.202462E2,0E0,0E0,0E0,0E0,0E0,0E0,0E0],"parents":[2147483647,0,0,1,1,2,2,3,3,5,5,6,6,9,9,10,10,11,11],"right_children":[2,4,6,8,-1,10,12,-1,-1,14,16,18,-1,-1,-1,-1,-1,-1,-1],"split_conditions":[1.6169754E-1,1.3962264E-1,1.5833333E-1,1.3001911E-1,-4.577383E-1,1.3422818E-1,3.7142858E-1,2.6461894E-2,1.1959862E-1,1.18E2,1.4672686E-1,2.5714287E-1,3.255188E-1,-4.9093615E-2,7.526129E-2,-1.0511714E-1,-3.6110914E-1,1.6293891E-1,-6.7713454E-2],"split_indices":[0,0,1,0,0,1,0,0,0,7,1,0,0,0,0,0,0,0,0],"split_type":[0,0,0,0,0,0,0,0,0,0,0,0,0,0,0,0,0,0,0],"sum_hessian":[4.7E1,1E1,3.7E1,4E0,6E0,1.2E1,2.5E1,2E0,2E0,8E0,4E0,2.3E1,2E0,4E0,4E0,2E0,2E0,1.5E1,8E0],"tree_param":{"num_deleted":"0","num_feature":"18","num_nodes":"19","size_leaf_vector":"1"}},{"base_weights":[-4.9613583E-1,2.49423E0,-1.8854907E0,-2.7744772E0,3.525914E0,1.6256506E0,-3.3344438E0,-1.6816327E-1,-3.7422523E-2,3.2275024E-1,1.4957621E0,-1.5477005E0,3.221044E0,-3.5548103E-1,-2.160216E0,3.7340406E-2,1.1101263E-1,-1.5949838E-1,1.4855448E-3,1.8540535E-2,1.8088073E-1,-7.003091E-2,-3.9332443E-1],"categories":[],"categories_nodes":[],"categories_segments":[],"categories_sizes":[],"default_left":[1,0,0,0,0,0,0,0,0,0,0,0,0,0,0,0,0,0,0,0,0,0,0],"id":22,"left_children":[1,3,5,7,9,11,13,-1,-1,-1,15,17,19,-1,21,-1,-1,-1,-1,-1,-1,-1,-1],"loss_changes":[1.957572E2,9.1392334E1,1.6839087E2,6.5029144E-1,6.685425E1,5.5779976E1,8.56718E1,0E0,0E0,0E0,2.9286823E0,1.0772923E1,6.171936E0,0E0,7.041032E1,0E0,0E0,0E0,0E0,0E0,0E0,0E0,0E0],"parents":[2147483647,0,0,1,1,2,2,3,3,4,4,5,5,6,6,10,10,11,11,12,12,14,14],"right_children":[2,4,6,8,10,12,14,-1,-1,-1,16,18,20,-1,22,-1,-1,-1,-1,-1,-1,-1,-1],"split_conditions":[2.1334852E-3,2.1E1,9.2E1,2.9850745E-1,5.2747256E-1,5E1,2.652E3,-1.6816327E-1,-3.7422523E-2,3.2275024E-1,2.429E3,1.7043121E-1,6.0780287E-1,-3.5548103E-1,6.4E1,3.7340406E-2,1.1101263E-1,-1.5949838E-1,1.4855448E-3,1.8540535E-2,1.8088073E-1,-7.003091E-2,-3.9332443E-1],"split_indices":[3,15,10,0,2,8,13,0,0,0,11,0,2,0,6,0,0,0,0,0,0,0,0],"split_type":[0,0,0,0,0,0,0,0,0,0,0,0,0,0,0,0,0,0,0,0,0,0,0],"sum_hessian":[4.5E1,1.4E1,3.1E1,2E0,1.2E1,9E0,2.2E1,1E0,1E0,4E0,8E0,3E0,6E0,4E0,1.8E1,5E0,3E0,1E0,2E0,1E0,5E0,1.7E1,1E0],"tree_param":{"num_deleted":"0","num_feature":"18","num_nodes":"23","size_leaf_vector":"1"}},{"base_weights":[3.6049355E-3,2.5557373E0,-2.9881854E0,2.3344025E-1,3.6983612E0,-6.616825E0,-1.7571521E-1,-7.142304E-2,5.8201756E-2,3.055168E-1,4.3498955E0,-1.0323097E1,-8.259335E-1,2.4912271E0,-2.4998252E0,1.5645844E-1,-8.227117E-2,1.1649956E-1,2.9067817E-1,-1.1885315E-1,-5.708446E-1,-1.3968109E-1,6.918663E-2,1.807705E-2,1.3846257E-1,-1.9741967E-1,5.986262E-2],"categories":[],"categories_nodes":[],"categories_segments":[],"categories_sizes":[],"default_left":[1,1,0,0,0,0,0,0,0,0,0,0,0,0,0,0,0,0,0,0,0,0,0,0,0,0,0],"id":23,"left_children":[1,3,5,7,9,11,13,-1,-1,15,17,19,21,23,25,-1,-1,-1,-1,-1,-1,-1,-1,-1,-1,-1,-1],"loss_changes":[3.8173056E2,7.0388306E1,2.328832E2,1.71019E1,3.799547E1,2.049851E2,9.3004234E1,0E0,0E0,2.7332285E1,2.9987122E1,2.3629822E1,2.5746286E1,2.8304558E0,4.7846085E1,0E0,0E0,0E0,0E0,0E0,0E0,0E0,0E0,0E0,0E0,0E0,0E0],"parents":[2147483647,0,0,1,1,2,2,3,3,4,4,5,5,6,6,9,9,10,10,11,11,12,12,13,13,14,14],"right_children":[2,4,6,8,10,12,14,-1,-1,16,18,20,22,24,26,-1,-1,-1,-1,-1,-1,-1,-1,-1,-1,-1,-1],"split_conditions":[2.1352313E-2,1.7992178E-1,8E0,6.6071427E-1,5E1,4.0954415E-2,4.336735E-2,-7.142304E-2,5.8201756E-2,2.0123203E-1,1.4E1,5.1E1,6.782407E-1,2.3640662E-2,5.6E1,1.5645844E-1,-8.227117E-2,1.1649956E-1,2.9067817E-1,-1.1885315E-1,-5.708446E-1,-1.3968109E-1,6.918663E-2,1.807705E-2,1.3846257E-1,-1.9741967E-1,5.986262E-2],"split_indices":[3,1,14,2,6,3,3,0,0,1,16,5,2,3,8,0,0,0,0,0,0,0,0,0,0,0,0],"split_type":[0,0,0,0,0,0,0,0,0,0,0,0,0,0,0,0,0,0,0,0,0,0,0,0,0,0,0],"sum_hessian":[4.8E1,2.6E1,2.2E1,9E0,1.7E1,9E0,1.3E1,3E0,6E0,3E0,1.4E1,5E0,4E0,6E0,7E0,1E0,2E0,7E0,7E0,1E0,4E0,2E0,2E0,1E0,5E0,5E0,2E0],"tree_param":{"num_deleted":"0","num_feature":"18","num_nodes":"27","size_leaf_vector":"1"}},{"base_weights":[-1.4556378E-1,2.1107967E0,-2.502415E0,9.9154276E-1,5.1000924E0,-5.118746E0,9.608956E-2,-8.822802E-1,2.2732737E0,2.8445026E-2,3.5992315E-1,-2.0945184E0,-9.8625145E0,-2.0337534E0,1.9222279E0,8.833302E-2,-1.4224882E-1,-2.1508638E-2,1.4664738E-1,-1.6189817E-1,4.2860515E-2,-5.7414013E-1,-1.22541204E-1,1.7583923E-2,-2.2848725E-1,2.998646E-2,1.3695848E-1],"categories":[],"categories_nodes":[],"categories_segments":[],"categories_sizes":[],"default_left":[0,0,0,0,0,0,0,0,0,0,0,0,0,0,1,0,0,0,0,0,0,0,0,0,0,0,0],"id":24,"left_children":[1,3,5,7,9,11,13,15,17,-1,-1,19,21,23,25,-1,-1,-1,-1,-1,-1,-1,-1,-1,-1,-1,-1],"loss_changes":[2.3930911E2,7.128684E1,1.505622E2,4.5376026E1,5.2176773E1,1.3595566E2,5.0570843E1,4.6726463E1,2.112928E1,0E0,0E0,3.0014793E1,1.850061E1,3.83255E1,5.5861816E0,0E0,0E0,0E0,0E0,0E0,0E0,0E0,0E0,0E0,0E0,0E0,0E0],"parents":[2147483647,0,0,1,1,2,2,3,3,4,4,5,5,6,6,7,7,8,8,11,11,12,12,13,13,14,14],"right_children":[2,4,6,8,10,12,14,16,18,-1,-1,20,22,24,26,-1,-1,-1,-1,-1,-1,-1,-1,-1,-1,-1,-1],"split_conditions":[5.3E1,5E1,8E0,2.6E1,3.65E3,3.2E1,6.1E1,1.09E2,1.05E2,2.8445026E-2,3.5992315E-1,6.3E1,4E-2,7.0393376E-2,3.146303E-2,8.833302E-2,-1.4224882E-1,-2.1508638E-2,1.4664738E-1,-1.6189817E-1,4.2860515E-2,-5.7414013E-1,-1.22541204E-1,1.7583923E-2,-2.2848725E-1,2.998646E-2,1.3695848E-1],"split_indices":[5,8,14,9,13,9,6,7,7,0,0,6,3,3,3,0,0,0,0,0,0,0,0,0,0,0,0],"split_type":[0,0,0,0,0,0,0,0,0,0,0,0,0,0,0,0,0,0,0,0,0,0,0,0,0,0,0],"sum_hessian":[4.3E1,2.2E1,2.1E1,1.7E1,5E0,1E1,1.1E1,7E0,1E1,2E0,3E0,7E0,3E0,5E0,6E0,3E0,4E0,2E0,8E0,5E0,2E0,2E0,1E0,3E0,2E0,3E0,3E0],"tree_param":{"num_deleted":"0","num_feature":"18","num_nodes":"27","size_leaf_vector":"1"}},{"base_weights":[-5.743745E-1,2.007036E0,-2.4934905E0,2.439019E0,-1.6331555E-1,-7.397723E0,-1.3637131E0,7.37837E-2,4.0013604E0,-4.336439E-1,-5.49276E-2,2.619251E0,-2.55498E0,-3.5991147E-2,6.353739E-2,2.5132185E-1,7.7048324E-2,1.5525816E-1,2.2422408E-3,9.870409E-3,-1.9240955E-1],"categories":[],"categories_nodes":[],"categories_segments":[],"categories_sizes":[],"default_left":[1,1,0,1,0,0,0,0,0,0,0,0,0,0,0,0,0,0,0,0,0],"id":25,"left_children":[1,3,5,7,-1,9,11,13,15,-1,-1,17,19,-1,-1,-1,-1,-1,-1,-1,-1],"loss_changes":[2.4284642E2,5.572177E1,1.441748E2,7.320334E1,0E0,2.9657349E1,1.2056026E2,9.5190735E0,2.1862793E1,0E0,0E0,7.051365E0,6.87537E1,0E0,0E0,0E0,0E0,0E0,0E0,0E0,0E0],"parents":[2147483647,0,0,1,1,2,2,3,3,5,5,6,6,7,7,8,8,11,11,12,12],"right_children":[2,4,6,8,-1,10,12,14,16,-1,-1,18,20,-1,-1,-1,-1,-1,-1,-1,-1],"split_conditions":[4.705882E-3,2.890443E-1,7E0,1.7992178E-1,-1.6331555E-1,1.7043121E-1,9.2E1,2.3E1,5.2747256E-1,-4.336439E-1,-5.49276E-2,1.7992178E-1,3.837472E-2,-3.5991147E-2,6.353739E-2,2.5132185E-1,7.7048324E-2,1.5525816E-1,2.2422408E-3,9.870409E-3,-1.9240955E-1],"split_indices":[3,1,14,1,0,0,10,15,2,0,0,1,3,0,0,0,0,0,0,0,0],"split_type":[0,0,0,0,0,0,0,0,0,0,0,0,0,0,0,0,0,0,0,0,0],"sum_hessian":[4.7E1,2E1,2.7E1,1.9E1,1E0,4E0,2.3E1,8E0,1.1E1,3E0,1E0,5E0,1.8E1,5E0,3E0,7E0,4E0,4E0,1E0,6E0,1.2E1],"tree_param":{"num_deleted":"0","num_feature":"18","num_nodes":"21","size_leaf_vector":"1"}},{"base_weights":[1.6977671E-1,1.6192058E0,-3.5149107E0,7.3654807E-1,3.5656638E0,-4.987563E0,1.0204483E0,-2.3231838E0,2.1389778E0,6.2728964E-2,4.3626175E0,7.739826E-2,-5.89684E0,5.3115464E-3,6.2822185E-2,1.4259793E-1,-1.7420992E-1,4.4508036E-2,2.1317247E-1,2.375649E-1,4.8263323E-2,-3.36673E-1,1.7402802E-2],"categories":[],"categories_nodes":[],"categories_segments":[],"categories_sizes":[],"default_left":[1,0,0,0,1,0,0,0,1,0,0,0,0,0,0,0,0,0,0,0,0,0,0],"id":26,"left_children":[1,3,5,7,9,11,13,15,17,-1,19,-1,21,-1,-1,-1,-1,-1,-1,-1,-1,-1,-1],"loss_changes":[2.4583298E2,5.3639336E1,9.2313354E1,1.0793624E2,1.2383316E1,6.898906E1,5.932641E-1,5.8067333E1,4.079178E1,0E0,4.0854645E0,0E0,5.000354E1,0E0,0E0,0E0,0E0,0E0,0E0,0E0,0E0,0E0,0E0],"parents":[2147483647,0,0,1,1,2,2,3,3,4,4,5,5,6,6,7,7,8,8,10,10,12,12],"right_children":[2,4,6,8,10,12,14,16,18,-1,20,-1,22,-1,-1,-1,-1,-1,-1,-1,-1,-1,-1],"split_conditions":[3.837472E-2,3.2E1,1.6081871E-1,3.0625E-1,1.7992178E-1,1.01E2,5.3254437E-2,8.7E1,2.4844721E-1,6.2728964E-2,2.1538462E-1,7.739826E-2,1.970534E-1,5.3115464E-3,6.2822185E-2,1.4259793E-1,-1.7420992E-1,4.4508036E-2,2.1317247E-1,2.375649E-1,4.8263323E-2,-3.36673E-1,1.7402802E-2],"split_indices":[3,9,3,17,1,7,1,10,1,0,1,0,1,0,0,0,0,0,0,0,0,0,0],"split_type":[0,0,0,0,0,0,0,0,0,0,0,0,0,0,0,0,0,0,0,0,0,0,0],"sum_hessian":[4.4E1,3.2E1,1.2E1,2.3E1,9E0,9E0,3E0,7E0,1.6E1,3E0,6E0,1E0,8E0,1E0,2E0,1E0,6E0,1.1E1,5E0,5E0,1E0,7E0,1E0],"tree_param":{"num_deleted":"0","num_feature":"18","num_nodes":"23","size_leaf_vector":"1"}},{"base_weights":[-1.8336849E-1,1.6334207E0,-2.4287567E0,1.0821192E0,2.733013E-1,-4.826361E0,1.8055294E-1,1.9195678E0,-1.2320495E-1,-2.2893684E0,-5.3976095E-1,2.272768E0,-2.764659E0,2.7020863E-1,4.9043134E-2,1.04830705E-1,-1.5560965E-1,1.5706787E-2,1.2650922E-1,1.7507514E-2,-1.8279493E-1],"categories":[],"categories_nodes":[],"categories_segments":[],"categories_sizes":[],"default_left":[1,1,0,1,0,0,0,0,0,0,0,0,0,0,0,0,0,0,0,0,0],"id":27,"left_children":[1,3,5,7,-1,9,11,13,-1,15,-1,17,19,-1,-1,-1,-1,-1,-1,-1,-1],"loss_changes":[1.9169897E2,4.836624E1,1.3271393E2,7.595016E1,0E0,1.4054974E2,7.401642E1,5.9481064E1,0E0,3.9106667E1,0E0,2.4500313E0,1.5490894E1,0E0,0E0,0E0,0E0,0E0,0E0,0E0,0E0],"parents":[2147483647,0,0,1,1,2,2,3,3,5,5,6,6,7,7,9,9,11,11,12,12],"right_children":[2,4,6,8,-1,10,12,14,-1,16,-1,18,20,-1,-1,-1,-1,-1,-1,-1,-1],"split_conditions":[2.1352313E-2,3.7142858E-1,8E0,2.894309E-1,2.733013E-1,6.4E1,4.474273E-2,2.1E1,-1.2320495E-1,1.3962264E-1,-5.3976095E-1,2.3640662E-2,1.18257076E-1,2.7020863E-1,4.9043134E-2,1.04830705E-1,-1.5560965E-1,1.5706787E-2,1.2650922E-1,1.7507514E-2,-1.8279493E-1],"split_indices":[3,0,14,0,0,6,3,15,0,0,0,3,0,0,0,0,0,0,0,0,0],"split_type":[0,0,0,0,0,0,0,0,0,0,0,0,0,0,0,0,0,0,0,0,0],"sum_hessian":[4.5E1,2.5E1,2E1,2.3E1,2E0,1E1,1E1,1.9E1,4E0,8E0,2E0,6E0,4E0,3E0,1.6E1,1E0,7E0,1E0,5E0,1E0,3E0],"tree_param":{"num_deleted":"0","num_feature":"18","num_nodes":"21","size_leaf_vector":"1"}},{"base_weights":[-4.223936E-1,-4.4392333E0,6.197193E-1,1.7494465E0,-7.8418145E0,1.1269039E0,-5.1325502E0,1.7069777E-2,1.03583254E-1,-1.0979497E-1,-4.255909E-1,3.3560234E-1,3.5452707E0,-3.2814535E-1,-5.4295886E-2,-7.189955E-2,7.701113E-2,2.2023594E-1,3.0564219E-2],"categories":[],"categories_nodes":[],"categories_segments":[],"categories_sizes":[],"default_left":[0,0,0,0,0,0,0,0,0,0,0,1,0,0,0,0,0,0,0],"id":28,"left_children":[1,3,5,7,9,11,13,-1,-1,-1,-1,15,17,-1,-1,-1,-1,-1,-1],"loss_changes":[1.8313106E2,2.0384543E2,1.074945E2,8.6623573E-1,2.9348145E0,6.1572807E1,9.472733E0,0E0,0E0,0E0,0E0,5.7774216E1,1.6978722E1,0E0,0E0,0E0,0E0,0E0,0E0],"parents":[2147483647,0,0,1,1,2,2,3,3,4,4,5,5,6,6,11,11,12,12],"right_children":[2,4,6,8,10,12,14,-1,-1,-1,-1,16,18,-1,-1,-1,-1,-1,-1],"split_conditions":[1.6169754E-1,1.3962264E-1,2.967E3,1.18257076E-1,4.7E1,3.2E1,2.425E-1,1.7069777E-2,1.03583254E-1,-1.0979497E-1,-4.255909E-1,3.0900463E-1,9E0,-3.2814535E-1,-5.4295886E-2,-7.189955E-2,7.701113E-2,2.2023594E-1,3.0564219E-2],"split_indices":[0,0,11,0,8,9,0,0,0,0,0,17,14,0,0,0,0,0,0],"split_type":[0,0,0,0,0,0,0,0,0,0,0,0,0,0,0,0,0,0,0],"sum_hessian":[4.2E1,8E0,3.4E1,3E0,5E0,3.2E1,2E0,1E0,2E0,1E0,4E0,2.5E1,7E0,1E0,1E0,1E1,1.5E1,5E0,2E0],"tree_param":{"num_deleted":"0","num_feature":"18","num_nodes":"19","size_leaf_vector":"1"}},{"base_weights":[-8.72619E-2,-1.641426E0,1.2273102E0,-3.8333762E0,1.6326071E-1,2.2071108E-1,3.452069E0,1.7801788E-1,-6.553975E0,-1.4149735E0,1.7324576E0,-1.2320893E0,2.3848226E0,6.3692175E-2,2.242118E-1,-1.0319759E-1,1.19699076E-1,-1.4494424E-1,-3.8158998E-1,-2.0067468E-1,2.035666E-2,9.5763765E-2,1.33887855E-2,-1.2294159E-2,-1.08032405E-1,-6.0339356E-3,1.6283849E-1],"categories":[],"categories_nodes":[],"categories_segments":[],"categories_sizes":[],"default_left":[0,0,0,0,0,1,1,0,0,0,0,1,0,0,0,0,0,0,0,0,0,0,0,0,0,0,0],"id":29,"left_children":[1,3,5,7,9,11,13,15,17,19,21,23,25,-1,-1,-1,-1,-1,-1,-1,-1,-1,-1,-1,-1,-1,-1],"loss_changes":[9.80798E1,8.802007E1,5.709626E1,1.1093826E2,3.4678413E1,6.2790005E1,1.1698311E1,2.9814678E1,4.6051025E-1,3.5138126E1,1.1432171E0,1.0217085E1,1.8183945E1,0E0,0E0,0E0,0E0,0E0,0E0,0E0,0E0,0E0,0E0,0E0,0E0,0E0,0E0],"parents":[2147483647,0,0,1,1,2,2,3,3,4,4,5,5,6,6,7,7,8,8,9,9,10,10,11,11,12,12],"right_children":[2,4,6,8,10,12,14,16,18,20,22,24,26,-1,-1,-1,-1,-1,-1,-1,-1,-1,-1,-1,-1,-1,-1],"split_conditions":[9.790941E-1,8E0,3.2E1,9.331476E-1,9.5843524E-1,3.3541667E-1,2.043956E-1,9.271083E-1,5.1E1,1.5E1,9.771966E-1,2.894309E-1,1.7034908E-1,6.3692175E-2,2.242118E-1,-1.0319759E-1,1.19699076E-1,-1.4494424E-1,-3.8158998E-1,-2.0067468E-1,2.035666E-2,9.5763765E-2,1.33887855E-2,-1.2294159E-2,-1.08032405E-1,-6.0339356E-3,1.6283849E-1],"split_indices":[4,14,9,4,4,17,0,4,8,16,4,0,1,0,0,0,0,0,0,0,0,0,0,0,0,0,0],"split_type":[0,0,0,0,0,0,0,0,0,0,0,0,0,0,0,0,0,0,0,0,0,0,0,0,0,0,0],"sum_hessian":[4.6E1,2.1E1,2.5E1,9E0,1.2E1,1.8E1,7E0,4E0,5E0,6E0,6E0,1.1E1,7E0,3E0,4E0,2E0,2E0,2E0,3E0,2E0,4E0,5E0,1E0,6E0,5E0,2E0,5E0],"tree_param":{"num_deleted":"0","num_feature":"18","num_nodes":"27","size_leaf_vector":"1"}},{"base_weights":[-3.7787643E-1,-3.419403E0,8.6642736E-1,1.445155E0,-5.753113E0,3.417074E0,-4.4373348E-1,2.3341471E-2,9.542145E-2,5.0911486E-2,-6.7393093E0,3.909597E0,-3.5203896E-2,2.8092787E-1,-3.7999415E0,-4.335595E-1,-1.9129714E-1,2.7461633E-1,9.6119486E-2,-5.7792105E-2,7.200094E-2,-3.0680057E-1,7.770669E-2],"categories":[],"categories_nodes":[],"categories_segments":[],"categories_sizes":[],"default_left":[0,0,0,0,0,0,0,0,0,0,0,0,0,0,0,0,0,0,0,0,0,0,0],"id":30,"left_children":[1,3,5,7,9,11,13,-1,-1,-1,15,17,-1,19,21,-1,-1,-1,-1,-1,-1,-1,-1],"loss_changes":[1.6973961E2,1.5632698E2,1.08749825E2,1.1377268E0,6.753516E1,2.5400604E1,5.4925926E1,0E0,0E0,0E0,1.0601013E1,2.0152237E1,0E0,3.333445E1,6.0024345E1,0E0,0E0,0E0,0E0,0E0,0E0,0E0,0E0],"parents":[2147483647,0,0,1,1,2,2,3,3,4,4,5,5,6,6,10,10,11,11,13,13,14,14],"right_children":[2,4,6,8,10,12,14,-1,-1,-1,16,18,-1,20,22,-1,-1,-1,-1,-1,-1,-1,-1],"split_conditions":[1.7043121E-1,1.3962264E-1,1.08E2,1.3001911E-1,2.3E1,3E1,2.776E3,2.3341471E-2,9.542145E-2,5.0911486E-2,1.18E2,5.2747256E-1,-3.5203896E-2,1.18E2,2.9850745E-1,-4.335595E-1,-1.9129714E-1,2.7461633E-1,9.6119486E-2,-5.7792105E-2,7.200094E-2,-3.0680057E-1,7.770669E-2],"split_indices":[0,0,7,0,9,9,11,0,0,0,7,2,0,7,0,0,0,0,0,0,0,0,0],"split_type":[0,0,0,0,0,0,0,0,0,0,0,0,0,0,0,0,0,0,0,0,0,0,0],"sum_hessian":[4.3E1,1.2E1,3.1E1,4E0,8E0,1E1,2.1E1,2E0,2E0,1E0,7E0,9E0,1E0,1.8E1,3E0,3E0,4E0,4E0,5E0,8E0,1E1,2E0,1E0],"tree_param":{"num_deleted":"0","num_feature":"18","num_nodes":"23","size_leaf_vector":"1"}},{"base_weights":[-3.4112492E-1,-4.3883843E0,6.767181E-1,3.8981993E-2,-6.7289147E0,-1.4664998E0,1.7666563E0,-4.1730094E-1,-1.7022912E-1,7.096359E-1,-3.199806E0,3.543155E0,3.1761637E-1,7.136229E-2,-3.4479626E-2,5.1679993E-3,-2.1673773E-1,9.138434E-2,2.468671E-1,-3.5923135E-2,2.5400567E-1],"categories":[],"categories_nodes":[],"categories_segments":[],"categories_sizes":[],"default_left":[0,0,0,0,0,0,0,0,0,0,0,0,1,0,0,0,0,0,0,0,0],"id":31,"left_children":[1,3,5,-1,7,9,11,-1,-1,13,15,17,19,-1,-1,-1,-1,-1,-1,-1,-1],"loss_changes":[2.0519514E2,1.2680023E2,9.605982E1,0E0,8.0407715E0,5.5326454E1,6.799243E1,0E0,0E0,8.086683E0,3.0862572E1,1.8999802E1,8.303521E1,0E0,0E0,0E0,0E0,0E0,0E0,0E0,0E0],"parents":[2147483647,0,0,1,1,2,2,4,4,5,5,6,6,9,9,10,10,11,11,12,12],"right_children":[2,4,6,-1,8,10,12,-1,-1,14,16,18,20,-1,-1,-1,-1,-1,-1,-1,-1],"split_conditions":[1.6169754E-1,1.3118279E-1,1.7034908E-1,3.8981993E-2,1.18E2,1.3422818E-1,2.5537634E-1,-4.1730094E-1,-1.7022912E-1,2.4355972E-1,1.6381766E-1,2.0360824E-1,3.7142858E-1,7.136229E-2,-3.4479626E-2,5.1679993E-3,-2.1673773E-1,9.138434E-2,2.468671E-1,-3.5923135E-2,2.5400567E-1],"split_indices":[0,0,1,0,7,1,0,0,0,0,0,0,0,0,0,0,0,0,0,0,0],"split_type":[0,0,0,0,0,0,0,0,0,0,0,0,0,0,0,0,0,0,0,0,0],"sum_hessian":[4.8E1,9E0,3.9E1,3E0,6E0,1.3E1,2.6E1,3E0,3E0,6E0,7E0,1.1E1,1.5E1,4E0,2E0,2E0,5E0,6E0,5E0,1.3E1,2E0],"tree_param":{"num_deleted":"0","num_feature":"18","num_nodes":"21","size_leaf_vector":"1"}},{"base_weights":[-5.5859085E-2,-3.6935763E0,9.533918E-1,1.3907124E0,-6.085516E0,-1.3235692E0,2.4670746E0,2.1264242E-2,1.04674876E-1,-1.2958042E-1,-4.0165225E-1,4.971312E-1,-4.1541414E0,2.8535652E0,-1.3873078E-1,-3.6906034E-2,5.7312816E-2,-7.3461376E-2,-2.5521457E-1,1.551904E-1,-5.1282085E-2],"categories":[],"categories_nodes":[],"categories_segments":[],"categories_sizes":[],"default_left":[0,0,0,0,0,0,0,0,0,0,0,0,0,0,0,0,0,0,0,0,0],"id":32,"left_children":[1,3,5,7,9,11,13,-1,-1,-1,-1,15,17,19,-1,-1,-1,-1,-1,-1,-1],"loss_changes":[1.6900706E2,1.3054579E2,1.2745717E2,1.5717411E0,2.5750427E1,7.973522E1,5.2494476E1,0E0,0E0,0E0,0E0,8.90522E0,7.1497116E0,2.3776794E1,0E0,0E0,0E0,0E0,0E0,0E0,0E0],"parents":[2147483647,0,0,1,1,2,2,3,3,4,4,5,5,6,6,11,11,12,12,13,13],"right_children":[2,4,6,8,10,12,14,-1,-1,-1,-1,16,18,20,-1,-1,-1,-1,-1,-1,-1],"split_conditions":[1.625E-1,1.3962264E-1,1.6680378E-1,1.3001911E-1,5E1,1.3422818E-1,2.753346E-1,2.1264242E-2,1.04674876E-1,-1.2958042E-1,-4.0165225E-1,2.39E2,1.4672686E-1,1.6037E4,-1.3873078E-1,-3.6906034E-2,5.7312816E-2,-7.3461376E-2,-2.5521457E-1,1.551904E-1,-5.1282085E-2],"split_indices":[0,0,1,0,8,1,1,0,0,0,0,12,1,13,0,0,0,0,0,0,0],"split_type":[0,0,0,0,0,0,0,0,0,0,0,0,0,0,0,0,0,0,0,0,0],"sum_hessian":[4.4E1,9E0,3.5E1,3E0,6E0,1.4E1,2.1E1,2E0,1E0,3E0,3E0,9E0,5E0,2E1,1E0,3E0,6E0,2E0,3E0,1.9E1,1E0],"tree_param":{"num_deleted":"0","num_feature":"18","num_nodes":"21","size_leaf_vector":"1"}},{"base_weights":[-3.0982876E-1,1.3786327E0,-2.1302524E0,-4.4295993E-1,2.2183938E0,-3.4455654E-1,-1.117216E0,-8.5784125E-1,3.1970825E-2,2.6730347E0,-1.3526246E-1,-1.8490238E0,1.5743741E0,1.4288482E-2,-5.56369E-2,-4.640232E-2,1.4811777E-1,-4.454356E-2,-2.357651E-1,9.460352E-2,5.089722E-3],"categories":[],"categories_nodes":[],"categories_segments":[],"categories_sizes":[],"default_left":[1,0,0,0,1,0,0,0,0,0,0,0,0,0,0,0,0,0,0,0,0],"id":33,"left_children":[1,3,5,7,9,-1,11,13,-1,15,-1,17,19,-1,-1,-1,-1,-1,-1,-1,-1],"loss_changes":[1.5362404E2,4.093248E1,1.0725092E2,4.6118803E0,4.7520798E1,0E0,4.4302788E1,2.441203E0,0E0,2.0664345E1,0E0,4.19263E1,1.9471769E0,0E0,0E0,0E0,0E0,0E0,0E0,0E0,0E0],"parents":[2147483647,0,0,1,1,2,2,3,3,4,4,6,6,7,7,9,9,11,11,12,12],"right_children":[2,4,6,8,10,-1,12,14,-1,16,-1,18,20,-1,-1,-1,-1,-1,-1,-1,-1],"split_conditions":[2.1352313E-2,1.736111E-1,7E0,1.16E2,2.890443E-1,-3.4455654E-1,6.5E1,1.3001911E-1,3.1970825E-2,5E1,-1.3526246E-1,6.1E1,1.979798E-1,1.4288482E-2,-5.56369E-2,-4.640232E-2,1.4811777E-1,-4.454356E-2,-2.357651E-1,9.460352E-2,5.089722E-3],"split_indices":[3,1,14,7,1,0,6,0,0,6,0,6,0,0,0,0,0,0,0,0,0],"split_type":[0,0,0,0,0,0,0,0,0,0,0,0,0,0,0,0,0,0,0,0,0],"sum_hessian":[4.8E1,2.5E1,2.3E1,8E0,1.7E1,3E0,2E1,6E0,2E0,1.6E1,1E0,1.6E1,4E0,1E0,5E0,1E0,1.5E1,1.3E1,3E0,3E0,1E0],"tree_param":{"num_deleted":"0","num_feature":"18","num_nodes":"21","size_leaf_vector":"1"}},{"base_weights":[-3.894367E-1,-2.1252796E-2,-4.0303358E-1,2.1727183E0,-9.438454E-1,9.043631E-1,2.3877132E-1,-1.4548743E0,1.98448E0,-3.7001774E-2,7.102336E-2,-2.3966666E-1,-3.307596E-2,1.2029874E-1,4.9625016E-3],"categories":[],"categories_nodes":[],"categories_segments":[],"categories_sizes":[],"default_left":[1,1,0,0,0,0,0,0,0,0,0,0,0,0,0],"id":34,"left_children":[1,3,-1,5,7,9,-1,11,13,-1,-1,-1,-1,-1,-1],"loss_changes":[1.2329521E2,8.8965904E1,0E0,3.8028362E1,4.922444E1,9.606049E0,0E0,6.779539E1,3.483759E0,0E0,0E0,0E0,0E0,0E0,0E0],"parents":[2147483647,0,0,1,1,3,3,4,4,5,5,7,7,8,8],"right_children":[2,4,-1,6,8,10,-1,12,14,-1,-1,-1,-1,-1,-1],"split_conditions":[3.9027777E-1,2.5773195E-3,-4.0303358E-1,7.613E3,6.2E1,1.05E2,2.3877132E-1,2.652E3,1.7992178E-1,-3.7001774E-2,7.102336E-2,-2.3966666E-1,-3.307596E-2,1.2029874E-1,4.9625016E-3],"split_indices":[17,3,0,13,5,7,0,13,1,0,0,0,0,0,0],"split_type":[0,0,0,0,0,0,0,0,0,0,0,0,0,0,0],"sum_hessian":[4.3E1,4.2E1,1E0,1.2E1,3E1,9E0,3E0,2.6E1,4E0,2E0,7E0,4E0,2.2E1,3E0,1E0],"tree_param":{"num_deleted":"0","num_feature":"18","num_nodes":"15","size_leaf_vector":"1"}},{"base_weights":[-1.7888837E-1,-3.9295784E-1,1.8016803E-1,-8.9547324E-1,1.4669292E0,-7.216007E-2,-3.9896314E0,2.178097E-1,3.300882E0,-1.6727947E-1,2.3593241E-2,-3.7251256E-2,-2.9355136E-1,-1.13674425E-1,6.0127404E-2,6.605902E-2,2.4626444E-1],"categories":[],"categories_nodes":[],"categories_segments":[],"categories_sizes":[],"default_left":[0,0,0,0,1,0,0,0,0,0,0,0,0,0,0,0,0],"id":35,"left_children":[1,-1,3,5,7,9,11,13,15,-1,-1,-1,-1,-1,-1,-1,-1],"loss_changes":[1.23520454E2,0E0,6.088676E1,6.0445E1,4.4745693E1,3.7482582E1,2.5486275E1,3.4519485E1,1.859488E1,0E0,0E0,0E0,0E0,0E0,0E0,0E0,0E0],"parents":[2147483647,0,0,2,2,3,3,4,4,5,5,6,6,7,7,8,8],"right_children":[2,-1,4,6,8,10,12,14,16,-1,-1,-1,-1,-1,-1,-1,-1],"split_conditions":[6E0,-3.9295784E-1,1.9771072E-1,2.2573364E-1,3.3541667E-1,7E0,9.3E1,2.2E1,1.904762E-1,-1.6727947E-1,2.3593241E-2,-3.7251256E-2,-2.9355136E-1,-1.13674425E-1,6.0127404E-2,6.605902E-2,2.4626444E-1],"split_indices":[14,0,1,0,17,14,10,15,0,0,0,0,0,0,0,0,0],"split_type":[0,0,0,0,0,0,0,0,0,0,0,0,0,0,0,0,0],"sum_hessian":[4.3E1,1E0,4.2E1,2.3E1,1.9E1,1.9E1,4E0,1.2E1,7E0,2E0,1.7E1,2E0,2E0,3E0,9E0,4E0,3E0],"tree_param":{"num_deleted":"0","num_feature":"18","num_nodes":"17","size_leaf_vector":"1"}},{"base_weights":[-1.1783153E-1,2.9297967E0,-5.985667E-1,5.302998E-1,2.559597E-1,2.0833057E-1,-1.8563646E0,6.721894E-2,-1.5585276E-1,5.27141E-1,-2.1657226E0,-3.0433404E-1,-7.296482E-1,-0E0,-1.257244E-2,-2.1170493E-2,8.600715E-2,-2.4920998E-2,-1.350082E-1,-1.2259177E-1,8.357715E-2],"categories":[],"categories_nodes":[],"categories_segments":[],"categories_sizes":[],"default_left":[0,0,1,0,0,1,0,0,0,0,0,0,0,0,0,0,0,0,0,0,0],"id":36,"left_children":[1,3,5,7,-1,9,11,-1,13,15,17,-1,19,-1,-1,-1,-1,-1,-1,-1,-1],"loss_changes":[6.451994E1,2.8241055E1,3.911826E1,2.562707E0,0E0,1.9142733E1,6.637274E1,0E0,5.3582765E-2,2.5806198E1,1.0075531E0,0E0,5.7935284E1,0E0,0E0,0E0,0E0,0E0,0E0,0E0,0E0],"parents":[2147483647,0,0,1,1,2,2,3,3,5,5,6,6,8,8,9,9,10,10,12,12],"right_children":[2,4,6,8,-1,10,12,-1,14,16,18,-1,20,-1,-1,-1,-1,-1,-1,-1,-1],"split_conditions":[1.01E2,2.4844721E-1,3.837472E-2,1.7079931E-1,2.559597E-1,2.6241866E-1,4.0954415E-2,6.721894E-2,1.8112245E-1,2.371E3,2.705515E-1,-3.0433404E-1,7.534517E-1,-0E0,-1.257244E-2,-2.1170493E-2,8.600715E-2,-2.4920998E-2,-1.350082E-1,-1.2259177E-1,8.357715E-2],"split_indices":[7,1,3,1,0,1,3,0,0,11,0,0,2,0,0,0,0,0,0,0,0],"split_type":[0,0,0,0,0,0,0,0,0,0,0,0,0,0,0,0,0,0,0,0,0],"sum_hessian":[4.2E1,5E0,3.7E1,3E0,2E0,2.3E1,1.4E1,1E0,2E0,2.1E1,2E0,2E0,1.2E1,1E0,1E0,1.2E1,9E0,1E0,1E0,7E0,5E0],"tree_param":{"num_deleted":"0","num_feature":"18","num_nodes":"21","size_leaf_vector":"1"}},{"base_weights":[5.179301E-1,1.0376543E0,-2.585873E0,6.1401516E-1,3.9450529E0,-2.4678324E-1,3.8538703E-1,1.3675328E-1,2.6256015E0,2.2955559E-1,3.1520423E-2,6.180341E-2,-5.1666416E-2,-2.2405073E-2,9.433617E-2,-3.3565864E-2,1.6518204E-1],"categories":[],"categories_nodes":[],"categories_segments":[],"categories_sizes":[],"default_left":[0,1,0,0,0,0,0,0,0,0,0,0,0,0,0,0,0],"id":37,"left_children":[1,3,5,7,9,-1,11,13,15,-1,-1,-1,-1,-1,-1,-1,-1],"loss_changes":[7.834513E1,4.7620964E1,5.123007E1,3.488668E1,7.290848E0,0E0,6.125036E0,3.271713E1,1.8129112E1,0E0,0E0,0E0,0E0,0E0,0E0,0E0,0E0],"parents":[2147483647,0,0,1,1,2,2,3,3,4,4,6,6,7,7,8,8],"right_children":[2,4,6,8,10,-1,12,14,16,-1,-1,-1,-1,-1,-1,-1,-1],"split_conditions":[5.87E2,2.4844721E-1,1.4601E4,6.895E3,2.753346E-1,-2.4678324E-1,2.1538462E-1,6.4E1,1.7283726E-1,2.2955559E-1,3.1520423E-2,6.180341E-2,-5.1666416E-2,-2.2405073E-2,9.433617E-2,-3.3565864E-2,1.6518204E-1],"split_indices":[12,1,13,13,1,0,1,6,1,0,0,0,0,0,0,0,0],"split_type":[0,0,0,0,0,0,0,0,0,0,0,0,0,0,0,0,0],"sum_hessian":[4.6E1,4E1,6E0,3.6E1,4E0,3E0,3E0,3E1,6E0,3E0,1E0,2E0,1E0,2.3E1,7E0,1E0,5E0],"tree_param":{"num_deleted":"0","num_feature":"18","num_nodes":"17","size_leaf_vector":"1"}},{"base_weights":[-3.648667E-1,-3.4315665E0,4.2825803E-1,1.5147778E0,-5.7821107E0,8.184666E-2,2.2622895E-1,1.38660045E-2,9.007452E-2,-3.5553226E-1,-1.4915244E-1,-6.26746E-1,2.0677214E0,-1.282419E-2,-2.6309562E-1,2.1243627E-1,4.894399E-2],"categories":[],"categories_nodes":[],"categories_segments":[],"categories_sizes":[],"default_left":[0,0,1,0,0,0,0,0,0,0,0,0,0,0,0,0,0],"id":38,"left_children":[1,3,5,7,9,11,-1,-1,-1,-1,-1,13,15,-1,-1,-1,-1],"loss_changes":[1.1851915E2,1.2545137E2,5.4510506E1,7.1170807E-1,3.8097687E0,5.3505554E1,0E0,0E0,0E0,0E0,0E0,4.6152916E1,1.906593E1,0E0,0E0,0E0,0E0],"parents":[2147483647,0,0,1,1,2,2,3,3,4,4,5,5,11,11,12,12],"right_children":[2,4,6,8,10,12,-1,-1,-1,-1,-1,14,16,-1,-1,-1,-1],"split_conditions":[1.6169754E-1,1.3962264E-1,3.7142858E-1,1.18257076E-1,1.18E2,3.3819443E-1,2.2622895E-1,1.38660045E-2,9.007452E-2,-3.5553226E-1,-1.4915244E-1,3.9E1,1.02E2,-1.282419E-2,-2.6309562E-1,2.1243627E-1,4.894399E-2],"split_indices":[0,0,0,0,7,17,0,0,0,0,0,9,7,0,0,0,0],"split_type":[0,0,0,0,0,0,0,0,0,0,0,0,0,0,0,0,0],"sum_hessian":[4.7E1,9E0,3.8E1,3E0,6E0,3.6E1,2E0,1E0,2E0,3E0,3E0,2.7E1,9E0,2.6E1,1E0,2E0,7E0],"tree_param":{"num_deleted":"0","num_feature":"18","num_nodes":"17","size_leaf_vector":"1"}},{"base_weights":[-1.5750922E-1,-3.3718698E0,6.8988854E-1,1.2855049E0,-5.565817E0,1.2357812E0,-1.8898902E0,1.7615357E-2,9.962746E-2,-3.1996092E-1,-1.1441044E-1,2.0529173E-1,7.938503E-1,1.24775164E-1,-4.1631484E0,-4.6195947E-3,1.2484749E-1,-2.339197E-1,-5.0054133E-2],"categories":[],"categories_nodes":[],"categories_segments":[],"categories_sizes":[],"default_left":[0,0,0,0,0,0,0,0,0,0,0,0,0,0,0,0,0,0,0],"id":39,"left_children":[1,3,5,7,9,11,13,-1,-1,-1,-1,-1,15,-1,17,-1,-1,-1,-1],"loss_changes":[1.3061499E2,1.0976326E2,5.57848E1,1.7027736E0,3.6094513E0,3.68383E1,8.033983E1,0E0,0E0,0E0,0E0,0E0,4.4242546E1,0E0,2.8947983E0,0E0,0E0,0E0,0E0],"parents":[2147483647,0,0,1,1,2,2,3,3,4,4,5,5,6,6,12,12,14,14],"right_children":[2,4,6,8,10,12,14,-1,-1,-1,-1,-1,16,-1,18,-1,-1,-1,-1],"split_conditions":[1.6169754E-1,1.3962264E-1,1.0477E4,1.3001911E-1,1.19E2,4.6412557E-1,2.951389E-1,1.7615357E-2,9.962746E-2,-3.1996092E-1,-1.1441044E-1,2.0529173E-1,3.375E-1,1.24775164E-1,2.9850745E-1,-4.6195947E-3,1.2484749E-1,-2.339197E-1,-5.0054133E-2],"split_indices":[0,0,13,0,7,2,17,0,0,0,0,0,17,0,0,0,0,0,0],"split_type":[0,0,0,0,0,0,0,0,0,0,0,0,0,0,0,0,0,0,0],"sum_hessian":[4.6E1,9E0,3.7E1,3E0,6E0,3.1E1,6E0,2E0,1E0,4E0,2E0,3E0,2.8E1,2E0,4E0,1.9E1,9E0,3E0,1E0],"tree_param":{"num_deleted":"0","num_feature":"18","num_nodes":"19","size_leaf_vector":"1"}},{"base_weights":[1.8979732E-2,3.6728728E-1,-3.7145612E-1,1.3691467E0,-9.6501654E-1,1.6291859E0,-1.192949E-1,-3.026819E0,-5.314309E-3,1.24811605E-1,-4.106937E-3,-2.0424655E-1,5.4093517E-2,-6.363348E-2,7.147826E-2],"categories":[],"categories_nodes":[],"categories_segments":[],"categories_sizes":[],"default_left":[1,1,0,1,0,0,0,0,0,0,0,0,0,0,0],"id":40,"left_children":[1,3,-1,5,7,9,-1,11,13,-1,-1,-1,-1,-1,-1],"loss_changes":[1.1616856E2,5.8757248E1,0E0,2.8222874E1,3.7276314E1,3.6057583E1,0E0,3.0804394E1,2.7262705E1,0E0,0E0,0E0,0E0,0E0,0E0],"parents":[2147483647,0,0,1,1,3,3,4,4,5,5,7,7,8,8],"right_children":[2,4,-1,6,8,10,-1,12,14,-1,-1,-1,-1,-1,-1],"split_conditions":[3.9027777E-1,2.2099448E-2,-3.7145612E-1,2.890443E-1,2.652E3,9.5E1,-1.192949E-1,6.3E1,7.534517E-1,1.24811605E-1,-4.106937E-3,-2.0424655E-1,5.4093517E-2,-6.363348E-2,7.147826E-2],"split_indices":[17,3,0,1,13,10,0,6,2,0,0,0,0,0,0],"split_type":[0,0,0,0,0,0,0,0,0,0,0,0,0,0,0],"sum_hessian":[4.3E1,4.2E1,1E0,2.4E1,1.8E1,2.3E1,1E0,5E0,1.3E1,1.5E1,8E0,4E0,1E0,7E0,6E0],"tree_param":{"num_deleted":"0","num_feature":"18","num_nodes":"15","size_leaf_vector":"1"}},{"base_weights":[1.1984479E-1,1.0072851E0,-1.5453461E0,6.3062406E-1,2.0768468E-1,-2.656967E-1,-6.202669E-1,8.299991E-1,-1.1631256E-1,1.3863995E0,-1.5715735E0,5.2517332E-2,-6.2478166E-2,1.6579539E-2,9.728709E-2,2.3563651E-2,-1.2643449E-1],"categories":[],"categories_nodes":[],"categories_segments":[],"categories_sizes":[],"default_left":[1,1,0,1,0,0,0,1,0,0,0,0,0,0,0,0,0],"id":41,"left_children":[1,3,5,7,-1,-1,9,11,-1,13,15,-1,-1,-1,-1,-1,-1],"loss_changes":[6.800189E1,3.245604E1,5.18904E1,1.8287922E1,0E0,0E0,2.8922718E1,1.3664667E1,0E0,2.0770721E0,2.0949856E1,0E0,0E0,0E0,0E0,0E0,0E0],"parents":[2147483647,0,0,1,1,2,2,3,3,6,6,7,7,9,9,10,10],"right_children":[2,4,6,8,-1,-1,10,12,-1,14,16,-1,-1,-1,-1,-1,-1],"split_conditions":[3.837472E-2,3.7142858E-1,4.0954415E-2,2.890443E-1,2.0768468E-1,-2.656967E-1,1.2264151E-1,3.7708333E-1,-1.1631256E-1,1.11E2,9.2E1,5.2517332E-2,-6.2478166E-2,1.6579539E-2,9.728709E-2,2.3563651E-2,-1.2643449E-1],"split_indices":[3,0,3,1,0,0,1,17,0,7,10,0,0,0,0,0,0],"split_type":[0,0,0,0,0,0,0,0,0,0,0,0,0,0,0,0,0],"sum_hessian":[4.4E1,2.9E1,1.5E1,2.7E1,2E0,2E0,1.3E1,2.6E1,1E0,4E0,9E0,2.4E1,2E0,2E0,2E0,3E0,6E0],"tree_param":{"num_deleted":"0","num_feature":"18","num_nodes":"17","size_leaf_vector":"1"}},{"base_weights":[7.8069046E-2,1.1320263E0,-1.0227984E0,2.7844808E0,2.2879735E-1,-2.9908082E-1,-2.0898788E-1,6.2625086E-1,3.9341688E0,-5.9178203E-1,2.0076178E-1,7.309595E-1,-1.8192561E0,-0E0,4.246938E-2,2.2399862E-1,4.1273843E-2,-7.352843E-2,6.320738E-2,-3.8121782E-2,7.927307E-2,1.6412074E-2,-1.3032311E-1],"categories":[],"categories_nodes":[],"categories_segments":[],"categories_sizes":[],"default_left":[1,0,0,0,1,0,0,0,0,0,0,0,0,0,0,0,0,0,0,0,0,0,0],"id":42,"left_children":[1,3,5,7,9,11,-1,13,15,17,-1,19,21,-1,-1,-1,-1,-1,-1,-1,-1,-1,-1],"loss_changes":[5.222052E1,3.3390118E1,4.856647E1,1.6930508E1,5.2431664E1,3.1189627E1,0E0,5.9561753E-1,4.25502E0,2.4713186E1,0E0,1.6604422E1,1.4607555E1,0E0,0E0,0E0,0E0,0E0,0E0,0E0,0E0,0E0,0E0],"parents":[2147483647,0,0,1,1,2,2,3,3,4,4,5,5,7,7,8,8,9,9,11,11,12,12],"right_children":[2,4,6,8,10,12,-1,14,16,18,-1,20,22,-1,-1,-1,-1,-1,-1,-1,-1,-1,-1],"split_conditions":[6.275395E-1,2.5537634E-1,9.9E1,1.904762E-1,3.7142858E-1,3E1,-2.0898788E-1,5.894855E-1,3.6E1,3.2E1,2.0076178E-1,5E1,9.4736844E-2,-0E0,4.246938E-2,2.2399862E-1,4.1273843E-2,-7.352843E-2,6.320738E-2,-3.8121782E-2,7.927307E-2,1.6412074E-2,-1.3032311E-1],"split_indices":[2,0,10,0,0,9,0,2,9,9,0,8,1,0,0,0,0,0,0,0,0,0,0],"split_type":[0,0,0,0,0,0,0,0,0,0,0,0,0,0,0,0,0,0,0,0,0,0,0],"sum_hessian":[4.3E1,2.2E1,2.1E1,7E0,1.5E1,1.8E1,3E0,3E0,4E0,1.3E1,2E0,1.1E1,7E0,1E0,2E0,3E0,1E0,9E0,4E0,4E0,7E0,2E0,5E0],"tree_param":{"num_deleted":"0","num_feature":"18","num_nodes":"23","size_leaf_vector":"1"}},{"base_weights":[-1.064732E-1,-3.616695E-1,2.0353347E-1,4.7677332E-1,-3.8384955E0,2.1985333E-1,1.9406979E-1,-2.3721233E-1,-4.817482E-2,2.9411996E-2,-1.3019279E-1],"categories":[],"categories_nodes":[],"categories_segments":[],"categories_sizes":[],"default_left":[0,0,0,1,0,1,0,0,0,0,0],"id":43,"left_children":[1,-1,3,5,7,9,-1,-1,-1,-1,-1],"loss_changes":[1.0601664E2,0E0,5.229831E1,3.7224022E1,2.670269E0,4.5019226E1,0E0,0E0,0E0,0E0,0E0],"parents":[2147483647,0,0,2,2,3,3,4,4,5,5],"right_children":[2,-1,4,6,8,10,-1,-1,-1,-1,-1],"split_conditions":[6E0,-3.616695E-1,9.1E2,3.7142858E-1,2.425E-1,2.894309E-1,1.9406979E-1,-2.3721233E-1,-4.817482E-2,2.9411996E-2,-1.3019279E-1],"split_indices":[14,0,12,0,0,0,0,0,0,0,0],"split_type":[0,0,0,0,0,0,0,0,0,0,0],"sum_hessian":[4.6E1,1E0,4.5E1,4.3E1,2E0,4.1E1,2E0,1E0,1E0,3.7E1,4E0],"tree_param":{"num_deleted":"0","num_feature":"18","num_nodes":"11","size_leaf_vector":"1"}},{"base_weights":[1.851304E-1,-3.1202786E0,1.0575877E0,2.091549E-2,-4.9759574E0,2.4775953E0,4.432812E-1,-1.2286279E-1,-3.3211204E-1,3.0226257E0,1.649826E-1,1.2281602E-1,2.0086113E-1,3.6343485E-2,1.8250331E-1,4.992958E-2,-3.5055887E-2,2.5657415E-2,-9.660662E-2],"categories":[],"categories_nodes":[],"categories_segments":[],"categories_sizes":[],"default_left":[0,0,0,0,0,0,1,0,0,0,0,1,0,0,0,0,0,0,0],"id":44,"left_children":[1,3,5,-1,7,9,11,-1,-1,13,15,17,-1,-1,-1,-1,-1,-1,-1],"loss_changes":[1.24214485E2,6.163562E1,2.826852E1,0E0,7.9495697E0,1.1787003E1,2.7725708E1,0E0,0E0,8.432785E0,2.8958447E0,2.0100275E1,0E0,0E0,0E0,0E0,0E0,0E0,0E0],"parents":[2147483647,0,0,1,1,2,2,4,4,5,5,6,6,9,9,10,10,11,11],"right_children":[2,4,6,-1,8,10,12,-1,-1,14,16,18,-1,-1,-1,-1,-1,-1,-1],"split_conditions":[1.6169754E-1,1.3118279E-1,1.08E2,2.091549E-2,6.1E1,9.3E1,4.2242503E-1,-1.2286279E-1,-3.3211204E-1,1.8112245E-1,1.6381766E-1,2.3058824E-1,2.0086113E-1,3.6343485E-2,1.8250331E-1,4.992958E-2,-3.5055887E-2,2.5657415E-2,-9.660662E-2],"split_indices":[0,0,7,0,6,10,0,0,0,0,0,1,0,0,0,0,0,0,0],"split_type":[0,0,0,0,0,0,0,0,0,0,0,0,0,0,0,0,0,0,0],"sum_hessian":[4.1E1,8E0,3.3E1,3E0,5E0,9E0,2.4E1,3E0,2E0,7E0,2E0,2.3E1,1E0,2E0,5E0,1E0,1E0,2E1,3E0],"tree_param":{"num_deleted":"0","num_feature":"18","num_nodes":"19","size_leaf_vector":"1"}},{"base_weights":[-5.501876E-1,-2.2994058E0,8.671945E-1,-7.171735E-1,-4.5706077E0,2.0809184E-1,3.9540657E-1,-1.5360572E0,8.8025177E-1,-1.663088E0,-3.5186777E-1,-1.249294E0,9.272286E-1,6.025673E-2,-1.020924E-1,5.9047677E-2,1.2639974E-2,-3.6151633E-3,-1.3330883E-1,-7.8023665E-2,5.1650624E-3,-8.317079E-3,8.2367495E-2],"categories":[],"categories_nodes":[],"categories_segments":[],"categories_sizes":[],"default_left":[0,0,0,0,0,0,0,0,0,0,0,0,0,0,0,0,0,0,0,0,0,0,0],"id":45,"left_children":[1,3,5,7,9,-1,11,13,15,17,-1,19,21,-1,-1,-1,-1,-1,-1,-1,-1,-1,-1],"loss_changes":[1.1122691E2,6.8064674E1,3.675797E1,1.8423069E1,4.480313E1,0E0,2.1244E1,1.5022598E1,5.014601E-1,7.5118694E0,0E0,2.8323145E0,1.4597181E1,0E0,0E0,0E0,0E0,0E0,0E0,0E0,0E0,0E0,0E0],"parents":[2147483647,0,0,1,1,2,2,3,3,4,4,6,6,7,7,8,8,9,9,11,11,12,12],"right_children":[2,4,6,8,10,-1,12,14,16,18,-1,20,22,-1,-1,-1,-1,-1,-1,-1,-1,-1,-1],"split_conditions":[9.838384E-1,9.606569E-1,1.1E2,7.534517E-1,2.6E1,2.0809184E-1,2.6E1,5.2E1,7.631579E-1,6.0780287E-1,-3.5186777E-1,5.2E1,2.351E3,6.025673E-2,-1.020924E-1,5.9047677E-2,1.2639974E-2,-3.6151633E-3,-1.3330883E-1,-7.8023665E-2,5.1650624E-3,-8.317079E-3,8.2367495E-2],"split_indices":[4,4,12,2,9,0,9,5,2,2,0,5,11,0,0,0,0,0,0,0,0,0,0],"split_type":[0,0,0,0,0,0,0,0,0,0,0,0,0,0,0,0,0,0,0,0,0,0,0],"sum_hessian":[4.3E1,1.9E1,2.4E1,1.2E1,7E0,2E0,2.2E1,8E0,4E0,4E0,3E0,5E0,1.7E1,1E0,7E0,2E0,2E0,2E0,2E0,4E0,1E0,7E0,1E1],"tree_param":{"num_deleted":"0","num_feature":"18","num_nodes":"23","size_leaf_vector":"1"}},{"base_weights":[9.657094E-2,-3.3552834E-1,3.9918658E-1,-1.3769839E0,8.8425654E-1,1.0838513E0,-1.6074246E-1,6.183907E-1,1.7846589E-1,9.905091E-3,7.874919E-2,5.0878685E-2,-5.261987E-2],"categories":[],"categories_nodes":[],"categories_segments":[],"categories_sizes":[],"default_left":[0,0,0,0,1,0,0,1,0,0,0,0,0],"id":46,"left_children":[1,-1,3,5,7,9,-1,11,-1,-1,-1,-1,-1],"loss_changes":[9.680516E1,0E0,3.9938847E1,4.8924355E1,2.3073177E1,1.6857858E0,0E0,2.3743721E1,0E0,0E0,0E0,0E0,0E0],"parents":[2147483647,0,0,2,2,3,3,4,4,5,5,7,7],"right_children":[2,-1,4,6,8,10,-1,12,-1,-1,-1,-1,-1],"split_conditions":[6E0,-3.3552834E-1,1.6169754E-1,1.3962264E-1,3.7142858E-1,1.3001911E-1,-1.6074246E-1,2.894309E-1,1.7846589E-1,9.905091E-3,7.874919E-2,5.0878685E-2,-5.261987E-2],"split_indices":[14,0,0,0,0,0,0,0,0,0,0,0,0],"split_type":[0,0,0,0,0,0,0,0,0,0,0,0,0],"sum_hessian":[4.5E1,1E0,4.4E1,9E0,3.5E1,4E0,5E0,3.3E1,2E0,2E0,2E0,2.7E1,6E0],"tree_param":{"num_deleted":"0","num_feature":"18","num_nodes":"13","size_leaf_vector":"1"}},{"base_weights":[-3.8554627E-1,-1.0110055E-1,-3.271401E-1,1.0380796E0,-1.1453031E0,2.2857387E0,-1.8378118E-1,-5.5549014E-1,-1.9652478E-1,1.29398955E-2,1.696367E-1,-7.80239E-2,1.467366E-1,7.0769414E-2,-5.541834E-2],"categories":[],"categories_nodes":[],"categories_segments":[],"categories_sizes":[],"default_left":[0,0,0,0,0,0,0,0,0,0,0,0,0,0,0],"id":47,"left_children":[1,3,-1,5,7,9,11,13,-1,-1,-1,-1,-1,-1,-1],"loss_changes":[7.923876E1,5.4728706E1,0E0,3.4168518E1,3.6793884E1,2.343877E1,5.5961124E1,2.4420769E1,0E0,0E0,0E0,0E0,0E0,0E0,0E0],"parents":[2147483647,0,0,1,1,3,3,4,4,5,5,6,6,7,7],"right_children":[2,4,-1,6,8,10,12,14,-1,-1,-1,-1,-1,-1,-1],"split_conditions":[7.3E1,6.275395E-1,-3.271401E-1,2.5537634E-1,6.895E3,2.0360824E-1,3.2E1,9.2E1,-1.9652478E-1,1.29398955E-2,1.696367E-1,-7.80239E-2,1.467366E-1,7.0769414E-2,-5.541834E-2],"split_indices":[6,2,0,0,13,0,9,10,0,0,0,0,0,0,0],"split_type":[0,0,0,0,0,0,0,0,0,0,0,0,0,0,0],"sum_hessian":[4.5E1,4.4E1,1E0,2.1E1,2.3E1,1E1,1.1E1,2E1,3E0,4E0,6E0,8E0,3E0,4E0,1.6E1],"tree_param":{"num_deleted":"0","num_feature":"18","num_nodes":"15","size_leaf_vector":"1"}},{"base_weights":[-8.4273234E-2,9.3623555E-1,-1.2076192E0,2.0976424E-1,5.765053E-1,-2.053805E0,1.7216992E0,-1.9286957E-1,2.5487542E0,4.519986E-1,-2.9350727E0,9.666231E-2,1.938778E-2,6.806723E-2,-4.1635986E-2,4.9473267E-2,1.872444E-1,3.7499983E-2,-1.6000137E-2,5.570904E-2,-1.7067835E-1],"categories":[],"categories_nodes":[],"categories_segments":[],"categories_sizes":[],"default_left":[1,0,0,0,0,0,0,0,1,0,0,0,0,0,0,0,0,0,0,0,0],"id":48,"left_children":[1,3,5,-1,7,9,11,13,15,17,19,-1,-1,-1,-1,-1,-1,-1,-1,-1,-1],"loss_changes":[4.8159515E1,2.2896545E1,5.31442E1,0E0,3.259254E1,3.69075E1,4.292326E-1,1.6992182E1,7.011833E0,1.4332874E0,2.7283798E1,0E0,0E0,0E0,0E0,0E0,0E0,0E0,0E0,0E0,0E0],"parents":[2147483647,0,0,1,1,2,2,4,4,5,5,6,6,7,7,8,8,9,9,10,10],"right_children":[2,4,6,-1,8,10,12,14,16,18,20,-1,-1,-1,-1,-1,-1,-1,-1,-1,-1],"split_conditions":[2.2099448E-2,9.8E1,5.6E1,2.0976424E-1,3.2E1,9.4736844E-2,2.2135782E-1,9E1,2.2135782E-1,2.0856611E-1,9E1,9.666231E-2,1.938778E-2,6.806723E-2,-4.1635986E-2,4.9473267E-2,1.872444E-1,3.7499983E-2,-1.6000137E-2,5.570904E-2,-1.7067835E-1],"split_indices":[3,7,8,0,9,1,0,10,0,0,10,0,0,0,0,0,0,0,0,0,0],"split_type":[0,0,0,0,0,0,0,0,0,0,0,0,0,0,0,0,0,0,0,0,0],"sum_hessian":[4E1,2.1E1,1.9E1,1E0,2E1,1.5E1,4E0,1.5E1,5E0,4E0,1.1E1,3E0,1E0,4E0,1.1E1,3E0,2E0,3E0,1E0,1E0,1E1],"tree_param":{"num_deleted":"0","num_feature":"18","num_nodes":"21","size_leaf_vector":"1"}},{"base_weights":[-3.9828274E-1,-3.201984E-1,-1.321199E-1,1.809694E-1,-2.9453066E-1,7.125466E-1,-6.738681E-1,-1.3324874E-2,5.941996E-2,-1.4231394E-1,-1.4300204E-2],"categories":[],"categories_nodes":[],"categories_segments":[],"categories_sizes":[],"default_left":[0,0,0,0,0,0,0,0,0,0,0],"id":49,"left_children":[1,-1,3,-1,5,7,9,-1,-1,-1,-1],"loss_changes":[7.522784E1,0E0,2.9369944E1,0E0,1.804931E1,6.465345E0,2.7521126E1,0E0,0E0,0E0,0E0],"parents":[2147483647,0,0,2,2,4,4,5,5,6,6],"right_children":[2,-1,4,-1,6,8,10,-1,-1,-1,-1],"split_conditions":[6E0,-3.201984E-1,4.1958043E-1,1.809694E-1,2.103E3,5.5E1,1.33E2,-1.3324874E-2,5.941996E-2,-1.4231394E-1,-1.4300204E-2],"split_indices":[14,0,2,0,11,6,12,0,0,0,0],"split_type":[0,0,0,0,0,0,0,0,0,0,0],"sum_hessian":[4.7E1,1E0,4.6E1,1E0,4.5E1,1.2E1,3.3E1,4E0,8E0,4E0,2.9E1],"tree_param":{"num_deleted":"0","num_feature":"18","num_nodes":"11","size_leaf_vector":"1"}},{"base_weights":[1.7230824E-1,8.6052746E-1,-1.2083836E0,5.198529E-1,1.6303118E-1,-2.2369134E-1,-4.6806934E-1,2.0807795E-1,2.564107E-1,1.0632191E0,-1.6181749E0,3.1137008E-2,-8.398925E-2,2.9283334E-3,8.8853344E-2,5.467373E-2,-1.0531577E-1],"categories":[],"categories_nodes":[],"categories_segments":[],"categories_sizes":[],"default_left":[1,1,0,0,0,0,0,0,1,0,0,0,0,0,0,0,0],"id":50,"left_children":[1,3,5,7,-1,-1,9,-1,11,13,15,-1,-1,-1,-1,-1,-1],"loss_changes":[4.8516E1,2.5727064E1,3.850847E1,2.8231886E1,0E0,0E0,2.8193121E1,0E0,2.2218931E1,4.7325416E0,1.4317478E1,0E0,0E0,0E0,0E0,0E0,0E0],"parents":[2147483647,0,0,1,1,2,2,3,3,6,6,8,8,9,9,10,10],"right_children":[2,4,6,8,-1,-1,10,-1,12,14,16,-1,-1,-1,-1,-1,-1],"split_conditions":[3.837472E-2,3.3096927E-1,4.0954415E-2,9.8E1,1.6303118E-1,-2.2369134E-1,1.2264151E-1,2.0807795E-1,2.894309E-1,2.3E1,1.01E2,3.1137008E-2,-8.398925E-2,2.9283334E-3,8.8853344E-2,5.467373E-2,-1.0531577E-1],"split_indices":[3,0,3,7,0,0,1,0,0,15,7,0,0,0,0,0,0],"split_type":[0,0,0,0,0,0,0,0,0,0,0,0,0,0,0,0,0],"sum_hessian":[4.9E1,3.3E1,1.6E1,3E1,3E0,2E0,1.4E1,1E0,2.9E1,6E0,8E0,2.5E1,4E0,3E0,3E0,1E0,7E0],"tree_param":{"num_deleted":"0","num_feature":"18","num_nodes":"17","size_leaf_vector":"1"}},{"base_weights":[3.271923E-2,2.0278874E-1,-2.0926891E-1,2.0287605E-1,3.9273366E-2,-1.597844E-1,1.5890437E-1,7.903563E-3,-1.00648485E-1],"categories":[],"categories_nodes":[],"categories_segments":[],"categories_sizes":[],"default_left":[0,0,0,0,1,1,0,0,0],"id":51,"left_children":[1,3,-1,-1,5,7,-1,-1,-1],"loss_changes":[3.7036346E1,3.0946365E1,0E0,0E0,3.14251E1,2.8188818E1,0E0,0E0,0E0],"parents":[2147483647,0,0,1,1,4,4,5,5],"right_children":[2,4,-1,-1,6,8,-1,-1,-1],"split_conditions":[9.42E2,9.8E1,-2.0926891E-1,2.0287605E-1,3.7142858E-1,2.894309E-1,1.5890437E-1,7.903563E-3,-1.00648485E-1],"split_indices":[12,7,0,0,0,0,0,0,0],"split_type":[0,0,0,0,0,0,0,0,0],"sum_hessian":[5E1,4.9E1,1E0,1E0,4.8E1,4.6E1,2E0,4E1,6E0],"tree_param":{"num_deleted":"0","num_feature":"18","num_nodes":"9","size_leaf_vector":"1"}},{"base_weights":[-1.1509074E-2,-2.0712779E0,6.92169E-1,1.0981076E0,-3.805734E0,-7.062132E-1,1.3666865E0,2.1669941E-2,9.142357E-2,-2.8563377E-1,-2.2013078E0,1.433905E-1,-3.3361545E0,1.722076E0,-8.3086625E-2,-1.19444266E-1,-2.9085502E-2,-1.4621669E-2,4.4761736E-2,-4.367443E-2,-2.0403714E-1,1.4762273E-1,5.3495284E-2],"categories":[],"categories_nodes":[],"categories_segments":[],"categories_sizes":[],"default_left":[0,0,0,0,0,0,1,0,0,0,0,0,0,0,0,0,0,0,0,0,0,0,0],"id":52,"left_children":[1,3,5,7,9,11,13,-1,-1,-1,15,17,19,21,-1,-1,-1,-1,-1,-1,-1,-1,-1],"loss_changes":[6.824464E1,7.041579E1,3.4044376E1,1.4087515E0,1.11096115E1,2.7610542E1,2.8698109E1,0E0,0E0,0E0,1.3610268E-1,3.598793E0,1.4411163E0,1.4092079E1,0E0,0E0,0E0,0E0,0E0,0E0,0E0,0E0,0E0],"parents":[2147483647,0,0,1,1,2,2,3,3,4,4,5,5,6,6,10,10,11,11,12,12,13,13],"right_children":[2,4,6,8,10,12,14,-1,-1,-1,16,18,20,22,-1,-1,-1,-1,-1,-1,-1,-1,-1],"split_conditions":[1.625E-1,1.3962264E-1,1.5113872E-1,1.3118279E-1,2.37E3,1.3659793E-1,2.6241866E-1,2.1669941E-2,9.142357E-2,-2.8563377E-1,1.6169754E-1,1.3E2,2.043956E-1,1.9104478E-1,-8.3086625E-2,-1.19444266E-1,-2.9085502E-2,-1.4621669E-2,4.4761736E-2,-4.367443E-2,-2.0403714E-1,1.4762273E-1,5.3495284E-2],"split_indices":[0,0,1,0,13,1,1,0,0,0,0,7,0,1,0,0,0,0,0,0,0,0,0],"split_type":[0,0,0,0,0,0,0,0,0,0,0,0,0,0,0,0,0,0,0,0,0,0,0],"sum_hessian":[4.5E1,1.1E1,3.4E1,4E0,7E0,1.1E1,2.3E1,3E0,1E0,2E0,5E0,9E0,2E0,2.1E1,2E0,4E0,1E0,6E0,3E0,1E0,1E0,6E0,1.5E1],"tree_param":{"num_deleted":"0","num_feature":"18","num_nodes":"23","size_leaf_vector":"1"}},{"base_weights":[7.58247E-2,3.222238E-1,-3.2014384E0,9.9305764E-2,1.5025556E-1,-1.9893624E-1,-3.8671646E-2,-1.9646782E0,4.7459662E-1,-1.1914289E-1,-3.594396E-2,-9.5689304E-2,3.4682333E-2],"categories":[],"categories_nodes":[],"categories_segments":[],"categories_sizes":[],"default_left":[0,1,0,0,0,0,0,0,0,0,0,0,0],"id":53,"left_children":[1,3,5,7,-1,-1,-1,9,11,-1,-1,-1,-1],"loss_changes":[3.4659275E1,2.3313694E1,2.109274E0,3.0218004E1,0E0,0E0,0E0,1.1026478E0,1.8470264E1,0E0,0E0,0E0,0E0],"parents":[2147483647,0,0,1,1,2,2,3,3,7,7,8,8],"right_children":[2,4,6,8,-1,-1,-1,10,12,-1,-1,-1,-1],"split_conditions":[7.6E2,3.7142858E-1,2.425E-1,5.214153E-1,1.5025556E-1,-1.9893624E-1,-3.8671646E-2,3E-1,7E0,-1.1914289E-1,-3.594396E-2,-9.5689304E-2,3.4682333E-2],"split_indices":[12,0,0,2,0,0,0,17,14,0,0,0,0],"split_type":[0,0,0,0,0,0,0,0,0,0,0,0,0],"sum_hessian":[4.1E1,3.9E1,2E0,3.7E1,2E0,1E0,1E0,5E0,3.2E1,3E0,2E0,2E0,3E1],"tree_param":{"num_deleted":"0","num_feature":"18","num_nodes":"13","size_leaf_vector":"1"}},{"base_weights":[-3.195332E-1,-3.036364E-1,-5.451267E-2,1.9736534E-1,-2.3744735E-1,-3.9501578E-1,1.6094987E-1,-7.3217176E-2,1.4459558E-2],"categories":[],"categories_nodes":[],"categories_segments":[],"categories_sizes":[],"default_left":[0,0,0,0,1,0,0,0,0],"id":54,"left_children":[1,-1,3,-1,5,7,-1,-1,-1],"loss_changes":[6.919311E1,0E0,3.3509514E1,0E0,2.4952724E1,3.2001575E1,0E0,0E0,0E0],"parents":[2147483647,0,0,2,2,4,4,5,5],"right_children":[2,-1,4,-1,6,8,-1,-1,-1],"split_conditions":[6E0,-3.036364E-1,9.8E1,1.9736534E-1,4.2242503E-1,3.0900463E-1,1.6094987E-1,-7.3217176E-2,1.4459558E-2],"split_indices":[14,0,7,0,0,17,0,0,0],"split_type":[0,0,0,0,0,0,0,0,0],"sum_hessian":[4.5E1,1E0,4.4E1,1E0,4.3E1,4.2E1,1E0,1.6E1,2.6E1],"tree_param":{"num_deleted":"0","num_feature":"18","num_nodes":"9","size_leaf_vector":"1"}},{"base_weights":[-4.078349E-1,-1.3960263E-1,-2.9604554E-1,1.9243123E-1,-3.2857528E-1,-6.463269E-1,2.1320524E0,-5.023259E-2,5.3488802E-2,-2.884079E-2,1.4892367E-1],"categories":[],"categories_nodes":[],"categories_segments":[],"categories_sizes":[],"default_left":[0,0,0,0,1,0,0,0,0,0,0],"id":55,"left_children":[1,3,-1,-1,5,7,9,-1,-1,-1,-1],"loss_changes":[6.3633904E1,3.3320187E1,0E0,0E0,3.4067905E1,2.4435286E1,1.3422411E1,0E0,0E0,0E0,0E0],"parents":[2147483647,0,0,1,1,4,4,5,5,6,6],"right_children":[2,4,-1,-1,6,8,10,-1,-1,-1,-1],"split_conditions":[7.3E1,9.8E1,-2.9604554E-1,1.9243123E-1,3.3096927E-1,5.6E1,1.7283726E-1,-5.023259E-2,5.3488802E-2,-2.884079E-2,1.4892367E-1],"split_indices":[6,7,0,0,0,8,1,0,0,0,0],"split_type":[0,0,0,0,0,0,0,0,0,0,0],"sum_hessian":[4.3E1,4.2E1,1E0,1E0,4.1E1,3.7E1,4E0,3.1E1,6E0,1E0,3E0],"tree_param":{"num_deleted":"0","num_feature":"18","num_nodes":"11","size_leaf_vector":"1"}},{"base_weights":[2.4829088E-1,6.002804E-1,-4.2596736E0,1.3725603E-1,3.3514783E-1,-2.8864437E-1,-2.8331146E-2,9.5944196E-2,6.566947E-2,-1.3406331E-2,6.313514E-2],"categories":[],"categories_nodes":[],"categories_segments":[],"categories_sizes":[],"default_left":[1,0,0,0,0,0,0,0,0,0,0],"id":56,"left_children":[1,3,5,-1,7,-1,-1,-1,9,-1,-1],"loss_changes":[6.5661316E1,2.0381302E1,1.2860119E1,0E0,1.4612924E1,0E0,0E0,0E0,1.2824536E1,0E0,0E0],"parents":[2147483647,0,0,1,1,2,2,4,4,8,8],"right_children":[2,4,6,-1,8,-1,-1,-1,10,-1,-1],"split_conditions":[3.9027777E-1,4.6412557E-1,1.4732964E-1,1.3725603E-1,2.177E3,-2.8864437E-1,-2.8331146E-2,9.5944196E-2,7.534517E-1,-1.3406331E-2,6.313514E-2],"split_indices":[17,2,0,0,13,0,0,0,2,0,0],"split_type":[0,0,0,0,0,0,0,0,0,0,0],"sum_hessian":[3.9E1,3.7E1,2E0,3E0,3.4E1,1E0,1E0,4E0,3E1,2.4E1,6E0],"tree_param":{"num_deleted":"0","num_feature":"18","num_nodes":"11","size_leaf_vector":"1"}},{"base_weights":[-2.1048279E-1,5.487464E-2,-4.1540165E0,7.206455E-1,-1.1906253E0,-2.814283E-1,-2.7622947E-2,1.5399562E-1,2.0146067E0,9.9935424E-1,-2.0122313E0,4.7765914E-2,-1.3848809E-2,4.573967E-2,1.5678374E-1,9.33977E-2,-5.937611E-2,-1.3049448E-1,3.0868633E-2],"categories":[],"categories_nodes":[],"categories_segments":[],"categories_sizes":[],"default_left":[1,1,0,0,0,0,0,0,0,0,0,0,0,0,0,0,0,0,0],"id":57,"left_children":[1,3,5,7,9,-1,-1,11,13,15,17,-1,-1,-1,-1,-1,-1,-1,-1],"loss_changes":[4.9820827E1,3.812581E1,1.2204369E1,2.1469584E1,3.0901028E1,0E0,0E0,7.930079E0,7.8231506E0,1.1783879E1,2.0669773E1,0E0,0E0,0E0,0E0,0E0,0E0,0E0,0E0],"parents":[2147483647,0,0,1,1,2,2,3,3,4,4,7,7,8,8,9,9,10,10],"right_children":[2,4,6,8,10,-1,-1,12,14,16,18,-1,-1,-1,-1,-1,-1,-1,-1],"split_conditions":[3.9027777E-1,3.837472E-2,1.4732964E-1,3.2E1,9.2E1,-2.814283E-1,-2.7622947E-2,1.07E2,7.613E3,9.010989E-2,1.2244898E-1,4.7765914E-2,-1.3848809E-2,4.573967E-2,1.5678374E-1,9.33977E-2,-5.937611E-2,-1.3049448E-1,3.0868633E-2],"split_indices":[17,3,0,9,10,0,0,7,13,3,3,0,0,0,0,0,0,0,0],"split_type":[0,0,0,0,0,0,0,0,0,0,0,0,0,0,0,0,0,0,0],"sum_hessian":[4.6E1,4.4E1,2E0,2.9E1,1.5E1,1E0,1E0,2.1E1,8E0,4E0,1.1E1,7E0,1.4E1,5E0,3E0,3E0,1E0,9E0,2E0],"tree_param":{"num_deleted":"0","num_feature":"18","num_nodes":"19","size_leaf_vector":"1"}},{"base_weights":[-4.346763E-2,-2.7439258E-1,1.9201574E-1,7.7056104E-1,-1.3281809E0,1.8676144E-1,5.645036E-1,-1.9580553E-1,-4.9254733E-1,5.0543627E-4,9.1430046E-2,-8.459433E-2,3.8610827E-2],"categories":[],"categories_nodes":[],"categories_segments":[],"categories_sizes":[],"default_left":[0,0,1,0,0,0,0,0,0,0,0,0,0],"id":58,"left_children":[1,-1,3,5,7,-1,9,-1,11,-1,-1,-1,-1],"loss_changes":[6.1840244E1,0E0,4.1424805E1,1.82318E1,2.5743555E1,0E0,2.2924343E1,0E0,1.808416E1,0E0,0E0,0E0,0E0],"parents":[2147483647,0,0,2,2,3,3,4,4,6,6,8,8],"right_children":[2,-1,4,6,8,-1,10,-1,12,-1,-1,-1,-1],"split_conditions":[6E0,-2.7439258E-1,3.837472E-2,9.8E1,4.0954415E-2,1.8676144E-1,3.2E1,-1.9580553E-1,5.9E1,5.0543627E-4,9.1430046E-2,-8.459433E-2,3.8610827E-2],"split_indices":[14,0,3,7,3,0,9,0,5,0,0,0,0],"split_type":[0,0,0,0,0,0,0,0,0,0,0,0,0],"sum_hessian":[4.6E1,1E0,4.5E1,3.3E1,1.2E1,1E0,3.2E1,2E0,1E1,2.3E1,9E0,5E0,5E0],"tree_param":{"num_deleted":"0","num_feature":"18","num_nodes":"13","size_leaf_vector":"1"}},{"base_weights":[1.6402458E-1,4.570521E-1,-3.9597023E0,1.8209244E-1,2.8810954E-1,-2.675328E-1,-2.6944885E-2,1.2575623E0,-2.0333503E-1,2.8274825E-2,1.0347003E-1,-7.0259504E-2,2.1732949E-2],"categories":[],"categories_nodes":[],"categories_segments":[],"categories_sizes":[],"default_left":[1,0,0,0,0,0,0,1,0,0,0,0,0],"id":59,"left_children":[1,3,5,-1,7,-1,-1,9,11,-1,-1,-1,-1],"loss_changes":[5.46276E1,2.1155758E1,1.0802132E1,0E0,1.989485E1,0E0,0E0,6.43211E0,2.217757E1,0E0,0E0,0E0,0E0],"parents":[2147483647,0,0,1,1,2,2,4,4,7,7,8,8],"right_children":[2,4,6,-1,8,-1,-1,10,12,-1,-1,-1,-1],"split_conditions":[3.9027777E-1,9.8E1,1.4732964E-1,1.8209244E-1,9.2E1,-2.675328E-1,-2.6944885E-2,6.135291E-1,2.8E1,2.8274825E-2,1.0347003E-1,-7.0259504E-2,2.1732949E-2],"split_indices":[17,7,0,0,10,0,0,2,9,0,0,0,0],"split_type":[0,0,0,0,0,0,0,0,0,0,0,0,0],"sum_hessian":[4.3E1,4.1E1,2E0,1E0,4E1,1E0,1E0,1.3E1,2.7E1,8E0,5E0,9E0,1.8E1],"tree_param":{"num_deleted":"0","num_feature":"18","num_nodes":"13","size_leaf_vector":"1"}},{"base_weights":[3.551835E-1,1.7754017E-1,1.9217342E-1,1.4085971E-1,-7.007465E-3,5.432378E-1,-1.3445163E0,6.89111E-2,-1.902131E-3,-2.1923015E-2,-1.5110067E-1],"categories":[],"categories_nodes":[],"categories_segments":[],"categories_sizes":[],"default_left":[0,0,0,0,1,0,0,0,0,0,0],"id":60,"left_children":[1,-1,3,-1,5,7,9,-1,-1,-1,-1],"loss_changes":[2.1342817E1,0E0,2.2260626E1,0E0,3.0248838E1,1.42618885E1,1.6567797E1,0E0,0E0,0E0,0E0],"parents":[2147483647,0,0,2,2,4,4,5,5,6,6],"right_children":[2,-1,4,-1,6,8,10,-1,-1,-1,-1],"split_conditions":[9.8E1,1.7754017E-1,4.635294E-1,1.4085971E-1,2.2573364E-1,6.5561694E-1,6.060606E-3,6.89111E-2,-1.902131E-3,-2.1923015E-2,-1.5110067E-1],"split_indices":[7,0,2,0,0,2,3,0,0,0,0],"split_type":[0,0,0,0,0,0,0,0,0,0,0],"sum_hessian":[4.2E1,1E0,4.1E1,2E0,3.9E1,2.8E1,1.1E1,1.1E1,1.7E1,8E0,3E0],"tree_param":{"num_deleted":"0","num_feature":"18","num_nodes":"11","size_leaf_vector":"1"}},{"base_weights":[5.600354E-2,-2.6256728E-1,2.780597E-1,7.987475E-1,-7.1253264E-1,1.7310159E-1,5.9793085E-1,-1.8591987E-1,-5.7190858E-2,3.7175403E-3,8.40007E-2,-4.259784E-2,6.301421E-2],"categories":[],"categories_nodes":[],"categories_segments":[],"categories_sizes":[],"default_left":[0,0,1,0,0,0,0,0,0,0,0,0,0],"id":61,"left_children":[1,-1,3,5,7,-1,9,-1,11,-1,-1,-1,-1],"loss_changes":[5.8710808E1,0E0,2.5335642E1,1.4638563E1,3.289755E1,0E0,1.7262922E1,0E0,1.6739138E1,0E0,0E0,0E0,0E0],"parents":[2147483647,0,0,2,2,3,3,4,4,6,6,8,8],"right_children":[2,-1,4,6,8,-1,10,-1,12,-1,-1,-1,-1],"split_conditions":[6E0,-2.6256728E-1,3.837472E-2,9.8E1,4.0954415E-2,1.7310159E-1,3.2E1,-1.8591987E-1,7.534517E-1,3.7175403E-3,8.40007E-2,-4.259784E-2,6.301421E-2],"split_indices":[14,0,3,7,3,0,9,0,2,0,0,0,0],"split_type":[0,0,0,0,0,0,0,0,0,0,0,0,0],"sum_hessian":[4.8E1,1E0,4.7E1,3.1E1,1.6E1,1E0,3E1,2E0,1.4E1,2.1E1,9E0,9E0,5E0],"tree_param":{"num_deleted":"0","num_feature":"18","num_nodes":"13","size_leaf_vector":"1"}},{"base_weights":[3.2242805E-2,-2.5600314E-1,2.6797846E-1,7.4572974E-1,-9.209461E-1,1.6833696E0,2.3846757E-1,-1.7972252E-1,-9.899542E-2,1.4021216E-1,3.1398926E-2,-4.778275E-2,7.642794E-2,5.422848E-2,-3.4545176E-2],"categories":[],"categories_nodes":[],"categories_segments":[],"categories_sizes":[],"default_left":[0,0,1,0,0,0,0,0,0,0,0,0,0,0,0],"id":62,"left_children":[1,-1,3,5,7,9,11,-1,13,-1,-1,-1,-1,-1,-1],"loss_changes":[5.5543056E1,0E0,2.5661709E1,1.4626522E1,2.784217E1,1.0908335E1,3.540966E1,0E0,8.416143E0,0E0,0E0,0E0,0E0,0E0,0E0],"parents":[2147483647,0,0,2,2,3,3,4,4,5,5,6,6,8,8],"right_children":[2,-1,4,6,8,10,12,-1,14,-1,-1,-1,-1,-1,-1],"split_conditions":[6E0,-2.5600314E-1,3.837472E-2,1.08E2,4.0954415E-2,5.2747256E-1,3.1E1,-1.7972252E-1,7.0393376E-2,1.4021216E-1,3.1398926E-2,-4.778275E-2,7.642794E-2,5.422848E-2,-3.4545176E-2],"split_indices":[14,0,3,7,3,2,9,0,3,0,0,0,0,0,0],"split_type":[0,0,0,0,0,0,0,0,0,0,0,0,0,0,0],"sum_hessian":[4.4E1,1E0,4.3E1,3.1E1,1.2E1,1E1,2.1E1,2E0,1E1,4E0,6E0,1.1E1,1E1,3E0,7E0],"tree_param":{"num_deleted":"0","num_feature":"18","num_nodes":"15","size_leaf_vector":"1"}},{"base_weights":[-2.164537E-1,8.052401E-1,-1.3299062E0,1.0105413E0,-9.02847E-2,-3.7189574E0,-1.1968857E-1,-8.8971555E-2,1.7862788E0,-3.994831E-2,-4.7071605E0,6.1054635E-1,-1.3334653E0,-3.264435E-2,1.1584516E-2,1.1574314E-1,-0E0,-2.6007384E-1,-6.574742E-2,-1.4088968E-2,7.8961395E-2,3.7724838E-2,-9.609786E-2],"categories":[],"categories_nodes":[],"categories_segments":[],"categories_sizes":[],"default_left":[1,1,0,1,0,0,0,0,0,0,0,0,0,0,0,0,0,0,0,0,0,0,0],"id":63,"left_children":[1,3,5,7,-1,9,11,13,15,-1,17,19,21,-1,-1,-1,-1,-1,-1,-1,-1,-1,-1],"loss_changes":[5.0040478E1,1.4073858E1,5.988773E1,1.909319E1,0E0,1.5887337E1,1.4181566E1,2.001649E0,1.2105602E1,0E0,8.92807E-1,9.218533E0,8.939347E0,0E0,0E0,0E0,0E0,0E0,0E0,0E0,0E0,0E0,0E0],"parents":[2147483647,0,0,1,1,2,2,3,3,5,5,6,6,7,7,8,8,10,10,11,11,12,12],"right_children":[2,4,6,8,-1,10,12,14,16,-1,18,20,22,-1,-1,-1,-1,-1,-1,-1,-1,-1,-1],"split_conditions":[2.1352313E-2,2.890443E-1,6.597938E-1,1.7992178E-1,-9.02847E-2,2.6E1,2.276E3,6.7346936E-1,9.5E1,-3.994831E-2,6.283367E-1,1.0537634E-1,8.75E-2,-3.264435E-2,1.1584516E-2,1.1574314E-1,-0E0,-2.6007384E-1,-6.574742E-2,-1.4088968E-2,7.8961395E-2,3.7724838E-2,-9.609786E-2],"split_indices":[3,1,2,1,0,9,11,2,10,0,2,1,1,0,0,0,0,0,0,0,0,0,0],"split_type":[0,0,0,0,0,0,0,0,0,0,0,0,0,0,0,0,0,0,0,0,0,0,0],"sum_hessian":[4.2E1,2.2E1,2E1,2.1E1,1E0,6E0,1.4E1,9E0,1.2E1,2E0,4E0,9E0,5E0,3E0,6E0,9E0,3E0,3E0,1E0,5E0,4E0,1E0,4E0],"tree_param":{"num_deleted":"0","num_feature":"18","num_nodes":"23","size_leaf_vector":"1"}},{"base_weights":[1.0649574E-1,-5.1582664E-2,1.1587141E-1,-5.73386E-1,6.704544E-1,-1.1529456E0,2.599576E-1,1.4491142E-1,2.0459333E-1,2.661133E-4,-1.0897976E-1,-2.3189643E-2,6.206084E-2,2.6417816E-2,-4.3689232E-2],"categories":[],"categories_nodes":[],"categories_segments":[],"categories_sizes":[],"default_left":[1,0,0,0,0,0,0,0,1,0,0,0,0,0,0],"id":64,"left_children":[1,3,-1,5,7,9,11,-1,13,-1,-1,-1,-1,-1,-1],"loss_changes":[1.5724151E1,1.61987E1,0E0,1.2463322E1,1.777776E1,1.8066057E1,8.465465E0,0E0,6.013348E0,0E0,0E0,0E0,0E0,0E0,0E0],"parents":[2147483647,0,0,1,1,3,3,4,4,5,5,6,6,8,8],"right_children":[2,4,-1,6,8,10,12,-1,14,-1,-1,-1,-1,-1,-1],"split_conditions":[3.7142858E-1,3.3333334E-1,1.1587141E-1,9.4E1,5.0731707E-1,9.2E1,2.777778E-1,1.4491142E-1,7.0393376E-2,2.661133E-4,-1.0897976E-1,-2.3189643E-2,6.206084E-2,2.6417816E-2,-4.3689232E-2],"split_indices":[0,17,0,10,2,10,17,0,3,0,0,0,0,0,0],"split_type":[0,0,0,0,0,0,0,0,0,0,0,0,0,0,0],"sum_hessian":[4.3E1,4.1E1,2E0,2.4E1,1.7E1,1.4E1,1E1,2E0,1.5E1,7E0,7E0,6E0,4E0,1.2E1,3E0],"tree_param":{"num_deleted":"0","num_feature":"18","num_nodes":"15","size_leaf_vector":"1"}},{"base_weights":[8.774317E-2,8.6160904E-1,-6.855898E-1,5.035949E-1,2.4112773E0,-2.2648479E-1,-1.3923585E-1,1.8063049E-1,1.1200916E-1,1.417881E-2,1.4963262E-1,-1.5420125E0,1.9252291E-1,-3.65399E-2,2.5019068E-2,1.1798058E-2,-1.03524804E-1,7.1645945E-2,-3.425033E-2],"categories":[],"categories_nodes":[],"categories_segments":[],"categories_sizes":[],"default_left":[1,1,0,1,0,0,0,0,0,0,0,0,0,0,0,0,0,0,0],"id":65,"left_children":[1,3,5,7,9,11,-1,13,-1,-1,-1,15,17,-1,-1,-1,-1,-1,-1],"loss_changes":[2.753883E1,1.1254679E1,2.123374E1,1.0570396E1,3.7717018E0,1.1456146E1,0E0,5.588377E0,0E0,0E0,0E0,5.37016E0,1.8472095E1,0E0,0E0,0E0,0E0,0E0,0E0],"parents":[2147483647,0,0,1,1,2,2,3,3,4,4,5,5,7,7,11,11,12,12],"right_children":[2,4,6,8,10,12,-1,14,-1,-1,-1,16,18,-1,-1,-1,-1,-1,-1],"split_conditions":[6.275395E-1,3.5E-1,9.9E1,3.7142858E-1,1.3118279E-1,1.33E2,-1.3923585E-1,2.9652777E-1,1.1200916E-1,1.417881E-2,1.4963262E-1,1.18257076E-1,1.94E2,-3.65399E-2,2.5019068E-2,1.1798058E-2,-1.03524804E-1,7.1645945E-2,-3.425033E-2],"split_indices":[2,17,10,0,0,12,0,17,0,0,0,0,12,0,0,0,0,0,0],"split_type":[0,0,0,0,0,0,0,0,0,0,0,0,0,0,0,0,0,0,0],"sum_hessian":[4.4E1,2.2E1,2.2E1,1.9E1,3E0,1.9E1,3E0,1.7E1,2E0,1E0,2E0,4E0,1.5E1,4E0,1.3E1,1E0,3E0,6E0,9E0],"tree_param":{"num_deleted":"0","num_feature":"18","num_nodes":"19","size_leaf_vector":"1"}},{"base_weights":[-1.8335572E-1,-2.4750237E-1,5.706278E-2,1.4464478E-1,-1.6568883E-1,7.407175E-1,-7.294557E-1,-4.688152E-3,1.22421555E-1,-1.2721388E-1,-5.6349263E-3],"categories":[],"categories_nodes":[],"categories_segments":[],"categories_sizes":[],"default_left":[0,0,0,0,0,0,0,0,0,0,0],"id":66,"left_children":[1,-1,3,-1,5,7,9,-1,-1,-1,-1],"loss_changes":[4.7757797E1,0E0,2.6019493E1,0E0,1.9957266E1,2.1840847E1,2.6310875E1,0E0,0E0,0E0,0E0],"parents":[2147483647,0,0,2,2,4,4,5,5,6,6],"right_children":[2,-1,4,-1,6,8,10,-1,-1,-1,-1],"split_conditions":[6E0,-2.4750237E-1,1E2,1.4464478E-1,2.9791668E-1,7.613E3,3.0900463E-1,-4.688152E-3,1.22421555E-1,-1.2721388E-1,-5.6349263E-3],"split_indices":[14,0,7,0,17,13,17,0,0,0,0],"split_type":[0,0,0,0,0,0,0,0,0,0,0],"sum_hessian":[4E1,1E0,3.9E1,2E0,3.7E1,1.4E1,2.3E1,1E1,4E0,5E0,1.8E1],"tree_param":{"num_deleted":"0","num_feature":"18","num_nodes":"11","size_leaf_vector":"1"}},{"base_weights":[-2.5806097E-2,-2.4131484E-1,1.6472965E-1,1.5139519E-1,4.2462766E-2,-7.9463995E-1,4.3808573E-1,3.8675368E-2,-6.9507405E-2,1.2732819E-3,1.0058484E-1],"categories":[],"categories_nodes":[],"categories_segments":[],"categories_sizes":[],"default_left":[0,0,0,0,0,0,0,0,0,0,0],"id":67,"left_children":[1,-1,3,-1,5,7,9,-1,-1,-1,-1],"loss_changes":[4.7909115E1,0E0,1.706796E1,0E0,1.6540142E1,1.6078465E1,2.1821375E1,0E0,0E0,0E0,0E0],"parents":[2147483647,0,0,2,2,4,4,5,5,6,6],"right_children":[2,-1,4,-1,6,8,10,-1,-1,-1,-1],"split_conditions":[6E0,-2.4131484E-1,9.8E1,1.5139519E-1,2.6E1,2.3E1,7.613E3,3.8675368E-2,-6.9507405E-2,1.2732819E-3,1.0058484E-1],"split_indices":[14,0,7,0,9,9,13,0,0,0,0],"split_type":[0,0,0,0,0,0,0,0,0,0,0],"sum_hessian":[5E1,1E0,4.9E1,1E0,4.8E1,1.5E1,3.3E1,4E0,1.1E1,2.7E1,6E0],"tree_param":{"num_deleted":"0","num_feature":"18","num_nodes":"11","size_leaf_vector":"1"}},{"base_weights":[-2.5444624E-1,6.1275214E-1,-1.3207659E0,7.7087915E-1,-8.1010595E-2,-3.1284168E0,-3.8247773E-1,-1.2555195E-1,1.3835367E0,-3.5571516E0,-1.1400185E-2,3.6145157E-1,-1.5752803E0,-2.0244082E-2,3.604772E-2,1.2791803E-1,4.3415032E-2,-3.8079415E-2,-1.9719733E-1,6.1587702E-2,-3.6760088E-2,-1.18926E-1,5.852295E-2],"categories":[],"categories_nodes":[],"categories_segments":[],"categories_sizes":[],"default_left":[1,1,0,1,0,0,0,0,0,0,0,0,0,0,0,0,0,0,0,0,0,0,0],"id":68,"left_children":[1,3,5,7,-1,9,11,13,15,17,-1,19,21,-1,-1,-1,-1,-1,-1,-1,-1,-1,-1],"loss_changes":[4.3416794E1,1.0344446E1,3.40704E1,1.4029636E1,0E0,7.5149994E0,1.4001181E1,2.861292E0,6.515581E0,3.013649E0,0E0,1.0499444E1,1.6137688E1,0E0,0E0,0E0,0E0,0E0,0E0,0E0,0E0,0E0,0E0],"parents":[2147483647,0,0,1,1,2,2,3,3,5,5,6,6,7,7,8,8,9,9,11,11,12,12],"right_children":[2,4,6,8,-1,10,12,14,16,18,-1,20,22,-1,-1,-1,-1,-1,-1,-1,-1,-1,-1],"split_conditions":[2.1352313E-2,2.890443E-1,2.652E3,1.7992178E-1,-8.1010595E-2,6.2E1,5.551E3,2.4E1,2.7E1,4.7E1,-1.1400185E-2,3.3541667E-1,2.425E-1,-2.0244082E-2,3.604772E-2,1.2791803E-1,4.3415032E-2,-3.8079415E-2,-1.9719733E-1,6.1587702E-2,-3.6760088E-2,-1.18926E-1,5.852295E-2],"split_indices":[3,1,13,1,0,8,13,15,9,8,0,17,0,0,0,0,0,0,0,0,0,0,0],"split_type":[0,0,0,0,0,0,0,0,0,0,0,0,0,0,0,0,0,0,0,0,0,0,0],"sum_hessian":[4.5E1,2.5E1,2E1,2.4E1,1E0,6E0,1.4E1,1E1,1.4E1,5E0,1E0,9E0,5E0,8E0,2E0,3E0,1.1E1,1E0,4E0,5E0,4E0,4E0,1E0],"tree_param":{"num_deleted":"0","num_feature":"18","num_nodes":"23","size_leaf_vector":"1"}},{"base_weights":[-2.666064E-1,-2.3035207E-1,-6.992213E-2,2.3653962E-1,-1.3251083E-1,1.4441238E-1,9.897973E-2,3.804939E-2,-1.3438237E-2],"categories":[],"categories_nodes":[],"categories_segments":[],"categories_sizes":[],"default_left":[0,0,0,0,0,0,0,0,0],"id":69,"left_children":[1,-1,3,5,-1,-1,7,-1,-1],"loss_changes":[3.9333855E1,0E0,3.7243275E1,1.4735683E1,0E0,0E0,1.023519E1,0E0,0E0],"parents":[2147483647,0,0,2,2,3,3,6,6],"right_children":[2,-1,4,6,-1,-1,8,-1,-1],"split_conditions":[6E0,-2.3035207E-1,5.87E2,9.8E1,-1.3251083E-1,1.4441238E-1,9.2E1,3.804939E-2,-1.3438237E-2],"split_indices":[14,0,12,7,0,0,10,0,0],"split_type":[0,0,0,0,0,0,0,0,0],"sum_hessian":[4.6E1,1E0,4.5E1,4.1E1,4E0,1E0,4E1,1.4E1,2.6E1],"tree_param":{"num_deleted":"0","num_feature":"18","num_nodes":"9","size_leaf_vector":"1"}},{"base_weights":[-2.93811E-1,-2.2459331E-1,-8.9394204E-2,-4.3809775E-1,1.0951372E0,-7.6383417E-3,-1.1251754E0,1.9550372E0,-1.3577011E-1,-1.4076821E-2,8.937808E-2,-1.5493709E-1,-2.377752E-2,1.2935065E-1,4.8364814E-2,-4.3280322E-2,3.029948E-2],"categories":[],"categories_nodes":[],"categories_segments":[],"categories_sizes":[],"default_left":[0,0,1,1,0,0,0,0,0,0,0,0,0,0,0,0,0],"id":70,"left_children":[1,-1,3,5,7,9,11,13,15,-1,-1,-1,-1,-1,-1,-1,-1],"loss_changes":[3.689906E1,0E0,1.8175238E1,9.933929E0,1.1031932E1,1.11701E1,1.4835978E1,8.875313E-1,3.257326E0,0E0,0E0,0E0,0E0,0E0,0E0,0E0,0E0],"parents":[2147483647,0,0,2,2,3,3,4,4,5,5,6,6,7,7,8,8],"right_children":[2,-1,4,6,8,10,12,14,16,-1,-1,-1,-1,-1,-1,-1,-1],"split_conditions":[6E0,-2.2459331E-1,3.3819443E-1,3.837472E-2,3.7708333E-1,1.52E2,4.0954415E-2,5.2747256E-1,5E1,-1.4076821E-2,8.937808E-2,-1.5493709E-1,-2.377752E-2,1.2935065E-1,4.8364814E-2,-4.3280322E-2,3.029948E-2],"split_indices":[14,0,17,3,17,7,3,2,8,0,0,0,0,0,0,0,0],"split_type":[0,0,0,0,0,0,0,0,0,0,0,0,0,0,0,0,0],"sum_hessian":[4.3E1,1E0,4.2E1,3.3E1,9E0,2.1E1,1.2E1,5E0,4E0,1.9E1,2E0,2E0,1E1,2E0,3E0,2E0,2E0],"tree_param":{"num_deleted":"0","num_feature":"18","num_nodes":"17","size_leaf_vector":"1"}},{"base_weights":[1.00006245E-1,4.7792137E-1,-7.0981234E-1,3.9399117E-2,1.1240882E0,1.2202802E0,-1.6138773E0,-3.5752597E-1,8.211248E-2,1.3095616E-1,3.236184E-1,7.916702E-2,2.0856325E-2,-2.345548E0,4.2093508E-2,9.792828E-3,-4.739453E-2,-5.810337E-3,2.8978271E-2,-1.4145403E-1,-5.648726E-2],"categories":[],"categories_nodes":[],"categories_segments":[],"categories_sizes":[],"default_left":[1,0,0,0,0,0,0,0,0,0,0,0,0,0,0,0,0,0,0,0,0],"id":71,"left_children":[1,3,5,7,9,11,13,15,-1,-1,17,-1,-1,19,-1,-1,-1,-1,-1,-1,-1],"loss_changes":[1.3475881E1,8.340118E0,2.6437748E1,1.280364E1,1.3218892E1,5.974655E-1,2.0092997E1,5.4880133E0,0E0,0E0,1.1268327E0,0E0,0E0,1.111023E0,0E0,0E0,0E0,0E0,0E0,0E0,0E0],"parents":[2147483647,0,0,1,1,2,2,3,3,4,4,5,5,6,6,7,7,10,10,13,13],"right_children":[2,4,6,8,10,12,14,16,-1,-1,18,-1,-1,20,-1,-1,-1,-1,-1,-1,-1],"split_conditions":[3.837472E-2,5E1,1.2264151E-1,3.2E1,2.4E1,7.862265E-2,5.6E1,1.7020793E-3,8.211248E-2,1.3095616E-1,3.298611E-1,7.916702E-2,2.0856325E-2,6.615385E-1,4.2093508E-2,9.792828E-3,-4.739453E-2,-5.810337E-3,2.8978271E-2,-1.4145403E-1,-5.648726E-2],"split_indices":[3,8,1,9,9,3,8,3,0,0,17,0,0,2,0,0,0,0,0,0,0],"split_type":[0,0,0,0,0,0,0,0,0,0,0,0,0,0,0,0,0,0,0,0,0],"sum_hessian":[4.2E1,2.9E1,1.3E1,1.8E1,1.1E1,4E0,9E0,1.5E1,3E0,3E0,8E0,2E0,2E0,7E0,2E0,8E0,7E0,3E0,5E0,4E0,3E0],"tree_param":{"num_deleted":"0","num_feature":"18","num_nodes":"21","size_leaf_vector":"1"}},{"base_weights":[-1.0262073E-1,-2.1970287E-1,8.004936E-2,7.1357274E-1,-5.5264276E-1,1.8089937E0,4.6550177E-2,-1.6142048E-1,-1.2216995E-1,1.303813E-1,3.1428132E-2,-3.91915E-2,7.8891106E-2,-6.610133E-2,9.177361E-3],"categories":[],"categories_nodes":[],"categories_segments":[],"categories_sizes":[],"default_left":[0,0,1,0,0,0,0,0,0,0,0,0,0,0,0],"id":72,"left_children":[1,-1,3,5,7,9,11,13,-1,-1,-1,-1,-1,-1,-1],"loss_changes":[3.8411163E1,0E0,1.924923E1,1.726633E1,1.7098047E1,6.5219E0,2.1660751E1,8.764305E0,0E0,0E0,0E0,0E0,0E0,0E0,0E0],"parents":[2147483647,0,0,2,2,3,3,4,4,5,5,6,6,7,7],"right_children":[2,-1,4,6,8,10,12,14,-1,-1,-1,-1,-1,-1,-1],"split_conditions":[6E0,-2.1970287E-1,6.275395E-1,2.5537634E-1,6.895E3,9.3E1,3.2E1,1.33E2,-1.2216995E-1,1.303813E-1,3.1428132E-2,-3.91915E-2,7.8891106E-2,-6.610133E-2,9.177361E-3],"split_indices":[14,0,2,0,13,10,9,12,0,0,0,0,0,0,0],"split_type":[0,0,0,0,0,0,0,0,0,0,0,0,0,0,0],"sum_hessian":[4.7E1,1E0,4.6E1,2.3E1,2.3E1,8E0,1.5E1,2E1,3E0,4E0,4E0,1E1,5E0,4E0,1.6E1],"tree_param":{"num_deleted":"0","num_feature":"18","num_nodes":"15","size_leaf_vector":"1"}},{"base_weights":[-2.9762733E-1,-1.02957934E-1,-2.1421027E-1,7.009549E-2,-1.23351775E-1,-9.925315E-1,3.6080906E-1,1.8813781E-2,-8.7815724E-2,-6.823232E-2,2.596877E-2],"categories":[],"categories_nodes":[],"categories_segments":[],"categories_sizes":[],"default_left":[0,0,0,0,0,0,0,0,0,0,0],"id":73,"left_children":[1,3,-1,5,-1,7,9,-1,-1,-1,-1],"loss_changes":[3.326704E1,1.8004425E1,0E0,1.2960666E1,0E0,1.0208105E1,9.65301E0,0E0,0E0,0E0,0E0],"parents":[2147483647,0,0,1,1,3,3,5,5,6,6],"right_children":[2,4,-1,6,-1,8,10,-1,-1,-1,-1],"split_conditions":[7.1E1,9.1E2,-2.1421027E-1,1.625E-1,-1.23351775E-1,1.3118279E-1,4.8E1,1.8813781E-2,-8.7815724E-2,-6.823232E-2,2.596877E-2],"split_indices":[6,12,0,0,0,0,5,0,0,0,0],"split_type":[0,0,0,0,0,0,0,0,0,0,0],"sum_hessian":[4.3E1,4.2E1,1E0,4E1,2E0,8E0,3.2E1,3E0,5E0,2E0,3E1],"tree_param":{"num_deleted":"0","num_feature":"18","num_nodes":"11","size_leaf_vector":"1"}},{"base_weights":[2.7695653E-1,1.18451275E-1,1.6000539E-1,7.751669E-1,-1.3840592E-1,1.1563858E0,-4.238457E-2,-1.0396948E-1,2.852169E-1,2.4498029E-2,9.19052E-2,9.55324E-2,-2.4565086E-3],"categories":[],"categories_nodes":[],"categories_segments":[],"categories_sizes":[],"default_left":[0,0,0,0,0,0,0,0,0,0,0,0,0],"id":74,"left_children":[1,-1,3,5,7,9,-1,-1,11,-1,-1,-1,-1],"loss_changes":[9.154834E0,0E0,7.330239E0,9.053762E0,2.2973108E1,3.8640518E0,0E0,0E0,1.2779559E1,0E0,0E0,0E0,0E0],"parents":[2147483647,0,0,2,2,3,3,4,4,5,5,8,8],"right_children":[2,-1,4,6,8,10,-1,-1,12,-1,-1,-1,-1],"split_conditions":[4.1958043E-1,1.18451275E-1,9.2E1,2.44E2,2.652E3,8.8E1,-4.238457E-2,-1.0396948E-1,1.5E2,2.4498029E-2,9.19052E-2,9.55324E-2,-2.4565086E-3],"split_indices":[2,0,10,12,13,10,0,